"era-0","0.24007592","-0.2261025","0.48699844","-0.6376751","-0.064916134","0.048062883","-1.5018312","-1.2027135","-0.71475947"
"era-1","0.2492502","-0.22470811","0.5146739","-0.631852","-0.062426694","0.06332355","-1.5234616","-1.2222826","-0.7241153"
"era-2","0.25532362","-0.22523549","0.5409699","-0.627872","-0.060932923","0.077636555","-1.5188901","-1.228233","-0.72229105"
"era-3","0.26137957","-0.22605598","0.5673866","-0.62392277","-0.059465073","0.0918562","-1.5134648","-1.2342167","-0.7203399"
"era-4","0.26749054","-0.22714287","0.59397","-0.61996514","-0.058002867","0.106004305","-1.5077642","-1.2405488","-0.71850973"
"era-5","0.27366173","-0.2285068","0.62073445","-0.61599565","-0.056548394","0.12008359","-1.5017985","-1.2472378","-0.7168006"
"era-6","0.27989706","-0.23016034","0.6476904","-0.6120184","-0.055103637","0.13409644","-1.4955668","-1.2542826","-0.7152083"
"era-7","0.28619993","-0.23211515","0.6748529","-0.6080305","-0.053670708","0.14804468","-1.4890666","-1.2616904","-0.7137299"
"era-8","0.2925737","-0.23438512","0.7022347","-0.604034","-0.05225201","0.16193011","-1.482296","-1.269462","-0.71236044"
"era-9","0.29902357","-0.23698358","0.7298502","-0.6000291","-0.050849665","0.17575434","-1.4752505","-1.2776054","-0.7110931"
"era-10","0.30555457","-0.23992433","0.7577121","-0.5960178","-0.049465925","0.1895193","-1.4679267","-1.2861214","-0.7099254"
"era-11","0.3121713","-0.24322198","0.7858404","-0.5919979","-0.04810305","0.2032265","-1.4603237","-1.2950151","-0.7088517"
"era-12","0.31888124","-0.24689254","0.8142484","-0.58797234","-0.046763174","0.21687686","-1.4524359","-1.3042943","-0.7078675"
"era-13","0.32568887","-0.25095123","0.8429551","-0.5839407","-0.04544868","0.2304719","-1.4442608","-1.3139622","-0.70696545"
"era-14","0.3326024","-0.25541422","0.8719773","-0.57990414","-0.04416169","0.24401239","-1.4357935","-1.3240267","-0.70614284"
"era-15","0.33962956","-0.2602996","0.90133506","-0.5758629","-0.04290471","0.25749892","-1.4270263","-1.3344969","-0.7053929"
"era-16","0.34677786","-0.26562616","0.93104714","-0.57181686","-0.04168","0.2709328","-1.4179583","-1.3453789","-0.7047086"
"era-17","0.35405716","-0.2714114","0.96113604","-0.567768","-0.04048976","0.2843146","-1.4085792","-1.3566843","-0.70408547"
"era-18","0.36147633","-0.27767652","0.9916233","-0.56371605","-0.039336406","0.29764482","-1.3988866","-1.3684195","-0.70351636"
"era-19","0.36904684","-0.28444248","1.0225314","-0.5596616","-0.038222294","0.31092343","-1.3888719","-1.3805975","-0.70299464"
"era-20","0.37677988","-0.29173005","1.0538852","-0.55560625","-0.037149854","0.32415","-1.3785264","-1.3932317","-0.7025131"
"era-21","0.38468814","-0.2995634","1.0857126","-0.55154926","-0.03612138","0.3373249","-1.3678426","-1.4063337","-0.702066"
"era-22","0.39278412","-0.30796608","1.1180439","-0.5474941","-0.035139397","0.3504479","-1.3568109","-1.4199173","-0.701643"
"era-23","0.40108344","-0.316965","1.1509084","-0.5434395","-0.03420632","0.36351913","-1.3454237","-1.4339973","-0.70123726"
"era-24","0.40960222","-0.3265866","1.1843374","-0.53938687","-0.033324596","0.37653702","-1.3336667","-1.4485923","-0.7008405"
"era-25","0.41835675","-0.33686","1.2183632","-0.5353368","-0.03249675","0.3895012","-1.3215322","-1.4637178","-0.70044374"
"era-26","0.42736578","-0.34781587","1.2530249","-0.5312911","-0.0317253","0.4024096","-1.3090019","-1.4793993","-0.70003694"
"era-27","0.43664926","-0.35948697","1.2883619","-0.5272507","-0.031012835","0.41526207","-1.2960653","-1.4956541","-0.6996097"
"era-28","0.44622925","-0.37190735","1.3244165","-0.5232154","-0.030361911","0.42805672","-1.2827066","-1.5125068","-0.69915"
"era-29","0.45612943","-0.3851145","1.361234","-0.5191882","-0.029774975","0.4407919","-1.2689075","-1.5299854","-0.69864774"
"era-30","0.46637532","-0.39914733","1.3988607","-0.5151697","-0.029254727","0.45346525","-1.2546484","-1.5481186","-0.69809014"
"era-31","0.47699368","-0.41404873","1.4373509","-0.5111606","-0.028803915","0.4660743","-1.2399129","-1.5669351","-0.6974612"
"era-32","0.48801428","-0.4298637","1.4767601","-0.50716215","-0.028424997","0.47861627","-1.224677","-1.5864695","-0.6967487"
"era-33","0.4994699","-0.44664174","1.5171494","-0.5031785","-0.028120697","0.4910886","-1.2089157","-1.6067578","-0.69593525"
"era-34","0.51139534","-0.46443442","1.558585","-0.49920914","-0.027893726","0.50348717","-1.1926038","-1.6278404","-0.69500506"
"era-35","0.52382886","-0.48329848","1.6011342","-0.49525645","-0.027746601","0.51580906","-1.1757091","-1.6497633","-0.69394046"
"era-36","0.5368098","-0.5032956","1.6448762","-0.49132228","-0.027681995","0.52805024","-1.158203","-1.6725724","-0.6927215"
"era-37","0.5503825","-0.5244919","1.689895","-0.4874086","-0.027702596","0.54020554","-1.1400492","-1.6963191","-0.69132614"
"era-38","0.56459415","-0.5469594","1.7362769","-0.48351797","-0.027811069","0.5522695","-1.1212093","-1.7210642","-0.6897298"
"era-39","0.5794977","-0.5707761","1.7841226","-0.4796532","-0.028010003","0.5642373","-1.1016389","-1.7468712","-0.6879077"
"era-40","0.5951475","-0.5960288","1.8335379","-0.47581697","-0.028301902","0.57610255","-1.0812912","-1.7738072","-0.685833"
"era-41","0.61160576","-0.6228115","1.8846374","-0.4720116","-0.028689237","0.5878587","-1.0601153","-1.8019531","-0.6834736"
"era-42","0.62893575","-0.6512257","1.9375507","-0.46824175","-0.02917446","0.5994986","-1.0380542","-1.8313895","-0.68079543"
"era-43","0.64720887","-0.6813836","1.9924104","-0.46451005","-0.029759806","0.6110131","-1.0150408","-1.8622125","-0.67776376"
"era-44","0.66650146","-0.7134102","2.0493665","-0.4608202","-0.030447401","0.62239397","-0.99100757","-1.8945252","-0.67433816"
"era-45","0.68689436","-0.74744093","2.1085854","-0.45717645","-0.031239305","0.63363355","-0.9658757","-1.9284432","-0.67047435"
"era-46","0.7084753","-0.783628","2.170246","-0.45358294","-0.03213714","0.6447178","-0.9395598","-1.9640901","-0.6661211"
"era-47","0.73133963","-0.8221383","2.2345486","-0.45004508","-0.03314245","0.65563697","-0.91196084","-2.0016103","-0.66122746"
"era-48","0.7555872","-0.8631564","2.3017044","-0.44656754","-0.034256343","0.6663804","-0.8829722","-2.0411634","-0.65573233"
"era-49","0.7813289","-0.90688795","2.3719544","-0.44315556","-0.035479605","0.6769338","-0.85247254","-2.082926","-0.6495671"
"era-50","0.80867904","-0.95356125","2.4455516","-0.4398148","-0.036812253","0.68728054","-0.82033193","-2.1270869","-0.64266014"
"era-51","0.8377606","-1.0034336","2.5227835","-0.43655232","-0.038253725","0.69740593","-0.7863991","-2.1738741","-0.63492906"
"era-52","0.868705","-1.0567908","2.6039684","-0.43337396","-0.039802738","0.7072941","-0.75051147","-2.2235248","-0.62628484"
"era-53","0.9016495","-1.1139482","2.6894417","-0.4302864","-0.041456804","0.7169269","-0.71248186","-2.2763155","-0.6166246"
"era-54","0.9367373","-1.1752613","2.7795835","-0.4272961","-0.043212254","0.7262833","-0.6721051","-2.3325582","-0.60583484"
"era-55","0.97411716","-1.2411287","2.874803","-0.42440957","-0.045063745","0.7353439","-0.6291484","-2.3925989","-0.5937931"
"era-56","1.0139445","-1.3119957","2.9755566","-0.4216324","-0.047004107","0.74408674","-0.5833573","-2.4568248","-0.58035815"
"era-57","1.0563782","-1.3883567","3.0823302","-0.41897082","-0.049023435","0.75248826","-0.5344477","-2.5256677","-0.5653761"
"era-58","1.1015742","-1.4707664","3.195658","-0.41642824","-0.051109184","0.76052314","-0.48210263","-2.5996192","-0.5486745"
"era-59","1.1496962","-1.5598377","3.3161297","-0.41400793","-0.053245243","0.7681669","-0.42596763","-2.679233","-0.53006226"
"era-60","1.2008963","-1.6562532","3.4443727","-0.4117086","-0.05541069","0.7753949","-0.36565816","-2.7651155","-0.5093287"
"era-61","1.2553314","-1.7607634","3.5810657","-0.4095277","-0.057579644","0.78218144","-0.30074582","-2.857953","-0.48624048"
"era-62","1.3131416","-1.874192","3.7269337","-0.40745604","-0.059719566","0.78850377","-0.23076573","-2.958505","-0.46054208"
"era-63","1.3744727","-1.9974376","3.8827512","-0.40547773","-0.061790418","0.79433817","-0.15521279","-3.06761","-0.43195358"
"era-64","1.4394559","-2.1314566","4.0493426","-0.40356904","-0.063742936","0.79966795","-0.07354594","-3.1861799","-0.40017346"
"era-65","1.5082211","-2.2772572","4.227545","-0.4016958","-0.065518394","0.8044804","0.014811291","-3.3152163","-0.3648734"
"era-66","1.58091","-2.4358885","4.418246","-0.39980865","-0.067045785","0.80877227","0.11045709","-3.4557743","-0.32570654"
"era-67","1.6576782","-2.6083894","4.622292","-0.39784178","-0.06824222","0.8125499","0.21400312","-3.60897","-0.2823087"
"era-68","1.7387179","-2.7957587","4.840554","-0.39570886","-0.06901215","0.8158413","0.326057","-3.7759347","-0.23430267"
"era-69","1.8242735","-2.99889","5.073822","-0.39329982","-0.06924935","0.81869423","0.44719356","-3.9577816","-0.1813093"
"era-70","1.9146668","-3.2184944","5.322776","-0.39047748","-0.06883889","0.8211866","0.5779216","-4.1555324","-0.12296068"
"era-71","2.0103142","-3.4550123","5.587918","-0.38707554","-0.06766388","0.8234373","0.7186397","-4.370037","-0.05891651"
"era-72","2.1117272","-3.7085218","5.8695006","-0.38289917","-0.065614775","0.8256171","0.8695829","-4.601875","0.011111956"
"era-73","2.219503","-3.9786427","6.1674275","-0.37772718","-0.062604204","0.8279614","1.0307698","-4.8512406","0.087339014"
"era-74","2.3342757","-4.264475","6.481176","-0.37131894","-0.058585912","0.8307777","1.2019387","-5.1178","0.16987257"
"era-75","2.4566476","-4.5645566","6.809703","-0.36342728","-0.053578064","0.8344629","1.382507","-5.4006343","0.25868922"
"era-76","2.5870817","-4.8769255","7.151432","-0.35381415","-0.047688458","0.839501","1.5715262","-5.698162","0.35361183"
"era-77","2.7258255","-5.199178","7.504246","-0.34226993","-0.041137762","0.84646434","1.7677071","-6.0081615","0.45430073"
"era-78","2.8728054","-5.5286117","7.865585","-0.32863456","-0.03427501","0.8559999","1.9694518","-6.3278804","0.56026953"
"era-79","3.027623","-5.8624277","8.232593","-0.31281856","-0.02758297","0.86880577","2.1749344","-6.654176","0.6709104"
"era-80","3.1895375","-6.1978817","8.602309","-0.29481286","-0.021669332","0.8855991","2.3822198","-6.9837537","0.7855484"
"era-81","3.357539","-6.5324373","8.9718485","-0.27469632","-0.017244618","0.9070828","2.589384","-7.3133907","0.90349895"
"era-82","3.5304532","-6.863909","9.338563","-0.25263408","-0.015091947","0.93391496","2.7946289","-7.6401215","1.0241317"
"era-83","3.7070172","-7.190499","9.700217","-0.22886692","-0.016032977","0.9666786","2.9963589","-7.961402","1.1469285"
"era-84","3.8859832","-7.510847","10.054995","-0.20370315","-0.020897038","1.0058616","3.193239","-8.275191","1.2715161"
"era-85","4.0661917","-7.823957","10.401525","-0.17750548","-0.030497273","1.0518563","3.3842227","-8.579984","1.3977047"
"era-86","4.2466044","-8.129206","10.738879","-0.15068716","-0.04561936","1.104944","3.5685253","-8.874745","1.5254773"
"era-87","4.4263396","-8.426257","11.0665","-0.12370508","-0.067016214","1.165317","3.745623","-9.158926","1.6550055"
"era-88","4.604662","-8.714982","11.384138","-0.0970624","-0.09541613","1.2330736","3.9152038","-9.43233","1.786634"
"era-89","4.7809854","-8.995462","11.691801","-0.071318045","-0.13153958","1.308239","4.0771103","-9.695008","1.9208517"
"era-90","4.9548607","-9.267907","11.98971","-0.047087777","-0.17611432","1.3907768","4.2313633","-9.947275","2.058313"
"era-91","5.1259465","-9.532635","12.278155","-0.025066238","-0.22990818","1.4806001","4.3780847","-10.189584","2.1997945"
"era-92","5.293957","-9.790024","12.557587","-0.006030729","-0.2937522","1.5775875","4.517483","-10.422486","2.3462334"
"era-93","5.458726","-10.040548","12.828445","0.009137503","-0.3685794","1.6815969","4.649893","-10.64657","2.498688"
"era-94","5.6200886","-10.28467","13.091253","0.019437885","-0.45546475","1.7924911","4.775699","-10.86245","2.6583989"
"era-95","5.777918","-10.522947","13.346557","0.02373833","-0.55566645","1.910158","4.8953915","-11.070733","2.8268049"
"era-96","5.9321156","-10.755973","13.594863","0.020752987","-0.6706863","2.0345411","5.009548","-11.271951","3.0055704"
"era-97","6.0825486","-10.984382","13.836666","0.009026969","-0.80233306","2.165682","5.1188483","-11.466577","3.1966841"
"era-98","6.229095","-11.208906","14.072457","-0.0130742","-0.95279557","2.3037844","5.2241445","-11.655058","3.4025233"
"era-99","6.3715587","-11.430374","14.302692","-0.047367398","-1.1247276","2.4492946","5.326405","-11.837698","3.6259758"
"era-100","6.5097165","-11.649706","14.527776","-0.095839046","-1.3213359","2.6030188","5.426832","-12.014704","3.870569"
"era-101","6.64327","-11.86799","14.748003","-0.16059826","-1.5464579","2.7663016","5.526793","-12.18619","4.140629"
"era-102","6.771808","-12.086473","14.963667","-0.24374953","-1.8045795","2.9412534","5.6278706","-12.352254","4.4413824"
"era-103","6.8948064","-12.306597","15.174847","-0.34720394","-2.1007588","3.1310177","5.731687","-12.51302","4.779049"
"era-104","7.011564","-12.529983","15.381559","-0.4723431","-2.4403267","3.3400552","5.839677","-12.668953","5.160704"
"era-105","7.121202","-12.758364","15.583571","-0.61960435","-2.828226","3.574242","5.952645","-12.8213215","5.5937877"
"era-106","7.222506","-12.993489","15.780421","-0.7881047","-3.2679167","3.8405073","6.070103","-12.972747","6.085042"
"era-107","7.313854","-13.236962","15.971403","-0.9755637","-3.7598047","4.145532","6.189713","-13.127683","6.638763"
"era-108","7.3931828","-13.489874","16.155552","-1.1786568","-4.2995844","4.4935393","6.307298","-13.292301","7.254578"
"era-109","7.4584713","-13.7523155","16.331808","-1.3936828","-4.877136","4.8837614","6.41787","-13.473148","7.9254904"
"era-110","7.5086703","-14.022614","16.499283","-1.6170267","-5.477048","5.30921","6.517434","-13.674962","8.637578"
"era-111","7.5446916","-14.297009","16.657637","-1.8451381","-6.0810285","5.7578306","6.6044803","-13.8988","9.372027"
"era-112","7.5695133","-14.570179","16.80723","-2.0744257","-6.671578","6.2156377","6.680124","-14.1418495","10.108863"
"era-113","7.5872226","-14.836542","16.948969","-2.3014688","-7.2350388","6.669884","6.747131","-14.398771","10.830672"
"era-114","7.601711","-15.091488","17.083904","-2.5234108","-7.762901","7.1109743","6.8087087","-14.663596","11.524775"
"era-115","7.6159286","-15.3321","17.213068","-2.738241","-8.251421","7.5328918","6.8676186","-14.931015","12.183525"
"era-116","7.631663","-15.557124","17.337381","-2.944779","-8.700317","7.9326525","6.9258637","-15.196972","12.8035145"
"era-117","7.6497846","-15.766544","17.457493","-3.1425216","-9.111547","8.309465","6.98471","-15.458705","13.38427"
"era-118","7.670548","-15.961124","17.573841","-3.3314261","-9.488118","8.663855","7.044798","-15.714463","13.92721"
"era-119","7.6938562","-16.142048","17.686823","-3.5117345","-9.833475","8.997139","7.1063895","-15.9633","14.434704"
"era-120","7.719434","-16.310654","17.796711","-3.6838467","-10.151012","9.310917","7.169447","-16.20477","14.909579"
"era-121","7.746928","-16.468307","17.90366","-3.8482158","-10.44394","9.606858","7.2338343","-16.438835","15.354766"
"era-122","7.7760615","-16.616297","18.007832","-4.0053368","-10.715171","9.886632","7.299299","-16.665577","15.773065"
"era-123","7.8064823","-16.75566","18.109396","-4.1556797","-10.967264","10.151731","7.365606","-16.88526","16.167051"
"era-124","7.837921","-16.887484","18.208439","-4.2997174","-11.202473","10.403511","7.4324937","-17.098143","16.539133"
"era-125","7.8701687","-17.012627","18.30512","-4.4378686","-11.422732","10.643204","7.4997425","-17.304586","16.891392"
"era-126","7.903037","-17.13184","18.399508","-4.570515","-11.629771","10.87184","7.5671573","-17.504908","17.225727"
"era-127","7.936359","-17.245785","18.491724","-4.698041","-11.825043","11.090424","7.6345477","-17.699434","17.543808"
"era-128","7.9699893","-17.354994","18.581854","-4.8207603","-12.009814","11.299781","7.701765","-17.88853","17.847141"
"era-129","8.0038595","-17.460028","18.669952","-4.938989","-12.185205","11.500656","7.7686763","-18.072453","18.137005"
"era-130","8.037855","-17.561253","18.756117","-5.052984","-12.352159","11.693695","7.8351755","-18.251472","18.41452"
"era-131","8.071911","-17.659029","18.840425","-5.163021","-12.511531","11.879507","7.9011946","-18.425886","18.680792"
"era-132","8.105952","-17.753706","18.922976","-5.2693267","-12.664037","12.058603","7.9666495","-18.595943","18.936695"
"era-133","8.1399555","-17.845507","19.003777","-5.372109","-12.810335","12.231443","8.031498","-18.76183","19.183006"
"era-134","8.173887","-17.934748","19.082943","-5.471579","-12.95095","12.398472","8.095681","-18.923782","19.420502"
"era-135","8.207709","-18.021603","19.160563","-5.567921","-13.08641","12.560058","8.159155","-19.081974","19.649815"
"era-136","8.241364","-18.106249","19.236689","-5.6612945","-13.217124","12.716553","8.22191","-19.236622","19.87152"
"era-137","8.274876","-18.18887","19.311365","-5.7518563","-13.343508","12.868284","8.283927","-19.387888","20.086132"
"era-138","8.308192","-18.269588","19.384653","-5.839772","-13.465874","13.015527","8.345201","-19.535913","20.294157"
"era-139","8.341321","-18.348555","19.45663","-5.9251695","-13.5845585","13.158548","8.405701","-19.68084","20.496012"
"era-140","8.374234","-18.425882","19.52735","-6.008172","-13.6998005","13.297579","8.465441","-19.822796","20.692059"
"era-141","8.406933","-18.501686","19.596792","-6.088896","-13.811857","13.432852","8.524402","-19.96196","20.882698"
"era-142","8.43941","-18.576012","19.665049","-6.1674743","-13.920958","13.564583","8.582604","-20.098396","21.06823"
"era-143","8.471647","-18.648989","19.732195","-6.243985","-14.027276","13.692952","8.640065","-20.232313","21.248951"
"era-144","8.50367","-18.72068","19.798191","-6.318526","-14.131003","13.818117","8.696782","-20.363722","21.425097"
"era-145","8.535439","-18.791142","19.863155","-6.391207","-14.232288","13.940265","8.752747","-20.492746","21.596954"
"era-146","8.566949","-18.860424","19.927103","-6.462101","-14.331305","14.059524","8.80799","-20.619488","21.764736"
"era-147","8.598225","-18.928627","19.990072","-6.531305","-14.428134","14.176067","8.862503","-20.744043","21.928658"
"era-148","8.6292515","-18.995787","20.05211","-6.598888","-14.522939","14.289991","8.916316","-20.866467","22.088903"
"era-149","8.660039","-19.061964","20.11325","-6.6649165","-14.6158","14.401443","8.969432","-20.986866","22.245644"
"era-150","8.690576","-19.127151","20.173504","-6.7294526","-14.7068405","14.510515","9.021872","-21.1053","22.399046"
"era-151","8.720861","-19.191431","20.232927","-6.792574","-14.796139","14.617321","9.07363","-21.221832","22.549301"
"era-152","8.750892","-19.254818","20.291533","-6.8543344","-14.8837805","14.72197","9.124751","-21.336573","22.696526"
"era-153","8.780669","-19.317335","20.349365","-6.9148006","-14.969835","14.824543","9.175219","-21.449524","22.840895"
"era-154","8.810189","-19.379059","20.40642","-6.974022","-15.054394","14.925139","9.225044","-21.560778","22.98249"
"era-155","8.839485","-19.440022","20.462751","-7.0320387","-15.137513","15.023846","9.27426","-21.670416","23.121416"
"era-156","8.868523","-19.500206","20.51842","-7.0889173","-15.219258","15.1207285","9.322875","-21.77846","23.25786"
"era-157","8.897305","-19.559631","20.57337","-7.1447077","-15.299681","15.2158575","9.370896","-21.884909","23.39191"
"era-158","8.92585","-19.618347","20.627674","-7.199439","-15.378834","15.309312","9.41832","-21.989893","23.523632"
"era-159","8.9541235","-19.67636","20.681314","-7.2531543","-15.45676","15.401156","9.465162","-22.093422","23.653097"
"era-160","8.982166","-19.733702","20.734304","-7.3058987","-15.533532","15.49146","9.511456","-22.195553","23.78044"
"era-161","9.009979","-19.790403","20.786694","-7.357698","-15.609165","15.580253","9.557189","-22.296316","23.905718"
"era-162","9.0375395","-19.846481","20.838552","-7.4085956","-15.683714","15.667625","9.602418","-22.395798","24.029022"
"era-163","9.0648775","-19.901972","20.889837","-7.458619","-15.757229","15.753617","9.647118","-22.494026","24.150398"
"era-164","9.091994","-19.95686","20.940575","-7.5077987","-15.829724","15.838273","9.691322","-22.591002","24.26992"
"era-165","9.118867","-20.011166","20.990805","-7.5561795","-15.901207","15.921633","9.735021","-22.686756","24.387651"
"era-166","9.145519","-20.064936","21.040504","-7.603774","-15.971739","16.003757","9.778218","-22.781357","24.503664"
"era-167","9.171948","-20.118153","21.089693","-7.650615","-16.041382","16.084673","9.82093","-22.874783","24.618006"
"era-168","9.19817","-20.170834","21.138409","-7.6967278","-16.11016","16.164438","9.863185","-22.96712","24.730726"
"era-169","9.224173","-20.223017","21.186644","-7.7421336","-16.17808","16.243057","9.904974","-23.058321","24.841871"
"era-170","9.249947","-20.274668","21.234428","-7.7868514","-16.245173","16.320618","9.946302","-23.148506","24.951519"
"era-171","9.275497","-20.325836","21.281786","-7.83093","-16.311447","16.397135","9.987204","-23.237667","25.059689"
"era-172","9.300853","-20.376509","21.32866","-7.874364","-16.37689","16.47261","10.027681","-23.325823","25.166405"
"era-173","9.326009","-20.42673","21.375126","-7.917184","-16.441582","16.547106","10.06774","-23.413025","25.27175"
"era-174","9.350945","-20.47649","21.421179","-7.959398","-16.50553","16.620663","10.107375","-23.499277","25.375738"
"era-175","9.375679","-20.525778","21.46679","-8.001044","-16.56877","16.693285","10.146621","-23.584593","25.478424"
"era-176","9.400219","-20.574635","21.512014","-8.042133","-16.631294","16.765009","10.185461","-23.66899","25.579823"
"era-177","9.424557","-20.62305","21.556839","-8.082654","-16.693161","16.835838","10.223926","-23.752535","25.680023"
"era-178","9.448708","-20.671057","21.601322","-8.122668","-16.754372","16.905848","10.261992","-23.835167","25.779026"
"era-179","9.472673","-20.718647","21.645426","-8.162185","-16.814886","16.97503","10.299702","-23.916979","25.87684"
"era-180","9.496439","-20.765821","21.689152","-8.201198","-16.874775","17.043415","10.337044","-23.997972","25.97352"
"era-181","9.520043","-20.812643","21.732517","-8.239742","-16.934027","17.111046","10.374007","-24.078165","26.069115"
"era-182","9.54345","-20.859045","21.775558","-8.277805","-16.992691","17.177885","10.410638","-24.157545","26.163624"
"era-183","9.566675","-20.905073","21.818256","-8.31543","-17.050766","17.24401","10.446923","-24.236183","26.25711"
"era-184","9.58973","-20.950739","21.860643","-8.352614","-17.108261","17.309422","10.482865","-24.314064","26.349556"
"era-185","9.612608","-20.996042","21.902708","-8.389348","-17.165209","17.374125","10.518489","-24.39123","26.441025"
"era-186","9.635312","-21.04099","21.944475","-8.425678","-17.221588","17.43813","10.5537815","-24.467638","26.531532"
"era-187","9.657848","-21.085592","21.98593","-8.4615965","-17.277445","17.50148","10.58874","-24.54333","26.621101"
"era-188","9.680216","-21.129814","22.027058","-8.497135","-17.332762","17.564196","10.623406","-24.618341","26.709747"
"era-189","9.702406","-21.173714","22.067892","-8.532273","-17.38757","17.62627","10.65776","-24.692698","26.797491"
"era-190","9.724427","-21.217274","22.108467","-8.567033","-17.441872","17.687729","10.691813","-24.766415","26.884375"
"era-191","9.7462845","-21.260519","22.148767","-8.601421","-17.495693","17.74858","10.725567","-24.83948","26.970406"
"era-192","9.767966","-21.303427","22.18881","-8.635464","-17.549042","17.808863","10.759036","-24.911896","27.055593"
"era-193","9.78951","-21.346027","22.228561","-8.669151","-17.601917","17.868536","10.792244","-24.983662","27.139984"
"era-194","9.810893","-21.388319","22.268047","-8.702498","-17.654366","17.927673","10.825156","-25.05484","27.223572"
"era-195","9.832127","-21.43028","22.307247","-8.735519","-17.70633","17.986263","10.857786","-25.125381","27.306362"
"era-196","9.853192","-21.471943","22.346188","-8.768209","-17.757887","18.044304","10.890144","-25.195328","27.388382"
"era-197","9.874108","-21.513308","22.384872","-8.800592","-17.809002","18.101835","10.922225","-25.264683","27.469639"
"era-198","9.894876","-21.554373","22.423338","-8.832659","-17.859722","18.158863","10.954071","-25.333494","27.550169"
"era-199","9.915484","-21.59513","22.461567","-8.864423","-17.909985","18.215368","10.985651","-25.40174","27.629984"
"era-200","9.935944","-21.635609","22.499527","-8.895881","-17.959866","18.27139","11.016989","-25.469471","27.7091"
"era-201","9.956261","-21.675808","22.53727","-8.927047","-18.009369","18.326931","11.048079","-25.536667","27.78755"
"era-202","9.976442","-21.715744","22.574766","-8.95792","-18.058483","18.382019","11.078915","-25.60334","27.865324"
"era-203","9.996484","-21.755423","22.612034","-8.988522","-18.107227","18.436634","11.109506","-25.669514","27.94244"
"era-204","10.0163765","-21.794815","22.64908","-9.018833","-18.155592","18.49079","11.13986","-25.735184","28.018908"
"era-205","10.036141","-21.83395","22.685902","-9.048894","-18.203575","18.544523","11.169988","-25.800343","28.09473"
"era-206","10.055774","-21.87283","22.722507","-9.078688","-18.251196","18.597813","11.199884","-25.865","28.169926"
"era-207","10.075282","-21.911469","22.758894","-9.108227","-18.298449","18.650671","11.229561","-25.929205","28.244505"
"era-208","10.094657","-21.949856","22.795082","-9.137513","-18.345379","18.703115","11.259006","-25.992884","28.318493"
"era-209","10.113907","-21.988","22.831057","-9.166562","-18.391964","18.755146","11.288212","-26.056107","28.391907"
"era-210","10.133044","-22.025913","22.866837","-9.19536","-18.438189","18.806767","11.317215","-26.11885","28.464752"
"era-211","10.152053","-22.0636","22.902424","-9.223915","-18.484102","18.857986","11.345994","-26.181149","28.537027"
"era-212","10.17095","-22.101032","22.937792","-9.252251","-18.529696","18.908825","11.3745575","-26.242954","28.608734"
"era-213","10.189722","-22.13825","22.972967","-9.28036","-18.574991","18.9593","11.4029255","-26.304327","28.679914"
"era-214","10.208378","-22.175243","23.007957","-9.30825","-18.619967","19.009392","11.431071","-26.365261","28.750559"
"era-215","10.226921","-22.212008","23.042727","-9.335914","-18.664627","19.05912","11.459028","-26.425814","28.820667"
"era-216","10.245348","-22.248558","23.077333","-9.363366","-18.709011","19.108492","11.486805","-26.485947","28.89026"
"era-217","10.263666","-22.284887","23.111742","-9.390602","-18.753103","19.157516","11.514402","-26.545685","28.959337"
"era-218","10.281873","-22.321032","23.145992","-9.41763","-18.7969","19.206198","11.541789","-26.605019","29.027931"
"era-219","10.299969","-22.356941","23.180035","-9.4444475","-18.840397","19.254507","11.568993","-26.663956","29.096043"
"era-220","10.317957","-22.392643","23.213898","-9.471073","-18.883621","19.3025","11.596015","-26.722485","29.163664"
"era-221","10.335842","-22.428152","23.247576","-9.4975","-18.926537","19.35016","11.622834","-26.780643","29.230831"
"era-222","10.353623","-22.463457","23.28109","-9.523723","-18.969173","19.397482","11.649478","-26.83843","29.297512"
"era-223","10.371293","-22.498564","23.314423","-9.549758","-19.01156","19.444502","11.675947","-26.895855","29.36374"
"era-224","10.388864","-22.533487","23.347588","-9.575612","-19.053682","19.491203","11.702235","-26.952906","29.42953"
"era-225","10.406336","-22.568209","23.3806","-9.601279","-19.095583","19.537619","11.728357","-27.00962","29.49489"
"era-226","10.423698","-22.60274","23.413433","-9.626767","-19.137203","19.58374","11.754298","-27.065964","29.559805"
"era-227","10.440973","-22.637083","23.446095","-9.652078","-19.17859","19.62957","11.78007","-27.12198","29.624302"
"era-228","10.458144","-22.671251","23.478598","-9.677222","-19.219719","19.675097","11.805679","-27.177614","29.688375"
"era-229","10.475223","-22.705233","23.51095","-9.702189","-19.260593","19.720339","11.831118","-27.232944","29.752039"
"era-230","10.492197","-22.739033","23.543142","-9.726984","-19.301222","19.765299","11.856411","-27.287956","29.8153"
"era-231","10.509085","-22.772646","23.575148","-9.751627","-19.341621","19.809988","11.881544","-27.34264","29.878153"
"era-232","10.525878","-22.806076","23.606997","-9.776103","-19.38178","19.854404","11.906528","-27.397001","29.940615"
"era-233","10.5425825","-22.839342","23.6387","-9.800424","-19.421717","19.898546","11.931372","-27.451038","30.002691"
"era-234","10.55921","-22.872435","23.670242","-9.82459","-19.461416","19.942427","11.956074","-27.504765","30.064392"
"era-235","10.575737","-22.905344","23.701653","-9.848597","-19.50091","19.986038","11.980632","-27.558191","30.125721"
"era-236","10.592179","-22.93809","23.732914","-9.872458","-19.540192","20.02941","12.005052","-27.611311","30.186655"
"era-237","10.608533","-22.970669","23.764027","-9.896186","-19.579214","20.072542","12.029323","-27.664124","30.24724"
"era-238","10.624807","-23.003096","23.794985","-9.919751","-19.618034","20.1154","12.053457","-27.71666","30.307463"
"era-239","10.640996","-23.035349","23.825808","-9.943173","-19.65665","20.158016","12.0774555","-27.76889","30.367346"
"era-240","10.657102","-23.067453","23.856474","-9.966451","-19.695068","20.200394","12.101296","-27.820833","30.426888"
"era-241","10.673123","-23.099392","23.887","-9.989584","-19.73327","20.242533","12.124989","-27.87248","30.48606"
"era-242","10.689068","-23.13119","23.917402","-10.0125885","-19.771282","20.284441","12.148551","-27.92381","30.544905"
"era-243","10.704928","-23.162827","23.947655","-10.035444","-19.809088","20.3261","12.171969","-27.97487","30.603407"
"era-244","10.720728","-23.194326","23.97777","-10.05817","-19.846687","20.367529","12.195248","-28.02564","30.661585"
"era-245","10.73645","-23.225664","24.007734","-10.080762","-19.884117","20.408718","12.218393","-28.076078","30.719433"
"era-246","10.752097","-23.25685","24.03755","-10.103223","-19.921358","20.449684","12.241417","-28.12623","30.776934"
"era-247","10.767662","-23.287893","24.067255","-10.125566","-19.958393","20.490446","12.264295","-28.176111","30.834146"
"era-248","10.783151","-23.31879","24.096828","-10.147783","-19.995253","20.53099","12.287033","-28.225706","30.891033"
"era-249","10.798566","-23.34954","24.126293","-10.169887","-20.03193","20.571321","12.309644","-28.27501","30.947613"
"era-250","10.813909","-23.380136","24.155626","-10.191879","-20.06842","20.611433","12.332132","-28.323996","31.00388"
"era-251","10.829178","-23.410604","24.184845","-10.213732","-20.104717","20.65131","12.354486","-28.372738","31.059841"
"era-252","10.844374","-23.440926","24.21393","-10.235454","-20.140865","20.690979","12.376724","-28.421225","31.115517"
"era-253","10.859508","-23.471123","24.242907","-10.257066","-20.176819","20.730455","12.398849","-28.469463","31.170897"
"era-254","10.874565","-23.501179","24.271738","-10.278566","-20.212591","20.76973","12.420824","-28.517431","31.225986"
"era-255","10.889548","-23.531097","24.300436","-10.299963","-20.248192","20.808817","12.44269","-28.565157","31.280794"
"era-256","10.904471","-23.560894","24.329018","-10.321226","-20.283613","20.847698","12.464412","-28.61262","31.33532"
"era-257","10.919324","-23.590551","24.35748","-10.342388","-20.318867","20.88638","12.486028","-28.65983","31.389551"
"era-258","10.934118","-23.620075","24.385826","-10.363457","-20.353949","20.924887","12.507535","-28.706797","31.44353"
"era-259","10.948841","-23.649485","24.414036","-10.384393","-20.388878","20.963202","12.528916","-28.75355","31.497211"
"era-260","10.9635","-23.678766","24.44214","-10.405226","-20.423643","21.00133","12.550172","-28.800058","31.550636"
"era-261","10.978083","-23.707918","24.47013","-10.425959","-20.458239","21.039286","12.571311","-28.84632","31.603788"
"era-262","10.992613","-23.736967","24.49799","-10.446594","-20.492699","21.07707","12.592328","-28.892368","31.656681"
"era-263","11.007078","-23.765879","24.525745","-10.467112","-20.526981","21.114656","12.613251","-28.938185","31.709293"
"era-264","11.021481","-23.794666","24.553383","-10.487526","-20.561108","21.152067","12.634051","-28.983763","31.761637"
"era-265","11.035826","-23.82335","24.580923","-10.507833","-20.595085","21.189304","12.654726","-29.029127","31.813751"
"era-266","11.050102","-23.851913","24.608355","-10.528054","-20.628904","21.226377","12.675305","-29.074276","31.865618"
"era-267","11.064315","-23.880344","24.635672","-10.548173","-20.662603","21.263285","12.6957855","-29.119205","31.917225"
"era-268","11.078467","-23.908667","24.662886","-10.568194","-20.696152","21.300018","12.716154","-29.163927","31.968601"
"era-269","11.092572","-23.936888","24.689985","-10.588109","-20.729534","21.336567","12.736407","-29.208399","32.019737"
"era-270","11.106615","-23.964983","24.71699","-10.607943","-20.762774","21.372974","12.75656","-29.252659","32.07061"
"era-271","11.120595","-23.992966","24.743885","-10.627671","-20.795904","21.409214","12.776615","-29.296741","32.12126"
"era-272","11.134506","-24.02083","24.77068","-10.647303","-20.828896","21.44529","12.796578","-29.340624","32.171696"
"era-273","11.148369","-24.048573","24.797354","-10.666844","-20.861732","21.4812","12.816446","-29.384298","32.221893"
"era-274","11.1621685","-24.076206","24.823925","-10.686297","-20.894432","21.516954","12.83622","-29.42778","32.27185"
"era-275","11.175922","-24.103739","24.850399","-10.705663","-20.927011","21.552574","12.855911","-29.471066","32.321575"
"era-276","11.18962","-24.131165","24.87678","-10.7249365","-20.95947","21.588024","12.875516","-29.51417","32.371117"
"era-277","11.203265","-24.158485","24.903065","-10.744114","-20.991772","21.62332","12.895028","-29.557072","32.420414"
"era-278","11.21685","-24.185684","24.929249","-10.763221","-21.023943","21.658468","12.914455","-29.599785","32.4695"
"era-279","11.230384","-24.21278","24.955328","-10.782243","-21.055996","21.693472","12.933806","-29.642313","32.51837"
"era-280","11.24387","-24.23976","24.981308","-10.801185","-21.08792","21.728333","12.953081","-29.684647","32.567013"
"era-281","11.25731","-24.266653","25.0072","-10.820044","-21.119722","21.763035","12.972274","-29.726807","32.615437"
"era-282","11.27069","-24.293428","25.033","-10.838811","-21.151394","21.797596","12.991393","-29.768766","32.663654"
"era-283","11.284025","-24.320108","25.058706","-10.857497","-21.182945","21.832022","13.010417","-29.810556","32.711666"
"era-284","11.297301","-24.346674","25.084303","-10.87611","-21.21437","21.866287","13.029361","-29.85216","32.759502"
"era-285","11.310527","-24.373152","25.109812","-10.894623","-21.24568","21.900398","13.048214","-29.893597","32.807148"
"era-286","11.323704","-24.39952","25.13521","-10.913066","-21.276861","21.934383","13.066986","-29.934841","32.85454"
"era-287","11.336836","-24.425802","25.160511","-10.931429","-21.307943","21.96825","13.085661","-29.975935","32.901775"
"era-288","11.34991","-24.451977","25.185743","-10.949711","-21.338886","22.001968","13.104269","-30.016857","32.948803"
"era-289","11.362934","-24.478058","25.210865","-10.967913","-21.369717","22.035557","13.122779","-30.057621","32.995617"
"era-290","11.375918","-24.504045","25.235905","-10.986038","-21.400444","22.06902","13.141232","-30.098213","33.042217"
"era-291","11.388852","-24.529934","25.260864","-11.004105","-21.431032","22.102346","13.159597","-30.138624","33.08868"
"era-292","11.401741","-24.555744","25.285732","-11.022087","-21.461512","22.135548","13.177883","-30.178883","33.13493"
"era-293","11.414588","-24.58146","25.310507","-11.04","-21.491886","22.168621","13.196094","-30.218967","33.18104"
"era-294","11.427386","-24.607079","25.335205","-11.057838","-21.522146","22.201565","13.214207","-30.258888","33.226913"
"era-295","11.440139","-24.632618","25.359804","-11.075599","-21.552288","22.234371","13.232255","-30.298662","33.27263"
"era-296","11.452847","-24.658058","25.384306","-11.093286","-21.582329","22.267061","13.250223","-30.338285","33.318184"
"era-297","11.465508","-24.683416","25.40873","-11.110903","-21.61225","22.299622","13.268114","-30.377733","33.363544"
"era-298","11.478132","-24.70869","25.43308","-11.128455","-21.642048","22.332067","13.285929","-30.41702","33.40871"
"era-299","11.490702","-24.733862","25.457346","-11.145943","-21.671766","22.3644","13.303663","-30.456156","33.4537"
"era-300","11.503227","-24.758955","25.48151","-11.163353","-21.70138","22.396612","13.3213215","-30.495146","33.498528"
"era-301","11.515714","-24.78396","25.505594","-11.180689","-21.730871","22.428694","13.338904","-30.533964","33.543175"
"era-302","11.528154","-24.80888","25.529575","-11.197968","-21.760283","22.46067","13.356422","-30.572666","33.587666"
"era-303","11.540548","-24.833706","25.553493","-11.21518","-21.789558","22.492523","13.373874","-30.611225","33.631966"
"era-304","11.552891","-24.858435","25.577332","-11.232322","-21.818731","22.524263","13.391238","-30.649605","33.676117"
"era-305","11.56519","-24.883083","25.601084","-11.2494","-21.847836","22.555893","13.408531","-30.687845","33.720104"
"era-306","11.577463","-24.90767","25.624758","-11.266412","-21.876842","22.587418","13.425765","-30.725952","33.76392"
"era-307","11.589691","-24.932161","25.648363","-11.28335","-21.905743","22.618816","13.442922","-30.76393","33.807583"
"era-308","11.601869","-24.956585","25.671913","-11.300232","-21.93456","22.650108","13.46","-30.801739","33.851093"
"era-309","11.614014","-24.980927","25.695368","-11.31705","-21.963297","22.681313","13.477017","-30.839426","33.89441"
"era-310","11.626112","-25.00518","25.71874","-11.333801","-21.991913","22.71239","13.49396","-30.876953","33.937565"
"era-311","11.638172","-25.029345","25.742025","-11.3505","-22.020443","22.743368","13.51084","-30.914333","33.98056"
"era-312","11.650196","-25.053438","25.765238","-11.367128","-22.048872","22.774221","13.527654","-30.951595","34.02342"
"era-313","11.6621685","-25.077438","25.788359","-11.383697","-22.077206","22.80498","13.544385","-30.988707","34.066143"
"era-314","11.674105","-25.101376","25.811409","-11.400198","-22.105457","22.83564","13.561046","-31.025707","34.108707"
"era-315","11.686","-25.125223","25.834383","-11.416642","-22.133627","22.86619","13.577649","-31.062542","34.15114"
"era-316","11.697851","-25.148996","25.857286","-11.433032","-22.161697","22.896639","13.594173","-31.099258","34.19338"
"era-317","11.709667","-25.17269","25.880106","-11.449361","-22.18967","22.926985","13.610657","-31.135855","34.23548"
"era-318","11.721446","-25.196306","25.902874","-11.465624","-22.217552","22.957232","13.627063","-31.172304","34.277405"
"era-319","11.733184","-25.219854","25.925552","-11.481839","-22.245363","22.98738","13.643399","-31.208632","34.319202"
"era-320","11.744886","-25.243328","25.948143","-11.497989","-22.273077","23.017426","13.659677","-31.244831","34.360863"
"era-321","11.756545","-25.26671","25.97068","-11.514078","-22.30071","23.047365","13.675898","-31.280893","34.40239"
"era-322","11.768173","-25.290033","25.993156","-11.530116","-22.328243","23.077211","13.69205","-31.316818","34.443756"
"era-323","11.77975","-25.313265","26.015554","-11.546105","-22.35569","23.106964","13.708138","-31.352638","34.484962"
"era-324","11.791299","-25.336426","26.037882","-11.562028","-22.383062","23.136608","13.724175","-31.388308","34.526066"
"era-325","11.802807","-25.359524","26.060133","-11.577894","-22.410341","23.166157","13.740131","-31.423845","34.567017"
"era-326","11.814281","-25.382545","26.082308","-11.593707","-22.437544","23.1956","13.756044","-31.459267","34.607822"
"era-327","11.8257265","-25.405502","26.104414","-11.609471","-22.46467","23.224966","13.771883","-31.494558","34.648514"
"era-328","11.8371315","-25.428371","26.126455","-11.625181","-22.491701","23.254232","13.787674","-31.529724","34.689053"
"era-329","11.848498","-25.45117","26.148418","-11.640837","-22.518661","23.283407","13.803404","-31.564766","34.729427"
"era-330","11.859829","-25.473902","26.170328","-11.656437","-22.545542","23.31248","13.819071","-31.599703","34.76972"
"era-331","11.871128","-25.496574","26.192156","-11.671984","-22.572334","23.341475","13.834687","-31.634525","34.80983"
"era-332","11.882388","-25.519165","26.21392","-11.687483","-22.599064","23.370367","13.850244","-31.669214","34.849854"
"era-333","11.893621","-25.541702","26.235638","-11.702933","-22.625704","23.39918","13.865739","-31.703783","34.88975"
"era-334","11.904823","-25.564175","26.257275","-11.718329","-22.652271","23.427902","13.881176","-31.73823","34.92951"
"era-335","11.915997","-25.58658","26.278854","-11.733679","-22.678759","23.456541","13.896562","-31.77256","34.969143"
"era-336","11.92713","-25.608913","26.300379","-11.74898","-22.705189","23.485098","13.911894","-31.806763","35.008614"
"era-337","11.9382305","-25.63118","26.32184","-11.764231","-22.73152","23.513554","13.92717","-31.840857","35.047974"
"era-338","11.949287","-25.653381","26.343227","-11.779435","-22.757776","23.541937","13.9423685","-31.874836","35.087234"
"era-339","11.960328","-25.67553","26.36455","-11.794585","-22.78396","23.570213","13.957528","-31.908707","35.126377"
"era-340","11.971322","-25.697588","26.38581","-11.8096895","-22.810066","23.598421","13.97263","-31.942486","35.16539"
"era-341","11.982283","-25.719587","26.407005","-11.824744","-22.83608","23.626535","13.987683","-31.97613","35.204227"
"era-342","11.993218","-25.741524","26.428139","-11.839747","-22.862034","23.654568","14.0026865","-32.009655","35.242966"
"era-343","12.00412","-25.763393","26.449202","-11.854703","-22.887909","23.682497","14.017632","-32.04308","35.281616"
"era-344","12.014989","-25.785198","26.47023","-11.869622","-22.913708","23.710352","14.032519","-32.076324","35.320133"
"era-345","12.025823","-25.806938","26.49119","-11.88448","-22.939432","23.738108","14.047362","-32.109528","35.35854"
"era-346","12.036632","-25.82863","26.512074","-11.899291","-22.965105","23.765804","14.0621395","-32.142624","35.396824"
"era-347","12.047424","-25.85027","26.532902","-11.9140625","-22.990698","23.79341","14.07687","-32.175556","35.434975"
"era-348","12.058175","-25.871828","26.553665","-11.928797","-23.016224","23.820944","14.091551","-32.208424","35.473026"
"era-349","12.068889","-25.893333","26.574368","-11.94347","-23.041687","23.84841","14.106176","-32.241215","35.510975"
"era-350","12.079569","-25.914764","26.595026","-11.958093","-23.06708","23.875772","14.120762","-32.273903","35.54882"
"era-351","12.090217","-25.93613","26.6156","-11.972682","-23.092386","23.903067","14.135296","-32.306477","35.586536"
"era-352","12.100839","-25.957447","26.63612","-11.987234","-23.117641","23.930285","14.149779","-32.33893","35.624126"
"era-353","12.111429","-25.978706","26.656595","-12.001734","-23.142826","23.957443","14.1642","-32.37132","35.66163"
"era-354","12.121988","-25.999899","26.67701","-12.016191","-23.167933","23.984516","14.178587","-32.40361","35.69903"
"era-355","12.132521","-26.021042","26.697355","-12.030605","-23.192972","24.011507","14.192923","-32.4358","35.7363"
"era-356","12.143028","-26.042135","26.717648","-12.044977","-23.217947","24.038433","14.207206","-32.4679","35.773476"
"era-357","12.153508","-26.063154","26.737885","-12.0592985","-23.242855","24.065275","14.221445","-32.499893","35.810516"
"era-358","12.163949","-26.08411","26.75806","-12.073584","-23.267696","24.09204","14.235635","-32.531773","35.847466"
"era-359","12.174364","-26.105019","26.778185","-12.087821","-23.292479","24.118734","14.249786","-32.563587","35.884315"
"era-360","12.184756","-26.125875","26.798252","-12.102024","-23.317196","24.14535","14.263871","-32.595253","35.92109"
"era-361","12.195122","-26.146664","26.818254","-12.116193","-23.341845","24.171896","14.277919","-32.626812","35.957737"
"era-362","12.205456","-26.167416","26.838219","-12.130314","-23.366447","24.198385","14.291907","-32.65834","35.994278"
"era-363","12.215769","-26.188118","26.858114","-12.144388","-23.390978","24.224804","14.305855","-32.689762","36.030697"
"era-364","12.22606","-26.208763","26.877958","-12.158419","-23.415442","24.251131","14.319754","-32.721073","36.06701"
"era-365","12.236313","-26.229338","26.897755","-12.172412","-23.43986","24.277393","14.333611","-32.75227","36.103237"
"era-366","12.246545","-26.249859","26.917492","-12.186368","-23.464197","24.303577","14.347419","-32.78337","36.139385"
"era-367","12.256746","-26.270342","26.937181","-12.200285","-23.488472","24.329704","14.361188","-32.81444","36.17544"
"era-368","12.266931","-26.29076","26.956793","-12.214163","-23.512701","24.355759","14.374906","-32.845352","36.21136"
"era-369","12.277085","-26.311136","26.97636","-12.22801","-23.53688","24.381758","14.38858","-32.87618","36.247204"
"era-370","12.287217","-26.331451","26.995882","-12.241814","-23.560993","24.407684","14.402217","-32.90694","36.282944"
"era-371","12.297319","-26.35171","27.015354","-12.255578","-23.585043","24.433535","14.41582","-32.937614","36.318573"
"era-372","12.307393","-26.371927","27.034779","-12.269309","-23.609034","24.459345","14.429371","-32.96821","36.354134"
"era-373","12.317439","-26.392086","27.054144","-12.283001","-23.632957","24.485062","14.442888","-32.998726","36.389595"
"era-374","12.327466","-26.412207","27.073483","-12.296643","-23.65683","24.510714","14.456354","-33.029144","36.424976"
"era-375","12.337455","-26.43226","27.09275","-12.310247","-23.68064","24.536299","14.46978","-33.059536","36.460247"
"era-376","12.347423","-26.452267","27.111967","-12.323815","-23.704403","24.561829","14.483158","-33.089794","36.495434"
"era-377","12.35736","-26.472216","27.13113","-12.337341","-23.728092","24.587273","14.496496","-33.119946","36.530495"
"era-378","12.367276","-26.492111","27.150242","-12.350841","-23.751732","24.612673","14.509788","-33.150024","36.565487"
"era-379","12.377167","-26.511961","27.169304","-12.3643","-23.775326","24.63801","14.523043","-33.18003","36.600365"
"era-380","12.387033","-26.531767","27.188335","-12.377727","-23.798845","24.66327","14.536261","-33.209938","36.635147"
"era-381","12.396879","-26.551521","27.207298","-12.391124","-23.822317","24.688488","14.549433","-33.239784","36.66983"
"era-382","12.406691","-26.571207","27.226206","-12.404486","-23.845728","24.713644","14.56258","-33.269516","36.70444"
"era-383","12.416479","-26.590841","27.245073","-12.417815","-23.869085","24.738724","14.57567","-33.299168","36.73896"
"era-384","12.426247","-26.61042","27.26387","-12.431107","-23.892385","24.763739","14.588731","-33.32871","36.773396"
"era-385","12.435987","-26.62996","27.282635","-12.444364","-23.915632","24.788694","14.601759","-33.35818","36.807735"
"era-386","12.445703","-26.649448","27.30135","-12.457582","-23.938818","24.813581","14.614734","-33.38757","36.841984"
"era-387","12.455402","-26.668888","27.319996","-12.470772","-23.961956","24.838413","14.627664","-33.41687","36.87614"
"era-388","12.46508","-26.688288","27.338606","-12.483929","-23.985031","24.863182","14.640554","-33.446075","36.910236"
"era-389","12.474734","-26.70764","27.357172","-12.497048","-24.008072","24.887886","14.653408","-33.475204","36.94424"
"era-390","12.484347","-26.726934","27.375708","-12.510136","-24.031065","24.912542","14.6662245","-33.50427","36.97815"
"era-391","12.49395","-26.746191","27.394194","-12.523187","-24.054007","24.93714","14.679002","-33.533268","37.011974"
"era-392","12.503527","-26.765406","27.412628","-12.536199","-24.076883","24.96168","14.691739","-33.5622","37.045708"
"era-393","12.513084","-26.78457","27.431004","-12.549185","-24.099705","24.986149","14.704448","-33.59103","37.079372"
"era-394","12.522616","-26.803684","27.449352","-12.5621395","-24.122461","25.010551","14.717121","-33.61974","37.11293"
"era-395","12.532128","-26.82275","27.467655","-12.5750675","-24.145184","25.034916","14.72975","-33.648403","37.146408"
"era-396","12.541614","-26.84178","27.48591","-12.5879545","-24.167856","25.059223","14.742341","-33.677","37.17979"
"era-397","12.551077","-26.860754","27.504128","-12.600815","-24.190472","25.08348","14.754901","-33.70553","37.213097"
"era-398","12.560515","-26.879677","27.522293","-12.613644","-24.213049","25.107676","14.767429","-33.733967","37.246296"
"era-399","12.569931","-26.898552","27.540405","-12.626438","-24.235577","25.13181","14.779904","-33.762302","37.27945"
"era-400","12.579326","-26.91739","27.558466","-12.639207","-24.258055","25.155897","14.792342","-33.79058","37.31251"
"era-401","12.588698","-26.936188","27.576488","-12.6519375","-24.280487","25.179922","14.804745","-33.81881","37.34547"
"era-402","12.598057","-26.954945","27.594473","-12.664633","-24.302862","25.203892","14.817113","-33.84696","37.37837"
"era-403","12.607387","-26.973652","27.612408","-12.677295","-24.325186","25.22782","14.829443","-33.875027","37.41118"
"era-404","12.616696","-26.99231","27.63029","-12.689933","-24.347462","25.25167","14.841747","-33.903008","37.443916"
"era-405","12.625984","-27.010925","27.648132","-12.702542","-24.369698","25.275476","14.854013","-33.930927","37.476578"
"era-406","12.635256","-27.029505","27.665926","-12.715127","-24.391878","25.29924","14.866252","-33.958786","37.509174"
"era-407","12.644505","-27.048033","27.683691","-12.727675","-24.414007","25.322939","14.878456","-33.98654","37.541695"
"era-408","12.653724","-27.066523","27.701414","-12.7402","-24.436094","25.346584","14.890619","-34.014248","37.57413"
"era-409","12.662932","-27.08497","27.719088","-12.752692","-24.45814","25.370178","14.902744","-34.0419","37.60651"
"era-410","12.67212","-27.103378","27.736704","-12.765148","-24.480127","25.393715","14.914852","-34.069458","37.63879"
"era-411","12.681278","-27.121729","27.754297","-12.77757","-24.50207","25.417183","14.926916","-34.09694","37.670986"
"era-412","12.690413","-27.140041","27.771847","-12.789967","-24.52396","25.440615","14.938938","-34.124367","37.70312"
"era-413","12.699527","-27.158308","27.789343","-12.80234","-24.545803","25.463995","14.950922","-34.15172","37.735188"
"era-414","12.70863","-27.176538","27.806799","-12.814685","-24.56759","25.487333","14.962889","-34.179005","37.767185"
"era-415","12.7177105","-27.194727","27.824219","-12.826999","-24.58934","25.510601","14.974809","-34.206184","37.799095"
"era-416","12.726769","-27.212881","27.841597","-12.839279","-24.611046","25.533806","14.986694","-34.23329","37.830933"
"era-417","12.735812","-27.230995","27.858929","-12.851531","-24.63272","25.556976","14.9985485","-34.26037","37.86269"
"era-418","12.744826","-27.249056","27.876232","-12.863757","-24.654346","25.580107","15.010384","-34.28736","37.89437"
"era-419","12.75382","-27.267078","27.893496","-12.8759575","-24.675924","25.60318","15.022178","-34.31432","37.92597"
"era-420","12.762789","-27.285057","27.910727","-12.888129","-24.697445","25.626211","15.033939","-34.3412","37.957504"
"era-421","12.771741","-27.303","27.92791","-12.900274","-24.718925","25.649185","15.045667","-34.367973","37.98896"
"era-422","12.780675","-27.320889","27.945045","-12.912393","-24.740372","25.672106","15.057365","-34.394688","38.02036"
"era-423","12.78959","-27.33875","27.962132","-12.924487","-24.761757","25.694975","15.069034","-34.42136","38.051716"
"era-424","12.798484","-27.356558","27.97918","-12.936546","-24.783102","25.717794","15.080665","-34.447933","38.083004"
"era-425","12.807361","-27.374336","27.996193","-12.948584","-24.804415","25.740566","15.09226","-34.474438","38.11421"
"era-426","12.816214","-27.392067","28.013172","-12.960594","-24.82567","25.763288","15.10381","-34.500866","38.14532"
"era-427","12.8250475","-27.40977","28.030111","-12.972573","-24.846893","25.785963","15.115346","-34.52724","38.176357"
"era-428","12.833864","-27.427425","28.047014","-12.98453","-24.86808","25.808603","15.126844","-34.553562","38.20731"
"era-429","12.842659","-27.445044","28.063866","-12.996449","-24.889223","25.8312","15.138325","-34.579887","38.238205"
"era-430","12.851436","-27.462626","28.08068","-13.008355","-24.91033","25.853748","15.14976","-34.606083","38.269035"
"era-431","12.860194","-27.480164","28.097456","-13.020241","-24.931396","25.876251","15.161179","-34.632225","38.299828"
"era-432","12.868935","-27.49767","28.114199","-13.032089","-24.95242","25.898699","15.172564","-34.658302","38.330532"
"era-433","12.877652","-27.515123","28.130896","-13.043912","-24.973406","25.921103","15.183925","-34.684345","38.36118"
"era-434","12.886353","-27.532543","28.147545","-13.055713","-24.994333","25.943464","15.19525","-34.710293","38.39175"
"era-435","12.89504","-27.549929","28.164165","-13.067495","-25.015226","25.96578","15.206547","-34.73619","38.422264"
"era-436","12.90371","-27.567282","28.18075","-13.079243","-25.036081","25.988052","15.21781","-34.762012","38.45272"
"era-437","12.912359","-27.584599","28.197292","-13.090975","-25.056889","26.01027","15.229038","-34.78777","38.483128"
"era-438","12.920998","-27.601885","28.2138","-13.102663","-25.077658","26.03243","15.240242","-34.813473","38.513462"
"era-439","12.929614","-27.619122","28.230257","-13.114336","-25.09839","26.05456","15.251422","-34.839146","38.543724"
"era-440","12.938208","-27.636328","28.246677","-13.125981","-25.119074","26.076647","15.262566","-34.864758","38.573933"
"era-441","12.946786","-27.653494","28.263077","-13.13761","-25.139719","26.098688","15.273684","-34.890266","38.604088"
"era-442","12.9553585","-27.670639","28.279444","-13.149221","-25.160332","26.120682","15.284766","-34.91571","38.634197"
"era-443","12.96391","-27.687742","28.295763","-13.160799","-25.180904","26.142628","15.295825","-34.941093","38.664204"
"era-444","12.972437","-27.7048","28.312048","-13.172344","-25.201437","26.16453","15.306861","-34.96646","38.694164"
"era-445","12.980954","-27.721836","28.328295","-13.183868","-25.22194","26.186388","15.317857","-34.99173","38.72404"
"era-446","12.9894495","-27.73883","28.34451","-13.195375","-25.242392","26.208214","15.328831","-35.016945","38.75387"
"era-447","12.997934","-27.755795","28.360685","-13.206858","-25.26281","26.229992","15.339784","-35.042118","38.78362"
"era-448","13.006394","-27.772713","28.376835","-13.218309","-25.283192","26.251715","15.350701","-35.067223","38.8133"
"era-449","13.014836","-27.789602","28.392946","-13.229731","-25.303549","26.273403","15.3616","-35.09229","38.842934"
"era-450","13.023269","-27.806456","28.409023","-13.241136","-25.323849","26.295042","15.372471","-35.11727","38.872513"
"era-451","13.0316725","-27.823263","28.425074","-13.252524","-25.344112","26.316645","15.383315","-35.142197","38.90202"
"era-452","13.040063","-27.840038","28.441088","-13.263879","-25.364334","26.338207","15.394135","-35.167076","38.931503"
"era-453","13.048434","-27.856789","28.457062","-13.27522","-25.384533","26.359732","15.404922","-35.191925","38.960922"
"era-454","13.056788","-27.873497","28.47301","-13.286529","-25.4047","26.381216","15.415675","-35.216717","38.99026"
"era-455","13.06512","-27.890175","28.488914","-13.297813","-25.424831","26.402649","15.426416","-35.24145","39.019543"
"era-456","13.073436","-27.906809","28.504778","-13.309076","-25.44491","26.424055","15.437114","-35.26613","39.048782"
"era-457","13.081743","-27.92342","28.520618","-13.320319","-25.464964","26.445412","15.447792","-35.29077","39.07796"
"era-458","13.090027","-27.939997","28.53642","-13.331539","-25.484972","26.466734","15.458449","-35.315353","39.10709"
"era-459","13.098294","-27.95654","28.552197","-13.342746","-25.504932","26.488028","15.469074","-35.339878","39.136135"
"era-460","13.106547","-27.97304","28.567945","-13.353925","-25.524862","26.50927","15.479675","-35.36433","39.165123"
"era-461","13.114782","-27.989513","28.583658","-13.365084","-25.54476","26.530474","15.490248","-35.388733","39.19405"
"era-462","13.123002","-28.005953","28.599323","-13.37622","-25.564629","26.551643","15.500794","-35.41307","39.222916"
"era-463","13.1312065","-28.02236","28.614965","-13.387328","-25.58446","26.572762","15.51131","-35.43739","39.25174"
"era-464","13.139395","-28.038736","28.630558","-13.398408","-25.604248","26.59384","15.521808","-35.46164","39.280502"
"era-465","13.147572","-28.055088","28.64614","-13.409475","-25.624008","26.614885","15.532274","-35.485832","39.309196"
"era-466","13.155734","-28.071404","28.661684","-13.420521","-25.64373","26.635883","15.542722","-35.509953","39.33786"
"era-467","13.16388","-28.087688","28.677206","-13.431542","-25.663425","26.656836","15.553148","-35.53402","39.36646"
"era-468","13.17201","-28.103937","28.69269","-13.442543","-25.683086","26.677755","15.563554","-35.558052","39.395"
"era-469","13.180126","-28.12015","28.708143","-13.453525","-25.702703","26.698633","15.573928","-35.58201","39.423485"
"era-470","13.188219","-28.136332","28.723558","-13.464482","-25.722301","26.719482","15.584271","-35.605927","39.451923"
"era-471","13.196298","-28.152477","28.73894","-13.475417","-25.741854","26.740284","15.594598","-35.6298","39.48029"
"era-472","13.204362","-28.168596","28.754297","-13.486335","-25.761374","26.761053","15.604898","-35.653625","39.50861"
"era-473","13.212415","-28.184683","28.769613","-13.497223","-25.780853","26.781776","15.615175","-35.677387","39.536865"
"era-474","13.220455","-28.20074","28.784897","-13.508098","-25.8003","26.802462","15.625421","-35.70109","39.565098"
"era-475","13.228465","-28.216757","28.800152","-13.518945","-25.81971","26.823118","15.635645","-35.724766","39.593246"
"era-476","13.236473","-28.23275","28.815376","-13.529781","-25.839098","26.84374","15.645852","-35.74838","39.621346"
"era-477","13.24447","-28.248714","28.830555","-13.540604","-25.858454","26.864328","15.656034","-35.771935","39.649426"
"era-478","13.252449","-28.264652","28.845718","-13.551412","-25.87777","26.884888","15.666176","-35.79542","39.67742"
"era-479","13.260406","-28.28055","28.860834","-13.562184","-25.897062","26.905397","15.676301","-35.8189","39.705368"
"era-480","13.268355","-28.296425","28.875921","-13.572933","-25.916325","26.925879","15.686415","-35.842358","39.73327"
"era-481","13.276289","-28.312262","28.890978","-13.583663","-25.935549","26.94632","15.696499","-35.86572","39.761112"
"era-482","13.284202","-28.32806","28.905998","-13.594381","-25.954742","26.966724","15.706561","-35.88904","39.788918"
"era-483","13.292098","-28.343826","28.921","-13.605081","-25.973907","26.987103","15.716598","-35.9123","39.81664"
"era-484","13.299981","-28.359568","28.935972","-13.615762","-25.993038","27.007442","15.726612","-35.93551","39.844307"
"era-485","13.307853","-28.37528","28.95092","-13.6264305","-26.012138","27.027748","15.7366","-35.95865","39.871952"
"era-486","13.315707","-28.390963","28.965828","-13.637067","-26.031212","27.04801","15.746563","-35.98174","39.899532"
"era-487","13.323551","-28.406616","28.980701","-13.647684","-26.050243","27.068233","15.756511","-36.004803","39.92706"
"era-488","13.331375","-28.422232","28.995544","-13.658288","-26.069246","27.08843","15.766437","-36.027832","39.95455"
"era-489","13.339185","-28.437813","29.010353","-13.668873","-26.088215","27.108599","15.776339","-36.050793","39.981976"
"era-490","13.346978","-28.453371","29.025139","-13.679435","-26.107153","27.128717","15.786227","-36.07372","40.009373"
"era-491","13.354765","-28.468903","29.039907","-13.689981","-26.126064","27.148802","15.796086","-36.096565","40.03669"
"era-492","13.362535","-28.484407","29.054632","-13.700514","-26.144945","27.168856","15.805918","-36.119366","40.06397"
"era-493","13.370294","-28.499878","29.06932","-13.7110195","-26.16378","27.188871","15.815732","-36.14213","40.091206"
"era-494","13.37803","-28.515322","29.083998","-13.721508","-26.182598","27.208857","15.825518","-36.16487","40.118416"
"era-495","13.385752","-28.530733","29.09864","-13.731973","-26.201382","27.228815","15.835275","-36.18754","40.145565"
"era-496","13.393462","-28.546116","29.113264","-13.74243","-26.220154","27.24873","15.845017","-36.21015","40.172657"
"era-497","13.401161","-28.561468","29.127846","-13.752865","-26.23887","27.268614","15.854743","-36.232742","40.199703"
"era-498","13.408845","-28.5768","29.142406","-13.763272","-26.257551","27.28846","15.864445","-36.255283","40.226692"
"era-499","13.416517","-28.592104","29.15694","-13.773668","-26.27622","27.308277","15.874128","-36.27778","40.253624"
"era-500","13.424178","-28.607378","29.171427","-13.784039","-26.294863","27.328062","15.883793","-36.300243","40.280506"
"era-501","13.431826","-28.622625","29.18589","-13.79439","-26.313477","27.347824","15.893429","-36.32267","40.307343"
"era-502","13.439453","-28.637842","29.200325","-13.804729","-26.33205","27.367542","15.903048","-36.34507","40.334152"
"era-503","13.447069","-28.653034","29.214735","-13.815041","-26.350597","27.387232","15.9126425","-36.36742","40.360897"
"era-504","13.454674","-28.668194","29.229126","-13.825343","-26.369116","27.406883","15.922232","-36.389713","40.387596"
"era-505","13.462265","-28.683329","29.243484","-13.83563","-26.387598","27.426502","15.9317875","-36.411945","40.414253"
"era-506","13.469845","-28.698437","29.25781","-13.845897","-26.406052","27.446089","15.941322","-36.434116","40.44084"
"era-507","13.477407","-28.713522","29.272121","-13.856141","-26.424477","27.465647","15.950832","-36.4563","40.467422"
"era-508","13.4849615","-28.72858","29.286398","-13.866366","-26.442879","27.485165","15.960319","-36.478397","40.49393"
"era-509","13.492499","-28.743607","29.300642","-13.876574","-26.461246","27.504654","15.969786","-36.50048","40.520405"
"era-510","13.500018","-28.758598","29.314857","-13.886763","-26.479588","27.524113","15.979248","-36.522537","40.546825"
"era-511","13.507524","-28.773565","29.32905","-13.896933","-26.497894","27.543541","15.988671","-36.54453","40.573204"
"era-512","13.515016","-28.788507","29.343218","-13.907091","-26.51618","27.562935","15.998077","-36.56645","40.599533"
"era-513","13.522488","-28.803408","29.357365","-13.917231","-26.53444","27.5823","16.007465","-36.588356","40.625835"
"era-514","13.52995","-28.818293","29.371487","-13.927355","-26.552662","27.601635","16.016827","-36.610207","40.652073"
"era-515","13.537402","-28.833155","29.385565","-13.93746","-26.570877","27.620949","16.02617","-36.63205","40.678257"
"era-516","13.54484","-28.847988","29.399626","-13.947554","-26.589043","27.640236","16.035503","-36.65386","40.704395"
"era-517","13.552268","-28.8628","29.413664","-13.9576235","-26.60719","27.65948","16.044798","-36.675587","40.730495"
"era-518","13.559679","-28.877575","29.427687","-13.967678","-26.625309","27.678696","16.054111","-36.697327","40.75655"
"era-519","13.567084","-28.892336","29.44167","-13.977717","-26.643398","27.697872","16.063383","-36.718967","40.782578"
"era-520","13.574481","-28.907072","29.455637","-13.987735","-26.661444","27.717016","16.072617","-36.740547","40.808537"
"era-521","13.581864","-28.92178","29.46957","-13.997736","-26.679487","27.73613","16.081861","-36.76211","40.83445"
"era-522","13.589229","-28.936453","29.48348","-14.007725","-26.697508","27.755217","16.091055","-36.783573","40.86034"
"era-523","13.596582","-28.951103","29.497353","-14.017705","-26.715498","27.774271","16.10024","-36.80501","40.886204"
"era-524","13.603931","-28.965736","29.511206","-14.027657","-26.733452","27.793291","16.109402","-36.82642","40.912"
"era-525","13.61126","-28.980343","29.525036","-14.037599","-26.751377","27.812296","16.11855","-36.84783","40.937767"
"era-526","13.618591","-28.994946","29.538845","-14.047524","-26.769281","27.83127","16.12766","-36.869164","40.963474"
"era-527","13.6259","-29.009508","29.552637","-14.057439","-26.78715","27.850227","16.13677","-36.89049","40.989132"
"era-528","13.633196","-29.024052","29.5664","-14.067331","-26.80498","27.869135","16.145844","-36.91176","41.014763"
"era-529","13.640485","-29.038572","29.580133","-14.077203","-26.822792","27.88802","16.154907","-36.93301","41.040318"
"era-530","13.647764","-29.053064","29.593834","-14.087055","-26.84059","27.906866","16.16396","-36.954197","41.065872"
"era-531","13.655028","-29.067532","29.607521","-14.096891","-26.858353","27.92568","16.172981","-36.975338","41.091385"
"era-532","13.662281","-29.081974","29.621181","-14.106718","-26.87609","27.94447","16.181986","-36.996452","41.11685"
"era-533","13.669522","-29.096384","29.634815","-14.116528","-26.893806","27.96323","16.190979","-37.017494","41.14226"
"era-534","13.676748","-29.11077","29.648415","-14.126324","-26.91149","27.981956","16.199951","-37.03853","41.167667"
"era-535","13.683964","-29.12514","29.661991","-14.136099","-26.929138","28.00065","16.208899","-37.059513","41.19304"
"era-536","13.69117","-29.13948","29.675549","-14.145858","-26.946766","28.01932","16.217846","-37.08047","41.218353"
"era-537","13.698367","-29.1538","29.68909","-14.155603","-26.964367","28.037952","16.226795","-37.101383","41.243633"
"era-538","13.705546","-29.168089","29.702602","-14.165333","-26.981945","28.056568","16.235706","-37.122295","41.268837"
"era-539","13.712711","-29.182348","29.71609","-14.175045","-26.999498","28.075163","16.24461","-37.143166","41.294018"
"era-540","13.719871","-29.196598","29.729551","-14.184738","-27.017021","28.093718","16.253498","-37.164005","41.319157"
"era-541","13.727017","-29.210815","29.742985","-14.194422","-27.034515","28.112244","16.262354","-37.18475","41.344265"
"era-542","13.734158","-29.225016","29.756395","-14.204091","-27.051994","28.130741","16.271198","-37.205494","41.36933"
"era-543","13.741279","-29.239187","29.769783","-14.21374","-27.069443","28.149212","16.280003","-37.226192","41.39437"
"era-544","13.74839","-29.25334","29.783146","-14.223365","-27.086866","28.167656","16.288797","-37.246895","41.419342"
"era-545","13.755485","-29.267464","29.79648","-14.232974","-27.104263","28.186077","16.297575","-37.267555","41.444298"
"era-546","13.762571","-29.281563","29.80978","-14.24258","-27.12163","28.204475","16.306343","-37.28815","41.46919"
"era-547","13.7696495","-29.295643","29.823065","-14.252179","-27.138983","28.222847","16.315075","-37.3087","41.494053"
"era-548","13.776711","-29.309698","29.83633","-14.261756","-27.156298","28.241196","16.323793","-37.32924","41.518894"
"era-549","13.783761","-29.323727","29.849573","-14.271318","-27.173595","28.259506","16.332514","-37.349728","41.54368"
"era-550","13.790806","-29.337738","29.86279","-14.280862","-27.190865","28.277782","16.341198","-37.37016","41.568424"
"era-551","13.797833","-29.351719","29.875988","-14.290391","-27.208132","28.29605","16.349867","-37.390564","41.59313"
"era-552","13.804851","-29.365677","29.889154","-14.299904","-27.225363","28.314281","16.358532","-37.410973","41.6178"
"era-553","13.811856","-29.379608","29.902311","-14.309415","-27.24257","28.332489","16.367186","-37.43129","41.642464"
"era-554","13.81886","-29.393526","29.915432","-14.3189125","-27.259747","28.35067","16.375834","-37.45161","41.667095"
"era-555","13.825845","-29.407417","29.928545","-14.328385","-27.276894","28.368814","16.38444","-37.471878","41.69168"
"era-556","13.832821","-29.421282","29.941639","-14.337848","-27.294025","28.386932","16.393044","-37.492092","41.71621"
"era-557","13.839786","-29.435137","29.954702","-14.347291","-27.311129","28.405031","16.401611","-37.512283","41.740692"
"era-558","13.846747","-29.44897","29.967743","-14.356729","-27.328209","28.423105","16.410175","-37.532417","41.765125"
"era-559","13.853698","-29.462784","29.980759","-14.366139","-27.345274","28.441147","16.418722","-37.55256","41.789543"
"era-560","13.860634","-29.476572","29.993765","-14.375544","-27.362305","28.459167","16.42725","-37.572647","41.813923"
"era-561","13.867564","-29.490347","30.00674","-14.384933","-27.37932","28.47716","16.435755","-37.592686","41.838253"
"era-562","13.8744755","-29.504091","30.019707","-14.39431","-27.396315","28.495136","16.44424","-37.61269","41.86256"
"era-563","13.881383","-29.517809","30.032644","-14.403676","-27.413286","28.513084","16.452717","-37.63264","41.88681"
"era-564","13.88827","-29.531506","30.045563","-14.413023","-27.430239","28.531004","16.461168","-37.652584","41.91103"
"era-565","13.895154","-29.545185","30.058445","-14.42235","-27.447155","28.548883","16.46963","-37.672504","41.93523"
"era-566","13.90202","-29.558826","30.07131","-14.431662","-27.464058","28.566744","16.478071","-37.692413","41.959377"
"era-567","13.908882","-29.572462","30.08415","-14.440967","-27.480938","28.584585","16.486486","-37.71225","41.983494"
"era-568","13.915733","-29.586063","30.096973","-14.450257","-27.497803","28.602406","16.494886","-37.73205","42.00759"
"era-569","13.922567","-29.599648","30.109777","-14.459537","-27.514637","28.620192","16.503265","-37.751812","42.03164"
"era-570","13.929397","-29.61321","30.122551","-14.4688","-27.531445","28.637955","16.51163","-37.771553","42.05564"
"era-571","13.936213","-29.626755","30.135296","-14.478054","-27.548225","28.65571","16.51995","-37.79125","42.07962"
"era-572","13.943016","-29.640284","30.14803","-14.487287","-27.56498","28.673426","16.528261","-37.810925","42.10356"
"era-573","13.949805","-29.653778","30.16074","-14.496508","-27.581715","28.691126","16.53656","-37.830566","42.12744"
"era-574","13.956589","-29.667263","30.173428","-14.5057125","-27.598415","28.708784","16.54483","-37.850155","42.151295"
"era-575","13.96336","-29.680716","30.186102","-14.514907","-27.615105","28.72642","16.553091","-37.8697","42.17514"
"era-576","13.97012","-29.694145","30.19874","-14.524088","-27.63177","28.744038","16.561333","-37.889236","42.198933"
"era-577","13.976872","-29.707558","30.21136","-14.533266","-27.64842","28.761627","16.56958","-37.9087","42.2227"
"era-578","13.983617","-29.720951","30.223959","-14.542416","-27.665047","28.779196","16.5778","-37.92817","42.246414"
"era-579","13.990352","-29.734325","30.236546","-14.551561","-27.681643","28.79674","16.586006","-37.947575","42.2701"
"era-580","13.997079","-29.747677","30.2491","-14.56069","-27.698217","28.814259","16.594177","-37.966953","42.293743"
"era-581","14.003793","-29.761019","30.261633","-14.569808","-27.714779","28.831755","16.602339","-37.9863","42.31738"
"era-582","14.010496","-29.774334","30.27415","-14.57891","-27.731312","28.849222","16.610498","-38.0056","42.340954"
"era-583","14.017201","-29.787636","30.286657","-14.587998","-27.747831","28.866663","16.61864","-38.024883","42.36451"
"era-584","14.023889","-29.80091","30.299149","-14.597079","-27.764338","28.88409","16.626776","-38.044125","42.38803"
"era-585","14.030566","-29.814157","30.311615","-14.606144","-27.78082","28.901485","16.634907","-38.063354","42.411503"
"era-586","14.037235","-29.827393","30.32406","-14.615194","-27.797272","28.918852","16.643011","-38.08252","42.434944"
"era-587","14.043894","-29.840609","30.336494","-14.624234","-27.813711","28.936209","16.651104","-38.10168","42.45836"
"era-588","14.050544","-29.853807","30.348892","-14.633261","-27.830109","28.953539","16.659178","-38.120823","42.481735"
"era-589","14.057185","-29.866983","30.361277","-14.642274","-27.846502","28.97085","16.667236","-38.139927","42.50508"
"era-590","14.063809","-29.880138","30.373636","-14.6512785","-27.862871","28.988142","16.675259","-38.158993","42.52837"
"era-591","14.070431","-29.89328","30.385973","-14.660268","-27.879211","29.005405","16.683271","-38.178043","42.551666"
"era-592","14.077033","-29.906384","30.398283","-14.669238","-27.89553","29.022652","16.691267","-38.197067","42.57491"
"era-593","14.083622","-29.919472","30.41058","-14.678199","-27.911835","29.03987","16.69926","-38.21606","42.598114"
"era-594","14.090209","-29.93254","30.422855","-14.687149","-27.928123","29.057068","16.707243","-38.235016","42.621304"
"era-595","14.09679","-29.945599","30.435112","-14.696093","-27.94438","29.074242","16.7152","-38.253933","42.644455"
"era-596","14.103352","-29.958635","30.447363","-14.705016","-27.960617","29.09139","16.723139","-38.272804","42.66756"
"era-597","14.109906","-29.971642","30.45958","-14.713923","-27.976843","29.108513","16.731089","-38.291676","42.69065"
"era-598","14.116448","-29.984627","30.471785","-14.722819","-27.993057","29.125608","16.738995","-38.31049","42.713707"
"era-599","14.122986","-29.997604","30.483963","-14.731703","-28.009226","29.142681","16.7469","-38.3293","42.73674"
"era-600","14.129515","-30.010563","30.496132","-14.740578","-28.025373","29.159744","16.754795","-38.34807","42.759697"
"era-601","14.136037","-30.023497","30.508278","-14.749442","-28.041523","29.176775","16.762678","-38.36678","42.78263"
"era-602","14.142543","-30.036407","30.520412","-14.7583","-28.057644","29.19379","16.770555","-38.385475","42.80554"
"era-603","14.149039","-30.049297","30.532524","-14.767141","-28.073736","29.210783","16.778397","-38.404175","42.82844"
"era-604","14.155526","-30.062183","30.544607","-14.775961","-28.089811","29.227753","16.786217","-38.422825","42.8513"
"era-605","14.162004","-30.075047","30.556677","-14.784766","-28.105867","29.244698","16.794018","-38.441467","42.874123"
"era-606","14.168469","-30.08789","30.568745","-14.793562","-28.121902","29.261614","16.801823","-38.460083","42.896935"
"era-607","14.174933","-30.100716","30.58078","-14.802354","-28.137913","29.278515","16.809631","-38.478653","42.91971"
"era-608","14.181391","-30.113518","30.592802","-14.811128","-28.153908","29.295387","16.8174","-38.497185","42.942436"
"era-609","14.187833","-30.126308","30.6048","-14.81989","-28.169888","29.31225","16.825153","-38.515682","42.965137"
"era-610","14.194275","-30.139086","30.61678","-14.828644","-28.185835","29.329082","16.832909","-38.53417","42.987804"
"era-611","14.200707","-30.151836","30.628736","-14.837381","-28.20178","29.345901","16.840649","-38.55264","43.01046"
"era-612","14.207127","-30.164568","30.64068","-14.846115","-28.217705","29.362694","16.848377","-38.571064","43.033085"
"era-613","14.213534","-30.17729","30.652605","-14.854841","-28.233599","29.379469","16.85608","-38.58945","43.055702"
"era-614","14.219936","-30.18998","30.66451","-14.863546","-28.249472","29.396217","16.863783","-38.60782","43.078262"
"era-615","14.226328","-30.202652","30.676384","-14.872241","-28.265327","29.412947","16.87147","-38.626156","43.1008"
"era-616","14.232709","-30.215307","30.688238","-14.880927","-28.281164","29.429653","16.879145","-38.64448","43.123283"
"era-617","14.239081","-30.227942","30.700083","-14.889591","-28.296986","29.446335","16.886806","-38.662785","43.14576"
"era-618","14.245448","-30.240566","30.7119","-14.898251","-28.31279","29.463001","16.89446","-38.68106","43.168205"
"era-619","14.251812","-30.253176","30.723701","-14.906897","-28.328573","29.479652","16.902098","-38.699303","43.190636"
"era-620","14.2581625","-30.265755","30.735487","-14.915536","-28.34433","29.496265","16.909737","-38.717514","43.213005"
"era-621","14.264505","-30.278316","30.747257","-14.924161","-28.360085","29.512863","16.91734","-38.73565","43.23535"
"era-622","14.270839","-30.290865","30.759008","-14.9327755","-28.375809","29.529432","16.924942","-38.75378","43.25767"
"era-623","14.277163","-30.303394","30.77075","-14.9413805","-28.39151","29.545988","16.932528","-38.771896","43.279976"
"era-624","14.283474","-30.315899","30.782465","-14.94997","-28.4072","29.562521","16.940094","-38.789967","43.302246"
"era-625","14.289786","-30.328402","30.794163","-14.958548","-28.422873","29.579031","16.947666","-38.80802","43.32448"
"era-626","14.296082","-30.340881","30.805862","-14.967114","-28.438517","29.59552","16.955215","-38.826046","43.34666"
"era-627","14.302372","-30.353338","30.817532","-14.975667","-28.454136","29.611986","16.96275","-38.84406","43.368824"
"era-628","14.308655","-30.365778","30.82918","-14.984215","-28.469746","29.628433","16.970285","-38.862022","43.390957"
"era-629","14.314931","-30.378204","30.84081","-14.9927435","-28.485336","29.64486","16.977804","-38.87996","43.41305"
"era-630","14.3212","-30.390612","30.852419","-15.001264","-28.500908","29.661263","16.985312","-38.897877","43.43513"
"era-631","14.327459","-30.40301","30.864029","-15.009774","-28.516459","29.677647","16.992807","-38.915764","43.45718"
"era-632","14.333713","-30.415386","30.875603","-15.018276","-28.531977","29.69401","17.000296","-38.933643","43.4792"
"era-633","14.339958","-30.427738","30.887161","-15.026762","-28.547493","29.71034","17.00777","-38.95146","43.501198"
"era-634","14.346195","-30.440073","30.898712","-15.035243","-28.562979","29.726656","17.015232","-38.969246","43.52314"
"era-635","14.352422","-30.452396","30.91024","-15.04371","-28.578442","29.74296","17.022678","-38.987026","43.545067"
"era-636","14.358635","-30.464695","30.921747","-15.052173","-28.593884","29.759243","17.030113","-39.004787","43.566963"
"era-637","14.36485","-30.476984","30.933237","-15.060618","-28.60932","29.775496","17.037533","-39.022503","43.58884"
"era-638","14.371052","-30.489256","30.944708","-15.06905","-28.624733","29.791735","17.044958","-39.04022","43.610683"
"era-639","14.377245","-30.501507","30.956167","-15.077473","-28.640123","29.807957","17.052345","-39.057888","43.632507"
"era-640","14.383434","-30.51375","30.967615","-15.085879","-28.655499","29.824148","17.05973","-39.07554","43.654297"
"era-641","14.389607","-30.525963","30.979046","-15.094283","-28.670841","29.84032","17.067091","-39.09316","43.676052"
"era-642","14.395773","-30.538166","30.990461","-15.102669","-28.686188","29.856474","17.074457","-39.110767","43.697796"
"era-643","14.401938","-30.550356","31.00186","-15.111052","-28.701502","29.872612","17.081825","-39.128353","43.719505"
"era-644","14.408094","-30.562538","31.013252","-15.119425","-28.71682","29.88874","17.089169","-39.14589","43.741188"
"era-645","14.414245","-30.574697","31.02462","-15.127787","-28.732115","29.904844","17.0965","-39.16341","43.762836"
"era-646","14.42039","-30.586842","31.035976","-15.136143","-28.747393","29.920938","17.103815","-39.180893","43.784466"
"era-647","14.426524","-30.598976","31.047306","-15.144481","-28.76265","29.937","17.111105","-39.198364","43.80605"
"era-648","14.432647","-30.611082","31.058628","-15.152809","-28.777884","29.953056","17.118387","-39.215816","43.827614"
"era-649","14.438755","-30.623167","31.069925","-15.161129","-28.793112","29.96909","17.125664","-39.233234","43.84915"
"era-650","14.444856","-30.635239","31.081205","-15.16945","-28.808308","29.985106","17.132927","-39.250618","43.870674"
"era-651","14.450952","-30.647297","31.092476","-15.177751","-28.8235","30.001106","17.140179","-39.26801","43.89216"
"era-652","14.457034","-30.65933","31.10372","-15.186035","-28.838669","30.017075","17.147408","-39.285366","43.913628"
"era-653","14.463109","-30.671352","31.114954","-15.19431","-28.853817","30.03303","17.154625","-39.30271","43.935078"
"era-654","14.469175","-30.683369","31.126175","-15.202572","-28.86895","30.048967","17.161837","-39.32004","43.9565"
"era-655","14.475239","-30.69535","31.13737","-15.210825","-28.884066","30.064882","17.16905","-39.33734","43.97791"
"era-656","14.481287","-30.70732","31.14855","-15.219068","-28.89916","30.08078","17.17625","-39.354618","43.999275"
"era-657","14.48733","-30.719275","31.159718","-15.227313","-28.914242","30.096672","17.183422","-39.371853","44.02062"
"era-658","14.493368","-30.731218","31.17087","-15.235539","-28.92932","30.11254","17.190578","-39.38905","44.04193"
"era-659","14.499395","-30.743143","31.182003","-15.243753","-28.944372","30.128391","17.197725","-39.406277","44.06322"
"era-660","14.505415","-30.755047","31.193123","-15.251956","-28.959408","30.144213","17.204887","-39.42346","44.084465"
"era-661","14.511433","-30.766937","31.20422","-15.260154","-28.974419","30.160017","17.212038","-39.440582","44.1057"
"era-662","14.517434","-30.778809","31.21531","-15.268339","-28.989412","30.1758","17.219158","-39.45771","44.12693"
"era-663","14.523432","-30.790668","31.226377","-15.276507","-29.004389","30.191557","17.226273","-39.47481","44.1481"
"era-664","14.529423","-30.802513","31.23743","-15.284665","-29.01934","30.207296","17.233372","-39.491882","44.16926"
"era-665","14.535404","-30.814348","31.248478","-15.292817","-29.034267","30.223024","17.240469","-39.50895","44.190388"
"era-666","14.541386","-30.826164","31.259508","-15.300957","-29.049196","30.23872","17.247553","-39.525944","44.21148"
"era-667","14.547356","-30.837967","31.270525","-15.309088","-29.0641","30.2544","17.254625","-39.54292","44.23254"
"era-668","14.553326","-30.849756","31.281517","-15.317214","-29.07898","30.270067","17.26168","-39.559868","44.25358"
"era-669","14.559281","-30.861528","31.2925","-15.325331","-29.093838","30.285715","17.268723","-39.57678","44.274593"
"era-670","14.565232","-30.873278","31.303467","-15.333437","-29.108694","30.301348","17.275778","-39.593693","44.29559"
"era-671","14.571176","-30.885014","31.314411","-15.34154","-29.123531","30.316963","17.282804","-39.610558","44.316555"
"era-672","14.577114","-30.896732","31.325333","-15.349623","-29.138344","30.332546","17.28982","-39.627396","44.337467"
"era-673","14.583038","-30.908436","31.336252","-15.35769","-29.15314","30.348114","17.296827","-39.644226","44.35836"
"era-674","14.588955","-30.92012","31.347155","-15.365754","-29.167923","30.363665","17.30381","-39.661015","44.37924"
"era-675","14.594862","-30.931795","31.358036","-15.373808","-29.18269","30.379211","17.31078","-39.677788","44.40007"
"era-676","14.600774","-30.943459","31.368908","-15.381858","-29.197449","30.394726","17.317745","-39.69453","44.4209"
"era-677","14.606673","-30.955109","31.37976","-15.389895","-29.212185","30.41023","17.324696","-39.71125","44.441696"
"era-678","14.612567","-30.96674","31.390598","-15.397923","-29.226906","30.425726","17.331646","-39.727974","44.462463"
"era-679","14.618447","-30.978355","31.401415","-15.405934","-29.241602","30.441189","17.338587","-39.744682","44.483208"
"era-680","14.624333","-30.989965","31.412212","-15.413944","-29.25629","30.456642","17.34552","-39.761345","44.50393"
"era-681","14.630205","-31.00155","31.422997","-15.421945","-29.270962","30.472073","17.352438","-39.777992","44.52463"
"era-682","14.636069","-31.013123","31.43377","-15.429931","-29.285622","30.487497","17.359356","-39.79464","44.54531"
"era-683","14.641926","-31.024683","31.44453","-15.43791","-29.300274","30.502905","17.366251","-39.81126","44.565968"
"era-684","14.647781","-31.036222","31.455273","-15.445889","-29.314905","30.518291","17.373156","-39.82783","44.5866"
"era-685","14.6536255","-31.047743","31.466005","-15.453852","-29.329525","30.533653","17.380049","-39.844364","44.607212"
"era-686","14.65946","-31.05926","31.476727","-15.461806","-29.344112","30.549004","17.386915","-39.8609","44.6278"
"era-687","14.665286","-31.07075","31.487427","-15.469757","-29.358692","30.564342","17.393776","-39.877407","44.64836"
"era-688","14.671106","-31.082233","31.498127","-15.477693","-29.37325","30.579653","17.400621","-39.893883","44.668907"
"era-689","14.676921","-31.093704","31.508795","-15.485623","-29.38779","30.594952","17.40745","-39.91033","44.689423"
"era-690","14.682733","-31.10517","31.519451","-15.49354","-29.40232","30.610233","17.414263","-39.92679","44.70993"
"era-691","14.688529","-31.116608","31.530096","-15.501446","-29.416828","30.6255","17.421076","-39.94323","44.730404"
"era-692","14.694325","-31.128035","31.540726","-15.5093355","-29.431324","30.640736","17.42788","-39.959644","44.75086"
"era-693","14.700111","-31.139446","31.551334","-15.517228","-29.445812","30.655975","17.434677","-39.976032","44.771286"
"era-694","14.705891","-31.150848","31.561943","-15.525106","-29.460281","30.67119","17.441467","-39.99241","44.791687"
"era-695","14.711672","-31.16224","31.572533","-15.532978","-29.474737","30.686378","17.448257","-40.008747","44.81206"
"era-696","14.717443","-31.173613","31.58311","-15.540842","-29.489178","30.701557","17.455048","-40.025066","44.83242"
"era-697","14.723208","-31.184975","31.593681","-15.5486965","-29.503593","30.716719","17.461819","-40.04136","44.852757"
"era-698","14.728967","-31.196318","31.604223","-15.556539","-29.518002","30.73186","17.46858","-40.057636","44.87305"
"era-699","14.734709","-31.207642","31.614754","-15.564373","-29.532396","30.746986","17.475323","-40.073914","44.893322"
"era-700","14.740449","-31.218958","31.62528","-15.572187","-29.546774","30.762098","17.482063","-40.09018","44.91357"
"era-701","14.746182","-31.230263","31.635794","-15.580004","-29.561146","30.777195","17.488787","-40.106384","44.933796"
"era-702","14.751913","-31.241549","31.646286","-15.587812","-29.575493","30.792274","17.4955","-40.12257","44.954018"
"era-703","14.757638","-31.25283","31.656761","-15.595608","-29.589815","30.807327","17.502201","-40.13875","44.974197"
"era-704","14.763362","-31.264097","31.667217","-15.603405","-29.604126","30.822376","17.508907","-40.154854","44.99436"
"era-705","14.769074","-31.275337","31.677656","-15.61119","-29.618423","30.837399","17.515596","-40.17098","45.014496"
"era-706","14.774778","-31.286575","31.68809","-15.618962","-29.632715","30.85241","17.52227","-40.187084","45.03461"
"era-707","14.780473","-31.29779","31.698498","-15.626723","-29.64699","30.867413","17.528933","-40.203182","45.054714"
"era-708","14.786159","-31.308994","31.708902","-15.634474","-29.661245","30.882393","17.53559","-40.219276","45.07479"
"era-709","14.791834","-31.320185","31.719303","-15.642223","-29.675486","30.897367","17.542229","-40.235336","45.09484"
"era-710","14.797506","-31.331367","31.729696","-15.649963","-29.68971","30.912325","17.548878","-40.251385","45.114876"
"era-711","14.803173","-31.342531","31.740068","-15.657693","-29.703928","30.927263","17.555498","-40.267387","45.134872"
"era-712","14.80883","-31.35368","31.750431","-15.665409","-29.71813","30.942175","17.562107","-40.283363","45.15487"
"era-713","14.814482","-31.364824","31.760773","-15.673118","-29.732302","30.95707","17.568705","-40.299347","45.174847"
"era-714","14.820129","-31.37595","31.771097","-15.680819","-29.746477","30.971964","17.575287","-40.315296","45.19478"
"era-715","14.825767","-31.387054","31.781412","-15.688513","-29.76063","30.986841","17.58188","-40.331226","45.214676"
"era-716","14.831397","-31.398153","31.79172","-15.696199","-29.77477","31.001701","17.588442","-40.347145","45.23456"
"era-717","14.837023","-31.409237","31.802004","-15.7038765","-29.78889","31.01654","17.594997","-40.363026","45.254425"
"era-718","14.842642","-31.420301","31.812275","-15.711537","-29.803","31.031368","17.601551","-40.378902","45.274258"
"era-719","14.848248","-31.431356","31.822544","-15.719197","-29.817099","31.04618","17.608086","-40.39476","45.294067"
"era-720","14.853853","-31.4424","31.832798","-15.726853","-29.831179","31.06098","17.61462","-40.41057","45.31385"
"era-721","14.859451","-31.45343","31.843035","-15.734497","-29.84525","31.075764","17.621153","-40.42639","45.333614"
"era-722","14.865045","-31.46445","31.853262","-15.742132","-29.859304","31.09053","17.62768","-40.442204","45.35337"
"era-723","14.870638","-31.475458","31.863466","-15.749756","-29.873354","31.105274","17.63419","-40.45798","45.373104"
"era-724","14.876217","-31.486448","31.873667","-15.757375","-29.88738","31.12001","17.640703","-40.473724","45.39282"
"era-725","14.881786","-31.497421","31.88386","-15.764988","-29.901386","31.134726","17.647186","-40.48944","45.412506"
"era-726","14.887356","-31.508385","31.894032","-15.772585","-29.915384","31.149426","17.653666","-40.505142","45.432182"
"era-727","14.892916","-31.519331","31.904196","-15.780177","-29.929375","31.16411","17.660137","-40.520832","45.45182"
"era-728","14.898466","-31.53027","31.914347","-15.7877655","-29.943342","31.17879","17.666597","-40.536514","45.471436"
"era-729","14.904011","-31.541193","31.924488","-15.795346","-29.957298","31.193441","17.673046","-40.552124","45.49105"
"era-730","14.909555","-31.552107","31.934618","-15.802919","-29.971235","31.208082","17.679476","-40.56772","45.510628"
"era-731","14.91509","-31.563007","31.944733","-15.81048","-29.985159","31.222698","17.68589","-40.58328","45.530174"
"era-732","14.920619","-31.573898","31.954842","-15.818031","-29.99906","31.2373","17.692305","-40.598846","45.549713"
"era-733","14.926143","-31.584772","31.964912","-15.825575","-30.012964","31.251898","17.698711","-40.614403","45.56925"
"era-734","14.931661","-31.595642","31.97499","-15.833108","-30.026842","31.26647","17.7051","-40.629944","45.588734"
"era-735","14.937174","-31.606495","31.98505","-15.840639","-30.040705","31.281042","17.711494","-40.64545","45.60821"
"era-736","14.942679","-31.617323","31.9951","-15.848165","-30.054558","31.295588","17.717884","-40.660934","45.627663"
"era-737","14.948174","-31.628147","32.005146","-15.855676","-30.0684","31.310118","17.72426","-40.67641","45.647106"
"era-738","14.953668","-31.638964","32.015175","-15.863181","-30.08223","31.324636","17.730623","-40.69187","45.66652"
"era-739","14.959156","-31.649761","32.025196","-15.870678","-30.09605","31.33914","17.736988","-40.70731","45.685917"
"era-740","14.964633","-31.66055","32.035206","-15.878169","-30.109848","31.353632","17.743332","-40.722744","45.70529"
"era-741","14.970107","-31.671328","32.045204","-15.885646","-30.123638","31.368103","17.749687","-40.73816","45.72465"
"era-742","14.975574","-31.682093","32.055187","-15.893129","-30.137402","31.382555","17.756018","-40.753517","45.74398"
"era-743","14.98103","-31.692835","32.065166","-15.900593","-30.151163","31.396996","17.762325","-40.768826","45.763283"
"era-744","14.986486","-31.703573","32.075134","-15.908048","-30.16491","31.411417","17.768631","-40.784153","45.782574"
"era-745","14.991939","-31.714306","32.08507","-15.915492","-30.178637","31.42582","17.77492","-40.79947","45.80184"
"era-746","14.9973755","-31.725018","32.095005","-15.922927","-30.192354","31.44022","17.781204","-40.81476","45.821087"
"era-747","15.002813","-31.735718","32.104904","-15.930353","-30.20606","31.454596","17.78748","-40.83005","45.840324"
"era-748","15.0082445","-31.746407","32.1148","-15.937772","-30.21974","31.46896","17.793745","-40.84533","45.85954"
"era-749","15.013663","-31.757082","32.124676","-15.94518","-30.23342","31.483318","17.8","-40.860634","45.878723"
"era-750","15.019082","-31.767746","32.134552","-15.952579","-30.247074","31.497646","17.806261","-40.87587","45.89788"
"era-751","15.02449","-31.77839","32.144405","-15.959974","-30.260721","31.511976","17.812504","-40.8911","45.917015"
"era-752","15.029902","-31.789036","32.154236","-15.967364","-30.274363","31.52629","17.818735","-40.906296","45.936146"
"era-753","15.0353","-31.799662","32.164078","-15.974747","-30.287981","31.54059","17.824953","-40.9215","45.955273"
"era-754","15.040698","-31.810284","32.1739","-15.982123","-30.30158","31.554865","17.831171","-40.93666","45.97437"
"era-755","15.046094","-31.820887","32.183693","-15.98949","-30.31518","31.569128","17.837389","-40.951805","45.993435"
"era-756","15.051476","-31.831474","32.1935","-15.996843","-30.328758","31.583376","17.843597","-40.966957","46.012474"
"era-757","15.056852","-31.842052","32.20329","-16.004187","-30.342327","31.59762","17.849794","-40.982063","46.031467"
"era-758","15.062224","-31.852617","32.213062","-16.011524","-30.355892","31.611835","17.855982","-40.997158","46.050457"
"era-759","15.067591","-31.863167","32.22281","-16.01886","-30.36944","31.62604","17.862171","-41.012257","46.06943"
"era-760","15.072953","-31.873707","32.23256","-16.026184","-30.382969","31.640232","17.868359","-41.027313","46.088383"
"era-761","15.078306","-31.884237","32.242302","-16.033499","-30.39648","31.65441","17.874529","-41.042355","46.10733"
"era-762","15.083665","-31.894758","32.252007","-16.040804","-30.409986","31.668571","17.880684","-41.057377","46.126255"
"era-763","15.089008","-31.905264","32.261726","-16.048107","-30.423473","31.68272","17.886831","-41.072384","46.145176"
"era-764","15.094345","-31.915764","32.271427","-16.055397","-30.436949","31.696854","17.89297","-41.08738","46.164066"
"era-765","15.099679","-31.926237","32.281105","-16.062683","-30.450415","31.710974","17.899094","-41.10234","46.182953"
"era-766","15.104998","-31.936705","32.290794","-16.069971","-30.463861","31.725079","17.905216","-41.11729","46.2018"
"era-767","15.110316","-31.947168","32.30046","-16.077242","-30.47731","31.739183","17.911327","-41.132248","46.22063"
"era-768","15.115635","-31.957615","32.31012","-16.084515","-30.49074","31.753265","17.91745","-41.14719","46.239433"
"era-769","15.120943","-31.968058","32.319763","-16.091764","-30.504143","31.76733","17.923546","-41.162113","46.25822"
"era-770","15.126246","-31.978487","32.32938","-16.09902","-30.517527","31.781387","17.929644","-41.17703","46.276974"
"era-771","15.131544","-31.988901","32.339005","-16.10626","-30.530903","31.795433","17.935738","-41.19194","46.295727"
"era-772","15.136834","-31.999311","32.348633","-16.113485","-30.544262","31.80945","17.94181","-41.206825","46.314476"
"era-773","15.142123","-32.0097","32.35823","-16.12071","-30.557608","31.823454","17.947906","-41.2217","46.333183"
"era-774","15.1474","-32.02008","32.367832","-16.127924","-30.570951","31.837458","17.953972","-41.23655","46.351868"
"era-775","15.152676","-32.030445","32.37742","-16.135141","-30.584284","31.85143","17.960033","-41.251347","46.37054"
"era-776","15.157951","-32.04082","32.386997","-16.142345","-30.597591","31.865408","17.966082","-41.266155","46.389168"
"era-777","15.1632185","-32.051178","32.39657","-16.14954","-30.610899","31.879366","17.972118","-41.28092","46.407784"
"era-778","15.168492","-32.061535","32.406128","-16.156738","-30.624195","31.893309","17.978153","-41.29566","46.426388"
"era-779","15.173758","-32.071873","32.41568","-16.163921","-30.637474","31.907227","17.984175","-41.31039","46.44497"
"era-780","15.179014","-32.082195","32.425198","-16.171091","-30.650745","31.92114","17.990185","-41.325104","46.463543"
"era-781","15.184262","-32.0925","32.434708","-16.178263","-30.664001","31.935047","17.996174","-41.339806","46.4821"
"era-782","15.189496","-32.10278","32.4442","-16.185423","-30.677237","31.948933","18.002184","-41.354477","46.500645"
"era-783","15.194726","-32.113052","32.453697","-16.192585","-30.690472","31.962807","18.00819","-41.369152","46.519146"
"era-784","15.199953","-32.123333","32.46319","-16.199734","-30.703686","31.976671","18.014185","-41.383812","46.537636"
"era-785","15.205175","-32.133583","32.472683","-16.206875","-30.716885","31.990519","18.020166","-41.39846","46.556103"
"era-786","15.210391","-32.14384","32.482136","-16.214","-30.730078","32.004353","18.026134","-41.413086","46.574543"
"era-787","15.215606","-32.154083","32.491585","-16.221127","-30.743267","32.018177","18.03209","-41.427685","46.592964"
"era-788","15.220818","-32.164318","32.501034","-16.22824","-30.75643","32.031967","18.038046","-41.44225","46.61137"
"era-789","15.22602","-32.17453","32.510468","-16.235344","-30.769573","32.04575","18.043999","-41.456818","46.629757"
"era-790","15.231223","-32.18475","32.519886","-16.242458","-30.782713","32.05954","18.049952","-41.47137","46.64813"
"era-791","15.236411","-32.194927","32.529297","-16.249548","-30.79585","32.0733","18.0559","-41.48591","46.66648"
"era-792","15.24158","-32.20509","32.538715","-16.256638","-30.80898","32.087055","18.061832","-41.500416","46.684822"
"era-793","15.246755","-32.215256","32.54811","-16.263725","-30.822079","32.100792","18.06776","-41.514904","46.703148"
"era-794","15.25192","-32.225407","32.557503","-16.270803","-30.835175","32.114513","18.073689","-41.529396","46.721455"
"era-795","15.257083","-32.235546","32.566864","-16.277864","-30.848248","32.128212","18.0796","-41.543873","46.739735"
"era-796","15.262244","-32.24568","32.576225","-16.284927","-30.86132","32.141926","18.085491","-41.558334","46.75798"
"era-797","15.267394","-32.255802","32.58555","-16.29198","-30.874367","32.155605","18.091368","-41.572765","46.776215"
"era-798","15.272549","-32.26591","32.594868","-16.299026","-30.887403","32.16928","18.097239","-41.587177","46.79444"
"era-799","15.277696","-32.27603","32.604202","-16.306067","-30.900436","32.18295","18.103104","-41.60159","46.812668"
"era-800","15.282839","-32.28612","32.613506","-16.313087","-30.91346","32.196575","18.108955","-41.615982","46.83087"
"era-801","15.287969","-32.2962","32.622814","-16.32011","-30.926458","32.210213","18.11481","-41.630337","46.849033"
"era-802","15.293089","-32.30625","32.6321","-16.327114","-30.939447","32.22382","18.120657","-41.644688","46.86717"
"era-803","15.298206","-32.31632","32.64138","-16.334118","-30.952425","32.237408","18.1265","-41.658997","46.88528"
"era-804","15.303327","-32.326363","32.65065","-16.341114","-30.965391","32.250988","18.132332","-41.673298","46.903397"
"era-805","15.308447","-32.336414","32.659912","-16.348108","-30.978348","32.264553","18.138147","-41.68759","46.921482"
"era-806","15.313554","-32.34643","32.669163","-16.3551","-30.99129","32.278122","18.14398","-41.701878","46.939568"
"era-807","15.318661","-32.356464","32.678406","-16.362076","-31.004211","32.29166","18.1498","-41.716137","46.957615"
"era-808","15.323778","-32.366486","32.687622","-16.369055","-31.017136","32.3052","18.155613","-41.730377","46.97566"
"era-809","15.328876","-32.376476","32.69683","-16.376019","-31.030039","32.31872","18.161419","-41.744614","46.993694"
"era-810","15.333966","-32.38646","32.706028","-16.382984","-31.042934","32.33223","18.1672","-41.758823","47.01172"
"era-811","15.339054","-32.39644","32.715218","-16.389952","-31.055815","32.34575","18.172989","-41.77301","47.029705"
"era-812","15.344139","-32.406403","32.724377","-16.396902","-31.06869","32.35923","18.17877","-41.78718","47.047672"
"era-813","15.349219","-32.416355","32.73354","-16.403858","-31.08154","32.37271","18.184544","-41.801327","47.065655"
"era-814","15.354297","-32.42631","32.742702","-16.410805","-31.09439","32.38618","18.190317","-41.81547","47.083603"
"era-815","15.3593645","-32.436245","32.751865","-16.417738","-31.107224","32.39963","18.19608","-41.829613","47.10155"
"era-816","15.364429","-32.446175","32.76099","-16.424671","-31.12003","32.413082","18.201834","-41.843735","47.119453"
"era-817","15.36949","-32.456085","32.770126","-16.431597","-31.132841","32.426506","18.20758","-41.85784","47.137352"
"era-818","15.374539","-32.465984","32.779247","-16.438513","-31.145645","32.439926","18.213339","-41.87195","47.15523"
"era-819","15.379591","-32.475876","32.788353","-16.44542","-31.15843","32.453327","18.219076","-41.88602","47.1731"
"era-820","15.384631","-32.485752","32.79746","-16.452324","-31.17121","32.466717","18.224812","-41.900066","47.190937"
"era-821","15.38967","-32.495625","32.80655","-16.459219","-31.183983","32.480095","18.230537","-41.914104","47.20876"
"era-822","15.394696","-32.505486","32.815643","-16.466108","-31.196745","32.493458","18.236254","-41.928135","47.226578"
"era-823","15.399727","-32.515354","32.824707","-16.472988","-31.209488","32.50681","18.241964","-41.94215","47.24439"
"era-824","15.404758","-32.525196","32.833767","-16.47985","-31.222221","32.520138","18.247684","-41.95616","47.262165"
"era-825","15.409779","-32.53505","32.842842","-16.48671","-31.234934","32.53345","18.253378","-41.97015","47.279922"
"era-826","15.414795","-32.544876","32.85188","-16.493565","-31.247637","32.546757","18.259054","-41.984104","47.29767"
"era-827","15.419807","-32.554695","32.86092","-16.50042","-31.260334","32.560062","18.26475","-41.998035","47.315388"
"era-828","15.424819","-32.564503","32.869946","-16.507277","-31.273024","32.57336","18.270437","-42.011967","47.333088"
"era-829","15.429816","-32.57429","32.878967","-16.514116","-31.285696","32.586636","18.276112","-42.0259","47.35079"
