"era-0","0.27777117","-0.20765968","0.53959596","-0.6107854","-0.04790036","0.07821441","-1.5465496","-1.2344135","-0.731457"
"era-1","0.31324515","-0.20035407","0.6156676","-0.5848649","-0.035920087","0.121133775","-1.5327618","-1.2433492","-0.72300154"
"era-2","0.34919193","-0.19539319","0.69267535","-0.5585921","-0.023952516","0.16362806","-1.5170231","-1.2547673","-0.71549135"
"era-3","0.3856217","-0.19306916","0.77083254","-0.53197974","-0.012052445","0.20573832","-1.4994127","-1.2687309","-0.70887756"
"era-4","0.4225484","-0.19370128","0.8503766","-0.50505126","-2.7864822E-4","0.24749531","-1.4798986","-1.2852728","-0.70306337"
"era-5","0.4600033","-0.19763403","0.9315776","-0.47782788","0.011310017","0.2889235","-1.4584334","-1.3044611","-0.697945"
"era-6","0.49803784","-0.20524192","1.0147473","-0.45033318","0.02265466","0.3300413","-1.434949","-1.3264047","-0.6934078"
"era-7","0.5367256","-0.21693614","1.1002449","-0.4225898","0.033696257","0.37086052","-1.4093527","-1.3512558","-0.6893298"
"era-8","0.5761689","-0.23317342","1.1884991","-0.3946249","0.044375334","0.41138455","-1.3815238","-1.3792261","-0.6855673"
"era-9","0.6164999","-0.25446585","1.2800058","-0.36646432","0.05463277","0.45161185","-1.3513057","-1.4105861","-0.68196326"
"era-10","0.6578902","-0.28139582","1.3753525","-0.33813685","0.06440947","0.4915298","-1.3184942","-1.4456929","-0.67833304"
"era-11","0.7005537","-0.31463358","1.475242","-0.30967462","0.07364789","0.5311187","-1.28283","-1.4849991","-0.67446303"
"era-12","0.74475837","-0.3549611","1.5805142","-0.28111216","0.082291566","0.5703446","-1.2439814","-1.5290838","-0.6700975"
"era-13","0.79083675","-0.40330297","1.6921768","-0.25248677","0.090287656","0.609165","-1.2015301","-1.5786676","-0.6649361"
"era-14","0.83920044","-0.46076503","1.8114597","-0.22384062","0.09758824","0.6475198","-1.1549449","-1.6346599","-0.6586113"
"era-15","0.89035636","-0.5286887","1.9398639","-0.19522029","0.10415193","0.6853329","-1.1035514","-1.6982052","-0.6506785"
"era-16","0.944929","-0.60872394","2.079229","-0.16667895","0.1099489","0.7225034","-1.0464922","-1.7707471","-0.6405835"
"era-17","1.0036896","-0.70292026","2.23185","-0.13827531","0.114964746","0.75890803","-0.982669","-1.8541213","-0.6276349"
"era-18","1.0675848","-0.81386274","2.4005878","-0.11007439","0.11920846","0.7943886","-0.9106682","-1.9506757","-0.61095494"
"era-19","1.1377678","-0.94484055","2.5890481","-0.082146674","0.12272316","0.8287501","-0.82865924","-2.063436","-0.5894176"
"era-20","1.2156454","-1.1000835","2.8017805","-0.05456274","0.12560257","0.86175215","-0.7342597","-2.1963267","-0.5615691"
"era-21","1.3029033","-1.2850704","3.04457","-0.027382066","0.12801783","0.89310235","-0.6243562","-2.3544753","-0.52551097"
"era-22","1.4015527","-1.5069209","3.3247728","-6.312374E-4","0.13025583","0.92245543","-0.49487495","-2.544622","-0.4787506"
"era-23","1.513945","-1.7748253","3.651648","0.025743067","0.13278164","0.94941974","-0.3405136","-2.775614","-0.41802067"
"era-24","1.6428672","-2.1004035","4.036679","0.05196105","0.13632934","0.9735958","-0.15449429","-3.0589347","-0.33907098"
"era-25","1.7917494","-2.4976308","4.4936113","0.07856274","0.14202458","0.99467224","0.07154024","-3.4090486","-0.2365077"
"era-26","1.9652354","-2.9815757","5.037628","0.106649525","0.15150398","1.0126419","0.34711504","-3.8429217","-0.10382423"
"era-27","2.1701143","-3.5647538","5.6827126","0.13818522","0.16689163","1.0282687","0.6813286","-4.3774066","0.066002585"
"era-28","2.4158077","-4.250316","6.435778","0.17616288","0.19027156","1.0439335","1.0791901","-5.0227575","0.27879184"
"era-29","2.7120593","-5.0242105","7.287887","0.2241578","0.2221429","1.0647745","1.5359586","-5.772448","0.5360213"
"era-30","3.0626605","-5.853199","8.208482","0.28480458","0.25898412","1.0992992","2.032938","-6.5956903","0.83171284"
"era-31","3.4598784","-6.6944737","9.151562","0.35779053","0.29180825","1.1580396","2.5407617","-7.443191","1.1529881"
"era-32","3.8863034","-7.5112367","10.072706","0.43910292","0.30791837","1.2502637","3.030232","-8.265854","1.485723"
"era-33","4.322595","-8.281835","10.942618","0.5220196","0.29469106","1.3810261","3.481641","-9.031004","1.8208386"
"era-34","4.7536216","-8.99878","11.7492075","0.59837687","0.24194856","1.5505095","3.886518","-9.7257","2.15668"
"era-35","5.1700206","-9.663454","12.492245","0.65892285","0.14158057","1.7552719","4.244412","-10.350831","2.4978573"
"era-36","5.5669026","-10.281456","13.177497","0.69289696","-0.0145642515","1.990032","4.5594234","-10.91396","2.8535094"
"era-37","5.94196","-10.860189","13.812851","0.6871115","-0.23758753","2.2493699","4.8383775","-11.424427","3.2369618"
"era-38","6.293882","-11.408154","14.406315","0.62448967","-0.5454378","2.5294106","5.090633","-11.890436","3.6676984"
"era-39","6.6209774","-11.935803","14.96511","0.48172414","-0.96892244","2.8304837","5.329648","-12.317174","4.1768017"
"era-40","6.919702","-12.457794","15.494578","0.22715297","-1.5608327","3.1638181","5.5762854","-12.704986","4.8178005"
"era-41","7.18322","-12.995933","15.996236","-0.17334342","-2.4025993","3.5706","5.859705","-13.050776","5.68138"
"era-42","7.4005585","-13.577323","16.464533","-0.7221886","-3.574256","4.153627","6.193144","-13.371419","6.885213"
"era-43","7.550269","-14.219462","16.886478","-1.351874","-5.0391254","5.028598","6.517791","-13.752037","8.466465"
"era-44","7.6166053","-14.897847","17.252699","-1.9824306","-6.571125","6.127465","6.7564545","-14.277257","10.247578"
"era-45","7.639631","-15.536846","17.573185","-2.5718114","-7.9329224","7.237154","6.9253345","-14.903817","11.958061"
"era-46","7.6667066","-16.084358","17.86485","-3.1008694","-9.0465765","8.229819","7.0740867","-15.544523","13.45482"
"era-47","7.7111263","-16.539778","18.136957","-3.5686147","-9.942395","9.085084","7.226403","-16.153734","14.725706"
"era-48","7.769885","-16.922413","18.393167","-3.9826674","-10.673255","9.8225355","7.3860526","-16.719358","15.806696"
"era-49","7.837799","-17.251406","18.635132","-4.3518023","-11.283464","10.466484","7.550419","-17.242474","16.738108"
"era-50","7.910985","-17.541107","18.864098","-4.683639","-11.80504","11.036772","7.71613","-17.727556","17.55296"
"era-51","7.986945","-17.80152","19.081131","-4.984244","-12.260322","11.54824","7.8806143","-18.179482","18.27606"
"era-52","8.06414","-18.03955","19.287203","-5.2584453","-12.664985","12.011859","8.042178","-18.602514","18.925858"
"era-53","8.141623","-18.260057","19.483303","-5.5100803","-13.03014","12.435897","8.199794","-19.000326","19.51609"
"era-54","8.218815","-18.466482","19.670282","-5.7422724","-13.363811","12.826688","8.352882","-19.375904","20.057144"
"era-55","8.295347","-18.66133","19.848969","-5.9575744","-13.671905","13.189195","8.50122","-19.73179","20.55696"
"era-56","8.370963","-18.846407","20.02005","-6.1581044","-13.958819","13.52736","8.644741","-20.070107","21.021746"
"era-57","8.445525","-19.023167","20.184225","-6.34565","-14.22791","13.8443985","8.78351","-20.392664","21.456488"
"era-58","8.5189295","-19.192675","20.342127","-6.521723","-14.481791","14.142928","8.917659","-20.70094","21.865112"
"era-59","8.591107","-19.355778","20.494284","-6.687604","-14.722499","14.425155","9.047372","-20.996283","22.25085"
"era-60","8.662032","-19.513165","20.641169","-6.8444123","-14.951666","14.692906","9.17286","-21.279833","22.61636"
"era-61","8.731696","-19.66541","20.783203","-6.993089","-15.170618","14.947744","9.294304","-21.55254","22.963854"
"era-62","8.800071","-19.81294","20.920805","-7.1344533","-15.380438","15.190989","9.411942","-21.815329","23.295216"
"era-63","8.867173","-19.956158","21.054295","-7.2692304","-15.582041","15.423776","9.525952","-22.068909","23.612045"
"era-64","8.933005","-20.095398","21.184025","-7.398016","-15.776213","15.6470785","9.63653","-22.314016","23.915686"
"era-65","8.997602","-20.23095","21.31023","-7.5213904","-15.96357","15.86179","9.743885","-22.551249","24.207342"
"era-66","9.060981","-20.363012","21.433155","-7.6398273","-16.144688","16.068617","9.848179","-22.781105","24.488018"
"era-67","9.123127","-20.49183","21.55311","-7.753748","-16.320063","16.268232","9.949576","-23.004108","24.758656"
"era-68","9.184101","-20.617628","21.67024","-7.863509","-16.490126","16.46121","10.048217","-23.22074","25.02006"
"era-69","9.243942","-20.740555","21.784729","-7.9694567","-16.65528","16.648052","10.144264","-23.43132","25.272905"
"era-70","9.302678","-20.860764","21.896711","-8.071892","-16.815811","16.829239","10.237835","-23.636251","25.517786"
"era-71","9.360316","-20.978384","22.006395","-8.171077","-16.972036","17.005169","10.329064","-23.835848","25.755293"
"era-72","9.416902","-21.09359","22.113865","-8.267239","-17.124228","17.176203","10.418036","-24.030403","25.985903"
"era-73","9.47249","-21.206482","22.219246","-8.360603","-17.272654","17.342651","10.504895","-24.220196","26.210077"
"era-74","9.527097","-21.317165","22.322653","-8.451327","-17.417484","17.504812","10.589741","-24.405518","26.428198"
"era-75","9.580738","-21.425714","22.424185","-8.539603","-17.55896","17.662956","10.672645","-24.586527","26.640648"
"era-76","9.633445","-21.532244","22.523968","-8.625594","-17.697271","17.817347","10.75371","-24.763477","26.847729"
"era-77","9.685264","-21.63686","22.622057","-8.709435","-17.83258","17.968184","10.833018","-24.936571","27.049746"
"era-78","9.73621","-21.73962","22.718498","-8.791249","-17.96505","18.11569","10.91065","-25.105999","27.247017"
"era-79","9.786323","-21.8406","22.813383","-8.871165","-18.094807","18.260033","10.98667","-25.271904","27.439753"
"era-80","9.835624","-21.939877","22.906803","-8.949291","-18.22199","18.401371","11.061151","-25.43444","27.628223"
"era-81","9.884155","-22.03754","22.998802","-9.025716","-18.346714","18.53987","11.134136","-25.59378","27.812675"
"era-82","9.931924","-22.13363","23.089437","-9.100534","-18.469114","18.675678","11.205714","-25.750069","27.993267"
"era-83","9.978964","-22.22822","23.178783","-9.173827","-18.589283","18.808914","11.275928","-25.903402","28.170193"
"era-84","10.025298","-22.321346","23.26685","-9.245675","-18.707346","18.93971","11.344819","-26.053888","28.343613"
"era-85","10.070934","-22.413074","23.353704","-9.31614","-18.823362","19.068195","11.412456","-26.201742","28.513697"
"era-86","10.115896","-22.503431","23.439386","-9.385297","-18.93745","19.19446","11.478888","-26.34698","28.680628"
"era-87","10.160219","-22.592493","23.523947","-9.453175","-19.049673","19.318563","11.544153","-26.489717","28.844492"
"era-88","10.203914","-22.68029","23.607439","-9.519871","-19.160131","19.440647","11.608297","-26.630047","29.00545"
"era-89","10.246992","-22.76688","23.689857","-9.58541","-19.268858","19.560774","11.671333","-26.76809","29.163618"
"era-90","10.289491","-22.85228","23.771261","-9.649847","-19.375956","19.679045","11.733331","-26.90392","29.319107"
"era-91","10.331413","-22.93655","23.851692","-9.71323","-19.481493","19.795527","11.794313","-27.037605","29.472013"
"era-92","10.372794","-23.019718","23.931152","-9.775604","-19.585505","19.910263","11.854311","-27.169193","29.62246"
"era-93","10.413636","-23.101818","24.009653","-9.837001","-19.688053","20.023329","11.913353","-27.298796","29.770557"
"era-94","10.453962","-23.182886","24.087242","-9.897459","-19.789206","20.134813","11.971482","-27.4265","29.916346"
"era-95","10.493795","-23.262964","24.163967","-9.957026","-19.889027","20.244768","12.028714","-27.5523","30.059938"
"era-96","10.533141","-23.342072","24.239828","-10.015726","-19.987513","20.35324","12.085106","-27.676329","30.2014"
"era-97","10.572022","-23.420237","24.314833","-10.073588","-20.084742","20.460253","12.140658","-27.798569","30.340834"
"era-98","10.610446","-23.497475","24.389034","-10.1306505","-20.18075","20.565876","12.195398","-27.91907","30.478268"
"era-99","10.64843","-23.57383","24.462421","-10.186954","-20.27554","20.67017","12.249351","-28.037937","30.613802"
"era-100","10.685984","-23.649324","24.53504","-10.242508","-20.3692","20.77318","12.302549","-28.155216","30.747473"
"era-101","10.723108","-23.72398","24.60692","-10.297326","-20.461786","20.87494","12.355001","-28.270947","30.879374"
"era-102","10.759831","-23.797823","24.678047","-10.351448","-20.553286","20.975473","12.406736","-28.385183","31.009573"
"era-103","10.79616","-23.870865","24.74844","-10.404913","-20.643747","21.074867","12.457776","-28.497957","31.138088"
"era-104","10.832094","-23.94314","24.818146","-10.457694","-20.733198","21.173098","12.508136","-28.60933","31.26497"
"era-105","10.867671","-24.014685","24.887152","-10.509852","-20.821669","21.27024","12.557834","-28.719345","31.390295"
"era-106","10.902876","-24.085495","24.955502","-10.561398","-20.909195","21.366325","12.606878","-28.828016","31.514078"
"era-107","10.937719","-24.155584","25.023193","-10.612329","-20.995815","21.461363","12.655314","-28.93541","31.636398"
"era-108","10.972219","-24.224983","25.090225","-10.662674","-21.081533","21.555374","12.703142","-29.041569","31.757301"
"era-109","11.006372","-24.293692","25.15665","-10.712451","-21.166412","21.648426","12.750399","-29.146524","31.876804"
"era-110","11.040195","-24.361729","25.22244","-10.761688","-21.250462","21.740545","12.797093","-29.25029","31.994953"
"era-111","11.073702","-24.429117","25.287619","-10.810401","-21.333647","21.831713","12.84323","-29.35287","32.11177"
"era-112","11.106892","-24.495872","25.352226","-10.858593","-21.416044","21.921976","12.888832","-29.454313","32.22734"
"era-113","11.139773","-24.562017","25.416256","-10.906289","-21.497675","22.011374","12.933878","-29.554646","32.34166"
"era-114","11.172372","-24.62757","25.479729","-10.953477","-21.578547","22.099897","12.97842","-29.65388","32.454754"
"era-115","11.2046795","-24.692528","25.542637","-11.000206","-21.658693","22.187592","13.022451","-29.75204","32.56667"
"era-116","11.236695","-24.756916","25.605011","-11.046473","-21.738121","22.27449","13.065969","-29.849167","32.67744"
"era-117","11.268435","-24.820732","25.666851","-11.092292","-21.816837","22.360582","13.109008","-29.945246","32.7871"
"era-118","11.299892","-24.883974","25.72817","-11.137683","-21.894876","22.445898","13.151565","-30.040281","32.895702"
"era-119","11.331085","-24.946684","25.788988","-11.182637","-21.972229","22.530443","13.193651","-30.134344","33.00319"
"era-120","11.362013","-25.008858","25.849287","-11.227179","-22.048937","22.61425","13.235277","-30.227425","33.10964"
"era-121","11.392704","-25.070532","25.909084","-11.271311","-22.125004","22.697334","13.276433","-30.31955","33.215076"
"era-122","11.4231415","-25.131702","25.968433","-11.315045","-22.200468","22.779726","13.317154","-30.410755","33.31955"
"era-123","11.4533205","-25.192379","26.027302","-11.358399","-22.275312","22.861427","13.357423","-30.501074","33.42307"
"era-124","11.483263","-25.25256","26.08571","-11.40136","-22.349577","22.942465","13.397283","-30.59054","33.525608"
"era-125","11.512971","-25.312267","26.143635","-11.443943","-22.423256","23.022848","13.436718","-30.679157","33.627228"
"era-126","11.542446","-25.37152","26.201117","-11.48616","-22.496387","23.102585","13.475738","-30.76692","33.727917"
"era-127","11.571697","-25.4303","26.258152","-11.528023","-22.568958","23.181696","13.514379","-30.853891","33.827778"
"era-128","11.600714","-25.488625","26.314764","-11.569529","-22.640974","23.260176","13.552636","-30.940062","33.926735"
"era-129","11.629519","-25.546505","26.370941","-11.610686","-22.712475","23.338053","13.590525","-31.025457","34.024845"
"era-130","11.658124","-25.60397","26.426731","-11.651511","-22.783459","23.41536","13.628059","-31.110098","34.12208"
"era-131","11.6865015","-25.660995","26.48211","-11.692022","-22.853941","23.492094","13.665244","-31.194006","34.218536"
"era-132","11.714676","-25.717594","26.537092","-11.732211","-22.923933","23.568247","13.702094","-31.277166","34.314224"
"era-133","11.742651","-25.77378","26.591654","-11.772084","-22.993437","23.643845","13.73859","-31.359581","34.409134"
"era-134","11.770431","-25.829557","26.645819","-11.811659","-23.06247","23.71891","13.774758","-31.441307","34.503296"
"era-135","11.798027","-25.88496","26.69962","-11.850928","-23.131044","23.793442","13.810617","-31.522373","34.59671"
"era-136","11.825435","-25.93996","26.75302","-11.889908","-23.199156","23.867456","13.846165","-31.60276","34.68937"
"era-137","11.852635","-25.99455","26.806051","-11.928601","-23.266806","23.940948","13.881411","-31.68249","34.78134"
"era-138","11.879665","-26.048777","26.85871","-11.967005","-23.334028","24.013935","13.916341","-31.761553","34.8726"
"era-139","11.906508","-26.102623","26.911003","-12.005133","-23.4008","24.086432","13.950963","-31.839972","34.963154"
"era-140","11.933178","-26.156116","26.962929","-12.043001","-23.467133","24.158457","13.985275","-31.917774","35.053043"
"era-141","11.959667","-26.20924","27.014517","-12.080594","-23.533066","24.230001","14.019309","-31.99494","35.14228"
"era-142","11.98598","-26.262005","27.065748","-12.117913","-23.59858","24.301064","14.053045","-32.071514","35.23085"
"era-143","12.0121355","-26.31444","27.11666","-12.154988","-23.663687","24.371674","14.086491","-32.147453","35.31881"
"era-144","12.038116","-26.366526","27.16723","-12.191808","-23.728415","24.441835","14.1196575","-32.22283","35.406147"
"era-145","12.063936","-26.418276","27.21748","-12.228365","-23.792776","24.511545","14.152545","-32.297604","35.492825"
"era-146","12.089582","-26.469687","27.267395","-12.264679","-23.856743","24.58082","14.185157","-32.371838","35.578945"
"era-147","12.115075","-26.520792","27.31699","-12.30075","-23.920326","24.649677","14.217488","-32.445538","35.664486"
"era-148","12.1404085","-26.571566","27.366274","-12.336581","-23.983538","24.718117","14.249565","-32.518692","35.749413"
"era-149","12.165593","-26.622032","27.41523","-12.372189","-24.046381","24.786137","14.281372","-32.59131","35.833805"
"era-150","12.190625","-26.672192","27.46388","-12.407557","-24.108885","24.85376","14.312928","-32.66341","35.9176"
"era-151","12.215508","-26.72204","27.51222","-12.442704","-24.171034","24.920982","14.344229","-32.734962","36.000847"
"era-152","12.240242","-26.771595","27.560276","-12.477622","-24.232853","24.987822","14.375289","-32.806065","36.08355"
"era-153","12.264822","-26.820839","27.608057","-12.512336","-24.294348","25.05428","14.406105","-32.876617","36.165726"
"era-154","12.289256","-26.869785","27.65554","-12.546832","-24.3555","25.12035","14.436692","-32.94668","36.24736"
"era-155","12.3135605","-26.918459","27.702732","-12.581117","-24.41632","25.186045","14.467033","-33.01626","36.3285"
"era-156","12.337719","-26.966833","27.749632","-12.615189","-24.47681","25.251368","14.497149","-33.08537","36.4091"
"era-157","12.361735","-27.014933","27.796265","-12.649059","-24.536985","25.316332","14.527031","-33.154","36.48921"
"era-158","12.385617","-27.062746","27.842625","-12.682724","-24.596859","25.38094","14.556709","-33.22219","36.56884"
"era-159","12.409363","-27.110289","27.888712","-12.7162","-24.656422","25.445187","14.586149","-33.289883","36.648006"
"era-160","12.43298","-27.157564","27.93453","-12.749482","-24.715677","25.509096","14.615377","-33.357143","36.72668"
"era-161","12.456466","-27.204565","27.980078","-12.782575","-24.774628","25.572662","14.644391","-33.423927","36.80488"
"era-162","12.479825","-27.251305","28.025358","-12.815478","-24.833288","25.635874","14.673172","-33.49026","36.882668"
"era-163","12.5030575","-27.29779","28.070381","-12.848195","-24.891655","25.698772","14.7017565","-33.556213","36.959995"
"era-164","12.526157","-27.344019","28.115149","-12.880725","-24.949736","25.761353","14.730134","-33.62175","37.03686"
"era-165","12.549128","-27.389984","28.159674","-12.913076","-25.007542","25.8236","14.758315","-33.68685","37.1133"
"era-166","12.571977","-27.435694","28.20394","-12.945255","-25.065067","25.88553","14.786281","-33.751522","37.189304"
"era-167","12.594708","-27.481165","28.247969","-12.97726","-25.122316","25.947147","14.814067","-33.815804","37.26486"
"era-168","12.6173115","-27.526377","28.291752","-13.009074","-25.17932","26.008457","14.84168","-33.8797","37.339973"
"era-169","12.639808","-27.571363","28.335299","-13.040736","-25.236034","26.069475","14.86909","-33.943195","37.414692"
"era-170","12.662188","-27.616117","28.378609","-13.0722275","-25.29247","26.130188","14.896301","-34.006325","37.489014"
"era-171","12.68446","-27.660648","28.421692","-13.103556","-25.34865","26.190596","14.923338","-34.069042","37.562927"
"era-172","12.706626","-27.704958","28.464554","-13.134717","-25.404604","26.250708","14.950184","-34.131363","37.63644"
"era-173","12.728668","-27.749023","28.50719","-13.165725","-25.46028","26.310553","14.976848","-34.19332","37.70958"
"era-174","12.750602","-27.792871","28.549616","-13.1965685","-25.515713","26.370102","15.003333","-34.254936","37.782337"
"era-175","12.772429","-27.836498","28.591814","-13.227254","-25.570915","26.429375","15.029653","-34.316177","37.854725"
"era-176","12.794154","-27.87991","28.633783","-13.257801","-25.625866","26.488365","15.055796","-34.377033","37.92677"
"era-177","12.815772","-27.9231","28.675545","-13.288185","-25.680584","26.54708","15.081779","-34.437546","37.998417"
"era-178","12.837289","-27.966082","28.717094","-13.31843","-25.735052","26.605541","15.107582","-34.497715","38.0697"
"era-179","12.8587","-28.008842","28.758413","-13.348529","-25.789309","26.663736","15.133218","-34.557526","38.14063"
"era-180","12.880007","-28.051397","28.799532","-13.378486","-25.843313","26.721668","15.158693","-34.61701","38.211216"
"era-181","12.901208","-28.093735","28.840446","-13.408301","-25.89709","26.779343","15.184026","-34.67616","38.28144"
"era-182","12.922315","-28.13588","28.881153","-13.437984","-25.950655","26.836767","15.209183","-34.734936","38.35132"
"era-183","12.943324","-28.17781","28.921656","-13.467528","-26.003994","26.893932","15.234187","-34.79339","38.420895"
"era-184","12.964231","-28.219545","28.961956","-13.496935","-26.057108","26.950865","15.259027","-34.85155","38.490135"
"era-185","12.985036","-28.261078","29.002071","-13.526209","-26.110003","27.007538","15.283711","-34.90939","38.559055"
"era-186","13.005748","-28.30242","29.041986","-13.555345","-26.162678","27.063972","15.308248","-34.966904","38.627632"
"era-187","13.026364","-28.343561","29.081713","-13.5843525","-26.215153","27.12017","15.3326435","-35.024082","38.695877"
"era-188","13.046887","-28.384508","29.12124","-13.613219","-26.267412","27.176104","15.356869","-35.08092","38.76381"
"era-189","13.067319","-28.425262","29.16057","-13.6419735","-26.319471","27.231829","15.380957","-35.13744","38.83142"
"era-190","13.087664","-28.465847","29.19972","-13.670589","-26.371313","27.287308","15.404883","-35.19369","38.898716"
"era-191","13.107918","-28.506233","29.238674","-13.6990795","-26.422953","27.342558","15.428694","-35.24965","38.96572"
"era-192","13.12809","-28.54645","29.277456","-13.727456","-26.474392","27.397589","15.452357","-35.3053","39.03242"
"era-193","13.148157","-28.58647","29.316042","-13.755709","-26.525625","27.452402","15.475871","-35.360687","39.098797"
"era-194","13.168139","-28.626308","29.354458","-13.783829","-26.576677","27.506992","15.499255","-35.41578","39.16489"
"era-195","13.188027","-28.66597","29.39269","-13.81183","-26.627535","27.56137","15.522503","-35.470627","39.230705"
"era-196","13.207849","-28.705475","29.430742","-13.839715","-26.678205","27.615532","15.545607","-35.52516","39.296207"
"era-197","13.22759","-28.744804","29.46864","-13.867495","-26.728693","27.66948","15.5686","-35.579384","39.361427"
"era-198","13.24724","-28.783953","29.506342","-13.8951645","-26.778978","27.723223","15.591444","-35.633343","39.426353"
"era-199","13.266805","-28.822933","29.5439","-13.922706","-26.829077","27.776735","15.614166","-35.687035","39.49102"
"era-200","13.286287","-28.861748","29.581276","-13.950137","-26.878992","27.83005","15.636754","-35.740456","39.555393"
"era-201","13.305688","-28.900393","29.618479","-13.97746","-26.92872","27.883165","15.659224","-35.793636","39.61949"
"era-202","13.325004","-28.938868","29.655527","-14.004678","-26.978262","27.936083","15.681558","-35.84653","39.68336"
"era-203","13.344239","-28.977188","29.692406","-14.031781","-27.027641","27.9888","15.703761","-35.899204","39.746952"
"era-204","13.363395","-29.015345","29.72912","-14.058777","-27.076847","28.041325","15.725835","-35.951595","39.810307"
"era-205","13.382483","-29.05335","29.76569","-14.085666","-27.12587","28.093647","15.747803","-36.003757","39.873383"
"era-206","13.401489","-29.091185","29.802094","-14.112463","-27.174725","28.145779","15.769665","-36.055622","39.93622"
"era-207","13.420419","-29.128864","29.838335","-14.139156","-27.223408","28.197714","15.791392","-36.107212","39.998825"
"era-208","13.439275","-29.166388","29.874418","-14.165749","-27.271925","28.249456","15.813004","-36.158573","40.061165"
"era-209","13.458053","-29.203756","29.910357","-14.192235","-27.320269","28.301016","15.834494","-36.20969","40.123272"
"era-210","13.476759","-29.240976","29.946148","-14.21863","-27.368462","28.352388","15.855866","-36.26053","40.18511"
"era-211","13.495393","-29.278053","29.981789","-14.244931","-27.416481","28.403593","15.877119","-36.311146","40.246708"
"era-212","13.513957","-29.314981","30.017271","-14.271118","-27.464352","28.454597","15.898264","-36.361523","40.308067"
"era-213","13.532449","-29.351751","30.05261","-14.297218","-27.512054","28.50543","15.919304","-36.411663","40.369205"
"era-214","13.550869","-29.388382","30.08779","-14.32322","-27.5596","28.556093","15.940224","-36.461594","40.430103"
"era-215","13.569221","-29.424873","30.122826","-14.34914","-27.606983","28.606577","15.961033","-36.511253","40.490788"
"era-216","13.5875025","-29.461214","30.15771","-14.374949","-27.654213","28.656878","15.981731","-36.560715","40.55121"
"era-217","13.6057005","-29.497402","30.192453","-14.400668","-27.701273","28.707012","16.002317","-36.609943","40.61141"
"era-218","13.623842","-29.533459","30.22706","-14.426304","-27.748188","28.756971","16.022808","-36.658936","40.671402"
"era-219","13.6419115","-29.56937","30.261513","-14.451849","-27.79494","28.806759","16.043182","-36.70771","40.731186"
"era-220","13.659919","-29.605148","30.295834","-14.477306","-27.841545","28.856382","16.063448","-36.756237","40.79075"
"era-221","13.677861","-29.640787","30.33002","-14.50267","-27.888006","28.905836","16.083637","-36.80459","40.85006"
"era-222","13.695728","-29.676287","30.364073","-14.527947","-27.93431","28.955132","16.103716","-36.85272","40.909176"
"era-223","13.713531","-29.711657","30.397991","-14.553134","-27.980482","29.004253","16.123688","-36.90064","40.96809"
"era-224","13.731276","-29.7469","30.431782","-14.578224","-28.02651","29.053219","16.143566","-36.94837","41.02677"
"era-225","13.748948","-29.782003","30.465427","-14.603227","-28.072409","29.102026","16.163345","-36.99589","41.08523"
"era-226","13.766553","-29.81697","30.49894","-14.628151","-28.11814","29.15068","16.18303","-37.043224","41.1435"
"era-227","13.784104","-29.851805","30.53232","-14.652999","-28.163733","29.199171","16.20263","-37.09032","41.201588"
"era-228","13.801583","-29.886509","30.565569","-14.677766","-28.209187","29.247515","16.222118","-37.137207","41.259426"
"era-229","13.818997","-29.92108","30.598694","-14.702453","-28.254509","29.295706","16.241522","-37.183907","41.317074"
"era-230","13.836355","-29.95554","30.631683","-14.727056","-28.299692","29.34376","16.26083","-37.230446","41.37454"
"era-231","13.853653","-29.989868","30.664574","-14.751578","-28.344748","29.39165","16.280054","-37.276756","41.43178"
"era-232","13.870891","-30.024075","30.697317","-14.776012","-28.389656","29.439377","16.299171","-37.32287","41.48885"
"era-233","13.888065","-30.058159","30.729939","-14.80037","-28.43442","29.486954","16.318203","-37.368813","41.54574"
"era-234","13.905193","-30.092127","30.762436","-14.824652","-28.479053","29.534405","16.337156","-37.414577","41.602413"
"era-235","13.922245","-30.125965","30.794825","-14.848857","-28.523558","29.581703","16.356007","-37.460114","41.658882"
"era-236","13.939246","-30.159689","30.827097","-14.872993","-28.567934","29.628845","16.374763","-37.50544","41.715187"
"era-237","13.95619","-30.193289","30.85923","-14.897045","-28.612186","29.675856","16.393423","-37.55059","41.771282"
"era-238","13.9730835","-30.226793","30.891262","-14.921014","-28.656317","29.722733","16.412003","-37.595596","41.827194"
"era-239","13.989919","-30.26017","30.923172","-14.944911","-28.700317","29.76945","16.43051","-37.640423","41.882957"
"era-240","14.006694","-30.29342","30.954943","-14.968741","-28.744173","29.816032","16.448927","-37.685047","41.938526"
"era-241","14.023405","-30.326555","30.986609","-14.992503","-28.787903","29.86249","16.467241","-37.729492","41.993923"
"era-242","14.040063","-30.359573","31.018152","-15.016187","-28.83151","29.908798","16.485477","-37.773754","42.049126"
"era-243","14.056668","-30.392479","31.049582","-15.0398","-28.874987","29.954962","16.503622","-37.817814","42.104183"
"era-244","14.073206","-30.425264","31.080898","-15.063336","-28.918333","30.000996","16.521694","-37.861763","42.15907"
"era-245","14.089694","-30.457949","31.11211","-15.086803","-28.961563","30.046894","16.539661","-37.9055","42.213787"
"era-246","14.10613","-30.490513","31.143206","-15.1102","-29.004675","30.092655","16.55757","-37.949043","42.268353"
"era-247","14.122515","-30.52298","31.174204","-15.133525","-29.04767","30.138288","16.57541","-37.992477","42.322727"
"era-248","14.138841","-30.55533","31.205082","-15.156786","-29.090542","30.183792","16.593157","-38.035732","42.37693"
"era-249","14.155112","-30.587574","31.235857","-15.179969","-29.133293","30.229168","16.610802","-38.078796","42.430954"
"era-250","14.171326","-30.619703","31.266531","-15.203086","-29.175922","30.274403","16.628372","-38.121685","42.48483"
"era-251","14.187485","-30.651722","31.2971","-15.226138","-29.218441","30.319513","16.645872","-38.164394","42.53853"
"era-252","14.203601","-30.683643","31.327545","-15.24912","-29.260838","30.36449","16.663296","-38.206963","42.592075"
"era-253","14.219663","-30.71546","31.357878","-15.272039","-29.303122","30.409355","16.680624","-38.24939","42.64548"
"era-254","14.235674","-30.747175","31.388111","-15.294887","-29.345291","30.454094","16.697866","-38.291634","42.6987"
"era-255","14.251626","-30.77878","31.418242","-15.317661","-29.387352","30.498709","16.715048","-38.333767","42.751755"
"era-256","14.267528","-30.81028","31.448278","-15.340375","-29.429296","30.543192","16.732159","-38.37571","42.804634"
"era-257","14.283389","-30.84168","31.478199","-15.363036","-29.471128","30.587559","16.749187","-38.41745","42.857388"
"era-258","14.299193","-30.872978","31.508028","-15.385633","-29.512852","30.631813","16.766151","-38.45907","42.909977"
"era-259","14.31495","-30.90417","31.537745","-15.408162","-29.554462","30.675928","16.783035","-38.500507","42.962418"
"era-260","14.330663","-30.935272","31.567371","-15.430633","-29.595966","30.719934","16.799831","-38.541775","43.01469"
"era-261","14.346324","-30.966269","31.596893","-15.453034","-29.637358","30.763815","16.816576","-38.582935","43.06682"
"era-262","14.361937","-30.997173","31.626324","-15.475375","-29.67863","30.807583","16.833246","-38.62395","43.118793"
"era-263","14.377504","-31.027979","31.65565","-15.497656","-29.719809","30.851229","16.849854","-38.6648","43.170643"
"era-264","14.393028","-31.058693","31.68489","-15.519877","-29.760878","30.894754","16.86638","-38.70549","43.222347"
"era-265","14.408502","-31.089312","31.71403","-15.542037","-29.801836","30.938168","16.882841","-38.74605","43.2739"
"era-266","14.423933","-31.119839","31.743067","-15.564134","-29.84269","30.981468","16.899237","-38.786476","43.325317"
"era-267","14.43931","-31.150263","31.77202","-15.586175","-29.883438","31.024654","16.915552","-38.826717","43.37658"
"era-268","14.454646","-31.1806","31.800892","-15.608151","-29.924086","31.067717","16.931814","-38.866844","43.42771"
"era-269","14.469936","-31.210846","31.829655","-15.630066","-29.964632","31.110672","16.947992","-38.906822","43.478676"
"era-270","14.485181","-31.240997","31.858324","-15.651926","-30.005075","31.15352","16.964094","-38.946648","43.529503"
"era-271","14.500381","-31.271069","31.886906","-15.67373","-30.045406","31.19626","16.980124","-38.98635","43.580196"
"era-272","14.515532","-31.301035","31.915396","-15.695477","-30.085644","31.238892","16.996109","-39.02592","43.63077"
"era-273","14.530633","-31.330896","31.943775","-15.71717","-30.125782","31.281412","17.012026","-39.065346","43.681202"
"era-274","14.545703","-31.360691","31.972095","-15.738804","-30.165813","31.32382","17.027885","-39.104614","43.731476"
"era-275","14.560724","-31.39039","32.000313","-15.76038","-30.205746","31.36612","17.043669","-39.14377","43.781643"
"era-276","14.575701","-31.419996","32.028442","-15.781896","-30.245586","31.408308","17.059387","-39.182762","43.831657"
"era-277","14.590643","-31.449528","32.05648","-15.803362","-30.285324","31.450397","17.075047","-39.22165","43.88154"
"era-278","14.605535","-31.47897","32.084435","-15.824766","-30.324953","31.492382","17.090637","-39.260426","43.93128"
"era-279","14.620388","-31.508322","32.11229","-15.846119","-30.364485","31.534254","17.106167","-39.299046","43.98091"
"era-280","14.6352005","-31.537601","32.14008","-15.8674135","-30.403923","31.576025","17.121655","-39.337563","44.030403"
"era-281","14.649974","-31.56679","32.167797","-15.888657","-30.44328","31.617683","17.137077","-39.375896","44.079754"
"era-282","14.664704","-31.595886","32.195396","-15.909844","-30.482521","31.65924","17.152445","-39.414154","44.128994"
"era-283","14.679393","-31.6249","32.222923","-15.930977","-30.52169","31.7007","17.16775","-39.452263","44.178078"
"era-284","14.694037","-31.653822","32.25036","-15.952063","-30.560753","31.742058","17.183008","-39.490257","44.22702"
"era-285","14.708641","-31.682667","32.27771","-15.973094","-30.599722","31.78332","17.198181","-39.52811","44.275856"
"era-286","14.723208","-31.711428","32.304962","-15.994061","-30.638601","31.824469","17.21331","-39.565865","44.324566"
"era-287","14.737735","-31.74011","32.332146","-16.014986","-30.677383","31.865526","17.228373","-39.603466","44.373146"
"era-288","14.752221","-31.768719","32.359264","-16.035864","-30.716072","31.906483","17.243372","-39.64096","44.42163"
"era-289","14.76667","-31.797243","32.38629","-16.056686","-30.754667","31.947348","17.25831","-39.678314","44.469994"
"era-290","14.781079","-31.825687","32.413235","-16.077461","-30.793184","31.988111","17.273197","-39.715557","44.51822"
"era-291","14.795443","-31.854052","32.44012","-16.098179","-30.8316","32.028763","17.288021","-39.752655","44.566326"
"era-292","14.809773","-31.88234","32.466904","-16.118843","-30.869926","32.06932","17.302784","-39.789654","44.614334"
"era-293","14.824067","-31.910545","32.49362","-16.139471","-30.908163","32.109787","17.317497","-39.826508","44.662228"
"era-294","14.838319","-31.938677","32.52024","-16.160042","-30.946314","32.150166","17.332159","-39.86329","44.71"
"era-295","14.85254","-31.96674","32.546803","-16.180555","-30.984375","32.190422","17.346775","-39.899975","44.75765"
"era-296","14.866716","-31.994713","32.573296","-16.201025","-31.022345","32.230614","17.361334","-39.936497","44.80516"
"era-297","14.880856","-32.022617","32.599697","-16.22145","-31.060228","32.2707","17.375826","-39.972942","44.852577"
"era-298","14.894962","-32.05045","32.62602","-16.241817","-31.098028","32.31069","17.390268","-40.009262","44.89987"
"era-299","14.909021","-32.078186","32.652256","-16.262148","-31.135742","32.35061","17.404655","-40.04546","44.94703"
"era-300","14.92305","-32.105854","32.678417","-16.282425","-31.173372","32.39041","17.418987","-40.08153","44.994102"
"era-301","14.937033","-32.133453","32.704533","-16.302654","-31.210913","32.430138","17.43327","-40.117516","45.041054"
"era-302","14.950995","-32.16099","32.730553","-16.322845","-31.248375","32.46978","17.44749","-40.153362","45.087883"
"era-303","14.96493","-32.188454","32.75648","-16.342983","-31.28576","32.509315","17.461662","-40.189087","45.134617"
"era-304","14.978832","-32.215862","32.782375","-16.363073","-31.32305","32.54876","17.475794","-40.22472","45.181244"
"era-305","14.992697","-32.243187","32.808193","-16.38312","-31.360254","32.588123","17.489885","-40.260254","45.227745"
"era-306","15.006517","-32.270443","32.833942","-16.40311","-31.39737","32.62738","17.503902","-40.295692","45.274147"
"era-307","15.020307","-32.297626","32.85962","-16.423063","-31.434408","32.66656","17.5179","-40.33104","45.320442"
"era-308","15.034048","-32.32473","32.88524","-16.44297","-31.471367","32.70567","17.531818","-40.36628","45.366623"
"era-309","15.04775","-32.35175","32.910767","-16.462826","-31.508251","32.74467","17.545696","-40.401382","45.41268"
"era-310","15.061422","-32.378696","32.936226","-16.482643","-31.54505","32.783592","17.55954","-40.43639","45.45866"
"era-311","15.075067","-32.405594","32.961617","-16.502413","-31.581776","32.82243","17.573305","-40.47128","45.50451"
"era-312","15.088681","-32.432426","32.986935","-16.522133","-31.618397","32.861168","17.587036","-40.50609","45.550255"
"era-313","15.102251","-32.45917","33.01218","-16.541819","-31.654945","32.899826","17.600712","-40.54076","45.59591"
"era-314","15.1158085","-32.48587","33.03736","-16.561457","-31.691427","32.938404","17.61434","-40.575325","45.64144"
"era-315","15.129325","-32.512493","33.06248","-16.581043","-31.727823","32.97688","17.627937","-40.60979","45.686863"
"era-316","15.142808","-32.539043","33.0875","-16.600597","-31.764122","33.015278","17.641472","-40.644157","45.732185"
"era-317","15.156248","-32.565514","33.11246","-16.6201","-31.800352","33.053593","17.65497","-40.678436","45.777405"
"era-318","15.169659","-32.59192","33.137367","-16.639572","-31.836496","33.09182","17.668423","-40.7126","45.822533"
"era-319","15.183038","-32.61826","33.16221","-16.658983","-31.872576","33.129967","17.68184","-40.7467","45.86756"
"era-320","15.196372","-32.64453","33.18699","-16.678358","-31.908571","33.168026","17.695185","-40.78065","45.91249"
"era-321","15.209671","-32.670734","33.2117","-16.697691","-31.944502","33.206005","17.708488","-40.81451","45.957317"
"era-322","15.222945","-32.696877","33.23635","-16.716976","-31.980349","33.243904","17.72175","-40.848324","46.00204"
"era-323","15.236194","-32.72296","33.260914","-16.73622","-32.016125","33.281723","17.734964","-40.88203","46.046665"
"era-324","15.249416","-32.748997","33.285423","-16.755424","-32.051796","33.319454","17.748137","-40.91565","46.091187"
"era-325","15.262592","-32.77494","33.309883","-16.774574","-32.087418","33.357098","17.761269","-40.94915","46.135605"
"era-326","15.27573","-32.800816","33.33427","-16.793697","-32.12295","33.394676","17.774363","-40.98256","46.179928"
"era-327","15.288849","-32.826637","33.358578","-16.812778","-32.158398","33.432167","17.787397","-41.015865","46.224148"
"era-328","15.301942","-32.852394","33.382816","-16.83182","-32.19377","33.46958","17.8004","-41.0491","46.268272"
"era-329","15.3150015","-32.878094","33.406994","-16.850826","-32.229095","33.50693","17.813345","-41.08223","46.312305"
"era-330","15.328018","-32.90372","33.43113","-16.86977","-32.26434","33.544178","17.826246","-41.115257","46.35626"
"era-331","15.341021","-32.929302","33.455193","-16.88867","-32.29953","33.581333","17.839128","-41.1482","46.4001"
"era-332","15.353983","-32.954803","33.4792","-16.907543","-32.33464","33.618435","17.851973","-41.181057","46.443848"
"era-333","15.366927","-32.980263","33.503155","-16.926382","-32.369667","33.655457","17.86477","-41.213802","46.487503"
"era-334","15.379843","-33.00567","33.52704","-16.945168","-32.404613","33.692398","17.877514","-41.24648","46.53103"
"era-335","15.392716","-33.03099","33.55087","-16.963911","-32.439487","33.72924","17.89022","-41.27906","46.5745"
"era-336","15.405577","-33.05628","33.574635","-16.982615","-32.474293","33.76601","17.902876","-41.31152","46.61785"
"era-337","15.418397","-33.081497","33.59834","-17.001286","-32.509014","33.802715","17.915485","-41.34393","46.661125"
"era-338","15.431184","-33.10665","33.62198","-17.01991","-32.543682","33.83936","17.928032","-41.37626","46.704334"
"era-339","15.443944","-33.13176","33.645584","-17.038506","-32.578247","33.875904","17.940565","-41.4085","46.74745"
"era-340","15.456665","-33.156784","33.669113","-17.05705","-32.61276","33.912373","17.953056","-41.44065","46.790466"
"era-341","15.469366","-33.181774","33.69261","-17.075562","-32.647198","33.948772","17.965515","-41.47271","46.833393"
"era-342","15.482041","-33.206696","33.716022","-17.09404","-32.681564","33.985107","17.977922","-41.50468","46.876247"
"era-343","15.494679","-33.231552","33.73938","-17.112469","-32.71588","34.02136","17.990294","-41.536587","46.91898"
"era-344","15.507293","-33.256355","33.762676","-17.130865","-32.750107","34.057533","18.002636","-41.5684","46.961597"
"era-345","15.519888","-33.281105","33.78592","-17.149221","-32.78428","34.093636","18.014933","-41.600113","47.004154"
"era-346","15.532453","-33.3058","33.80911","-17.167543","-32.818375","34.12967","18.027195","-41.631737","47.0466"
"era-347","15.5449915","-33.330437","33.832233","-17.185818","-32.85241","34.16561","18.03941","-41.6633","47.088978"
"era-348","15.557504","-33.35503","33.855305","-17.204063","-32.886375","34.201504","18.051586","-41.69476","47.131275"
"era-349","15.5699835","-33.379555","33.878315","-17.222273","-32.920265","34.237316","18.063728","-41.726154","47.17347"
"era-350","15.582425","-33.404007","33.90129","-17.240444","-32.954105","34.273056","18.075842","-41.757435","47.215607"
"era-351","15.59485","-33.428425","33.92419","-17.258583","-32.987865","34.308735","18.087921","-41.78869","47.257664"
"era-352","15.607257","-33.4528","33.947063","-17.27668","-33.021553","34.344322","18.099964","-41.819828","47.29962"
"era-353","15.619632","-33.477104","33.969864","-17.294752","-33.05516","34.37986","18.111961","-41.85089","47.341488"
"era-354","15.631972","-33.50135","33.992607","-17.312786","-33.08872","34.41532","18.123917","-41.881836","47.383274"
"era-355","15.644288","-33.52555","34.015312","-17.330782","-33.122215","34.450706","18.135832","-41.912704","47.424973"
"era-356","15.656587","-33.549694","34.03794","-17.348747","-33.155647","34.48604","18.14771","-41.943512","47.46659"
"era-357","15.668859","-33.57379","34.06052","-17.366676","-33.189","34.521286","18.159561","-41.97424","47.508125"
"era-358","15.68112","-33.597843","34.08304","-17.38456","-33.222298","34.556458","18.171385","-42.00489","47.54959"
"era-359","15.69334","-33.621838","34.10551","-17.402401","-33.255524","34.591553","18.183167","-42.035477","47.59096"
"era-360","15.705542","-33.64579","34.127937","-17.42021","-33.288662","34.626583","18.194921","-42.066025","47.632244"
"era-361","15.717705","-33.669674","34.15033","-17.437977","-33.321743","34.66154","18.20664","-42.09647","47.67345"
"era-362","15.72984","-33.693512","34.172665","-17.455704","-33.35478","34.696438","18.218311","-42.126858","47.714554"
"era-363","15.741962","-33.7173","34.194942","-17.473412","-33.387722","34.731266","18.22994","-42.157135","47.755577"
"era-364","15.754043","-33.741028","34.21718","-17.491074","-33.420647","34.766026","18.241543","-42.18735","47.796528"
"era-365","15.766102","-33.7647","34.239365","-17.508701","-33.453503","34.800728","18.253113","-42.2175","47.837395"
"era-366","15.77813","-33.788322","34.261494","-17.526297","-33.48627","34.835346","18.264645","-42.247555","47.878185"
"era-367","15.790153","-33.811916","34.283592","-17.543858","-33.519","34.869896","18.276157","-42.277515","47.91889"
"era-368","15.802139","-33.835438","34.305626","-17.561378","-33.551662","34.90437","18.287647","-42.30741","47.959515"
"era-369","15.814102","-33.858906","34.327587","-17.578882","-33.58425","34.938812","18.29908","-42.337242","48.00006"
"era-370","15.826043","-33.88234","34.349514","-17.596336","-33.616795","34.973164","18.310476","-42.366993","48.04054"
"era-371","15.837966","-33.90572","34.371376","-17.613762","-33.649265","35.00746","18.321857","-42.396687","48.080933"
"era-372","15.849863","-33.929058","34.393208","-17.631147","-33.68168","35.041683","18.333206","-42.426323","48.121243"
"era-373","15.861725","-33.952328","34.414997","-17.648508","-33.714012","35.07583","18.344513","-42.455845","48.16148"
"era-374","15.873572","-33.97556","34.436707","-17.665827","-33.74629","35.10992","18.355785","-42.485332","48.201622"
"era-375","15.885404","-33.998756","34.458366","-17.683107","-33.778507","35.143944","18.367031","-42.514736","48.241695"
"era-376","15.897208","-34.021896","34.479996","-17.700367","-33.810658","35.177906","18.37823","-42.544067","48.28171"
"era-377","15.908978","-34.044983","34.501568","-17.71761","-33.842766","35.211834","18.389383","-42.57332","48.321655"
"era-378","15.920726","-34.06802","34.523098","-17.73479","-33.874805","35.245663","18.400515","-42.60252","48.361526"
"era-379","15.932443","-34.091007","34.544605","-17.75194","-33.906788","35.279423","18.411623","-42.631634","48.401306"
"era-380","15.944149","-34.11396","34.566055","-17.769075","-33.9387","35.313133","18.42271","-42.66067","48.440998"
"era-381","15.955824","-34.136856","34.587463","-17.786165","-33.97055","35.34678","18.433756","-42.689644","48.48062"
"era-382","15.967492","-34.15972","34.60883","-17.803219","-34.002342","35.380352","18.44477","-42.718536","48.520157"
"era-383","15.979131","-34.182537","34.630135","-17.820246","-34.034073","35.413864","18.455744","-42.74737","48.55962"
"era-384","15.990758","-34.205322","34.651394","-17.83725","-34.06574","35.447327","18.46668","-42.776127","48.599033"
"era-385","16.00236","-34.228058","34.672615","-17.854212","-34.09737","35.48072","18.477585","-42.80482","48.638374"
"era-386","16.013933","-34.250744","34.693798","-17.871145","-34.12891","35.514046","18.488462","-42.833443","48.6776"
"era-387","16.025476","-34.273365","34.714912","-17.888042","-34.160423","35.547314","18.499321","-42.86202","48.7168"
"era-388","16.036993","-34.295948","34.736015","-17.904911","-34.191856","35.58052","18.510141","-42.890514","48.7559"
"era-389","16.048487","-34.318474","34.75705","-17.921753","-34.223244","35.61367","18.52094","-42.918926","48.794918"
"era-390","16.059988","-34.340996","34.77804","-17.938555","-34.254585","35.646755","18.531694","-42.947304","48.833866"
"era-391","16.071455","-34.363453","34.798977","-17.95532","-34.285843","35.679768","18.542427","-42.9756","48.87275"
"era-392","16.082888","-34.385857","34.819874","-17.972057","-34.31706","35.712727","18.55312","-43.00383","48.911537"
"era-393","16.094301","-34.408203","34.840725","-17.988758","-34.34822","35.745625","18.563797","-43.032","48.950264"
"era-394","16.105692","-34.430515","34.86153","-18.005423","-34.379322","35.77844","18.574442","-43.060074","48.988914"
"era-395","16.11707","-34.452793","34.8823","-18.022068","-34.410366","35.811214","18.585077","-43.088123","49.027504"
"era-396","16.12842","-34.475025","34.903027","-18.038683","-34.441334","35.84392","18.595667","-43.116104","49.06601"
"era-397","16.139753","-34.497208","34.923702","-18.055264","-34.472237","35.876583","18.606226","-43.144024","49.10444"
"era-398","16.151066","-34.519363","34.944347","-18.071812","-34.503094","35.909164","18.616753","-43.171864","49.142788"
"era-399","16.162348","-34.541454","34.96494","-18.088326","-34.53389","35.941696","18.627245","-43.199673","49.181084"
"era-400","16.173613","-34.563515","34.985477","-18.104805","-34.564644","35.974167","18.63773","-43.22743","49.219296"
"era-401","16.184868","-34.585545","35.00598","-18.12125","-34.595337","36.00657","18.648159","-43.255093","49.25746"
"era-402","16.196096","-34.60753","35.026463","-18.137672","-34.62598","36.03891","18.658573","-43.2827","49.295555"
"era-403","16.2073","-34.62946","35.046883","-18.154055","-34.656578","36.071194","18.668953","-43.31023","49.333572"
"era-404","16.2185","-34.651375","35.067265","-18.170408","-34.687103","36.103428","18.679314","-43.337753","49.371525"
"era-405","16.229664","-34.67324","35.087635","-18.186731","-34.71757","36.135593","18.68963","-43.36518","49.40939"
"era-406","16.2408","-34.695045","35.10795","-18.203026","-34.747997","36.16771","18.699928","-43.392567","49.447193"
"era-407","16.251913","-34.716805","35.128216","-18.219294","-34.778366","36.19977","18.710205","-43.419884","49.48494"
"era-408","16.263004","-34.73853","35.148457","-18.23552","-34.80869","36.231766","18.720457","-43.447155","49.522602"
"era-409","16.274073","-34.760204","35.168636","-18.251726","-34.83895","36.263706","18.730673","-43.47437","49.5602"
"era-410","16.285143","-34.78185","35.188766","-18.267914","-34.869164","36.29561","18.740892","-43.50153","49.597736"
"era-411","16.296194","-34.803467","35.20886","-18.284061","-34.899307","36.327446","18.751066","-43.52863","49.635197"
"era-412","16.30722","-34.82503","35.228912","-18.300188","-34.929413","36.359222","18.761215","-43.555637","49.672573"
"era-413","16.31822","-34.846554","35.248947","-18.316294","-34.959446","36.39096","18.771355","-43.58261","49.7099"
"era-414","16.329195","-34.868034","35.268932","-18.332367","-34.989433","36.42263","18.781446","-43.60952","49.747166"
"era-415","16.340166","-34.889484","35.28888","-18.348408","-35.019363","36.45424","18.791534","-43.63637","49.784363"
"era-416","16.35111","-34.91089","35.308773","-18.364416","-35.04926","36.48579","18.801582","-43.66315","49.821484"
"era-417","16.362038","-34.93225","35.32863","-18.380396","-35.079094","36.517292","18.811607","-43.689888","49.85854"
"era-418","16.37294","-34.95357","35.348457","-18.396341","-35.108875","36.548725","18.821617","-43.716557","49.89553"
"era-419","16.383842","-34.974888","35.368267","-18.412275","-35.138588","36.580116","18.831596","-43.743176","49.932453"
"era-420","16.394712","-34.99613","35.388012","-18.428177","-35.168266","36.61144","18.84156","-43.769733","49.969307"
"era-421","16.405567","-35.017345","35.407738","-18.44405","-35.19789","36.64272","18.851482","-43.796227","50.00612"
"era-422","16.4164","-35.038525","35.42741","-18.459888","-35.227455","36.67393","18.861395","-43.82266","50.042862"
"era-423","16.427204","-35.059635","35.44704","-18.4757","-35.25697","36.705086","18.871284","-43.849037","50.079548"
"era-424","16.437994","-35.08072","35.466633","-18.49147","-35.28644","36.736183","18.881163","-43.875385","50.116158"
"era-425","16.448769","-35.10178","35.48621","-18.507214","-35.31585","36.767204","18.891016","-43.90165","50.152706"
"era-426","16.45953","-35.122803","35.505733","-18.522947","-35.345203","36.7982","18.90083","-43.927837","50.189186"
"era-427","16.470266","-35.143776","35.52521","-18.538641","-35.374508","36.829144","18.910612","-43.954014","50.22559"
"era-428","16.480984","-35.16473","35.54468","-18.554325","-35.403767","36.860043","18.920359","-43.980133","50.261948"
"era-429","16.491684","-35.185635","35.564087","-18.569967","-35.432964","36.890877","18.93008","-44.006184","50.298225"
"era-430","16.502361","-35.206497","35.58346","-18.585585","-35.462128","36.92166","18.939789","-44.032154","50.33445"
"era-431","16.513018","-35.227314","35.602795","-18.601171","-35.491238","36.95238","18.94949","-44.05808","50.370594"
"era-432","16.523659","-35.248093","35.622086","-18.61673","-35.52028","36.983044","18.959162","-44.083965","50.4067"
"era-433","16.534294","-35.26886","35.641354","-18.63226","-35.549286","37.013657","18.96882","-44.109802","50.442738"
"era-434","16.544905","-35.289577","35.66058","-18.647762","-35.578262","37.044228","18.978437","-44.13557","50.478706"
"era-435","16.555506","-35.31027","35.679764","-18.663248","-35.607166","37.074745","18.98803","-44.1613","50.514618"
"era-436","16.566076","-35.33091","35.698914","-18.678701","-35.636017","37.10521","18.997614","-44.18698","50.550465"
"era-437","16.576635","-35.351524","35.718037","-18.694138","-35.664806","37.13562","19.007162","-44.212597","50.586254"
"era-438","16.587172","-35.3721","35.73714","-18.70954","-35.693558","37.165974","19.016678","-44.238136","50.62198"
"era-439","16.597698","-35.392635","35.756184","-18.724907","-35.72227","37.196266","19.026175","-44.263626","50.657635"
"era-440","16.608192","-35.41313","35.775192","-18.740255","-35.750935","37.22653","19.03565","-44.289062","50.69324"
"era-441","16.618675","-35.433594","35.79417","-18.755579","-35.779556","37.256725","19.045115","-44.314465","50.728794"
"era-442","16.629147","-35.454033","35.81312","-18.770857","-35.80811","37.286858","19.05454","-44.339825","50.76427"
"era-443","16.639597","-35.47443","35.83205","-18.786133","-35.836628","37.31697","19.063948","-44.365112","50.799675"
"era-444","16.65003","-35.49481","35.85094","-18.801373","-35.865093","37.34702","19.073336","-44.39037","50.835026"
"era-445","16.660458","-35.515156","35.869804","-18.816587","-35.893475","37.377003","19.082693","-44.415558","50.870335"
"era-446","16.670874","-35.535465","35.88861","-18.831774","-35.92183","37.406937","19.092045","-44.44072","50.90557"
"era-447","16.681273","-35.555744","35.90737","-18.846935","-35.950123","37.436832","19.101381","-44.46584","50.940746"
"era-448","16.691654","-35.57599","35.926113","-18.862078","-35.978405","37.466675","19.110685","-44.490894","50.975876"
"era-449","16.702013","-35.59619","35.94484","-18.877193","-36.006626","37.496475","19.119967","-44.515896","51.010937"
"era-450","16.712357","-35.616375","35.963554","-18.89227","-36.034798","37.5262","19.129236","-44.540848","51.04593"
"era-451","16.722683","-35.636513","35.9822","-18.907331","-36.062912","37.555904","19.138487","-44.56576","51.080856"
"era-452","16.733","-35.65662","36.00081","-18.922367","-36.090992","37.58555","19.14772","-44.590626","51.115726"
"era-453","16.743296","-35.6767","36.019386","-18.93737","-36.119026","37.61513","19.156906","-44.615433","51.150543"
"era-454","16.753576","-35.69674","36.037945","-18.95235","-36.14701","37.64467","19.166082","-44.64016","51.185295"
"era-455","16.763828","-35.716736","36.056465","-18.967293","-36.17494","37.674145","19.17523","-44.664856","51.219982"
"era-456","16.774076","-35.736706","36.074947","-18.982208","-36.20285","37.70357","19.184364","-44.68953","51.254627"
"era-457","16.784292","-35.75663","36.093403","-18.997099","-36.23071","37.732952","19.19348","-44.714127","51.289192"
"era-458","16.794497","-35.776527","36.111824","-19.011969","-36.258507","37.762276","19.20257","-44.738667","51.323704"
"era-459","16.804693","-35.796406","36.13021","-19.026815","-36.28626","37.79156","19.211636","-44.76319","51.358154"
"era-460","16.814869","-35.816246","36.148582","-19.041634","-36.313965","37.820805","19.220673","-44.78764","51.392555"
"era-461","16.825045","-35.836067","36.1669","-19.056433","-36.341633","37.849995","19.229706","-44.81206","51.426895"
"era-462","16.8352","-35.85585","36.185177","-19.071209","-36.36925","37.879135","19.238707","-44.83641","51.461174"
"era-463","16.845339","-35.8756","36.203434","-19.085949","-36.396816","37.908222","19.247698","-44.860744","51.49538"
"era-464","16.85545","-35.8953","36.22167","-19.100674","-36.424328","37.937267","19.256659","-44.885002","51.529533"
"era-465","16.865553","-35.914993","36.239872","-19.11536","-36.451805","37.96625","19.265617","-44.909264","51.563633"
"era-466","16.875639","-35.934635","36.25803","-19.130041","-36.47922","37.995205","19.274557","-44.933426","51.597687"
"era-467","16.88572","-35.954258","36.276173","-19.144703","-36.50661","38.024117","19.283482","-44.957558","51.631668"
"era-468","16.895779","-35.97385","36.294292","-19.159328","-36.53395","38.05297","19.29238","-44.981636","51.665604"
"era-469","16.905823","-35.993412","36.31238","-19.17394","-36.561245","38.081783","19.301268","-45.005684","51.699482"
"era-470","16.915842","-36.012928","36.330444","-19.188515","-36.588505","38.110535","19.310135","-45.02967","51.73327"
"era-471","16.92586","-36.032436","36.34847","-19.203062","-36.6157","38.13924","19.31897","-45.053616","51.76701"
"era-472","16.935852","-36.0519","36.366455","-19.217587","-36.642853","38.167908","19.327793","-45.07755","51.800705"
"era-473","16.945831","-36.07134","36.384426","-19.23209","-36.669975","38.196526","19.336592","-45.101418","51.834343"
"era-474","16.955797","-36.090744","36.40236","-19.246572","-36.697044","38.225094","19.345371","-45.125244","51.86794"
"era-475","16.965746","-36.11012","36.42027","-19.261019","-36.72406","38.25361","19.354132","-45.14903","51.901466"
"era-476","16.975672","-36.12945","36.43814","-19.275448","-36.751045","38.282085","19.362865","-45.17276","51.93495"
"era-477","16.985594","-36.14877","36.455982","-19.28986","-36.777992","38.31052","19.371578","-45.196434","51.96837"
"era-478","16.995499","-36.168053","36.473804","-19.304241","-36.804893","38.33889","19.380285","-45.22004","52.00173"
"era-479","17.005392","-36.1873","36.491577","-19.3186","-36.831753","38.36723","19.388988","-45.243633","52.035046"
"era-480","17.015263","-36.20652","36.509354","-19.332941","-36.85856","38.39553","19.397673","-45.26722","52.06831"
"era-481","17.02512","-36.225716","36.527096","-19.34725","-36.88533","38.42378","19.406338","-45.29075","52.10151"
"era-482","17.034958","-36.24487","36.544796","-19.361538","-36.912064","38.451977","19.414968","-45.314228","52.134666"
"era-483","17.04479","-36.264008","36.56247","-19.375807","-36.938747","38.480145","19.423586","-45.33767","52.167778"
"era-484","17.054625","-36.283134","36.58011","-19.39005","-36.965393","38.508266","19.432175","-45.361076","52.20083"
"era-485","17.064438","-36.302227","36.597725","-19.40426","-36.99199","38.536324","19.440754","-45.38445","52.233814"
"era-486","17.07424","-36.321285","36.615303","-19.418455","-37.01854","38.564346","19.449327","-45.40778","52.266747"
"era-487","17.084013","-36.34031","36.63287","-19.432617","-37.045033","38.592304","19.457872","-45.43106","52.299637"
"era-488","17.093786","-36.359306","36.65038","-19.446764","-37.071495","38.62023","19.466404","-45.454292","52.33248"
"era-489","17.103546","-36.37829","36.66788","-19.460886","-37.097916","38.648113","19.47491","-45.477463","52.365257"
"era-490","17.113295","-36.397232","36.685333","-19.47499","-37.124287","38.675945","19.483406","-45.500595","52.397976"
"era-491","17.123034","-36.41615","36.70277","-19.489065","-37.150608","38.70373","19.491879","-45.523705","52.43065"
"era-492","17.132744","-36.435036","36.72018","-19.503119","-37.176895","38.731472","19.500345","-45.546772","52.463253"
"era-493","17.14245","-36.4539","36.73757","-19.517157","-37.20314","38.75919","19.508795","-45.5698","52.495804"
"era-494","17.152138","-36.472736","36.75495","-19.531166","-37.229347","38.786842","19.517231","-45.59277","52.52829"
"era-495","17.161812","-36.491547","36.772297","-19.545158","-37.255516","38.814465","19.525642","-45.615704","52.560753"
"era-496","17.171463","-36.51031","36.78962","-19.559132","-37.281624","38.84205","19.534039","-45.638607","52.593155"
"era-497","17.181105","-36.52906","36.8069","-19.573076","-37.307713","38.86958","19.542414","-45.661472","52.625523"
"era-498","17.190737","-36.547783","36.82416","-19.587008","-37.33375","38.89707","19.550783","-45.684277","52.65782"
"era-499","17.200356","-36.56647","36.841393","-19.600903","-37.359753","38.9245","19.559135","-45.70707","52.690063"
"era-500","17.209967","-36.585144","36.8586","-19.61478","-37.385708","38.951897","19.567478","-45.729786","52.722275"
"era-501","17.219559","-36.60378","36.87579","-19.628637","-37.41163","38.979244","19.575794","-45.752453","52.754436"
"era-502","17.229137","-36.62239","36.892925","-19.64245","-37.43751","39.006535","19.58409","-45.775116","52.786545"
"era-503","17.238705","-36.64097","36.910038","-19.656258","-37.463337","39.0338","19.592377","-45.79773","52.81858"
"era-504","17.248251","-36.65952","36.927135","-19.670052","-37.489124","39.06103","19.600641","-45.820312","52.850567"
"era-505","17.257793","-36.67805","36.944206","-19.683817","-37.51488","39.088207","19.608896","-45.842846","52.882515"
"era-506","17.267319","-36.696556","36.961254","-19.697554","-37.540585","39.115334","19.61712","-45.86535","52.914413"
"era-507","17.276827","-36.715027","36.97828","-19.711267","-37.566254","39.14242","19.625341","-45.88781","52.94626"
"era-508","17.286324","-36.73348","36.995274","-19.724977","-37.591892","39.169483","19.633545","-45.910225","52.978046"
"era-509","17.295809","-36.7519","37.012257","-19.738651","-37.61748","39.19648","19.64172","-45.932602","53.009804"
"era-510","17.305273","-36.770298","37.02923","-19.7523","-37.643055","39.223454","19.649887","-45.954952","53.041485"
"era-511","17.314732","-36.788666","37.04615","-19.765934","-37.668564","39.25037","19.658047","-45.977257","53.073135"
"era-512","17.32418","-36.80701","37.06304","-19.779535","-37.694035","39.277245","19.666197","-45.99953","53.10472"
"era-513","17.33362","-36.825336","37.079914","-19.793125","-37.71946","39.304085","19.674314","-46.021755","53.136253"
"era-514","17.34304","-36.843628","37.096756","-19.806694","-37.744854","39.330883","19.682428","-46.043957","53.16774"
"era-515","17.352457","-36.8619","37.11357","-19.82023","-37.770195","39.35762","19.690533","-46.066113","53.19917"
"era-516","17.361853","-36.880142","37.13038","-19.833765","-37.795517","39.384342","19.698627","-46.088223","53.230568"
"era-517","17.371237","-36.898354","37.147144","-19.847267","-37.820793","39.41101","19.706694","-46.110313","53.26191"
"era-518","17.380594","-36.91653","37.1639","-19.860758","-37.846012","39.43765","19.714737","-46.132366","53.29321"
"era-519","17.389957","-36.93471","37.180622","-19.874214","-37.871204","39.46423","19.72275","-46.15435","53.32445"
"era-520","17.399307","-36.952858","37.19732","-19.887651","-37.896355","39.490772","19.730757","-46.176334","53.35564"
"era-521","17.408646","-36.97098","37.21401","-19.901072","-37.921467","39.517284","19.738756","-46.198265","53.3868"
"era-522","17.417974","-36.989082","37.23066","-19.914467","-37.946537","39.54374","19.746758","-46.220142","53.417904"
"era-523","17.4273","-37.00715","37.247265","-19.92783","-37.97158","39.570152","19.754732","-46.242","53.448948"
"era-524","17.436602","-37.025192","37.263847","-19.941181","-37.99658","39.596516","19.762691","-46.263824","53.47996"
"era-525","17.445883","-37.043198","37.280422","-19.954514","-38.021534","39.62285","19.770643","-46.285603","53.510933"
"era-526","17.45516","-37.061188","37.296967","-19.96782","-38.046463","39.64914","19.77859","-46.307354","53.54185"
"era-527","17.464426","-37.07916","37.31349","-19.981108","-38.07134","39.675392","19.786495","-46.32907","53.57272"
"era-528","17.473675","-37.097107","37.330017","-19.994385","-38.09618","39.70162","19.794395","-46.35075","53.60353"
"era-529","17.482916","-37.11503","37.346493","-20.007635","-38.12099","39.727795","19.80228","-46.37236","53.634293"
"era-530","17.492138","-37.13292","37.362953","-20.020863","-38.145752","39.75392","19.81015","-46.39396","53.664993"
"era-531","17.501356","-37.15079","37.379383","-20.03407","-38.170494","39.780006","19.818024","-46.41552","53.695652"
"era-532","17.510557","-37.16862","37.395782","-20.047247","-38.195187","39.806053","19.825874","-46.437046","53.726257"
"era-533","17.519737","-37.18643","37.41218","-20.06041","-38.21985","39.832066","19.833715","-46.458538","53.756813"
"era-534","17.52892","-37.204227","37.42854","-20.07356","-38.244473","39.858047","19.841537","-46.479996","53.78732"
"era-535","17.538094","-37.222015","37.44489","-20.086702","-38.269043","39.884007","19.849337","-46.501427","53.817787"
"era-536","17.547249","-37.239765","37.461216","-20.099804","-38.293583","39.909904","19.85713","-46.522846","53.848213"
"era-537","17.556396","-37.257496","37.477505","-20.112886","-38.318115","39.93577","19.864902","-46.544224","53.878593"
"era-538","17.565527","-37.275196","37.493774","-20.125954","-38.342598","39.9616","19.87266","-46.565563","53.908913"
"era-539","17.574646","-37.292862","37.51001","-20.139004","-38.36704","39.987392","19.880404","-46.586845","53.93919"
"era-540","17.583761","-37.310516","37.526215","-20.15203","-38.391434","40.013126","19.888144","-46.608086","53.969414"
"era-541","17.592863","-37.328148","37.54241","-20.165045","-38.415787","40.038834","19.895868","-46.629272","53.999603"
"era-542","17.601952","-37.345757","37.558586","-20.178034","-38.440132","40.064503","19.903564","-46.65043","54.02974"
"era-543","17.61104","-37.363346","37.574726","-20.191002","-38.46442","40.090122","19.911272","-46.671577","54.05984"
"era-544","17.620111","-37.380905","37.590843","-20.203945","-38.48867","40.1157","19.918953","-46.692665","54.089897"
"era-545","17.629179","-37.398453","37.606937","-20.216866","-38.512894","40.14123","19.92663","-46.713726","54.119896"
"era-546","17.638222","-37.415962","37.623016","-20.229761","-38.537075","40.166718","19.934294","-46.734753","54.14987"
"era-547","17.647257","-37.43345","37.639076","-20.242645","-38.561207","40.192177","19.941933","-46.755733","54.179783"
"era-548","17.656288","-37.450928","37.655113","-20.255516","-38.585308","40.217594","19.949564","-46.776672","54.20966"
"era-549","17.665297","-37.468372","37.671127","-20.268368","-38.60938","40.242992","19.957169","-46.7976","54.239475"
"era-550","17.674307","-37.485813","37.687134","-20.281199","-38.633396","40.26835","19.964775","-46.81851","54.269253"
"era-551","17.683292","-37.503216","37.703114","-20.294003","-38.65739","40.293663","19.972364","-46.839397","54.298977"
"era-552","17.692265","-37.520584","37.719067","-20.306799","-38.681355","40.318947","19.979952","-46.860252","54.328663"
"era-553","17.701237","-37.53794","37.735","-20.319574","-38.70529","40.344185","19.98752","-46.88104","54.358295"
"era-554","17.710201","-37.555286","37.75092","-20.33232","-38.729164","40.369377","19.995094","-46.90182","54.387897"
"era-555","17.719156","-37.572613","37.76682","-20.345049","-38.753017","40.394543","20.002645","-46.922577","54.41744"
"era-556","17.728094","-37.589905","37.78269","-20.357761","-38.776825","40.419666","20.01019","-46.943302","54.446938"
"era-557","17.73702","-37.607174","37.79854","-20.37046","-38.800602","40.444763","20.017698","-46.963985","54.476376"
"era-558","17.745934","-37.624424","37.81437","-20.38313","-38.824352","40.469803","20.025198","-46.984623","54.505795"
"era-559","17.754833","-37.641647","37.830193","-20.395782","-38.848072","40.494823","20.032686","-47.005234","54.53516"
"era-560","17.763723","-37.65885","37.84599","-20.408413","-38.871746","40.5198","20.040173","-47.02583","54.564484"
"era-561","17.772615","-37.67605","37.86176","-20.421028","-38.89538","40.544724","20.047651","-47.046364","54.59379"
"era-562","17.781485","-37.693207","37.877514","-20.433636","-38.918972","40.56963","20.05511","-47.06686","54.623016"
"era-563","17.79035","-37.71035","37.893238","-20.44621","-38.94254","40.59449","20.062548","-47.08732","54.6522"
"era-564","17.799202","-37.72747","37.90895","-20.458778","-38.966084","40.619335","20.069977","-47.10777","54.681335"
"era-565","17.808039","-37.744564","37.924644","-20.471323","-38.98958","40.64413","20.077417","-47.128204","54.71044"
"era-566","17.816864","-37.76163","37.94031","-20.48386","-39.013035","40.66889","20.084827","-47.148594","54.739502"
"era-567","17.825678","-37.77868","37.955963","-20.496357","-39.036465","40.693604","20.09223","-47.168938","54.768517"
"era-568","17.834484","-37.795708","37.971603","-20.508846","-39.059856","40.71829","20.09962","-47.189266","54.79749"
"era-569","17.843285","-37.81273","37.987213","-20.521313","-39.083218","40.742928","20.106993","-47.20954","54.826427"
"era-570","17.852074","-37.829723","38.002808","-20.53376","-39.106533","40.76753","20.11436","-47.22981","54.855293"
"era-571","17.860844","-37.84668","38.01837","-20.546179","-39.129814","40.792084","20.121723","-47.25007","54.884148"
"era-572","17.869617","-37.863636","38.03392","-20.55859","-39.15307","40.81662","20.129072","-47.27028","54.912945"
"era-573","17.878376","-37.880573","38.049454","-20.570982","-39.176285","40.84111","20.136396","-47.29044","54.941696"
"era-574","17.887133","-37.89749","38.06497","-20.58336","-39.19948","40.86558","20.143717","-47.310577","54.97041"
"era-575","17.895874","-37.914394","38.080467","-20.595705","-39.222656","40.89001","20.151016","-47.33071","54.999073"
"era-576","17.904585","-37.931248","38.09595","-20.608038","-39.245792","40.91441","20.158304","-47.35082","55.02769"
"era-577","17.9133","-37.948086","38.111397","-20.62036","-39.268883","40.93877","20.165583","-47.370884","55.05628"
"era-578","17.922003","-37.96491","38.126823","-20.632668","-39.291954","40.963108","20.172855","-47.39092","55.08481"
"era-579","17.93071","-37.981728","38.14224","-20.644947","-39.314976","40.9874","20.180119","-47.410915","55.113316"
"era-580","17.939402","-37.99852","38.157627","-20.657219","-39.33798","41.01166","20.187372","-47.430885","55.14179"
"era-581","17.948097","-38.0153","38.173004","-20.669476","-39.36093","41.03589","20.19461","-47.450825","55.170208"
"era-582","17.956755","-38.032047","38.188366","-20.681707","-39.38385","41.060074","20.201838","-47.47073","55.19857"
"era-583","17.96543","-38.048794","38.20369","-20.693913","-39.406746","41.08422","20.209051","-47.490616","55.226887"
"era-584","17.974085","-38.065506","38.219006","-20.706108","-39.429615","41.10834","20.21625","-47.510468","55.25518"
"era-585","17.982727","-38.082195","38.234303","-20.718283","-39.452454","41.13242","20.223454","-47.53029","55.28344"
"era-586","17.991364","-38.09887","38.24957","-20.730434","-39.475246","41.156456","20.230633","-47.55009","55.311646"
"era-587","17.999989","-38.115524","38.264828","-20.742573","-39.49801","41.18047","20.237799","-47.569866","55.339813"
"era-588","18.008598","-38.13216","38.280064","-20.754696","-39.52075","41.204453","20.244942","-47.589615","55.367943"
"era-589","18.017197","-38.148766","38.295284","-20.7668","-39.54343","41.228386","20.25208","-47.60931","55.396023"
"era-590","18.025791","-38.165367","38.3105","-20.77888","-39.56609","41.252285","20.259205","-47.62899","55.424076"
"era-591","18.034372","-38.18194","38.325684","-20.790943","-39.588707","41.276146","20.26632","-47.64863","55.45208"
"era-592","18.042944","-38.198486","38.340843","-20.803003","-39.611298","41.29999","20.273434","-47.668243","55.480038"
"era-593","18.051514","-38.21502","38.35598","-20.815042","-39.633873","41.3238","20.280529","-47.68781","55.507946"
"era-594","18.06007","-38.231533","38.371094","-20.827057","-39.656414","41.347572","20.287617","-47.70736","55.53584"
"era-595","18.068617","-38.248028","38.386173","-20.83905","-39.678925","41.371296","20.294682","-47.7269","55.563698"
"era-596","18.077147","-38.264484","38.401245","-20.851027","-39.70139","41.394997","20.301748","-47.7464","55.591503"
"era-597","18.08566","-38.280926","38.416306","-20.862988","-39.723824","41.418667","20.3088","-47.765896","55.619274"
"era-598","18.094175","-38.297356","38.431355","-20.874937","-39.74623","41.4423","20.315853","-47.785336","55.64699"
"era-599","18.102674","-38.313755","38.446384","-20.886871","-39.768604","41.465897","20.322893","-47.804752","55.674694"
"era-600","18.11116","-38.330147","38.461407","-20.898792","-39.79095","41.489475","20.329914","-47.82415","55.702343"
"era-601","18.11964","-38.346516","38.476414","-20.910692","-39.81327","41.513016","20.336943","-47.843533","55.729954"
"era-602","18.128113","-38.362873","38.4914","-20.922554","-39.83556","41.5365","20.34395","-47.86289","55.757523"
"era-603","18.136574","-38.3792","38.50637","-20.934418","-39.8578","41.559967","20.35095","-47.882202","55.785034"
"era-604","18.145037","-38.39554","38.521328","-20.946259","-39.880028","41.583393","20.357939","-47.90148","55.8125"
"era-605","18.153486","-38.41183","38.53626","-20.958088","-39.90221","41.606808","20.364914","-47.920734","55.83993"
"era-606","18.161919","-38.428116","38.55118","-20.9699","-39.924366","41.630177","20.371881","-47.939976","55.867336"
"era-607","18.170353","-38.44439","38.566097","-20.981697","-39.946487","41.653507","20.37884","-47.959152","55.894707"
"era-608","18.178778","-38.460636","38.580963","-20.99348","-39.968582","41.67682","20.385777","-47.97832","55.92203"
"era-609","18.187191","-38.47686","38.595806","-21.005238","-39.990654","41.700085","20.392708","-47.99746","55.949306"
"era-610","18.195608","-38.49308","38.61064","-21.01698","-40.01269","41.723328","20.399632","-48.01659","55.976547"
"era-611","18.204002","-38.50928","38.62549","-21.028704","-40.0347","41.746525","20.406546","-48.035664","56.003765"
"era-612","18.212383","-38.525448","38.640316","-21.04042","-40.05669","41.769703","20.413456","-48.054707","56.03094"
"era-613","18.220774","-38.541622","38.65511","-21.052124","-40.078644","41.792854","20.420351","-48.073734","56.058067"
"era-614","18.229145","-38.55776","38.66988","-21.063797","-40.100567","41.815964","20.427238","-48.09274","56.085155"
"era-615","18.237509","-38.573887","38.68466","-21.075468","-40.122456","41.839043","20.434134","-48.111706","56.112232"
"era-616","18.245869","-38.589993","38.69941","-21.08712","-40.144295","41.86208","20.44101","-48.13063","56.139236"
"era-617","18.254211","-38.60607","38.71413","-21.098763","-40.16611","41.885105","20.447865","-48.149536","56.166206"
"era-618","18.262548","-38.622154","38.72884","-21.110384","-40.187897","41.908085","20.454706","-48.168423","56.193142"
"era-619","18.270878","-38.638206","38.743546","-21.121983","-40.20966","41.931034","20.461538","-48.18729","56.22003"
"era-620","18.279194","-38.654236","38.758217","-21.133566","-40.231388","41.953953","20.468367","-48.206112","56.246883"
"era-621","18.287516","-38.670258","38.77286","-21.145128","-40.253094","41.976833","20.475185","-48.22493","56.273712"
"era-622","18.29582","-38.68626","38.787514","-21.156683","-40.27478","41.999683","20.482006","-48.243694","56.300484"
"era-623","18.304115","-38.70224","38.802143","-21.168224","-40.296425","42.02252","20.488815","-48.26245","56.32724"
"era-624","18.312399","-38.71821","38.816765","-21.179743","-40.318043","42.045303","20.4956","-48.281162","56.353943"
"era-625","18.32068","-38.734165","38.831367","-21.191238","-40.339645","42.068058","20.50237","-48.29985","56.3806"
"era-626","18.328959","-38.750103","38.845936","-21.202723","-40.3612","42.090782","20.509136","-48.31852","56.407223"
"era-627","18.33722","-38.76601","38.86049","-21.214195","-40.38272","42.11348","20.515902","-48.33716","56.43382"
"era-628","18.345478","-38.781914","38.875027","-21.225645","-40.404205","42.13614","20.522667","-48.355804","56.460384"
"era-629","18.353731","-38.797794","38.889538","-21.237093","-40.42566","42.158768","20.529415","-48.374405","56.48691"
"era-630","18.361973","-38.81366","38.904057","-21.248514","-40.447083","42.181366","20.536156","-48.392982","56.513405"
"era-631","18.370213","-38.82952","38.918552","-21.259928","-40.468487","42.20394","20.542875","-48.41153","56.539864"
"era-632","18.378435","-38.84536","38.933037","-21.271322","-40.489857","42.226482","20.54959","-48.43006","56.566273"
"era-633","18.38665","-38.86118","38.947517","-21.282698","-40.511215","42.249","20.556303","-48.448563","56.59264"
"era-634","18.394863","-38.87699","38.961975","-21.294064","-40.532536","42.27148","20.563","-48.46703","56.618977"
"era-635","18.403051","-38.89276","38.97641","-21.305399","-40.553837","42.29393","20.569689","-48.485497","56.64527"
"era-636","18.411238","-38.908516","38.990814","-21.31673","-40.575108","42.316357","20.576378","-48.50394","56.671543"
"era-637","18.41942","-38.92428","39.005222","-21.328043","-40.596344","42.338753","20.58304","-48.52237","56.697773"
"era-638","18.427597","-38.94001","39.019608","-21.339342","-40.617542","42.361122","20.5897","-48.54076","56.723946"
"era-639","18.435759","-38.955723","39.033978","-21.350626","-40.638718","42.383453","20.596363","-48.559147","56.750107"
"era-640","18.44391","-38.97142","39.04834","-21.361898","-40.659855","42.405746","20.603004","-48.57747","56.776222"
"era-641","18.452057","-38.98709","39.062668","-21.373156","-40.680965","42.428024","20.609642","-48.595768","56.802296"
"era-642","18.460194","-39.002747","39.07698","-21.384392","-40.702053","42.450256","20.616278","-48.614063","56.828342"
"era-643","18.468323","-39.018394","39.09129","-21.395607","-40.72312","42.472466","20.622887","-48.63234","56.85435"
"era-644","18.476446","-39.034027","39.105576","-21.406809","-40.744164","42.49464","20.629494","-48.65056","56.880314"
"era-645","18.484558","-39.049637","39.119865","-21.418001","-40.76516","42.516785","20.636097","-48.668766","56.906254"
"era-646","18.492666","-39.065235","39.13412","-21.42917","-40.78614","42.538887","20.642693","-48.68694","56.93215"
"era-647","18.500765","-39.08082","39.14838","-21.440329","-40.807087","42.560974","20.64927","-48.70511","56.95801"
"era-648","18.508852","-39.09638","39.162613","-21.45147","-40.828","42.583023","20.655853","-48.72324","56.983852"
"era-649","18.516935","-39.111935","39.176838","-21.462587","-40.84891","42.605045","20.66242","-48.74135","57.009632"
"era-650","18.525013","-39.12747","39.191048","-21.473696","-40.86978","42.627037","20.668978","-48.75945","57.035385"
"era-651","18.533085","-39.142994","39.20523","-21.48479","-40.890617","42.649002","20.67553","-48.777523","57.061108"
"era-652","18.541147","-39.15851","39.219406","-21.495869","-40.91142","42.670937","20.68206","-48.795574","57.086784"
"era-653","18.549196","-39.173985","39.233555","-21.506927","-40.93219","42.692825","20.688595","-48.813602","57.112434"
"era-654","18.55724","-39.189453","39.247704","-21.517984","-40.952927","42.714703","20.695118","-48.831585","57.138046"
"era-655","18.56528","-39.204906","39.261833","-21.52902","-40.97363","42.73654","20.701628","-48.84952","57.16361"
"era-656","18.573309","-39.220345","39.275932","-21.540049","-40.994324","42.75836","20.708143","-48.867474","57.18915"
"era-657","18.58133","-39.23577","39.290043","-21.551046","-41.015003","42.780148","20.71464","-48.885395","57.214653"
"era-658","18.589346","-39.25119","39.304146","-21.562035","-41.03564","42.80189","20.721134","-48.90327","57.240128"
"era-659","18.597342","-39.26657","39.31821","-21.573015","-41.056248","42.82363","20.727615","-48.92116","57.265575"
"era-660","18.605343","-39.281944","39.332253","-21.58398","-41.076828","42.845325","20.734089","-48.939026","57.290993"
"era-661","18.613325","-39.297295","39.3463","-21.594927","-41.097385","42.867","20.740551","-48.956863","57.316372"
"era-662","18.621307","-39.31265","39.360336","-21.60586","-41.117916","42.888645","20.747019","-48.974674","57.34172"
"era-663","18.629282","-39.327976","39.374344","-21.616787","-41.138412","42.91027","20.753471","-48.992474","57.367023"
"era-664","18.63726","-39.343307","39.38834","-21.62769","-41.158897","42.931854","20.759914","-49.01024","57.392292"
"era-665","18.645227","-39.3586","39.402313","-21.63858","-41.179344","42.95341","20.766348","-49.027946","57.41752"
"era-666","18.653185","-39.373894","39.416286","-21.649456","-41.19976","42.974926","20.772787","-49.045635","57.442703"
"era-667","18.66113","-39.389156","39.43025","-21.660316","-41.220154","42.996418","20.77922","-49.06331","57.46787"
"era-668","18.669064","-39.404396","39.44418","-21.671162","-41.240517","43.01788","20.785645","-49.080963","57.492985"
"era-669","18.676994","-39.419624","39.4581","-21.681988","-41.26084","43.039314","20.792059","-49.098618","57.51806"
"era-670","18.684916","-39.434853","39.47201","-21.692806","-41.281155","43.06073","20.798462","-49.11625","57.54311"
"era-671","18.692827","-39.450047","39.4859","-21.7036","-41.301437","43.0821","20.80485","-49.133854","57.56813"
"era-672","18.70073","-39.465225","39.499763","-21.714382","-41.321693","43.103443","20.811234","-49.151413","57.59311"
"era-673","18.708624","-39.48039","39.513634","-21.72515","-41.341923","43.12476","20.817616","-49.168953","57.618065"
"era-674","18.716518","-39.495552","39.527496","-21.735907","-41.36214","43.146053","20.824","-49.18647","57.642982"
"era-675","18.7244","-39.510677","39.541306","-21.746653","-41.38232","43.167316","20.830362","-49.203968","57.667862"
"era-676","18.732277","-39.525806","39.55514","-21.75738","-41.40248","43.188557","20.836727","-49.221447","57.692715"
"era-677","18.74014","-39.540913","39.568954","-21.768087","-41.4226","43.209755","20.843079","-49.238926","57.717525"
"era-678","18.748016","-39.556026","39.58275","-21.778786","-41.442696","43.230938","20.849424","-49.256363","57.74231"
"era-679","18.755878","-39.571117","39.59654","-21.78947","-41.46277","43.25209","20.85575","-49.27378","57.767063"
"era-680","18.763733","-39.5862","39.61031","-21.800137","-41.482826","43.273212","20.862064","-49.291172","57.791786"
"era-681","18.77158","-39.601265","39.624065","-21.810799","-41.50284","43.294308","20.868368","-49.308514","57.81649"
"era-682","18.779413","-39.61631","39.63781","-21.82144","-41.522827","43.31538","20.87468","-49.32587","57.841133"
"era-683","18.787245","-39.631332","39.65153","-21.832077","-41.542778","43.336422","20.880964","-49.34319","57.865765"
"era-684","18.79507","-39.646355","39.66525","-21.842697","-41.562714","43.35744","20.887264","-49.360504","57.890354"
"era-685","18.802896","-39.66136","39.678947","-21.8533","-41.582626","43.378426","20.893559","-49.37778","57.91491"
"era-686","18.810705","-39.676346","39.692635","-21.863884","-41.602512","43.39938","20.899837","-49.39503","57.939407"
"era-687","18.818508","-39.691322","39.706314","-21.874468","-41.62238","43.420322","20.906116","-49.412254","57.963894"
"era-688","18.826303","-39.706276","39.719975","-21.885036","-41.642227","43.44124","20.912374","-49.429447","57.988354"
"era-689","18.834091","-39.72122","39.733643","-21.895582","-41.66203","43.46211","20.918636","-49.446617","58.012764"
"era-690","18.841877","-39.736156","39.747288","-21.906115","-41.681812","43.48296","20.924885","-49.46377","58.037155"
"era-691","18.84965","-39.751064","39.760914","-21.916634","-41.701588","43.503788","20.931126","-49.480915","58.061512"
"era-692","18.857416","-39.765976","39.77454","-21.927137","-41.721325","43.524582","20.93735","-49.498047","58.085835"
"era-693","18.865171","-39.78086","39.788147","-21.937635","-41.741028","43.545357","20.94358","-49.515163","58.11013"
"era-694","18.872921","-39.79574","39.801746","-21.948116","-41.760704","43.566105","20.949793","-49.532234","58.134407"
"era-695","18.880672","-39.810604","39.81533","-21.958578","-41.780376","43.586815","20.95601","-49.54931","58.158634"
"era-696","18.888416","-39.825462","39.828907","-21.969027","-41.800007","43.607502","20.962217","-49.56637","58.182827"
"era-697","18.896149","-39.840298","39.84246","-21.979462","-41.819607","43.62817","20.968405","-49.583416","58.20698"
"era-698","18.903872","-39.85512","39.856018","-21.989885","-41.8392","43.648815","20.974588","-49.600426","58.231106"
"era-699","18.91158","-39.86991","39.869545","-22.000301","-41.85876","43.669434","20.980787","-49.617428","58.255207"
"era-700","18.919292","-39.88471","39.883068","-22.010696","-41.8783","43.690018","20.98696","-49.6344","58.279278"
"era-701","18.927006","-39.899494","39.89657","-22.021072","-41.89781","43.71057","20.993143","-49.65135","58.303333"
"era-702","18.934702","-39.91425","39.910053","-22.03145","-41.917305","43.731106","20.999313","-49.668266","58.327347"
"era-703","18.942387","-39.928997","39.923527","-22.041796","-41.936768","43.7516","21.005472","-49.685173","58.351322"
"era-704","18.950079","-39.943737","39.936996","-22.052137","-41.95622","43.772076","21.011625","-49.702053","58.375267"
"era-705","18.957758","-39.958466","39.95047","-22.06247","-41.975636","43.792534","21.017782","-49.718914","58.399174"
"era-706","18.965443","-39.973183","39.963905","-22.072788","-41.995026","43.812958","21.02393","-49.73575","58.42305"
"era-707","18.973108","-39.987885","39.977337","-22.083096","-42.014397","43.833366","21.030067","-49.75258","58.446907"
"era-708","18.980776","-40.00258","39.990738","-22.093401","-42.03374","43.853756","21.036196","-49.769398","58.470734"
"era-709","18.98842","-40.017227","40.00413","-22.10367","-42.053078","43.87411","21.042318","-49.786194","58.494507"
"era-710","18.996061","-40.031876","40.017517","-22.113926","-42.072384","43.89443","21.048443","-49.802963","58.51826"
"era-711","19.003693","-40.04651","40.0309","-22.124178","-42.091644","43.914726","21.054554","-49.81971","58.541985"
"era-712","19.01131","-40.061123","40.04426","-22.13442","-42.110893","43.935013","21.060648","-49.836445","58.56567"
"era-713","19.018927","-40.07573","40.05761","-22.144648","-42.13011","43.955257","21.06672","-49.853153","58.58933"
"era-714","19.026545","-40.090336","40.07095","-22.154856","-42.149307","43.97548","21.072815","-49.869858","58.61296"
"era-715","19.034164","-40.104923","40.08427","-22.165052","-42.16849","43.995678","21.078896","-49.886524","58.636555"
"era-716","19.041767","-40.11949","40.097572","-22.175234","-42.187626","44.015835","21.084953","-49.903164","58.660126"
"era-717","19.049366","-40.13406","40.11089","-22.185394","-42.206745","44.035973","21.091011","-49.9198","58.683666"
"era-718","19.056953","-40.14861","40.124184","-22.195555","-42.225857","44.056095","21.09707","-49.936405","58.707176"
"era-719","19.064537","-40.163147","40.137474","-22.205706","-42.24493","44.076202","21.103113","-49.953007","58.730656"
"era-720","19.07211","-40.177658","40.150745","-22.215849","-42.263985","44.096275","21.109161","-49.969563","58.754093"
"era-721","19.079681","-40.192165","40.16401","-22.225983","-42.283","44.116333","21.115194","-49.9861","58.777515"
"era-722","19.087236","-40.206646","40.177242","-22.236095","-42.302025","44.13636","21.121237","-50.00263","58.800896"
"era-723","19.09479","-40.221123","40.19048","-22.246204","-42.321007","44.156372","21.127262","-50.019154","58.82423"
"era-724","19.102335","-40.23559","40.203705","-22.256287","-42.339962","44.176342","21.133272","-50.035645","58.84756"
"era-725","19.109888","-40.250053","40.216908","-22.266357","-42.35891","44.196293","21.139282","-50.0521","58.870853"
"era-726","19.117426","-40.264496","40.230118","-22.276415","-42.37782","44.21621","21.145298","-50.068554","58.894127"
"era-727","19.124956","-40.27893","40.243317","-22.286457","-42.396713","44.236103","21.151287","-50.08501","58.91736"
"era-728","19.132484","-40.293354","40.2565","-22.296488","-42.4156","44.255978","21.157276","-50.101425","58.94057"
"era-729","19.14","-40.307755","40.269672","-22.306507","-42.434444","44.27583","21.163265","-50.11784","58.963753"
"era-730","19.147507","-40.322155","40.28284","-22.316511","-42.453262","44.295647","21.169243","-50.134224","58.9869"
"era-731","19.155006","-40.33652","40.295982","-22.326506","-42.472057","44.315437","21.17522","-50.150585","59.010033"
"era-732","19.162514","-40.3509","40.30911","-22.336493","-42.490826","44.33522","21.181185","-50.16695","59.033127"
"era-733","19.170015","-40.365257","40.32222","-22.346458","-42.509586","44.35496","21.187145","-50.18329","59.056194"
"era-734","19.177498","-40.37959","40.335323","-22.356411","-42.52832","44.374672","21.193108","-50.199593","59.079224"
"era-735","19.18498","-40.39392","40.34841","-22.36635","-42.54704","44.394375","21.199059","-50.215897","59.102234"
"era-736","19.192448","-40.40823","40.3615","-22.376276","-42.56574","44.414047","21.205","-50.232178","59.12522"
"era-737","19.199917","-40.42253","40.37457","-22.386187","-42.584404","44.433685","21.210938","-50.248436","59.148163"
"era-738","19.207378","-40.436825","40.38762","-22.396086","-42.603054","44.453312","21.216856","-50.264664","59.17109"
"era-739","19.214832","-40.45109","40.40066","-22.405987","-42.621666","44.47292","21.222778","-50.280853","59.19397"
"era-740","19.22229","-40.46537","40.413696","-22.415876","-42.640266","44.492496","21.22871","-50.297043","59.216824"
"era-741","19.229742","-40.479618","40.42671","-22.425749","-42.658836","44.51205","21.234623","-50.313198","59.239666"
"era-742","19.237183","-40.493855","40.4397","-22.435606","-42.677395","44.531574","21.240541","-50.32935","59.26247"
"era-743","19.244616","-40.508076","40.452705","-22.44546","-42.695927","44.551086","21.246447","-50.34548","59.28524"
"era-744","19.252043","-40.5223","40.465702","-22.455294","-42.714436","44.57057","21.252338","-50.361595","59.307983"
"era-745","19.259459","-40.536503","40.47868","-22.465122","-42.732925","44.590042","21.258226","-50.37772","59.330704"
"era-746","19.266872","-40.550697","40.491665","-22.474941","-42.751377","44.609486","21.264109","-50.393795","59.35339"
"era-747","19.274277","-40.56488","40.50464","-22.484745","-42.769814","44.6289","21.269976","-50.40985","59.376053"
"era-748","19.28169","-40.579063","40.51759","-22.494532","-42.788235","44.64828","21.27586","-50.425888","59.398685"
"era-749","19.289097","-40.59323","40.530537","-22.50431","-42.80662","44.66765","21.281729","-50.441906","59.421284"
"era-750","19.296494","-40.607388","40.543465","-22.514072","-42.82499","44.68699","21.287588","-50.457912","59.443855"
"era-751","19.303871","-40.62151","40.556393","-22.523825","-42.84333","44.706295","21.293446","-50.4739","59.466396"
"era-752","19.311256","-40.63563","40.569298","-22.533556","-42.86167","44.72558","21.299297","-50.489857","59.488922"
"era-753","19.318638","-40.649754","40.5822","-22.543272","-42.879993","44.744835","21.30513","-50.505787","59.511402"
"era-754","19.32601","-40.663857","40.59508","-22.552994","-42.898273","44.76408","21.310957","-50.52171","59.533875"
"era-755","19.333376","-40.67795","40.607967","-22.562702","-42.91653","44.783306","21.316784","-50.537624","59.55631"
"era-756","19.34074","-40.692043","40.620846","-22.572393","-42.934772","44.802505","21.322615","-50.55354","59.57871"
"era-757","19.348097","-40.706116","40.6337","-22.582075","-42.952988","44.821686","21.328438","-50.569427","59.601093"
"era-758","19.355453","-40.72018","40.646538","-22.591751","-42.97118","44.840847","21.334242","-50.58529","59.623444"
"era-759","19.362797","-40.734222","40.65936","-22.601404","-42.989338","44.85997","21.340048","-50.60115","59.645763"
"era-760","19.37013","-40.748257","40.67218","-22.611046","-43.007492","44.879078","21.345852","-50.616993","59.668053"
"era-761","19.377453","-40.76227","40.68499","-22.620686","-43.025627","44.89818","21.351639","-50.632816","59.690296"
"era-762","19.384775","-40.776283","40.69781","-22.630308","-43.04374","44.91724","21.357428","-50.64861","59.712543"
"era-763","19.392096","-40.790276","40.71059","-22.63992","-43.061832","44.93628","21.363214","-50.664402","59.734753"
"era-764","19.399414","-40.80427","40.72338","-22.649517","-43.079887","44.955284","21.369005","-50.680164","59.756943"
"era-765","19.40673","-40.818256","40.73616","-22.65909","-43.097942","44.974255","21.374784","-50.695892","59.77909"
"era-766","19.41403","-40.832222","40.748936","-22.668655","-43.115963","44.993217","21.380548","-50.711628","59.80122"
"era-767","19.421322","-40.846157","40.761673","-22.678223","-43.13398","45.01217","21.386303","-50.727325","59.823322"
"era-768","19.428612","-40.860107","40.77442","-22.68777","-43.151955","45.031094","21.39206","-50.743023","59.8454"
"era-769","19.435898","-40.874035","40.78715","-22.697313","-43.169914","45.049995","21.397814","-50.75871","59.867455"
"era-770","19.44318","-40.88796","40.799873","-22.706852","-43.18785","45.06888","21.403564","-50.77438","59.889473"
"era-771","19.45046","-40.901875","40.812584","-22.716377","-43.20577","45.087746","21.40931","-50.79003","59.911472"
"era-772","19.45774","-40.915787","40.82527","-22.725891","-43.22368","45.106594","21.415047","-50.805645","59.933434"
"era-773","19.465004","-40.92967","40.837975","-22.73538","-43.24156","45.1254","21.420778","-50.82125","59.955368"
"era-774","19.472265","-40.94355","40.850666","-22.744864","-43.25943","45.144188","21.426512","-50.83684","59.977283"
"era-775","19.479517","-40.957413","40.86333","-22.75433","-43.27726","45.16294","21.432228","-50.85241","59.99917"
"era-776","19.486761","-40.971268","40.87599","-22.763794","-43.295074","45.18169","21.437937","-50.867973","60.021027"
"era-777","19.494007","-40.985104","40.88863","-22.773245","-43.312862","45.200413","21.443647","-50.883514","60.04285"
"era-778","19.501242","-40.998936","40.90127","-22.782677","-43.330627","45.219112","21.44934","-50.89904","60.064663"
"era-779","19.508474","-41.01276","40.913895","-22.792109","-43.34838","45.23779","21.45503","-50.91453","60.08642"
"era-780","19.515705","-41.026577","40.926537","-22.801527","-43.366116","45.256443","21.460726","-50.93001","60.108162"
"era-781","19.52293","-41.040386","40.93916","-22.810926","-43.383823","45.275074","21.466417","-50.945488","60.1299"
"era-782","19.53015","-41.054184","40.951763","-22.820322","-43.40152","45.29368","21.472094","-50.960922","60.15161"
"era-783","19.537365","-41.067963","40.964355","-22.8297","-43.419186","45.312263","21.477764","-50.976353","60.173275"
"era-784","19.54457","-41.081726","40.976917","-22.839066","-43.43683","45.330822","21.483425","-50.991776","60.19491"
"era-785","19.551765","-41.095474","40.989494","-22.848421","-43.454464","45.349365","21.489088","-51.00717","60.216522"
"era-786","19.558956","-41.109215","41.00204","-22.85777","-43.472084","45.367886","21.494743","-51.02253","60.23811"
"era-787","19.566137","-41.122936","41.0146","-22.867119","-43.489666","45.386402","21.500393","-51.03789","60.259666"
"era-788","19.573317","-41.13666","41.027153","-22.876453","-43.507225","45.40489","21.506035","-51.053238","60.281208"
"era-789","19.580482","-41.150364","41.039684","-22.885773","-43.524765","45.423347","21.511671","-51.068592","60.302715"
"era-790","19.587646","-41.164055","41.052208","-22.895071","-43.542294","45.44178","21.517315","-51.08393","60.324203"
"era-791","19.59481","-41.177742","41.064716","-22.904362","-43.559807","45.4602","21.522936","-51.099262","60.34567"
"era-792","19.601973","-41.191425","41.077225","-22.913645","-43.57729","45.478592","21.52855","-51.114544","60.367092"
"era-793","19.609125","-41.20509","41.089718","-22.922913","-43.59477","45.49696","21.534172","-51.12981","60.388508"
"era-794","19.61628","-41.218754","41.1022","-22.932169","-43.612213","45.51531","21.539785","-51.145084","60.409893"
"era-795","19.623423","-41.23241","41.114697","-22.941416","-43.629642","45.53363","21.545403","-51.160336","60.43125"
"era-796","19.630562","-41.24605","41.127174","-22.950657","-43.647034","45.55194","21.551012","-51.175568","60.45258"
"era-797","19.637697","-41.25968","41.139637","-22.959885","-43.664417","45.57022","21.556622","-51.190773","60.473885"
"era-798","19.644825","-41.273293","41.152092","-22.9691","-43.681778","45.58848","21.562227","-51.205997","60.49516"
"era-799","19.651941","-41.28689","41.164528","-22.978306","-43.69913","45.60672","21.567825","-51.221176","60.51642"
"era-800","19.659061","-41.300484","41.176952","-22.987494","-43.716457","45.624935","21.573418","-51.23635","60.537647"
"era-801","19.666176","-41.314064","41.189373","-22.996685","-43.73375","45.643135","21.579002","-51.251488","60.558865"
"era-802","19.673285","-41.327637","41.20177","-23.00586","-43.75103","45.661312","21.58459","-51.266613","60.580036"
"era-803","19.680397","-41.341206","41.214172","-23.015034","-43.768288","45.679474","21.590174","-51.28172","60.601192"
"era-804","19.68749","-41.354744","41.226547","-23.024181","-43.785538","45.697598","21.59575","-51.296814","60.622322"
"era-805","19.694582","-41.368282","41.238945","-23.033325","-43.80276","45.715717","21.601326","-51.311924","60.643433"
"era-806","19.701672","-41.38182","41.251305","-23.04245","-43.819973","45.73381","21.606895","-51.327023","60.66451"
"era-807","19.708757","-41.395348","41.263687","-23.051579","-43.837173","45.751896","21.612461","-51.342075","60.685555"
"era-808","19.715824","-41.408848","41.276028","-23.060694","-43.854347","45.76996","21.618008","-51.357117","60.706577"
"era-809","19.722893","-41.422337","41.28837","-23.069792","-43.87151","45.787987","21.623554","-51.37215","60.727592"
"era-810","19.729958","-41.435825","41.300705","-23.078878","-43.888653","45.806","21.62909","-51.38716","60.748577"
"era-811","19.737019","-41.449314","41.313034","-23.087948","-43.905766","45.823982","21.634624","-51.40216","60.76954"
"era-812","19.744072","-41.46278","41.325348","-23.097015","-43.922855","45.841953","21.640152","-51.417168","60.790474"
"era-813","19.751123","-41.476234","41.337654","-23.106077","-43.93993","45.859913","21.64568","-51.432148","60.811382"
"era-814","19.758162","-41.48968","41.349968","-23.115126","-43.95698","45.877842","21.6512","-51.44709","60.832268"
"era-815","19.765205","-41.503128","41.362263","-23.124163","-43.974014","45.89575","21.656712","-51.462017","60.85313"
"era-816","19.772243","-41.516552","41.37454","-23.133194","-43.99103","45.913643","21.662231","-51.476944","60.87395"
"era-817","19.779278","-41.52998","41.386818","-23.142216","-44.008053","45.93153","21.667742","-51.49186","60.894753"
"era-818","19.786308","-41.54339","41.399086","-23.151224","-44.025043","45.94938","21.673256","-51.506744","60.91554"
"era-819","19.79333","-41.556797","41.411358","-23.160229","-44.042007","45.967216","21.678755","-51.521626","60.93629"
"era-820","19.80034","-41.570183","41.423615","-23.169216","-44.05895","45.985027","21.684254","-51.53649","60.95703"
"era-821","19.807352","-41.583553","41.435856","-23.178198","-44.07588","46.002823","21.689756","-51.55131","60.977722"
"era-822","19.814348","-41.59691","41.44809","-23.187168","-44.092777","46.02059","21.695246","-51.56614","60.998413"
"era-823","19.82134","-41.610264","41.460304","-23.196125","-44.10966","46.03834","21.700722","-51.58096","61.019093"
"era-824","19.828331","-41.623608","41.472515","-23.205072","-44.12651","46.056065","21.7062","-51.595764","61.039738"
"era-825","19.835323","-41.636936","41.484695","-23.214006","-44.143364","46.07377","21.71167","-51.610535","61.06035"
"era-826","19.84231","-41.650265","41.49689","-23.222942","-44.160202","46.091473","21.717136","-51.625305","61.08094"
"era-827","19.849297","-41.663593","41.50908","-23.231857","-44.177017","46.109146","21.722603","-51.640076","61.101498"
"era-828","19.856272","-41.676903","41.521263","-23.240751","-44.193825","46.12679","21.728073","-51.654842","61.122036"
"era-829","19.863243","-41.6902","41.53342","-23.249645","-44.21062","46.14442","21.733528","-51.66958","61.142555"
"era-830","19.870209","-41.7035","41.545586","-23.258532","-44.22737","46.162025","21.738977","-51.684307","61.163055"
"era-831","19.877172","-41.71678","41.557747","-23.26741","-44.244102","46.17962","21.744432","-51.699017","61.18352"
"era-832","19.884134","-41.73006","41.569885","-23.276272","-44.260815","46.19718","21.749876","-51.713722","61.20397"
"era-833","19.891094","-41.74333","41.582012","-23.285124","-44.277523","46.214737","21.755318","-51.72841","61.224392"
"era-834","19.89804","-41.75658","41.594143","-23.293964","-44.294212","46.23226","21.760748","-51.743076","61.244793"
"era-835","19.904982","-41.76982","41.606266","-23.302805","-44.31088","46.249786","21.76617","-51.757732","61.265163"
"era-836","19.911917","-41.783054","41.618374","-23.31163","-44.32753","46.267284","21.771591","-51.772373","61.285507"
