"era-0","0.42797753","-0.1831178","0.70285624","-0.5491193","-0.018199371","0.11871584","-0.817608","-0.8872927","-0.34223476"
"era-1","0.6341352","-0.19391076","0.96185744","-0.4169635","0.045354582","0.21760467","-0.7490088","-0.9202793","-0.31072214"
"era-2","0.8350393","-0.27903733","1.2475902","-0.27183366","0.112641975","0.31852332","-0.6552044","-0.9976016","-0.27728134"
"era-3","1.0222694","-0.4708323","1.5852674","-0.11532022","0.18247278","0.41960666","-0.52214044","-1.143291","-0.2311858"
"era-4","1.1862763","-0.83422923","2.0296714","0.050659288","0.25528643","0.51738197","-0.31957367","-1.4139639","-0.15028149"
"era-5","1.3292589","-1.5044762","2.7106607","0.22693488","0.33820453","0.6077696","0.019878216","-1.9418963","0.014585223"
"era-6","1.5627667","-2.6593847","3.886361","0.42754602","0.45417148","0.6959666","0.6250756","-2.9723005","0.3670911"
"era-7","2.0915558","-4.1469817","5.5348434","0.67114437","0.59590435","0.84600127","1.4709516","-4.4709787","0.94466484"
"era-8","2.7771857","-5.452497","7.0396705","0.8913136","0.6300553","1.1400899","2.1882677","-5.7905035","1.5271999"
"era-9","3.3971894","-6.475716","8.205832","0.99489284","0.48758668","1.5241876","2.673335","-6.7336297","2.043636"
"era-10","3.9036644","-7.3189793","9.140339","0.9034479","0.13799739","1.9213022","3.0103588","-7.439455","2.5780933"
"era-11","4.2713966","-8.09387","9.94089","0.43367115","-0.65275437","2.2952855","3.32995","-7.9925113","3.345024"
"era-12","4.3863397","-9.06446","10.598741","-0.8392535","-2.9123814","3.0947704","4.0096436","-8.324785","5.353118"
"era-13","4.41533","-10.011985","11.048183","-1.861645","-5.2721233","4.872535","4.344443","-9.188254","8.026107"
"era-14","4.5079627","-10.604181","11.420851","-2.5591562","-6.551217","6.1430635","4.572785","-10.0568075","9.762043"
"era-15","4.6266055","-11.018888","11.750782","-3.0747375","-7.3684344","7.034654","4.8099384","-10.764673","10.926854"
"era-16","4.7482944","-11.353634","12.044519","-3.4793344","-7.9816885","7.7187457","5.033874","-11.359274","11.79457"
"era-17","4.867219","-11.643832","12.308882","-3.8096933","-8.484922","8.27558","5.2386036","-11.873068","12.486445"
"era-18","4.981739","-11.904659","12.549837","-4.087933","-8.918627","8.747615","5.424693","-12.326068","13.062677"
"era-19","5.0914016","-12.143835","12.772039","-4.328402","-9.303377","9.159804","5.5943217","-12.731549","13.557136"
"era-20","5.1961985","-12.365916","12.979064","-4.5407133","-9.651235","9.527809","5.749784","-13.098753","13.990725"
"era-21","5.296285","-12.5738735","13.173587","-4.7314644","-9.97008","9.861982","5.89309","-13.434426","14.377294"
"era-22","5.3919206","-12.769872","13.357643","-4.905276","-10.265482","10.169449","6.025926","-13.743686","14.726491"
"era-23","5.483377","-12.955503","13.53279","-5.0654693","-10.5415","10.455279","6.1496654","-14.030436","15.045263"
"era-24","5.5709867","-13.1321","13.700207","-5.214457","-10.80128","10.723209","6.265454","-14.297852","15.338815"
"era-25","5.655045","-13.300704","13.860853","-5.3540993","-11.047241","10.976082","6.3742356","-14.548426","15.611123"
"era-26","5.735833","-13.462192","14.015472","-5.485789","-11.281298","11.216085","6.4767785","-14.784208","15.865245"
"era-27","5.813611","-13.617293","14.164696","-5.6106296","-11.504982","11.444941","6.5737658","-15.006928","16.103704"
"era-28","5.88864","-13.766646","14.309011","-5.729499","-11.719534","11.664029","6.6657543","-15.217981","16.32848"
"era-29","5.9611406","-13.910788","14.448876","-5.843105","-11.925965","11.874488","6.753232","-15.418584","16.541162"
"era-30","6.0313168","-14.050186","14.584625","-5.9520373","-12.125121","12.077268","6.8366084","-15.609757","16.743086"
"era-31","6.099358","-14.185252","14.716589","-6.0567827","-12.317711","12.273143","6.916251","-15.7923765","16.93541"
"era-32","6.1654186","-14.316336","14.845069","-6.157763","-12.504339","12.462804","6.9924746","-15.967195","17.119072"
"era-33","6.229644","-14.443744","14.970298","-6.255319","-12.6854925","12.646799","7.0655646","-16.134905","17.294888"
"era-34","6.2921724","-14.567758","15.092483","-6.3497496","-12.861612","12.825624","7.1357656","-16.29608","17.463543"
"era-35","6.35313","-14.6886215","15.211811","-6.441328","-13.0330715","12.99971","7.2032857","-16.451193","17.625647"
"era-36","6.412626","-14.806564","15.328471","-6.530286","-13.200194","13.169428","7.2683296","-16.60072","17.781752"
"era-37","6.4707537","-14.921769","15.442605","-6.616817","-13.363292","13.335103","7.331074","-16.745079","17.932325"
"era-38","6.5275974","-15.034413","15.554362","-6.701088","-13.52261","13.497021","7.3916683","-16.884628","18.077744"
"era-39","6.583236","-15.144654","15.663881","-6.7832727","-13.678385","13.655458","7.4502683","-17.019712","18.218405"
"era-40","6.637755","-15.252646","15.771265","-6.863516","-13.830838","13.810651","7.506988","-17.150612","18.354616"
"era-41","6.6912026","-15.3585005","15.876629","-6.9419184","-13.980133","13.962763","7.561956","-17.277588","18.486658"
"era-42","6.7436504","-15.462348","15.980087","-7.0186305","-14.126444","14.112007","7.61525","-17.400816","18.614817"
"era-43","6.7951446","-15.56429","16.08173","-7.0937376","-14.269942","14.258544","7.666989","-17.520563","18.739325"
"era-44","6.8457365","-15.664417","16.181625","-7.1673465","-14.410756","14.402516","7.7172427","-17.636972","18.8604"
"era-45","6.895475","-15.762828","16.279877","-7.2395353","-14.549044","14.544069","7.76609","-17.750233","18.978241"
"era-46","6.944399","-15.859607","16.376553","-7.310371","-14.684909","14.683311","7.813604","-17.86052","19.093"
"era-47","6.9925423","-15.954815","16.471704","-7.3799458","-14.818487","14.820384","7.8598557","-17.967983","19.204851"
"era-48","7.0399394","-16.048544","16.565441","-7.4483156","-14.949877","14.955377","7.904909","-18.07277","19.313969"
"era-49","7.0866237","-16.140846","16.65779","-7.5155387","-15.079178","15.088397","7.9488196","-18.175049","19.420496"
"era-50","7.1326246","-16.231792","16.74882","-7.5816684","-15.206486","15.21953","7.9916325","-18.274925","19.524565"
"era-51","7.177964","-16.321428","16.838549","-7.6467423","-15.331887","15.348847","8.033387","-18.372543","19.626282"
"era-52","7.222667","-16.409813","16.927069","-7.7108293","-15.455465","15.4764385","8.074128","-18.467962","19.725782"
"era-53","7.2667766","-16.496988","17.0144","-7.7739754","-15.577302","15.602368","8.113959","-18.56131","19.823135"
"era-54","7.3103004","-16.583","17.10062","-7.8362217","-15.697471","15.7267","8.152909","-18.652676","19.91849"
"era-55","7.353259","-16.667877","17.185728","-7.8976126","-15.816037","15.8495035","8.191013","-18.742146","20.0119"
"era-56","7.3956795","-16.751694","17.26979","-7.958172","-15.933054","15.970828","8.228258","-18.829792","20.103443"
"era-57","7.437575","-16.834467","17.352837","-8.017946","-16.048601","16.090746","8.264717","-18.915695","20.193233"
"era-58","7.478963","-16.916235","17.43491","-8.076968","-16.162733","16.209293","8.300412","-18.999916","20.28134"
"era-59","7.5198665","-16.99704","17.516026","-8.135263","-16.275494","16.326515","8.335359","-19.082531","20.36784"
"era-60","7.5602903","-17.0769","17.59622","-8.192867","-16.386953","16.442474","8.369588","-19.163595","20.452784"
"era-61","7.600248","-17.15585","17.67552","-8.249799","-16.497154","16.557207","8.403111","-19.243166","20.536243"
"era-62","7.6397657","-17.233925","17.753958","-8.306098","-16.60613","16.670765","8.435978","-19.321314","20.618261"
"era-63","7.678836","-17.311132","17.831566","-8.361788","-16.713928","16.783167","8.468208","-19.398073","20.69893"
"era-64","7.7174926","-17.38752","17.908358","-8.416891","-16.820585","16.894468","8.4998","-19.473494","20.778292"
"era-65","7.755739","-17.463106","17.984379","-8.471435","-16.926132","17.004688","8.5308075","-19.54763","20.856396"
"era-66","7.793584","-17.537905","18.059624","-8.525429","-17.030626","17.113873","8.561233","-19.620544","20.933289"
"era-67","7.831041","-17.611948","18.134138","-8.578886","-17.134079","17.222029","8.591094","-19.692259","21.009026"
"era-68","7.868127","-17.68526","18.207926","-8.631854","-17.236538","17.329216","8.620407","-19.762793","21.083635"
"era-69","7.904844","-17.757853","18.281015","-8.684328","-17.338026","17.435452","8.649191","-19.832222","21.157148"
"era-70","7.9412007","-17.82975","18.353436","-8.736342","-17.438572","17.540771","8.677473","-19.900583","21.229635"
"era-71","7.977208","-17.900959","18.425196","-8.787916","-17.538202","17.645195","8.705275","-19.967873","21.301123"
"era-72","8.012879","-17.971504","18.496286","-8.839057","-17.636955","17.748762","8.732593","-20.034157","21.37164"
"era-73","8.048219","-18.041407","18.566769","-8.889779","-17.73484","17.851465","8.7594595","-20.099455","21.441246"
"era-74","8.083242","-18.110683","18.63662","-8.940104","-17.831892","17.95336","8.785868","-20.16379","21.509964"
"era-75","8.117956","-18.179352","18.705883","-8.990044","-17.92811","18.054457","8.811844","-20.227203","21.577799"
"era-76","8.152363","-18.247416","18.774542","-9.039602","-18.02353","18.154762","8.837408","-20.289724","21.644812"
"era-77","8.186472","-18.3149","18.842632","-9.088806","-18.118164","18.254318","8.862553","-20.35137","21.711031"
"era-78","8.220287","-18.381811","18.910187","-9.137663","-18.212029","18.353127","8.887314","-20.41216","21.776478"
"era-79","8.253813","-18.448158","18.97719","-9.186174","-18.305162","18.451218","8.911696","-20.472137","21.841171"
"era-80","8.287062","-18.513958","19.043646","-9.234361","-18.397577","18.54861","8.935694","-20.53131","21.905138"
"era-81","8.320035","-18.579216","19.109581","-9.282228","-18.489271","18.64531","8.959359","-20.589727","21.968414"
"era-82","8.352747","-18.643959","19.175005","-9.32979","-18.580256","18.741343","8.982662","-20.647388","22.031012"
"era-83","8.385192","-18.70819","19.239939","-9.377051","-18.670557","18.836723","9.005621","-20.704327","22.092947"
"era-84","8.417381","-18.771914","19.304373","-9.42402","-18.7602","18.93145","9.0282545","-20.760513","22.154251"
"era-85","8.449327","-18.835144","19.36833","-9.470711","-18.849182","19.025549","9.050584","-20.816006","22.214962"
"era-86","8.481029","-18.897898","19.431814","-9.517138","-18.937517","19.119051","9.072598","-20.870813","22.27507"
"era-87","8.512496","-18.960188","19.49484","-9.563299","-19.025234","19.211954","9.094291","-20.924948","22.334616"
"era-88","8.543723","-19.022007","19.55741","-9.609192","-19.112335","19.304262","9.115703","-20.978443","22.393606"
"era-89","8.574712","-19.083359","19.619532","-9.654828","-19.198812","19.39598","9.136836","-21.031311","22.452076"
"era-90","8.605488","-19.144278","19.681217","-9.700216","-19.284706","19.487135","9.1577015","-21.083567","22.510035"
"era-91","8.636042","-19.204752","19.742466","-9.745362","-19.369993","19.577719","9.178298","-21.13521","22.567497"
"era-92","8.666375","-19.2648","19.8033","-9.790278","-19.454706","19.667772","9.198634","-21.186274","22.624472"
"era-93","8.6965","-19.324425","19.863712","-9.834954","-19.538826","19.757265","9.218704","-21.236753","22.680988"
"era-94","8.726416","-19.383633","19.923716","-9.879408","-19.622393","19.846241","9.238541","-21.286678","22.737043"
"era-95","8.756128","-19.442438","19.983324","-9.923637","-19.705402","19.934694","9.258133","-21.336075","22.79268"
"era-96","8.785642","-19.500845","20.042542","-9.967647","-19.787876","20.022633","9.277504","-21.384928","22.84789"
"era-97","8.81496","-19.55886","20.101362","-10.011444","-19.869802","20.110071","9.29664","-21.43326","22.9027"
"era-98","8.84409","-19.616491","20.159805","-10.055033","-19.951202","20.197","9.315566","-21.481064","22.95712"
"era-99","8.873032","-19.673746","20.21788","-10.0984125","-20.032082","20.283445","9.334277","-21.528381","23.011158"
"era-100","8.901788","-19.730625","20.275572","-10.141587","-20.112446","20.369406","9.352794","-21.57523","23.064816"
"era-101","8.930355","-19.787125","20.3329","-10.184567","-20.192307","20.4549","9.371108","-21.621593","23.118118"
"era-102","8.958755","-19.843279","20.389872","-10.227359","-20.27164","20.539913","9.389227","-21.667469","23.171091"
"era-103","8.986974","-19.899065","20.446486","-10.269949","-20.35049","20.624458","9.407169","-21.712894","23.223724"
"era-104","9.015022","-19.954504","20.502748","-10.312352","-20.428848","20.708551","9.424914","-21.757866","23.276045"
"era-105","9.042895","-20.009592","20.558664","-10.35457","-20.506718","20.7922","9.44249","-21.802397","23.328037"
"era-106","9.070609","-20.064348","20.614243","-10.396597","-20.584114","20.875395","9.4598875","-21.8465","23.379723"
"era-107","9.098149","-20.118767","20.669493","-10.438441","-20.661024","20.958147","9.477106","-21.89017","23.43111"
"era-108","9.12554","-20.172869","20.72441","-10.480105","-20.737474","21.040462","9.494161","-21.93343","23.482235"
"era-109","9.152769","-20.226637","20.779","-10.5215845","-20.813457","21.122334","9.511063","-21.976288","23.53308"
"era-110","9.179847","-20.280094","20.833279","-10.562892","-20.888988","21.203789","9.527821","-22.018757","23.583652"
"era-111","9.206769","-20.333231","20.887226","-10.604026","-20.964064","21.284822","9.544423","-22.060823","23.633974"
"era-112","9.233541","-20.386063","20.940874","-10.644975","-21.0387","21.365427","9.560868","-22.10251","23.684036"
"era-113","9.260165","-20.438583","20.994196","-10.685767","-21.11287","21.445621","9.57717","-22.143805","23.733875"
"era-114","9.28664","-20.490799","21.047218","-10.726386","-21.1866","21.525406","9.593348","-22.184742","23.783482"
"era-115","9.312966","-20.54272","21.09995","-10.766833","-21.259905","21.604778","9.609383","-22.225323","23.832869"
"era-116","9.339167","-20.59436","21.152386","-10.807117","-21.332767","21.683748","9.625286","-22.265524","23.882027"
"era-117","9.365226","-20.645708","21.20452","-10.847232","-21.405216","21.76232","9.641065","-22.305386","23.930992"
"era-118","9.391137","-20.696764","21.25637","-10.887184","-21.477236","21.84049","9.656721","-22.344915","23.979755"
"era-119","9.416922","-20.747547","21.307934","-10.9269705","-21.548824","21.918268","9.672247","-22.3841","24.028305"
"era-120","9.442577","-20.79806","21.35921","-10.966585","-21.62","21.995651","9.687655","-22.422966","24.076666"
"era-121","9.468096","-20.84829","21.410202","-11.006042","-21.690773","22.072653","9.702952","-22.4615","24.124838"
"era-122","9.493489","-20.898256","21.46092","-11.045334","-21.761118","22.149263","9.718139","-22.49972","24.172836"
"era-123","9.518762","-20.947962","21.51136","-11.084465","-21.831081","22.225498","9.73321","-22.537628","24.220648"
"era-124","9.543911","-20.997412","21.56153","-11.123443","-21.900633","22.301355","9.748175","-22.575233","24.2683"
"era-125","9.568934","-21.046597","21.611435","-11.162254","-21.969778","22.376833","9.763035","-22.612537","24.315779"
"era-126","9.593831","-21.095526","21.661072","-11.200915","-22.038548","22.45195","9.777787","-22.64955","24.363111"
"era-127","9.618605","-21.144196","21.710442","-11.239409","-22.106915","22.526693","9.792448","-22.686281","24.410278"
"era-128","9.643274","-21.192629","21.759544","-11.277754","-22.174904","22.601078","9.807013","-22.722721","24.457294"
"era-129","9.667824","-21.240818","21.8084","-11.315943","-22.242498","22.675098","9.821482","-22.75889","24.50417"
"era-130","9.692255","-21.28876","21.856993","-11.353977","-22.309713","22.748758","9.835847","-22.794785","24.550903"
"era-131","9.7165785","-21.336468","21.905336","-11.391862","-22.376549","22.822067","9.850131","-22.83041","24.5975"
"era-132","9.740792","-21.38394","21.953423","-11.429582","-22.443007","22.895006","9.864324","-22.865767","24.643951"
"era-133","9.764894","-21.431177","22.001259","-11.467153","-22.509096","22.967604","9.878429","-22.900862","24.690275"
"era-134","9.788878","-21.47818","22.048855","-11.504561","-22.574825","23.039845","9.892446","-22.935722","24.736485"
"era-135","9.812767","-21.524965","22.096205","-11.541823","-22.640188","23.111746","9.90638","-22.970331","24.782558"
"era-136","9.836548","-21.571516","22.1433","-11.578939","-22.705185","23.183306","9.920234","-23.004677","24.828508"
"era-137","9.860224","-21.617844","22.19015","-11.615891","-22.76982","23.254515","9.934","-23.038797","24.874332"
"era-138","9.883798","-21.663961","22.236767","-11.652695","-22.834097","23.325392","9.947691","-23.072699","24.920053"
"era-139","9.907269","-21.709854","22.283138","-11.689341","-22.898037","23.39593","9.961304","-23.106365","24.96565"
"era-140","9.930644","-21.755539","22.329268","-11.725838","-22.961626","23.466137","9.974831","-23.139801","25.011124"
"era-141","9.953911","-21.801004","22.375175","-11.762176","-23.024862","23.536007","9.988292","-23.173033","25.05649"
"era-142","9.977089","-21.84627","22.420841","-11.798361","-23.087753","23.60554","10.001674","-23.206049","25.101757"
"era-143","10.000168","-21.891329","22.46628","-11.834392","-23.150293","23.674744","10.014987","-23.23886","25.146906"
"era-144","10.023154","-21.936182","22.51149","-11.870272","-23.212511","23.743622","10.028225","-23.27146","25.191961"
"era-145","10.046054","-21.980839","22.556461","-11.905994","-23.274391","23.812166","10.041391","-23.30385","25.23692"
"era-146","10.068856","-22.025295","22.601213","-11.941566","-23.335936","23.88039","10.054494","-23.336063","25.281784"
"era-147","10.091554","-22.069536","22.645723","-11.976984","-23.39716","23.9483","10.067524","-23.36809","25.326544"
"era-148","10.114174","-22.113596","22.690012","-12.012248","-23.458065","24.015886","10.080484","-23.399916","25.371216"
"era-149","10.136699","-22.157452","22.734068","-12.047359","-23.518642","24.083155","10.093379","-23.431566","25.415783"
"era-150","10.159132","-22.201115","22.77791","-12.082314","-23.578913","24.150106","10.10621","-23.46304","25.460264"
"era-151","10.181482","-22.244595","22.821522","-12.117112","-23.638865","24.21674","10.118969","-23.494337","25.50466"
"era-152","10.203748","-22.287884","22.864912","-12.151752","-23.698511","24.283052","10.13167","-23.525444","25.548952"
"era-153","10.225925","-22.330988","22.908083","-12.186234","-23.757849","24.349052","10.144309","-23.5564","25.593159"
"era-154","10.248016","-22.373905","22.951036","-12.220569","-23.816875","24.414751","10.156886","-23.587198","25.637274"
"era-155","10.270028","-22.416645","22.993763","-12.254747","-23.875612","24.480145","10.169394","-23.61783","25.6813"
"era-156","10.291956","-22.4592","23.03627","-12.288768","-23.934046","24.54522","10.181839","-23.648302","25.725243"
"era-157","10.313799","-22.501575","23.07855","-12.322631","-23.992182","24.609999","10.1942215","-23.678642","25.7691"
"era-158","10.335557","-22.543774","23.120626","-12.356325","-24.050034","24.674456","10.206532","-23.708822","25.812881"
"era-159","10.357227","-22.58579","23.162495","-12.389867","-24.107594","24.73861","10.218785","-23.738848","25.85658"
"era-160","10.378826","-22.62764","23.20415","-12.423247","-24.164875","24.802456","10.230975","-23.768723","25.900196"
"era-161","10.400343","-22.669312","23.24559","-12.456464","-24.22187","24.86599","10.243121","-23.798466","25.943726"
"era-162","10.421779","-22.710812","23.28682","-12.489522","-24.278587","24.929224","10.2552","-23.82807","25.987183"
"era-163","10.443134","-22.752134","23.327831","-12.522425","-24.33503","24.992165","10.2672205","-23.857534","26.03054"
"era-164","10.46441","-22.793293","23.368645","-12.55517","-24.391203","25.054808","10.2791815","-23.886879","26.073832"
"era-165","10.485613","-22.834284","23.409243","-12.587749","-24.447098","25.117136","10.29109","-23.916079","26.117043"
"era-166","10.506736","-22.875109","23.449646","-12.620165","-24.502735","25.179163","10.302938","-23.945148","26.160173"
"era-167","10.527774","-22.915754","23.489834","-12.652419","-24.558098","25.240889","10.314742","-23.974104","26.203236"
"era-168","10.548737","-22.956236","23.529812","-12.684511","-24.613197","25.302317","10.326485","-24.002935","26.24622"
"era-169","10.569619","-22.996546","23.569584","-12.716434","-24.66804","25.363438","10.338169","-24.031647","26.289131"
"era-170","10.590429","-23.036703","23.60916","-12.748201","-24.722631","25.424269","10.349805","-24.060242","26.331968"
"era-171","10.611165","-23.07669","23.648518","-12.779806","-24.77696","25.484804","10.361386","-24.088718","26.37472"
"era-172","10.631821","-23.11651","23.68768","-12.811252","-24.831043","25.545038","10.372921","-24.117086","26.417402"
"era-173","10.6524","-23.156168","23.726633","-12.842522","-24.884878","25.604979","10.384393","-24.14535","26.459997"
"era-174","10.672901","-23.195662","23.765392","-12.873635","-24.938465","25.664621","10.395822","-24.17349","26.502518"
"era-175","10.693324","-23.234993","23.803957","-12.904587","-24.991795","25.723967","10.407199","-24.201525","26.54496"
"era-176","10.713671","-23.274158","23.842321","-12.935372","-25.044884","25.78302","10.418524","-24.229446","26.587318"
"era-177","10.733932","-23.313156","23.88048","-12.965997","-25.097729","25.841782","10.4297905","-24.257257","26.629602"
"era-178","10.754122","-23.352","23.918444","-12.996455","-25.150326","25.900244","10.441004","-24.284977","26.671812"
"era-179","10.774238","-23.390686","23.956215","-13.026742","-25.202694","25.958418","10.452165","-24.312601","26.713938"
"era-180","10.794278","-23.429216","23.993795","-13.0568695","-25.254826","26.016293","10.463279","-24.340113","26.755993"
"era-181","10.8142395","-23.467587","24.03119","-13.086832","-25.306715","26.073874","10.474344","-24.367537","26.797977"
"era-182","10.834128","-23.505802","24.06839","-13.116636","-25.358366","26.131168","10.485359","-24.394852","26.839882"
"era-183","10.85394","-23.543863","24.10541","-13.146279","-25.40978","26.188179","10.496328","-24.422083","26.881706"
"era-184","10.873682","-23.581774","24.142231","-13.17576","-25.46097","26.244905","10.507242","-24.449213","26.923452"
"era-185","10.893342","-23.61952","24.178865","-13.205078","-25.51192","26.301334","10.518105","-24.476244","26.965115"
"era-186","10.912937","-23.657127","24.215315","-13.234232","-25.562643","26.357483","10.528914","-24.503195","27.00669"
"era-187","10.932448","-23.69457","24.25158","-13.263226","-25.613132","26.413342","10.53968","-24.530052","27.048185"
"era-188","10.95188","-23.731853","24.28766","-13.292059","-25.663391","26.468914","10.550397","-24.556816","27.089607"
"era-189","10.971235","-23.768988","24.323568","-13.32074","-25.71342","26.52421","10.56107","-24.583494","27.13094"
"era-190","10.990513","-23.80596","24.359285","-13.349256","-25.763235","26.57922","10.571687","-24.610079","27.172195"
"era-191","11.009715","-23.842789","24.394838","-13.377614","-25.812817","26.633947","10.582256","-24.636568","27.21335"
"era-192","11.028843","-23.879463","24.4302","-13.405815","-25.86217","26.688396","10.592783","-24.662981","27.254417"
"era-193","11.047894","-23.915983","24.465387","-13.433862","-25.911299","26.742573","10.603257","-24.689325","27.295395"
"era-194","11.066863","-23.952347","24.50039","-13.461752","-25.960201","26.796465","10.613684","-24.715563","27.336294"
"era-195","11.085756","-23.988558","24.535223","-13.489485","-26.008883","26.850079","10.624065","-24.741724","27.377108"
"era-196","11.104574","-24.024622","24.569881","-13.517062","-26.057344","26.903418","10.634397","-24.7678","27.417837"
"era-197","11.123318","-24.060535","24.60437","-13.544494","-26.105576","26.95648","10.644687","-24.79378","27.458464"
"era-198","11.141987","-24.096302","24.638683","-13.571772","-26.153587","27.009275","10.654931","-24.819687","27.499"
"era-199","11.160579","-24.131914","24.67282","-13.598899","-26.201372","27.061796","10.66512","-24.845509","27.539454"
"era-200","11.179101","-24.167389","24.706799","-13.625881","-26.248928","27.114044","10.675267","-24.871223","27.579807"
"era-201","11.197546","-24.202713","24.740602","-13.652705","-26.296272","27.16602","10.685367","-24.896872","27.620075"
"era-202","11.215918","-24.237886","24.774242","-13.679391","-26.343397","27.21773","10.695425","-24.92242","27.660261"
"era-203","11.234211","-24.272917","24.807724","-13.705932","-26.390297","27.269173","10.705435","-24.947897","27.70035"
"era-204","11.252434","-24.307808","24.841047","-13.7323265","-26.436977","27.320353","10.715393","-24.973291","27.740337"
"era-205","11.270576","-24.342546","24.874197","-13.7585745","-26.483446","27.371277","10.72531","-24.99862","27.780222"
"era-206","11.288645","-24.377146","24.9072","-13.784685","-26.529703","27.421942","10.735179","-25.023857","27.820017"
"era-207","11.306639","-24.4116","24.940035","-13.810652","-26.575737","27.472347","10.744995","-25.049017","27.85971"
"era-208","11.324562","-24.445915","24.97272","-13.836482","-26.621552","27.522491","10.754776","-25.074099","27.899302"
"era-209","11.342414","-24.480095","25.00525","-13.862163","-26.667149","27.572369","10.76451","-25.099096","27.938803"
"era-210","11.360185","-24.514124","25.037622","-13.88771","-26.712534","27.621994","10.774185","-25.123999","27.978203"
"era-211","11.377881","-24.548012","25.069836","-13.913119","-26.757692","27.67136","10.783815","-25.148848","28.017504"
"era-212","11.395509","-24.581768","25.101906","-13.938395","-26.802649","27.720486","10.793399","-25.173613","28.056696"
"era-213","11.41306","-24.615381","25.13382","-13.963532","-26.847387","27.769354","10.802936","-25.1983","28.09578"
"era-214","11.430538","-24.648857","25.165583","-13.98854","-26.89192","27.81798","10.812418","-25.22289","28.134768"
"era-215","11.447945","-24.682198","25.197208","-14.013418","-26.93624","27.866354","10.821865","-25.247402","28.173649"
"era-216","11.46528","-24.7154","25.228685","-14.038165","-26.980354","27.914488","10.831264","-25.271845","28.212418"
"era-217","11.482538","-24.748463","25.260014","-14.062782","-27.024265","27.962378","10.840614","-25.296186","28.251081"
"era-218","11.499725","-24.781393","25.291203","-14.087268","-27.067953","28.010021","10.849928","-25.320478","28.289633"
"era-219","11.516847","-24.81419","25.322243","-14.111632","-27.111439","28.05742","10.859189","-25.344658","28.32808"
"era-220","11.533898","-24.846853","25.35314","-14.13587","-27.15472","28.104588","10.868407","-25.368765","28.366419"
"era-221","11.550871","-24.87938","25.383894","-14.159979","-27.197796","28.15151","10.87758","-25.392822","28.404657"
"era-222","11.567774","-24.911772","25.414505","-14.183967","-27.240671","28.198208","10.886703","-25.416792","28.442785"
"era-223","11.58461","-24.944035","25.444977","-14.2078285","-27.28335","28.24467","10.895786","-25.440685","28.480795"
"era-224","11.601376","-24.976168","25.475311","-14.231577","-27.325829","28.290903","10.904822","-25.464502","28.5187"
"era-225","11.618073","-25.008179","25.505526","-14.255203","-27.368109","28.336906","10.9138155","-25.488243","28.55649"
"era-226","11.6347","-25.040054","25.535603","-14.278707","-27.410183","28.382677","10.92277","-25.511904","28.594168"
"era-227","11.651261","-25.071808","25.565552","-14.302094","-27.452059","28.42822","10.931686","-25.53548","28.631744"
"era-228","11.667751","-25.103426","25.595356","-14.325366","-27.49374","28.473537","10.940546","-25.558985","28.669207"
"era-229","11.684176","-25.13492","25.625032","-14.348522","-27.535227","28.518625","10.949375","-25.582403","28.706554"
"era-230","11.700533","-25.166292","25.654585","-14.371565","-27.576523","28.563494","10.9581585","-25.605734","28.743784"
"era-231","11.716825","-25.197542","25.684021","-14.394498","-27.617622","28.608143","10.966899","-25.628986","28.780901"
"era-232","11.733045","-25.228659","25.71332","-14.417313","-27.65854","28.65257","10.9755945","-25.65216","28.81791"
"era-233","11.749199","-25.259657","25.742493","-14.440016","-27.699272","28.69679","10.984248","-25.67528","28.854795"
"era-234","11.765294","-25.290533","25.77154","-14.462617","-27.739809","28.740797","10.992867","-25.698307","28.89157"
"era-235","11.781326","-25.321295","25.800465","-14.4851055","-27.780163","28.784582","11.001435","-25.721252","28.928223"
"era-236","11.797289","-25.351929","25.829264","-14.507485","-27.820335","28.828157","11.00996","-25.7441","28.96477"
"era-237","11.813192","-25.38245","25.85794","-14.529759","-27.860327","28.87152","11.018449","-25.76688","29.001198"
"era-238","11.829028","-25.412853","25.886515","-14.551921","-27.900135","28.914677","11.0268955","-25.789589","29.037502"
"era-239","11.844802","-25.443134","25.914953","-14.573985","-27.939758","28.95762","11.0352955","-25.812216","29.073694"
"era-240","11.860514","-25.4733","25.943275","-14.595936","-27.979208","29.00036","11.043654","-25.834768","29.109774"
"era-241","11.876162","-25.50335","25.971485","-14.617788","-28.018482","29.0429","11.051975","-25.85723","29.145733"
"era-242","11.891751","-25.533285","25.999575","-14.639541","-28.05759","29.08524","11.06026","-25.87961","29.181574"
"era-243","11.907285","-25.563114","26.027555","-14.661196","-28.096521","29.127384","11.068489","-25.90191","29.21729"
"era-244","11.9227495","-25.592829","26.055424","-14.682743","-28.135277","29.169329","11.076677","-25.924143","29.25289"
"era-245","11.938154","-25.622425","26.083181","-14.704194","-28.17387","29.211079","11.084826","-25.94629","29.288376"
"era-246","11.953499","-25.651913","26.110825","-14.725549","-28.212297","29.252636","11.092934","-25.968363","29.323738"
"era-247","11.968787","-25.681293","26.138353","-14.746802","-28.250559","29.293997","11.101002","-25.99036","29.358982"
"era-248","11.984015","-25.710554","26.16577","-14.767963","-28.288652","29.33517","11.109039","-26.012287","29.394112"
"era-249","11.999179","-25.739712","26.19309","-14.789029","-28.326582","29.376154","11.117035","-26.034142","29.429127"
"era-250","12.014287","-25.768759","26.220295","-14.810007","-28.364351","29.41696","11.124988","-26.055908","29.464014"
"era-251","12.029341","-25.7977","26.247398","-14.830878","-28.40196","29.45757","11.132905","-26.077595","29.49878"
"era-252","12.044339","-25.826536","26.274393","-14.851665","-28.439417","29.498001","11.1407795","-26.099194","29.53342"
"era-253","12.059276","-25.855265","26.301281","-14.872359","-28.476706","29.53825","11.148609","-26.120728","29.56794"
"era-254","12.074158","-25.88389","26.328068","-14.892965","-28.513845","29.578325","11.156404","-26.142181","29.602339"
"era-255","12.088982","-25.912407","26.354752","-14.913475","-28.550829","29.618212","11.164161","-26.163567","29.636621"
"era-256","12.103747","-25.94082","26.381336","-14.933898","-28.587658","29.657923","11.171885","-26.184872","29.670788"
"era-257","12.118461","-25.969131","26.407818","-14.954237","-28.62434","29.697458","11.179562","-26.206093","29.704826"
"era-258","12.133127","-25.997349","26.4342","-14.974485","-28.660877","29.736826","11.187203","-26.22723","29.738735"
"era-259","12.147734","-26.025461","26.460485","-14.994648","-28.697254","29.776022","11.194808","-26.248312","29.772532"
"era-260","12.162283","-26.05347","26.48668","-15.014726","-28.73349","29.815042","11.202374","-26.269312","29.806208"
"era-261","12.176778","-26.081387","26.512774","-15.034717","-28.769571","29.853893","11.209899","-26.290234","29.839771"
"era-262","12.191219","-26.109198","26.538773","-15.054625","-28.80551","29.89258","11.217383","-26.311092","29.873213"
"era-263","12.205614","-26.136917","26.56467","-15.074449","-28.841309","29.9311","11.22483","-26.331863","29.906534"
"era-264","12.219954","-26.164537","26.59048","-15.094194","-28.876965","29.969461","11.23224","-26.352552","29.939734"
"era-265","12.234242","-26.192062","26.616192","-15.113859","-28.912483","30.00766","11.239622","-26.37318","29.97282"
"era-266","12.248476","-26.219482","26.6418","-15.133445","-28.947868","30.045702","11.246957","-26.393713","30.00579"
"era-267","12.262654","-26.246803","26.667324","-15.1529455","-28.983114","30.083586","11.254256","-26.414183","30.038641"
"era-268","12.276784","-26.274033","26.69275","-15.172374","-29.018215","30.121315","11.2615185","-26.434582","30.071365"
"era-269","12.290863","-26.301168","26.718088","-15.191726","-29.05318","30.158886","11.268745","-26.454893","30.10397"
"era-270","12.304899","-26.328218","26.743332","-15.211006","-29.088018","30.196312","11.275927","-26.47514","30.136454"
"era-271","12.318878","-26.355177","26.768497","-15.230205","-29.122719","30.233585","11.283071","-26.49533","30.168823"
"era-272","12.332812","-26.382046","26.793575","-15.249324","-29.157288","30.270699","11.290179","-26.515429","30.201075"
"era-273","12.346697","-26.408825","26.818567","-15.268367","-29.191727","30.307667","11.297258","-26.535473","30.23321"
"era-274","12.360538","-26.435518","26.843466","-15.287343","-29.226034","30.344486","11.30429","-26.555433","30.265224"
"era-275","12.374325","-26.46212","26.868288","-15.306239","-29.260214","30.381165","11.311292","-26.575333","30.297121"
"era-276","12.388068","-26.488636","26.89302","-15.325067","-29.294273","30.417702","11.318255","-26.595152","30.3289"
"era-277","12.401766","-26.51506","26.917664","-15.343822","-29.3282","30.454086","11.325183","-26.6149","30.360563"
"era-278","12.415416","-26.541403","26.942234","-15.362507","-29.362005","30.490337","11.332081","-26.634577","30.3921"
"era-279","12.429026","-26.567661","26.96671","-15.381122","-29.395687","30.52645","11.338939","-26.654182","30.42353"
"era-280","12.442581","-26.59383","26.99111","-15.39967","-29.429247","30.562418","11.345767","-26.673704","30.454844"
"era-281","12.456097","-26.619919","27.015432","-15.418146","-29.462683","30.598259","11.352553","-26.693169","30.486044"
"era-282","12.469567","-26.645926","27.039675","-15.436559","-29.496004","30.63396","11.359309","-26.712563","30.51712"
"era-283","12.48299","-26.671846","27.063837","-15.454901","-29.529196","30.669529","11.366026","-26.731884","30.548092"
"era-284","12.496368","-26.69769","27.087927","-15.47318","-29.562273","30.704962","11.372705","-26.751125","30.578943"
"era-285","12.509703","-26.723444","27.111935","-15.4913845","-29.595234","30.740267","11.379355","-26.770311","30.60968"
"era-286","12.522995","-26.749119","27.135849","-15.50953","-29.628073","30.775444","11.385967","-26.789436","30.6403"
"era-287","12.536247","-26.774725","27.159702","-15.527608","-29.66081","30.810484","11.392544","-26.808489","30.670816"
"era-288","12.549453","-26.80024","27.183477","-15.545623","-29.693428","30.845402","11.399084","-26.827452","30.701204"
"era-289","12.562615","-26.825676","27.207165","-15.563572","-29.725931","30.880198","11.405594","-26.846375","30.73148"
"era-290","12.575742","-26.85104","27.230787","-15.581454","-29.758327","30.914865","11.412069","-26.865206","30.761642"
"era-291","12.588821","-26.876322","27.254332","-15.599278","-29.79061","30.949413","11.41851","-26.883974","30.791689"
"era-292","12.601861","-26.901527","27.2778","-15.617044","-29.822777","30.983833","11.424918","-26.902672","30.82162"
"era-293","12.614858","-26.926657","27.301207","-15.634747","-29.854837","31.018133","11.431294","-26.921305","30.851446"
"era-294","12.627817","-26.951715","27.324532","-15.65239","-29.886799","31.052326","11.437632","-26.939875","30.881155"
"era-295","12.640734","-26.976696","27.347784","-15.669968","-29.918638","31.086391","11.443934","-26.958376","30.91076"
"era-296","12.653613","-27.001602","27.37097","-15.687486","-29.95038","31.120337","11.450207","-26.976795","30.94025"
"era-297","12.6664505","-27.02643","27.39408","-15.704954","-29.982016","31.154171","11.456448","-26.995152","30.969622"
"era-298","12.679249","-27.05119","27.417116","-15.72236","-30.01354","31.187895","11.462654","-27.013453","30.998884"
"era-299","12.692013","-27.07588","27.440084","-15.739708","-30.044968","31.221502","11.468824","-27.031681","31.02804"
"era-300","12.704737","-27.100494","27.46299","-15.75699","-30.07629","31.254986","11.474969","-27.049852","31.057072"
"era-301","12.717419","-27.125038","27.485823","-15.774212","-30.107508","31.28837","11.481077","-27.067963","31.086002"
"era-302","12.7300625","-27.149511","27.508589","-15.791391","-30.138626","31.321638","11.48716","-27.086002","31.114824"
"era-303","12.742671","-27.173914","27.531292","-15.808509","-30.169641","31.3548","11.493208","-27.103975","31.143524"
"era-304","12.755243","-27.198244","27.553928","-15.825568","-30.200562","31.387861","11.499229","-27.121897","31.17212"
"era-305","12.767777","-27.222511","27.57649","-15.84257","-30.23139","31.420813","11.505212","-27.139746","31.200607"
"era-306","12.780275","-27.246706","27.598988","-15.85952","-30.262123","31.453657","11.511166","-27.15752","31.228987"
"era-307","12.792733","-27.270828","27.62142","-15.876418","-30.292753","31.4864","11.517085","-27.175232","31.257246"
"era-308","12.805161","-27.294895","27.643787","-15.893258","-30.323286","31.519033","11.522972","-27.192894","31.2854"
"era-309","12.817556","-27.318895","27.666105","-15.910038","-30.35372","31.551563","11.52884","-27.210485","31.313448"
"era-310","12.829918","-27.34283","27.688347","-15.926774","-30.384068","31.583992","11.534672","-27.228006","31.341393"
"era-311","12.842239","-27.366695","27.710531","-15.943448","-30.414316","31.616325","11.540472","-27.245468","31.36922"
"era-312","12.854528","-27.3905","27.732645","-15.960076","-30.444471","31.648552","11.546247","-27.26289","31.396948"
"era-313","12.86678","-27.414234","27.754702","-15.97665","-30.474543","31.680693","11.551988","-27.280228","31.424572"
"era-314","12.878997","-27.4379","27.776697","-15.993176","-30.504515","31.712723","11.557703","-27.297506","31.452084"
"era-315","12.891184","-27.461514","27.798634","-16.009645","-30.534405","31.744665","11.563379","-27.31472","31.479479"
"era-316","12.903338","-27.485058","27.82049","-16.026068","-30.564207","31.776514","11.569036","-27.331884","31.50678"
"era-317","12.915459","-27.508541","27.842304","-16.042437","-30.593916","31.808266","11.574666","-27.348984","31.533978"
"era-318","12.927545","-27.531961","27.864061","-16.058756","-30.623545","31.839918","11.580265","-27.366022","31.561064"
"era-319","12.939601","-27.555319","27.885744","-16.075027","-30.653082","31.871487","11.585838","-27.383","31.588053"
"era-320","12.951621","-27.57862","27.907389","-16.091246","-30.682533","31.902962","11.591384","-27.39992","31.614933"
"era-321","12.963612","-27.601862","27.928967","-16.10741","-30.711897","31.934343","11.596893","-27.416788","31.641703"
"era-322","12.975573","-27.625046","27.950489","-16.123528","-30.741175","31.965633","11.60238","-27.433588","31.668367"
"era-323","12.9875","-27.648165","27.971943","-16.139597","-30.770367","31.996834","11.607838","-27.450338","31.694925"
"era-324","12.999396","-27.671227","27.99335","-16.155617","-30.799477","32.027946","11.61327","-27.467028","31.721384"
"era-325","13.01126","-27.694227","28.014692","-16.17159","-30.828508","32.058975","11.618677","-27.483654","31.747736"
"era-326","13.023098","-27.717178","28.035994","-16.18752","-30.857462","32.089916","11.624051","-27.500233","31.773994"
"era-327","13.034905","-27.74007","28.057232","-16.203392","-30.886332","32.12077","11.629404","-27.516754","31.800144"
"era-328","13.046685","-27.762907","28.078415","-16.219229","-30.915123","32.151546","11.6347275","-27.533207","31.826197"
"era-329","13.058431","-27.785685","28.099546","-16.234995","-30.94383","32.182228","11.640024","-27.549597","31.852152"
"era-330","13.0701475","-27.8084","28.120615","-16.250729","-30.972462","32.212826","11.645302","-27.565939","31.877998"
"era-331","13.081835","-27.831066","28.141634","-16.266426","-31.001019","32.243343","11.650548","-27.582232","31.90374"
"era-332","13.093496","-27.853674","28.162596","-16.282059","-31.029488","32.27378","11.655766","-27.59845","31.929384"
"era-333","13.105128","-27.876228","28.183516","-16.297655","-31.05788","32.304127","11.660959","-27.614607","31.954926"
"era-334","13.116726","-27.89872","28.204365","-16.313202","-31.086191","32.334404","11.666131","-27.630705","31.980371"
"era-335","13.128303","-27.921165","28.22517","-16.328705","-31.114426","32.364582","11.671275","-27.646753","32.005714"
"era-336","13.139844","-27.943554","28.24593","-16.344158","-31.142593","32.394703","11.676396","-27.662733","32.030968"
"era-337","13.1513605","-27.965889","28.266634","-16.359581","-31.170687","32.42474","11.681486","-27.67867","32.05613"
"era-338","13.1628475","-27.988169","28.287283","-16.37494","-31.198706","32.454697","11.686557","-27.694546","32.08118"
"era-339","13.174315","-28.010408","28.30788","-16.390265","-31.226652","32.48458","11.691597","-27.710367","32.106136"
"era-340","13.185756","-28.03259","28.328426","-16.405533","-31.254526","32.514374","11.696619","-27.726143","32.130997"
"era-341","13.197164","-28.054722","28.348928","-16.420767","-31.28232","32.544098","11.701613","-27.741869","32.155743"
"era-342","13.208549","-28.076801","28.369379","-16.435953","-31.310053","32.57375","11.706582","-27.757536","32.180416"
"era-343","13.21991","-28.098835","28.389788","-16.451094","-31.337715","32.603336","11.711541","-27.773142","32.204987"
"era-344","13.231243","-28.120813","28.410137","-16.466206","-31.36531","32.632843","11.716464","-27.788689","32.22947"
"era-345","13.242547","-28.142736","28.430435","-16.481253","-31.39283","32.66228","11.721372","-27.804182","32.25383"
"era-346","13.253827","-28.164612","28.450691","-16.496258","-31.420282","32.69165","11.726254","-27.819633","32.27811"
"era-347","13.265089","-28.186453","28.4709","-16.511238","-31.447678","32.720947","11.731112","-27.835032","32.30229"
"era-348","13.276319","-28.208239","28.491064","-16.52617","-31.475002","32.750183","11.735942","-27.850367","32.32638"
"era-349","13.287525","-28.229969","28.511173","-16.54107","-31.502256","32.779343","11.740761","-27.865652","32.350376"
"era-350","13.29871","-28.251656","28.531237","-16.555918","-31.529455","32.808437","11.745558","-27.880886","32.374268"
"era-351","13.309869","-28.273296","28.55126","-16.570713","-31.556587","32.837456","11.750332","-27.89607","32.39808"
"era-352","13.320998","-28.294886","28.57123","-16.585478","-31.583643","32.866405","11.755076","-27.911215","32.421783"
"era-353","13.332109","-28.316433","28.591158","-16.600191","-31.610636","32.895287","11.759803","-27.926283","32.445404"
"era-354","13.343192","-28.337927","28.611042","-16.614862","-31.637575","32.924103","11.764515","-27.941315","32.468933"
"era-355","13.354257","-28.359375","28.630869","-16.629496","-31.664438","32.952854","11.769201","-27.956284","32.492374"
"era-356","13.365296","-28.38078","28.650661","-16.6441","-31.691242","32.981544","11.773865","-27.971203","32.515736"
"era-357","13.37631","-28.402138","28.670403","-16.65866","-31.717987","33.010166","11.778512","-27.986084","32.539005"
"era-358","13.387303","-28.423449","28.690094","-16.673162","-31.744665","33.038723","11.783137","-28.000906","32.56221"
"era-359","13.398274","-28.44472","28.709747","-16.68763","-31.771284","33.067207","11.787741","-28.015675","32.585285"
"era-360","13.40922","-28.465939","28.729355","-16.70207","-31.797842","33.095642","11.792327","-28.03039","32.60827"
"era-361","13.420146","-28.487118","28.748922","-16.716461","-31.824347","33.12402","11.796897","-28.045057","32.631176"
"era-362","13.431057","-28.508257","28.768444","-16.730825","-31.85079","33.15232","11.801446","-28.059668","32.653988"
"era-363","13.441938","-28.529348","28.78792","-16.74512","-31.877167","33.18056","11.805979","-28.074232","32.676712"
"era-364","13.452796","-28.550398","28.807362","-16.759401","-31.903486","33.208748","11.810491","-28.08875","32.699345"
"era-365","13.463636","-28.5714","28.826756","-16.77364","-31.929752","33.236866","11.814982","-28.103209","32.721897"
"era-366","13.474453","-28.592361","28.846104","-16.787838","-31.955954","33.26494","11.819448","-28.117613","32.744366"
"era-367","13.4852495","-28.61328","28.865416","-16.801989","-31.982098","33.29294","11.82391","-28.131977","32.766747"
"era-368","13.496026","-28.634157","28.884687","-16.816097","-32.00819","33.320877","11.828358","-28.146303","32.789047"
"era-369","13.506781","-28.654993","28.903915","-16.83018","-32.03423","33.348755","11.83278","-28.160572","32.811256"
"era-370","13.517511","-28.675785","28.923103","-16.844217","-32.06022","33.37658","11.837178","-28.174776","32.83338"
"era-371","13.528227","-28.696539","28.94225","-16.858202","-32.086147","33.404358","11.841567","-28.188951","32.85543"
"era-372","13.538919","-28.717249","28.961346","-16.872177","-32.112034","33.432083","11.845934","-28.203083","32.87738"
"era-373","13.549583","-28.737911","28.980406","-16.886108","-32.137856","33.45976","11.850281","-28.217157","32.899242"
"era-374","13.560237","-28.758537","28.999422","-16.900003","-32.163647","33.487366","11.854619","-28.231186","32.921024"
"era-375","13.570871","-28.779127","29.018402","-16.913845","-32.189365","33.514927","11.858937","-28.24515","32.942734"
"era-376","13.581483","-28.799673","29.037342","-16.927656","-32.21504","33.54243","11.863233","-28.259075","32.964355"
"era-377","13.592073","-28.820179","29.056244","-16.941437","-32.240654","33.569885","11.86752","-28.27295","32.985893"
"era-378","13.602644","-28.840645","29.075106","-16.955183","-32.26622","33.59728","11.871782","-28.286785","33.007355"
"era-379","13.613198","-28.861073","29.09393","-16.968884","-32.291744","33.624634","11.876037","-28.300577","33.02875"
"era-380","13.623731","-28.881464","29.112717","-16.982555","-32.317204","33.651917","11.880273","-28.314318","33.050053"
"era-381","13.634249","-28.901817","29.131464","-16.996193","-32.34262","33.679157","11.884494","-28.328009","33.07128"
"era-382","13.644744","-28.922127","29.150171","-17.009787","-32.36799","33.706345","11.888697","-28.34166","33.09244"
"era-383","13.655223","-28.942408","29.168846","-17.023333","-32.3933","33.73348","11.892886","-28.35527","33.113503"
"era-384","13.665684","-28.962643","29.187477","-17.036852","-32.418575","33.760563","11.897055","-28.36884","33.134495"
"era-385","13.676126","-28.982843","29.206068","-17.050343","-32.443787","33.787594","11.901208","-28.382355","33.15541"
"era-386","13.686549","-29.003012","29.224634","-17.063786","-32.468956","33.81458","11.90535","-28.395838","33.176235"
"era-387","13.696955","-29.023138","29.243155","-17.077194","-32.494087","33.84152","11.909482","-28.409275","33.19698"
"era-388","13.707342","-29.043228","29.261637","-17.090565","-32.51918","33.868404","11.913599","-28.422659","33.21765"
"era-389","13.717711","-29.06328","29.28009","-17.103905","-32.544205","33.89524","11.917693","-28.435993","33.23825"
"era-390","13.728062","-29.083294","29.298506","-17.1172","-32.5692","33.922024","11.921778","-28.449282","33.258766"
"era-391","13.738398","-29.103275","29.316875","-17.130463","-32.594128","33.94878","11.925847","-28.462524","33.27922"
"era-392","13.74872","-29.123224","29.335218","-17.143705","-32.619026","33.97546","11.929902","-28.47573","33.299603"
"era-393","13.759024","-29.143139","29.353527","-17.156897","-32.64388","34.002113","11.933947","-28.48888","33.319893"
"era-394","13.769311","-29.163015","29.371798","-17.170067","-32.668674","34.028713","11.937974","-28.501987","33.340115"
"era-395","13.779578","-29.182858","29.390038","-17.183197","-32.693428","34.05527","11.941994","-28.515053","33.36027"
"era-396","13.789834","-29.202667","29.408237","-17.196297","-32.718155","34.08178","11.945998","-28.528084","33.380356"
"era-397","13.800065","-29.22243","29.4264","-17.209354","-32.74283","34.108242","11.949995","-28.54107","33.40037"
"era-398","13.810282","-29.242167","29.444532","-17.222372","-32.76746","34.13466","11.953973","-28.553999","33.420303"
"era-399","13.820484","-29.261868","29.462631","-17.235369","-32.792046","34.16103","11.957933","-28.566898","33.44016"
"era-400","13.83067","-29.281538","29.480694","-17.248333","-32.816586","34.187363","11.961883","-28.579748","33.459934"
"era-401","13.8408375","-29.30117","29.498726","-17.261248","-32.84109","34.213657","11.965824","-28.592552","33.47966"
"era-402","13.850994","-29.32077","29.516718","-17.274145","-32.865555","34.239895","11.969751","-28.605316","33.49932"
"era-403","13.8611355","-29.340342","29.53468","-17.286995","-32.889996","34.266106","11.973668","-28.618042","33.518906"
"era-404","13.871256","-29.359875","29.55261","-17.299807","-32.914368","34.29226","11.977571","-28.630733","33.538403"
"era-405","13.881363","-29.37938","29.570507","-17.31259","-32.938717","34.318382","11.981466","-28.643385","33.55783"
"era-406","13.891456","-29.398853","29.588371","-17.32535","-32.96301","34.344448","11.985341","-28.655987","33.577194"
"era-407","13.901534","-29.418293","29.606207","-17.338076","-32.987274","34.370483","11.989212","-28.668545","33.596493"
"era-408","13.911599","-29.437706","29.624014","-17.350765","-33.011497","34.39647","11.993068","-28.681059","33.615707"
"era-409","13.921647","-29.457083","29.641785","-17.363409","-33.03569","34.422417","11.996914","-28.693535","33.634857"
"era-410","13.9316845","-29.476437","29.659529","-17.376041","-33.059822","34.44832","12.000743","-28.70597","33.65394"
"era-411","13.941698","-29.495745","29.677235","-17.388632","-33.083916","34.47418","12.004564","-28.71836","33.67296"
"era-412","13.951697","-29.51502","29.69491","-17.401175","-33.107983","34.499996","12.00838","-28.73071","33.69191"
"era-413","13.961685","-29.534267","29.71255","-17.413702","-33.132008","34.525784","12.012175","-28.743029","33.710796"
"era-414","13.97165","-29.55348","29.730156","-17.426193","-33.15602","34.55153","12.015957","-28.755299","33.729626"
"era-415","13.981607","-29.572666","29.747732","-17.438656","-33.179966","34.57724","12.019732","-28.76754","33.74838"
"era-416","13.9915495","-29.591824","29.765285","-17.451075","-33.2039","34.602913","12.023496","-28.779741","33.76708"
"era-417","14.001479","-29.610949","29.782793","-17.463476","-33.22777","34.628544","12.027251","-28.791891","33.785713"
"era-418","14.011393","-29.630037","29.800282","-17.475834","-33.25163","34.65414","12.030999","-28.803988","33.804276"
"era-419","14.021293","-29.6491","29.81774","-17.488176","-33.275448","34.67969","12.034739","-28.816048","33.822765"
"era-420","14.031181","-29.668137","29.83517","-17.500488","-33.299236","34.70522","12.038461","-28.82808","33.8412"
"era-421","14.041059","-29.687147","29.852573","-17.512747","-33.322994","34.73071","12.042177","-28.840063","33.85956"
"era-422","14.050921","-29.706133","29.869951","-17.524996","-33.346706","34.756157","12.04588","-28.852022","33.87785"
"era-423","14.060768","-29.72508","29.887287","-17.537203","-33.370384","34.781563","12.049575","-28.863926","33.896084"
"era-424","14.070603","-29.744001","29.904589","-17.549376","-33.394024","34.806934","12.053264","-28.875803","33.914253"
"era-425","14.080421","-29.76289","29.921875","-17.561514","-33.41763","34.83226","12.056934","-28.887634","33.932373"
"era-426","14.090234","-29.781754","29.939123","-17.573624","-33.441204","34.85755","12.060603","-28.899445","33.950424"
"era-427","14.100024","-29.800585","29.956339","-17.585718","-33.46474","34.882805","12.064262","-28.911215","33.96841"
"era-428","14.109805","-29.819386","29.97353","-17.597748","-33.48825","34.90804","12.067911","-28.922937","33.98633"
"era-429","14.119571","-29.838163","29.990694","-17.609793","-33.511723","34.933224","12.071548","-28.93462","34.004192"
"era-430","14.12933","-29.856915","30.007833","-17.621786","-33.535175","34.95838","12.075178","-28.946264","34.021996"
"era-431","14.139068","-29.875637","30.024946","-17.633743","-33.558582","34.98351","12.078799","-28.957878","34.039734"
"era-432","14.148795","-29.894331","30.042032","-17.645689","-33.58198","35.008602","12.082408","-28.969458","34.057426"
"era-433","14.158516","-29.913004","30.059088","-17.6576","-33.605335","35.03366","12.086002","-28.980997","34.075035"
"era-434","14.168221","-29.931646","30.076118","-17.669485","-33.62865","35.058685","12.089589","-28.992489","34.092598"
"era-435","14.177913","-29.950262","30.093122","-17.681326","-33.651966","35.083675","12.093171","-29.00394","34.110104"
"era-436","14.1875925","-29.96885","30.110096","-17.693142","-33.675224","35.10864","12.096745","-29.015368","34.127544"
"era-437","14.197262","-29.98741","30.127047","-17.704935","-33.69847","35.133553","12.100315","-29.02676","34.144917"
"era-438","14.206918","-30.005945","30.143963","-17.716686","-33.721687","35.158447","12.103872","-29.038115","34.162243"
"era-439","14.216563","-30.024454","30.160862","-17.728422","-33.744858","35.1833","12.107418","-29.049429","34.179512"
"era-440","14.226195","-30.042938","30.177736","-17.74011","-33.768005","35.208126","12.110963","-29.060707","34.196716"
"era-441","14.235812","-30.061396","30.19458","-17.751774","-33.79113","35.23291","12.114491","-29.071955","34.213863"
"era-442","14.2454195","-30.079828","30.211397","-17.76341","-33.81422","35.25766","12.118021","-29.083172","34.230957"
"era-443","14.255016","-30.098236","30.228191","-17.775013","-33.83728","35.2824","12.121535","-29.094347","34.248"
"era-444","14.264599","-30.116615","30.244963","-17.78662","-33.860325","35.307083","12.125039","-29.10549","34.26497"
"era-445","14.274173","-30.134972","30.2617","-17.79818","-33.883327","35.331757","12.128537","-29.116602","34.28189"
"era-446","14.283737","-30.153301","30.278412","-17.809698","-33.906315","35.356384","12.132038","-29.127674","34.298763"
"era-447","14.293288","-30.171604","30.295103","-17.821192","-33.929287","35.381","12.135532","-29.138708","34.315567"
"era-448","14.302827","-30.189884","30.311764","-17.832653","-33.95222","35.40557","12.139015","-29.149704","34.332306"
"era-449","14.312357","-30.20814","30.328398","-17.844112","-33.97513","35.430103","12.142489","-29.160673","34.349007"
"era-450","14.321874","-30.22637","30.345016","-17.85553","-33.99801","35.45463","12.14596","-29.171602","34.36565"
"era-451","14.331384","-30.244577","30.361605","-17.866936","-34.020878","35.47911","12.149424","-29.18251","34.38223"
"era-452","14.34088","-30.26276","30.378162","-17.878292","-34.04372","35.503567","12.152882","-29.193373","34.39877"
"era-453","14.350364","-30.280914","30.394701","-17.889635","-34.066525","35.52799","12.156323","-29.204212","34.41525"
"era-454","14.359833","-30.299044","30.411213","-17.900951","-34.08932","35.552395","12.159758","-29.215006","34.431675"
"era-455","14.369293","-30.317146","30.427692","-17.912231","-34.11209","35.576763","12.163188","-29.225775","34.448048"
"era-456","14.378743","-30.335234","30.444159","-17.923481","-34.13484","35.601097","12.166612","-29.236506","34.464355"
"era-457","14.388182","-30.353289","30.460596","-17.934689","-34.157543","35.6254","12.170033","-29.247208","34.48063"
"era-458","14.39761","-30.371325","30.477016","-17.945885","-34.180244","35.649673","12.173449","-29.257872","34.496845"
"era-459","14.407026","-30.389336","30.49341","-17.957058","-34.20292","35.673912","12.176854","-29.268507","34.513016"
"era-460","14.41643","-30.407324","30.509783","-17.968199","-34.22557","35.69814","12.180258","-29.279114","34.52912"
"era-461","14.425827","-30.425293","30.526138","-17.97931","-34.24821","35.722336","12.183651","-29.28968","34.545177"
"era-462","14.435213","-30.443232","30.542465","-17.990421","-34.27082","35.746506","12.187042","-29.300224","34.561172"
"era-463","14.44459","-30.461155","30.558775","-18.001503","-34.29342","35.77065","12.190424","-29.310738","34.57712"
"era-464","14.453955","-30.479055","30.575058","-18.012543","-34.315998","35.79477","12.193798","-29.321218","34.593037"
"era-465","14.463311","-30.496935","30.591324","-18.023565","-34.338547","35.818867","12.197166","-29.331665","34.608894"
"era-466","14.472659","-30.514788","30.60756","-18.034573","-34.361084","35.842922","12.200535","-29.342077","34.624702"
"era-467","14.481995","-30.53262","30.623772","-18.045555","-34.383595","35.866966","12.2039","-29.352459","34.640457"
"era-468","14.491318","-30.550425","30.639963","-18.056482","-34.4061","35.89099","12.207253","-29.362808","34.656147"
"era-469","14.500629","-30.568214","30.656136","-18.067434","-34.428593","35.91498","12.210589","-29.373138","34.671787"
"era-470","14.509935","-30.58598","30.672287","-18.078327","-34.45105","35.938946","12.213918","-29.383427","34.68738"
"era-471","14.519234","-30.603727","30.688417","-18.089203","-34.473503","35.96289","12.217248","-29.393688","34.70294"
"era-472","14.528518","-30.62145","30.704527","-18.100061","-34.495934","35.986782","12.220579","-29.403933","34.71843"
"era-473","14.537793","-30.639153","30.72061","-18.110868","-34.518364","36.01068","12.223907","-29.414143","34.733887"
"era-474","14.547062","-30.656837","30.736683","-18.12166","-34.54076","36.03453","12.227227","-29.424295","34.749283"
"era-475","14.556326","-30.674505","30.752731","-18.132427","-34.563152","36.05836","12.230536","-29.434427","34.764626"
"era-476","14.565572","-30.692142","30.768753","-18.143183","-34.58552","36.082176","12.233841","-29.444536","34.779926"
"era-477","14.574811","-30.70976","30.784758","-18.153921","-34.60788","36.105965","12.237139","-29.454615","34.795174"
"era-478","14.584039","-30.72736","30.800737","-18.164633","-34.630222","36.12973","12.240437","-29.464663","34.810375"
"era-479","14.593257","-30.744932","30.816704","-18.175322","-34.652557","36.153477","12.243728","-29.474678","34.825527"
"era-480","14.60247","-30.762493","30.832645","-18.185986","-34.674873","36.17719","12.247007","-29.484661","34.840633"
"era-481","14.611676","-30.780035","30.84857","-18.196632","-34.697186","36.200874","12.250286","-29.494629","34.8557"
"era-482","14.620867","-30.797546","30.86447","-18.207253","-34.71947","36.22455","12.253565","-29.50455","34.870728"
"era-483","14.630052","-30.815042","30.88035","-18.217854","-34.741745","36.248184","12.256837","-29.51444","34.885708"
"era-484","14.639226","-30.83252","30.896214","-18.228426","-34.764004","36.271793","12.260097","-29.524298","34.900635"
"era-485","14.648391","-30.849972","30.912054","-18.23899","-34.78626","36.295383","12.263356","-29.534145","34.91551"
"era-486","14.657549","-30.86741","30.927876","-18.249525","-34.808487","36.31896","12.266612","-29.543957","34.930336"
"era-487","14.666699","-30.884827","30.943678","-18.260042","-34.830723","36.342514","12.269866","-29.553736","34.945114"
"era-488","14.675839","-30.902225","30.959465","-18.270529","-34.852943","36.366035","12.273116","-29.563482","34.959843"
"era-489","14.68497","-30.919598","30.975222","-18.281013","-34.87516","36.389538","12.276359","-29.573208","34.974518"
"era-490","14.694087","-30.936953","30.990969","-18.291466","-34.897366","36.413013","12.279599","-29.582907","34.989147"
"era-491","14.703196","-30.954285","31.006695","-18.301893","-34.91956","36.436466","12.282833","-29.592567","35.003742"
"era-492","14.7122965","-30.9716","31.022404","-18.312298","-34.94174","36.459892","12.286064","-29.6022","35.018288"
"era-493","14.721387","-30.988892","31.038084","-18.32269","-34.96393","36.483307","12.289288","-29.611809","35.03279"
"era-494","14.730473","-31.006166","31.053759","-18.333073","-34.986088","36.506702","12.29251","-29.621391","35.047237"
"era-495","14.739549","-31.023418","31.0694","-18.343437","-35.00825","36.53007","12.295732","-29.630938","35.061634"
"era-496","14.748619","-31.040655","31.08502","-18.35377","-35.030403","36.553413","12.29895","-29.640469","35.075996"
"era-497","14.757678","-31.057869","31.10062","-18.364082","-35.05256","36.576736","12.30216","-29.649963","35.090313"
"era-498","14.766728","-31.07507","31.116215","-18.374395","-35.074703","36.600044","12.305368","-29.659435","35.10459"
"era-499","14.775776","-31.092253","31.131786","-18.384693","-35.096844","36.62332","12.308572","-29.668898","35.11882"
"era-500","14.784809","-31.109415","31.147345","-18.39497","-35.11897","36.646572","12.311771","-29.678324","35.132996"
"era-501","14.793836","-31.126562","31.162886","-18.405226","-35.1411","36.669815","12.314966","-29.687716","35.147125"
"era-502","14.802856","-31.143692","31.178411","-18.415482","-35.163208","36.69303","12.318153","-29.69708","35.161213"
"era-503","14.811864","-31.160797","31.193916","-18.42571","-35.18532","36.716232","12.3213415","-29.706429","35.17527"
"era-504","14.8208685","-31.177893","31.2094","-18.435917","-35.207436","36.739403","12.32452","-29.71574","35.18927"
"era-505","14.829866","-31.19497","31.22487","-18.446115","-35.229546","36.76255","12.327698","-29.725027","35.203224"
"era-506","14.83886","-31.212032","31.24032","-18.456295","-35.25165","36.785683","12.330872","-29.73429","35.21713"
"era-507","14.84784","-31.229074","31.25576","-18.466473","-35.273758","36.808796","12.334035","-29.74353","35.230988"
"era-508","14.856816","-31.246103","31.27118","-18.476637","-35.295845","36.831886","12.337193","-29.752737","35.244797"
"era-509","14.865786","-31.263113","31.286583","-18.48679","-35.317936","36.854958","12.340349","-29.761932","35.25856"
"era-510","14.874748","-31.280104","31.301964","-18.496937","-35.340023","36.878","12.343503","-29.771095","35.27228"
"era-511","14.883695","-31.297071","31.317331","-18.50707","-35.362106","36.90103","12.346655","-29.78023","35.285965"
"era-512","14.89264","-31.314026","31.332684","-18.517199","-35.384193","36.924034","12.3498","-29.789343","35.299603"
"era-513","14.901575","-31.330967","31.348022","-18.527302","-35.406277","36.947033","12.352942","-29.798435","35.31321"
"era-514","14.910502","-31.347887","31.363344","-18.537392","-35.428356","36.969994","12.356086","-29.807503","35.326756"
"era-515","14.919423","-31.364794","31.37865","-18.547493","-35.45044","36.992947","12.359213","-29.81655","35.34025"
"era-516","14.928333","-31.38168","31.393946","-18.557554","-35.472515","37.01588","12.362345","-29.82557","35.35369"
"era-517","14.937234","-31.398546","31.409224","-18.567646","-35.4946","37.03878","12.365469","-29.834568","35.3671"
"era-518","14.94613","-31.415401","31.424484","-18.577713","-35.51667","37.061684","12.3685875","-29.843544","35.380478"
"era-519","14.955018","-31.432234","31.439718","-18.587788","-35.53876","37.08455","12.3717","-29.852503","35.393806"
"era-520","14.963894","-31.449049","31.454945","-18.59784","-35.560833","37.10741","12.374812","-29.86144","35.40709"
"era-521","14.972766","-31.465849","31.470161","-18.607893","-35.582916","37.130253","12.377921","-29.870358","35.42032"
"era-522","14.981634","-31.482637","31.485355","-18.617962","-35.604977","37.15307","12.3810215","-29.879244","35.433502"
"era-523","14.990491","-31.499405","31.500536","-18.62801","-35.627045","37.17588","12.384119","-29.888115","35.446644"
"era-524","14.999349","-31.516163","31.515692","-18.638067","-35.649113","37.198654","12.38721","-29.896967","35.459743"
"era-525","15.008196","-31.532904","31.530836","-18.648117","-35.671173","37.221428","12.390299","-29.905787","35.472813"
"era-526","15.017037","-31.54963","31.545967","-18.658157","-35.693253","37.244175","12.39338","-29.914587","35.485825"
"era-527","15.025875","-31.566334","31.561075","-18.6682","-35.71533","37.266903","12.396452","-29.923351","35.4988"
"era-528","15.034698","-31.583025","31.576174","-18.67822","-35.7374","37.289623","12.399524","-29.932098","35.51172"
"era-529","15.043512","-31.599693","31.591257","-18.688265","-35.75948","37.312313","12.402588","-29.940838","35.52459"
"era-530","15.05232","-31.61635","31.606321","-18.698292","-35.78155","37.335","12.405652","-29.94956","35.537415"
"era-531","15.06112","-31.632988","31.621374","-18.708328","-35.803635","37.35765","12.408703","-29.95825","35.550205"
"era-532","15.069913","-31.649612","31.636415","-18.718357","-35.825695","37.380302","12.41175","-29.96692","35.56296"
"era-533","15.0787","-31.666222","31.651445","-18.728407","-35.84778","37.40294","12.414788","-29.975573","35.57567"
"era-534","15.08748","-31.682816","31.666458","-18.738451","-35.869854","37.425556","12.41783","-29.984201","35.58832"
"era-535","15.0962515","-31.699387","31.681446","-18.7485","-35.89192","37.44816","12.420866","-29.992813","35.60095"
"era-536","15.10502","-31.715948","31.696426","-18.758532","-35.913998","37.470737","12.423903","-30.001406","35.613525"
"era-537","15.113779","-31.732496","31.711393","-18.768589","-35.936066","37.493298","12.426929","-30.009968","35.626064"
"era-538","15.122537","-31.749027","31.726349","-18.778637","-35.95814","37.515854","12.429956","-30.018507","35.63857"
"era-539","15.131283","-31.765543","31.74129","-18.788694","-35.980225","37.538387","12.4329815","-30.027042","35.651016"
"era-540","15.140022","-31.782047","31.756216","-18.798735","-36.002308","37.56092","12.435992","-30.035547","35.663437"
"era-541","15.148759","-31.79853","31.771122","-18.80879","-36.024372","37.583412","12.439005","-30.044043","35.675827"
"era-542","15.157487","-31.815002","31.786015","-18.818857","-36.04643","37.60591","12.442007","-30.052515","35.688152"
"era-543","15.166209","-31.83146","31.800892","-18.828924","-36.068512","37.628376","12.445002","-30.060953","35.70045"
"era-544","15.174922","-31.847897","31.81576","-18.839005","-36.090576","37.650852","12.447998","-30.069386","35.712704"
"era-545","15.183631","-31.864323","31.830614","-18.849085","-36.112648","37.6733","12.450985","-30.077795","35.724915"
"era-546","15.192332","-31.880741","31.845459","-18.859161","-36.13472","37.695736","12.453969","-30.08619","35.737087"
"era-547","15.201025","-31.897131","31.86029","-18.869246","-36.15678","37.718147","12.456952","-30.094566","35.74922"
"era-548","15.209711","-31.913513","31.875101","-18.879324","-36.178856","37.740547","12.459929","-30.102917","35.761326"
"era-549","15.218392","-31.92988","31.889908","-18.88941","-36.200924","37.76293","12.462901","-30.111252","35.77338"
"era-550","15.227065","-31.94623","31.904694","-18.899496","-36.222984","37.7853","12.465873","-30.11957","35.785385"
"era-551","15.235728","-31.96256","31.919462","-18.909595","-36.245056","37.807663","12.468833","-30.12787","35.79735"
"era-552","15.244392","-31.978884","31.934223","-18.919697","-36.26713","37.830017","12.471787","-30.13616","35.80928"
"era-553","15.253048","-31.995193","31.948967","-18.929808","-36.28919","37.852356","12.474744","-30.144423","35.82117"
"era-554","15.261695","-32.011482","31.9637","-18.939924","-36.311264","37.87468","12.477701","-30.15267","35.833035"
"era-555","15.270338","-32.02776","31.978415","-18.950039","-36.333344","37.89699","12.480647","-30.160894","35.844875"
"era-556","15.278975","-32.044018","31.993109","-18.960152","-36.355415","37.91928","12.483591","-30.169104","35.856655"
"era-557","15.287599","-32.06027","32.007805","-18.970282","-36.377472","37.94157","12.486531","-30.177298","35.86841"
"era-558","15.296221","-32.0765","32.02249","-18.980417","-36.399532","37.963837","12.489462","-30.185472","35.880127"
"era-559","15.30484","-32.092728","32.037174","-18.99055","-36.421608","37.986095","12.492392","-30.193628","35.8918"
"era-560","15.313456","-32.108936","32.05183","-19.000675","-36.443672","38.00834","12.495326","-30.201769","35.90345"
"era-561","15.322061","-32.12513","32.06648","-19.010828","-36.465736","38.03057","12.498247","-30.20989","35.915062"
"era-562","15.330661","-32.141315","32.081123","-19.020964","-36.48779","38.052784","12.501164","-30.21799","35.92665"
"era-563","15.339255","-32.15749","32.09576","-19.031128","-36.509857","38.074997","12.504077","-30.22609","35.93819"
"era-564","15.347843","-32.173645","32.110382","-19.041279","-36.531918","38.0972","12.506989","-30.234154","35.949688"
"era-565","15.356419","-32.189785","32.124996","-19.051449","-36.553974","38.11939","12.509893","-30.242195","35.961147"
"era-566","15.364995","-32.20592","32.1396","-19.061607","-36.576035","38.141556","12.512792","-30.250225","35.97257"
"era-567","15.373569","-32.22204","32.154175","-19.071772","-36.598103","38.163715","12.515689","-30.258242","35.98396"
"era-568","15.382128","-32.238136","32.168743","-19.081938","-36.62016","38.185863","12.518584","-30.266249","35.995327"
"era-569","15.390687","-32.25423","32.18332","-19.092115","-36.64221","38.207993","12.52148","-30.274235","36.006653"
"era-570","15.3992405","-32.270306","32.19787","-19.102295","-36.664272","38.23012","12.524367","-30.282188","36.01794"
"era-571","15.407787","-32.28637","32.2124","-19.112476","-36.686333","38.25224","12.527254","-30.290136","36.029198"
"era-572","15.416331","-32.30242","32.22693","-19.122673","-36.70839","38.274353","12.530137","-30.298063","36.04042"
"era-573","15.424865","-32.318455","32.241447","-19.132864","-36.73045","38.296444","12.533015","-30.305975","36.051605"
"era-574","15.433392","-32.33448","32.255947","-19.143045","-36.752518","38.31852","12.53589","-30.313875","36.062756"
"era-575","15.441912","-32.350483","32.27044","-19.153248","-36.774567","38.34059","12.538766","-30.32176","36.073875"
"era-576","15.450433","-32.36648","32.284916","-19.16345","-36.79663","38.36265","12.541641","-30.32961","36.084953"
"era-577","15.458943","-32.38246","32.299385","-19.173643","-36.81869","38.384697","12.544515","-30.337446","36.096016"
"era-578","15.467447","-32.39843","32.313854","-19.183855","-36.840755","38.40674","12.547379","-30.345274","36.107044"
"era-579","15.475947","-32.41439","32.328304","-19.19407","-36.8628","38.428772","12.5502405","-30.35309","36.11804"
"era-580","15.484437","-32.43033","32.342735","-19.204292","-36.88485","38.4508","12.5531025","-30.360893","36.129"
"era-581","15.492919","-32.44625","32.35716","-19.214508","-36.906902","38.472805","12.555961","-30.368673","36.139935"
"era-582","15.501402","-32.462166","32.371582","-19.224741","-36.928947","38.494816","12.558817","-30.376446","36.150826"
"era-583","15.509873","-32.478073","32.385994","-19.234964","-36.951004","38.516808","12.561677","-30.384205","36.1617"
"era-584","15.518353","-32.493973","32.400387","-19.245182","-36.973064","38.53878","12.564534","-30.391933","36.172543"
"era-585","15.526813","-32.509834","32.41476","-19.25541","-36.99512","38.56075","12.567386","-30.399645","36.183365"
"era-586","15.535279","-32.525703","32.429127","-19.265642","-37.01717","38.582706","12.570232","-30.407347","36.194153"
"era-587","15.543732","-32.541553","32.44349","-19.275875","-37.039234","38.60466","12.573081","-30.415035","36.204906"
"era-588","15.552177","-32.557392","32.457836","-19.286116","-37.06129","38.62661","12.575929","-30.422699","36.21564"
"era-589","15.560622","-32.573223","32.472187","-19.296368","-37.08334","38.648552","12.57877","-30.430351","36.22635"
"era-590","15.5690565","-32.589035","32.486523","-19.306606","-37.105392","38.670467","12.5816145","-30.437983","36.237022"
"era-591","15.577482","-32.60483","32.50086","-19.316853","-37.127457","38.69238","12.584462","-30.445602","36.24767"
"era-592","15.585904","-32.620617","32.515167","-19.3271","-37.14951","38.714283","12.58731","-30.453197","36.2583"
"era-593","15.594323","-32.636383","32.52947","-19.337349","-37.171566","38.73617","12.59016","-30.46077","36.268894"
"era-594","15.602742","-32.65215","32.543762","-19.347609","-37.19361","38.758064","12.593","-30.468338","36.27946"
"era-595","15.611151","-32.6679","32.558052","-19.35787","-37.215668","38.77995","12.595838","-30.475883","36.290005"
"era-596","15.619554","-32.683643","32.57233","-19.36813","-37.23774","38.801823","12.598676","-30.483416","36.300526"
"era-597","15.627961","-32.69937","32.586597","-19.378393","-37.2598","38.82369","12.601512","-30.490929","36.311016"
"era-598","15.636347","-32.71508","32.60085","-19.38866","-37.281857","38.845547","12.604349","-30.498428","36.321484"
"era-599","15.644733","-32.730774","32.615093","-19.398932","-37.303905","38.86739","12.607183","-30.50591","36.331917"
"era-600","15.653118","-32.746464","32.629333","-19.409203","-37.325962","38.889233","12.610012","-30.513374","36.342323"
"era-601","15.661498","-32.762146","32.64356","-19.419476","-37.348015","38.91106","12.612849","-30.520832","36.35271"
"era-602","15.669875","-32.777805","32.657776","-19.429749","-37.37007","38.93288","12.6156845","-30.52827","36.363083"
"era-603","15.678238","-32.793457","32.67198","-19.440022","-37.392128","38.954693","12.618514","-30.535696","36.373413"
"era-604","15.6866","-32.8091","32.686176","-19.450302","-37.41418","38.976498","12.621338","-30.543095","36.38373"
"era-605","15.694964","-32.82474","32.700367","-19.460579","-37.436234","38.9983","12.624165","-30.55049","36.394005"
"era-606","15.70332","-32.840366","32.714558","-19.470861","-37.458282","39.020084","12.626993","-30.557863","36.404274"
"era-607","15.711672","-32.85598","32.728745","-19.48115","-37.480335","39.04187","12.629821","-30.565226","36.414513"
"era-608","15.720018","-32.871582","32.742916","-19.49144","-37.502373","39.063644","12.632646","-30.572569","36.424732"
"era-609","15.728363","-32.88717","32.75706","-19.501726","-37.524414","39.085403","12.635468","-30.579895","36.43492"
"era-610","15.736693","-32.90274","32.77122","-19.512016","-37.546455","39.107166","12.638292","-30.587215","36.445095"
"era-611","15.745016","-32.9183","32.78537","-19.52231","-37.5685","39.128914","12.641115","-30.594517","36.45524"
"era-612","15.753341","-32.933857","32.7995","-19.532597","-37.590553","39.150646","12.643942","-30.6018","36.46537"
"era-613","15.76166","-32.949394","32.81363","-19.542883","-37.61261","39.172375","12.646766","-30.60907","36.47548"
"era-614","15.769971","-32.964928","32.827747","-19.55318","-37.634647","39.1941","12.649589","-30.616333","36.485565"
"era-615","15.778276","-32.980446","32.841873","-19.563467","-37.6567","39.21581","12.652418","-30.62358","36.49563"
"era-616","15.786593","-32.99596","32.855965","-19.573767","-37.67873","39.23752","12.655238","-30.630806","36.505672"
"era-617","15.794892","-33.011456","32.870052","-19.584064","-37.700768","39.259216","12.658063","-30.638012","36.51569"
"era-618","15.8031845","-33.02693","32.884136","-19.594364","-37.72281","39.28091","12.660886","-30.64521","36.525677"
"era-619","15.811464","-33.042393","32.898216","-19.604666","-37.744854","39.302597","12.663708","-30.6524","36.535656"
"era-620","15.819744","-33.057854","32.912285","-19.614967","-37.766884","39.32428","12.666531","-30.65958","36.54561"
"era-621","15.828017","-33.073296","32.926334","-19.625278","-37.78892","39.34596","12.669352","-30.66673","36.555542"
"era-622","15.836295","-33.088734","32.940376","-19.635576","-37.810974","39.36762","12.672176","-30.673872","36.56545"
"era-623","15.844562","-33.104156","32.954422","-19.645885","-37.833","39.389282","12.675006","-30.681002","36.575344"
"era-624","15.852815","-33.11956","32.968452","-19.656185","-37.85506","39.41093","12.677831","-30.688114","36.58521"
"era-625","15.861074","-33.134964","32.982475","-19.666513","-37.877068","39.4326","12.680647","-30.695208","36.59507"
"era-626","15.86933","-33.150352","32.996487","-19.67682","-37.899105","39.454227","12.683472","-30.702284","36.604897"
"era-627","15.877571","-33.165718","33.01048","-19.68713","-37.921146","39.47586","12.686293","-30.70935","36.614716"
"era-628","15.885808","-33.181084","33.02448","-19.697441","-37.943184","39.49749","12.689116","-30.716402","36.624504"
"era-629","15.894044","-33.196434","33.038475","-19.707756","-37.965206","39.519108","12.6919365","-30.723438","36.63427"
"era-630","15.902281","-33.211784","33.05246","-19.718067","-37.98723","39.540714","12.694761","-30.730463","36.644028"
"era-631","15.910521","-33.22713","33.066433","-19.728384","-38.009243","39.56232","12.697576","-30.737469","36.653755"
"era-632","15.918746","-33.24246","33.080402","-19.738708","-38.03126","39.583935","12.700398","-30.744463","36.663467"
"era-633","15.926957","-33.257767","33.09436","-19.749025","-38.05329","39.605522","12.703219","-30.751438","36.673172"
"era-634","15.935171","-33.273067","33.10831","-19.759344","-38.075314","39.62712","12.706041","-30.758413","36.68283"
"era-635","15.94339","-33.288364","33.12226","-19.769667","-38.097332","39.648705","12.708861","-30.76537","36.692482"
"era-636","15.951596","-33.303646","33.13618","-19.77998","-38.119366","39.670273","12.711686","-30.772306","36.702118"
"era-637","15.959799","-33.318916","33.150105","-19.790304","-38.141384","39.69185","12.71451","-30.779236","36.711754"
"era-638","15.9679985","-33.33418","33.164032","-19.800634","-38.1634","39.71343","12.71733","-30.786152","36.721355"
"era-639","15.976189","-33.34943","33.17795","-19.810955","-38.185417","39.73499","12.720151","-30.79306","36.730934"
"era-640","15.984378","-33.36467","33.191864","-19.821278","-38.207428","39.756542","12.722972","-30.799953","36.740505"
"era-641","15.992562","-33.3799","33.205765","-19.831614","-38.229435","39.7781","12.725799","-30.806824","36.750057"
"era-642","16.000732","-33.39512","33.219666","-19.841934","-38.25145","39.799644","12.72862","-30.813683","36.75959"
"era-643","16.008904","-33.41032","33.233547","-19.852264","-38.27344","39.821182","12.731445","-30.820536","36.769123"
"era-644","16.01707","-33.425503","33.247406","-19.86259","-38.295452","39.84271","12.734271","-30.827368","36.778625"
"era-645","16.025232","-33.440685","33.26127","-19.872915","-38.317444","39.86423","12.737101","-30.834188","36.788116"
"era-646","16.033396","-33.455864","33.27513","-19.883251","-38.33944","39.885757","12.739926","-30.841003","36.79759"
"era-647","16.041552","-33.471035","33.288986","-19.89358","-38.361446","39.90727","12.742752","-30.847795","36.807037"
"era-648","16.049702","-33.486187","33.302845","-19.903915","-38.38342","39.928783","12.745575","-30.854572","36.816475"
"era-649","16.057848","-33.50133","33.31668","-19.914242","-38.4054","39.95027","12.748404","-30.861343","36.82591"
"era-650","16.065992","-33.51647","33.330517","-19.924576","-38.42739","39.971783","12.751228","-30.868097","36.835327"
"era-651","16.074131","-33.531605","33.344364","-19.934902","-38.449394","39.99327","12.754056","-30.874847","36.84472"
"era-652","16.082262","-33.546722","33.358177","-19.945238","-38.471367","40.01477","12.756879","-30.881592","36.854095"
"era-653","16.090395","-33.56183","33.372","-19.955568","-38.493336","40.036247","12.759708","-30.888325","36.863472"
"era-654","16.098522","-33.576927","33.385796","-19.965902","-38.515305","40.05773","12.762534","-30.895031","36.872833"
"era-655","16.10664","-33.592014","33.399597","-19.976242","-38.537277","40.07921","12.765367","-30.901726","36.88216"
"era-656","16.114758","-33.60709","33.4134","-19.986574","-38.559265","40.100674","12.768197","-30.908411","36.89147"
"era-657","16.122875","-33.62216","33.427185","-19.996912","-38.581234","40.122147","12.771024","-30.915071","36.900764"
"era-658","16.130985","-33.637222","33.44096","-20.007242","-38.603195","40.143597","12.773855","-30.921732","36.910046"
"era-659","16.139093","-33.652275","33.45474","-20.017574","-38.625153","40.16505","12.77669","-30.928383","36.91934"
"era-660","16.147192","-33.66731","33.468506","-20.027912","-38.6471","40.1865","12.779522","-30.935024","36.928604"
"era-661","16.155277","-33.68233","33.48227","-20.038258","-38.669052","40.20795","12.782359","-30.941654","36.937855"
"era-662","16.163359","-33.697342","33.496033","-20.048595","-38.691017","40.229397","12.785197","-30.948269","36.94708"
"era-663","16.171446","-33.71235","33.50978","-20.058933","-38.712975","40.25084","12.788028","-30.954866","36.956306"
"era-664","16.17953","-33.72735","33.523514","-20.069273","-38.734917","40.27228","12.790861","-30.96145","36.965508"
"era-665","16.187607","-33.742332","33.537243","-20.079618","-38.75686","40.29371","12.79369","-30.968029","36.9747"
"era-666","16.195677","-33.757305","33.55097","-20.08995","-38.778805","40.315125","12.796526","-30.974596","36.983887"
"era-667","16.203747","-33.772278","33.564693","-20.100283","-38.800743","40.336548","12.799361","-30.981155","36.993053"
"era-668","16.21181","-33.787235","33.578403","-20.110632","-38.822666","40.357975","12.802196","-30.987701","37.002205"
"era-669","16.219866","-33.80218","33.592113","-20.12098","-38.844593","40.379402","12.805029","-30.994226","37.01135"
"era-670","16.227924","-33.817116","33.605812","-20.131313","-38.86654","40.40081","12.807866","-31.000746","37.020466"
"era-671","16.235971","-33.832047","33.6195","-20.141663","-38.88846","40.422215","12.810699","-31.007248","37.029587"
"era-672","16.244013","-33.846962","33.633175","-20.152008","-38.91037","40.44363","12.813536","-31.013748","37.038696"
"era-673","16.252048","-33.86186","33.646847","-20.162354","-38.932285","40.465042","12.816369","-31.020233","37.04778"
"era-674","16.260082","-33.87675","33.66051","-20.172707","-38.954212","40.486446","12.819205","-31.02671","37.05686"
"era-675","16.26812","-33.891647","33.674187","-20.18306","-38.97612","40.507866","12.822044","-31.033173","37.065937"
"era-676","16.276155","-33.906536","33.687855","-20.193405","-38.99803","40.529266","12.824876","-31.039618","37.074986"
"era-677","16.284185","-33.921417","33.70151","-20.203753","-39.019962","40.55066","12.827712","-31.046062","37.084034"
"era-678","16.292217","-33.93629","33.715168","-20.2141","-39.041847","40.572052","12.830548","-31.052488","37.09306"
"era-679","16.300236","-33.95115","33.728806","-20.224455","-39.063744","40.593452","12.833386","-31.058912","37.102093"
"era-680","16.308252","-33.966003","33.742447","-20.234808","-39.085663","40.614845","12.836224","-31.065327","37.111107"
"era-681","16.316263","-33.980843","33.75609","-20.24517","-39.107544","40.63625","12.839061","-31.071724","37.120106"
"era-682","16.324274","-33.99568","33.76971","-20.255508","-39.129463","40.657623","12.841903","-31.078108","37.129097"
"era-683","16.332277","-34.010506","33.783325","-20.26588","-39.151356","40.679012","12.844741","-31.08449","37.13809"
"era-684","16.340275","-34.02531","33.79694","-20.276237","-39.173244","40.700405","12.847583","-31.09086","37.147068"
"era-685","16.348267","-34.04011","33.810547","-20.286589","-39.195133","40.72179","12.850424","-31.097208","37.156033"
"era-686","16.356264","-34.054913","33.82415","-20.296947","-39.217014","40.743176","12.853267","-31.103561","37.16499"
"era-687","16.364243","-34.06969","33.83775","-20.307306","-39.238903","40.76455","12.856108","-31.109901","37.173927"
"era-688","16.372229","-34.08447","33.851353","-20.317661","-39.26077","40.78592","12.858949","-31.116224","37.18287"
"era-689","16.380205","-34.09924","33.86495","-20.328018","-39.28263","40.807297","12.86179","-31.12255","37.191795"
"era-690","16.388172","-34.113995","33.87853","-20.338383","-39.3045","40.828663","12.864627","-31.12886","37.200706"
"era-691","16.396147","-34.128742","33.892094","-20.348743","-39.326366","40.850033","12.86747","-31.13516","37.209618"
"era-692","16.404108","-34.14348","33.905647","-20.3591","-39.348232","40.8714","12.870311","-31.141453","37.218502"
"era-693","16.412067","-34.158203","33.9192","-20.369467","-39.370083","40.892776","12.87315","-31.14773","37.22738"
"era-694","16.420021","-34.172916","33.93276","-20.379837","-39.391937","40.914158","12.875995","-31.154005","37.23626"
"era-695","16.42797","-34.18763","33.94631","-20.390202","-39.41378","40.93552","12.878841","-31.160263","37.24513"
"era-696","16.435925","-34.202335","33.95984","-20.400576","-39.43562","40.9569","12.881682","-31.166521","37.25399"
"era-697","16.443865","-34.21703","33.97339","-20.410942","-39.457478","40.97827","12.884529","-31.172764","37.262844"
"era-698","16.451805","-34.231712","33.986916","-20.421312","-39.479313","40.999645","12.887375","-31.178997","37.271694"
"era-699","16.459743","-34.246395","34.00045","-20.431683","-39.501156","41.021004","12.890216","-31.185225","37.280537"
"era-700","16.467676","-34.261066","34.01397","-20.44206","-39.522964","41.042377","12.893054","-31.19144","37.289364"
"era-701","16.47561","-34.275726","34.027485","-20.452429","-39.544815","41.06374","12.895897","-31.197659","37.298176"
"era-702","16.483538","-34.290386","34.040993","-20.4628","-39.566635","41.08511","12.898736","-31.203857","37.306988"
"era-703","16.491463","-34.30504","34.054504","-20.473166","-39.588467","41.10647","12.901576","-31.210058","37.31581"
"era-704","16.499378","-34.31968","34.06801","-20.48355","-39.61028","41.12783","12.904419","-31.216246","37.3246"
"era-705","16.507294","-34.33431","34.081497","-20.493914","-39.632107","41.14919","12.907258","-31.222427","37.33339"
"era-706","16.51521","-34.348934","34.09498","-20.5043","-39.653908","41.170555","12.910099","-31.228594","37.342175"
"era-707","16.523123","-34.363556","34.10846","-20.514675","-39.675728","41.19192","12.912937","-31.234753","37.350967"
"era-708","16.531021","-34.378162","34.12193","-20.525057","-39.69754","41.2133","12.915775","-31.2409","37.35974"
"era-709","16.538916","-34.392742","34.135395","-20.535437","-39.71934","41.23466","12.918614","-31.24704","37.3685"
"era-710","16.54682","-34.40734","34.14885","-20.54582","-39.741146","41.25602","12.921452","-31.25318","37.37726"
"era-711","16.554714","-34.421932","34.16231","-20.556213","-39.762928","41.27739","12.924291","-31.2593","37.385998"
"era-712","16.562593","-34.436493","34.175774","-20.566595","-39.784737","41.29875","12.927132","-31.265417","37.394726"
"era-713","16.570475","-34.451057","34.189224","-20.576979","-39.806526","41.320114","12.92997","-31.271524","37.403473"
"era-714","16.578356","-34.46562","34.202667","-20.587358","-39.828312","41.341476","12.932807","-31.27763","37.412228"
"era-715","16.586233","-34.480164","34.216114","-20.597769","-39.850105","41.362858","12.9356365","-31.283733","37.420967"
"era-716","16.594109","-34.494713","34.22955","-20.608158","-39.871887","41.384243","12.93847","-31.289824","37.429695"
"era-717","16.601974","-34.509247","34.242973","-20.618557","-39.89369","41.40562","12.941308","-31.295906","37.43842"
"era-718","16.609838","-34.523766","34.256386","-20.628954","-39.91546","41.427013","12.944143","-31.301985","37.44714"
"era-719","16.617704","-34.538292","34.2698","-20.639353","-39.937233","41.4484","12.946977","-31.30806","37.455845"
"era-720","16.625563","-34.5528","34.28321","-20.649755","-39.95901","41.46977","12.949812","-31.314127","37.464542"
"era-721","16.633404","-34.56729","34.296623","-20.66015","-39.980793","41.49114","12.95264","-31.320189","37.473255"
"era-722","16.64125","-34.581787","34.310028","-20.670559","-40.002556","41.51254","12.95547","-31.326239","37.48195"
"era-723","16.649094","-34.59627","34.32343","-20.68096","-40.024326","41.533916","12.958306","-31.332275","37.490654"
"era-724","16.656939","-34.610752","34.336815","-20.69138","-40.046078","41.55531","12.961137","-31.338314","37.499348"
"era-725","16.664778","-34.625233","34.350204","-20.701784","-40.06783","41.57671","12.963968","-31.34434","37.508038"
"era-726","16.672617","-34.639698","34.36359","-20.712193","-40.089603","41.598087","12.966797","-31.350351","37.516724"
"era-727","16.680452","-34.654163","34.376976","-20.72261","-40.11135","41.61948","12.969625","-31.356377","37.5254"
"era-728","16.688288","-34.668633","34.390358","-20.733025","-40.13309","41.64088","12.972452","-31.362383","37.534073"
"era-729","16.69612","-34.683086","34.40374","-20.74344","-40.154846","41.662292","12.975279","-31.36839","37.542744"
"era-730","16.703938","-34.69753","34.417107","-20.753862","-40.176594","41.68368","12.978103","-31.374384","37.551407"
"era-731","16.711758","-34.711964","34.430485","-20.764286","-40.198345","41.705074","12.980929","-31.380375","37.560074"
"era-732","16.719576","-34.726395","34.44385","-20.774712","-40.220074","41.72648","12.983757","-31.386372","37.568726"
"era-733","16.72739","-34.74082","34.457214","-20.78515","-40.2418","41.747887","12.986583","-31.392345","37.577374"
"era-734","16.7352","-34.75523","34.470566","-20.795553","-40.263515","41.769314","12.989408","-31.398306","37.586037"
"era-735","16.742998","-34.769623","34.483913","-20.805984","-40.285248","41.790733","12.992231","-31.404274","37.594685"
"era-736","16.750797","-34.78402","34.497246","-20.816433","-40.306976","41.81214","12.995054","-31.410236","37.60332"
"era-737","16.758598","-34.798412","34.51057","-20.826859","-40.328693","41.833565","12.997883","-31.416199","37.611965"
"era-738","16.766392","-34.812782","34.52389","-20.837297","-40.350414","41.855","13.000708","-31.422155","37.62061"
"era-739","16.77418","-34.827156","34.537216","-20.847734","-40.37214","41.876423","13.003527","-31.428097","37.629253"
"era-740","16.781965","-34.841522","34.550537","-20.858177","-40.393856","41.89786","13.00635","-31.434032","37.637882"
"era-741","16.789751","-34.855885","34.56384","-20.868633","-40.415577","41.919296","13.009169","-31.439974","37.64651"
"era-742","16.797525","-34.87023","34.577145","-20.87908","-40.43729","41.940742","13.011991","-31.445902","37.655136"
"era-743","16.8053","-34.88458","34.59045","-20.889523","-40.459003","41.962196","13.014811","-31.451822","37.66377"
"era-744","16.813074","-34.898914","34.60374","-20.899994","-40.480705","41.983646","13.01763","-31.457756","37.672405"
"era-745","16.820839","-34.913242","34.617046","-20.910439","-40.502403","42.005104","13.020451","-31.463678","37.681026"
"era-746","16.828602","-34.927563","34.630337","-20.920898","-40.524097","42.02656","13.02327","-31.46958","37.689636"
"era-747","16.836355","-34.941868","34.64362","-20.931356","-40.545795","42.048027","13.026086","-31.47548","37.698254"
"era-748","16.844103","-34.956165","34.65689","-20.941826","-40.567497","42.069496","13.028897","-31.48137","37.706875"
"era-749","16.851847","-34.970455","34.67016","-20.952309","-40.58919","42.090977","13.031709","-31.48726","37.71548"
"era-750","16.859598","-34.98475","34.683426","-20.962763","-40.610886","42.112457","13.034522","-31.493145","37.7241"
"era-751","16.867334","-34.99902","34.696686","-20.973248","-40.632572","42.13395","13.037332","-31.499025","37.732704"
"era-752","16.875074","-35.013294","34.70993","-20.98372","-40.654263","42.155434","13.040141","-31.504906","37.741314"
"era-753","16.882807","-35.027554","34.723175","-20.994205","-40.675953","42.176933","13.042946","-31.510767","37.749924"
"era-754","16.890533","-35.04181","34.736412","-21.00469","-40.69764","42.19844","13.045754","-31.51663","37.758553"
"era-755","16.898264","-35.056057","34.749653","-21.015179","-40.71932","42.21995","13.048562","-31.522493","37.76716"
"era-756","16.905983","-35.070297","34.762886","-21.025665","-40.741005","42.24147","13.051371","-31.528353","37.775764"
"era-757","16.9137","-35.084526","34.77612","-21.036161","-40.762665","42.262985","13.0541725","-31.534197","37.784374"
"era-758","16.92142","-35.09876","34.789352","-21.046663","-40.784336","42.28452","13.056978","-31.540043","37.792988"
"era-759","16.929136","-35.112995","34.802586","-21.057161","-40.806007","42.30604","13.059779","-31.54588","37.8016"
"era-760","16.936846","-35.127213","34.815804","-21.06766","-40.827652","42.327587","13.062583","-31.551712","37.810215"
"era-761","16.944551","-35.141426","34.829014","-21.07817","-40.849304","42.34912","13.065383","-31.557533","37.81882"
"era-762","16.952253","-35.155624","34.842224","-21.08868","-40.870956","42.370663","13.068185","-31.563366","37.827423"
"era-763","16.959959","-35.169823","34.85542","-21.099184","-40.892612","42.39221","13.070979","-31.56919","37.83604"
"era-764","16.96765","-35.184006","34.86861","-21.109718","-40.91424","42.413773","13.073774","-31.57501","37.84466"
"era-765","16.975338","-35.19818","34.881805","-21.120214","-40.935883","42.435352","13.076568","-31.580822","37.853287"
"era-766","16.983025","-35.212357","34.894985","-21.130747","-40.957523","42.45692","13.079363","-31.586641","37.86191"
"era-767","16.990711","-35.22652","34.90816","-21.141262","-40.979153","42.478508","13.082154","-31.592451","37.870537"
"era-768","16.998386","-35.24068","34.921345","-21.151789","-41.0008","42.500088","13.084942","-31.59826","37.879154"
"era-769","17.006065","-35.254837","34.93453","-21.162317","-41.02243","42.521694","13.08773","-31.604067","37.88778"
"era-770","17.013742","-35.268993","34.947712","-21.17286","-41.044052","42.54328","13.090515","-31.609877","37.896404"
"era-771","17.021416","-35.28314","34.960873","-21.183388","-41.065666","42.56491","13.093302","-31.615679","37.905033"
"era-772","17.029085","-35.297276","34.974037","-21.193933","-41.08729","42.58653","13.096089","-31.621475","37.91367"
"era-773","17.036749","-35.3114","34.9872","-21.20447","-41.108913","42.60816","13.098878","-31.62726","37.922302"
"era-774","17.0444","-35.32552","35.000355","-21.215034","-41.130524","42.62979","13.101661","-31.633057","37.93094"
"era-775","17.052057","-35.33964","35.013515","-21.225576","-41.152126","42.65145","13.1044445","-31.63884","37.939594"
"era-776","17.059713","-35.353756","35.026676","-21.236124","-41.173733","42.6731","13.107222","-31.644623","37.94824"
"era-777","17.06737","-35.367867","35.03982","-21.24669","-41.195328","42.694767","13.109997","-31.6504","37.956882"
"era-778","17.075008","-35.381958","35.052967","-21.257246","-41.216904","42.71646","13.112776","-31.656178","37.965553"
"era-779","17.082651","-35.39604","35.066097","-21.267807","-41.238514","42.738144","13.115551","-31.661953","37.97423"
"era-780","17.090279","-35.410114","35.07923","-21.278374","-41.260105","42.759842","13.118326","-31.667727","37.982906"
"era-781","17.09791","-35.424194","35.09237","-21.288952","-41.28168","42.78154","13.121097","-31.673487","37.99157"
"era-782","17.105545","-35.438263","35.105495","-21.299524","-41.303265","42.80326","13.123866","-31.67925","38.000248"
"era-783","17.113176","-35.45233","35.118607","-21.310112","-41.32484","42.824974","13.126631","-31.68501","38.008926"
"era-784","17.120808","-35.466393","35.131725","-21.320686","-41.346405","42.846725","13.129399","-31.690767","38.017616"
"era-785","17.128437","-35.480446","35.144833","-21.331251","-41.367973","42.86848","13.132165","-31.696522","38.02631"
"era-786","17.136051","-35.49449","35.15794","-21.341835","-41.38954","42.890247","13.134934","-31.70228","38.03501"
"era-787","17.143671","-35.508537","35.171043","-21.352434","-41.411087","42.91202","13.137691","-31.708023","38.043724"
"era-788","17.151287","-35.522575","35.184147","-21.363014","-41.432632","42.9338","13.140451","-31.713764","38.05243"
"era-789","17.158895","-35.53661","35.197258","-21.37361","-41.454178","42.955597","13.143209","-31.71951","38.061153"
"era-790","17.166506","-35.550636","35.210358","-21.38419","-41.475708","42.97741","13.145966","-31.725246","38.069893"
"era-791","17.174116","-35.564663","35.223442","-21.394794","-41.497253","42.999233","13.148719","-31.730984","38.078636"
"era-792","17.181713","-35.57867","35.236538","-21.405375","-41.518784","43.021103","13.151474","-31.73672","38.08737"
"era-793","17.189312","-35.59268","35.249626","-21.415989","-41.54032","43.042942","13.15422","-31.742455","38.09612"
"era-794","17.196907","-35.60668","35.26271","-21.426579","-41.56185","43.064827","13.156972","-31.748188","38.104877"
"era-795","17.204502","-35.62068","35.275776","-21.43718","-41.583374","43.08671","13.159718","-31.753925","38.113647"
"era-796","17.212091","-35.634674","35.288845","-21.447775","-41.60488","43.10862","13.162463","-31.759659","38.122433"
"era-797","17.21968","-35.648663","35.301918","-21.458385","-41.62639","43.130524","13.165206","-31.765387","38.13122"
"era-798","17.227259","-35.662632","35.314995","-21.468973","-41.647892","43.152477","13.167955","-31.771105","38.14001"
"era-799","17.234835","-35.676598","35.328056","-21.47956","-41.66939","43.17444","13.170694","-31.776829","38.14883"
"era-800","17.242416","-35.690567","35.34111","-21.490162","-41.690903","43.19641","13.1734295","-31.782549","38.157654"
"era-801","17.249989","-35.704533","35.354168","-21.500763","-41.712414","43.2184","13.176168","-31.788269","38.166477"
"era-802","17.25756","-35.71849","35.367218","-21.511347","-41.733902","43.240425","13.178902","-31.793983","38.175316"
"era-803","17.265137","-35.73245","35.380264","-21.52194","-41.755394","43.26245","13.181626","-31.7997","38.184166"
"era-804","17.272692","-35.74638","35.3933","-21.532526","-41.776897","43.284515","13.184355","-31.805426","38.193012"
"era-805","17.28025","-35.7603","35.406334","-21.543095","-41.79838","43.30661","13.187081","-31.811144","38.201893"
"era-806","17.287804","-35.774223","35.41937","-21.553673","-41.819878","43.328716","13.18981","-31.816858","38.21078"
"era-807","17.29535","-35.788143","35.4324","-21.56425","-41.84137","43.350845","13.192531","-31.822573","38.219685"
"era-808","17.302898","-35.80206","35.44544","-21.574806","-41.862873","43.37299","13.195249","-31.828272","38.228603"
"era-809","17.310438","-35.81596","35.45846","-21.58536","-41.88438","43.395176","13.197968","-31.833988","38.237534"
"era-810","17.317982","-35.82987","35.471474","-21.595898","-41.90588","43.41739","13.2006855","-31.839695","38.24648"
"era-811","17.325523","-35.843758","35.484486","-21.606426","-41.9274","43.439632","13.2034","-31.8454","38.255447"
"era-812","17.33306","-35.85764","35.497482","-21.616938","-41.948917","43.461906","13.206118","-31.85111","38.264423"
"era-813","17.340595","-35.871517","35.510483","-21.627441","-41.970448","43.48418","13.208831","-31.856813","38.27343"
"era-814","17.348127","-35.88539","35.52348","-21.637913","-41.991974","43.50651","13.211549","-31.862524","38.28245"
"era-815","17.355661","-35.899265","35.536472","-21.64837","-42.013527","43.528862","13.214262","-31.868225","38.291496"
"era-816","17.363192","-35.913136","35.549458","-21.658796","-42.0351","43.55125","13.216976","-31.87392","38.30055"
"era-817","17.37072","-35.92699","35.56245","-21.669195","-42.056683","43.573677","13.2196865","-31.879612","38.309616"
"era-818","17.378233","-35.94083","35.57544","-21.679585","-42.078304","43.596123","13.222398","-31.8853","38.318714"
"era-819","17.38576","-35.95468","35.58843","-21.689913","-42.09995","43.618618","13.22511","-31.890995","38.32783"
"era-820","17.393274","-35.968517","35.601414","-21.700205","-42.121628","43.641163","13.227823","-31.896687","38.33698"
"era-821","17.40079","-35.982338","35.614403","-21.71047","-42.14334","43.663708","13.230529","-31.902376","38.346138"
"era-822","17.4083","-35.996162","35.627384","-21.720652","-42.165092","43.686325","13.23324","-31.90806","38.35532"
"era-823","17.415812","-36.009975","35.64035","-21.730785","-42.186913","43.708992","13.235955","-31.913736","38.36453"
"era-824","17.423325","-36.023773","35.653305","-21.740866","-42.208797","43.73169","13.238667","-31.919418","38.37375"
"era-825","17.430832","-36.037567","35.66627","-21.750864","-42.23075","43.75442","13.241384","-31.925085","38.383003"
"era-826","17.438347","-36.051357","35.67923","-21.760752","-42.252792","43.777218","13.244109","-31.930752","38.39229"
"era-827","17.44586","-36.06514","35.69219","-21.770565","-42.274933","43.800045","13.246832","-31.936422","38.40159"
"era-828","17.453373","-36.078915","35.705143","-21.780266","-42.297188","43.822918","13.249562","-31.94208","38.41094"
"era-829","17.460882","-36.092678","35.718094","-21.789839","-42.319557","43.845856","13.252296","-31.947731","38.420326"
"era-830","17.468403","-36.106426","35.731045","-21.799255","-42.342083","43.86884","13.255034","-31.953371","38.429745"
"era-831","17.47592","-36.120163","35.74399","-21.808525","-42.3648","43.891853","13.257786","-31.959011","38.43919"
"era-832","17.483444","-36.13389","35.756947","-21.817612","-42.387703","43.914932","13.260543","-31.964647","38.44866"
"era-833","17.490974","-36.147606","35.76991","-21.826515","-42.41086","43.93805","13.263298","-31.970274","38.45818"
"era-834","17.49851","-36.161312","35.782856","-21.835226","-42.434265","43.961185","13.266056","-31.975903","38.46774"
"era-835","17.506067","-36.175","35.79582","-21.843721","-42.45797","43.98436","13.268817","-31.98152","38.47733"
"era-836","17.513636","-36.188667","35.80878","-21.852089","-42.48203","44.007492","13.271554","-31.98715","38.486965"
