"era-0","0.75187355","1.0024729","0.01999752","0.860131","0.45349976","-0.0512129","-1.3533745","0.079031825","0.3145627"
"era-1","1.1572014","1.1778301","0.23920642","1.3145493","0.65165615","0.17640746","-1.3158529","0.024286766","0.26331866"
"era-2","1.459772","1.3049015","0.40258446","1.6464047","0.80368763","0.36284","-1.306171","0.009998899","0.24075902"
"era-3","1.6901722","1.3992528","0.5277421","1.8877922","0.91973907","0.50583184","-1.3167287","0.015627153","0.23362446"
"era-4","1.872135","1.4727426","0.6290241","2.0711992","1.0117888","0.61851233","-1.338908","0.030946631","0.23423569"
"era-5","2.0202265","1.5324486","0.7146272","2.2164397","1.0876677","0.71063894","-1.3676068","0.051238492","0.2389771"
"era-6","2.1435053","1.5826162","0.78927886","2.3352144","1.1521823","0.7883566","-1.4000132","0.07417617","0.24608624"
"era-7","2.2478771","1.6259131","0.8558654","2.4347508","1.208376","0.8555655","-1.4345493","0.09853511","0.2546358"
"era-8","2.3373618","1.6640925","0.9162616","2.519723","1.2582549","0.9148346","-1.470301","0.12364237","0.26409876"
"era-9","2.41482","1.6983566","0.97174996","2.5933118","1.3031988","0.967924","-1.5067289","0.14911895","0.27415842"
"era-10","2.4823225","1.7295558","1.0232484","2.657768","1.344194","1.0160836","-1.5435027","0.1747467","0.28461137"
"era-11","2.541446","1.7583154","1.0714378","2.7147255","1.3819609","1.0602299","-1.5804234","0.20040569","0.29532227"
"era-12","2.593386","1.7851017","1.1168423","2.7654052","1.4170486","1.1010479","-1.6173742","0.22603527","0.30619824"
"era-13","2.6390812","1.8102733","1.1598706","2.8107548","1.44988","1.1390703","-1.6542882","0.25161076","0.31717286"
"era-14","2.679266","1.8341111","1.2008548","2.851507","1.4807857","1.1747118","-1.6911266","0.27712855","0.32819328"
"era-15","2.714535","1.8568406","1.2400626","2.8882546","1.5100309","1.208304","-1.7278796","0.30260313","0.33922347"
"era-16","2.7453609","1.8786457","1.2777196","2.9214716","1.5378357","1.240115","-1.7645503","0.3280595","0.35023242"
"era-17","2.772131","1.8996738","1.3140175","2.9515495","1.5643721","1.2703629","-1.8011508","0.35352847","0.36119446"
"era-18","2.7951596","1.9200546","1.3491223","2.9788132","1.5897954","1.2992377","-1.8377019","0.37904742","0.37208855"
"era-19","2.8146977","1.9398943","1.3831768","3.0035348","1.6142263","1.326887","-1.8742281","0.40465772","0.38289365"
"era-20","2.8309488","1.9592867","1.4163077","3.0259364","1.6377728","1.3534458","-1.9107606","0.43040603","0.39359146"
"era-21","2.844068","1.9783095","1.4486234","3.046219","1.660525","1.3790243","-1.947331","0.45634013","0.40416402"
"era-22","2.8541884","1.9970422","1.4802295","3.064549","1.6825616","1.4037154","-1.9839749","0.4825124","0.41459253"
"era-23","2.8613842","2.015548","1.5112182","3.081073","1.7039496","1.4276057","-2.0207298","0.5089797","0.4248568"
"era-24","2.8657174","2.0338843","1.5416768","3.0959206","1.7247493","1.4507658","-2.0576384","0.5358043","0.4349363"
"era-25","2.8672156","2.0521138","1.5716871","3.1092029","1.7450111","1.4732602","-2.0947454","0.5630537","0.44480807"
"era-26","2.8658788","2.0702944","1.6013261","3.1210232","1.7647802","1.4951435","-2.1320965","0.5908","0.45444575"
"era-27","2.8616793","2.088471","1.6306697","3.1314664","1.7841026","1.5164672","-2.1697397","0.6191224","0.46381858"
"era-28","2.8545551","2.1067","1.6597904","3.1406164","1.8030093","1.5372721","-2.2077284","0.6481094","0.4728918"
"era-29","2.8444147","2.1250393","1.6887648","3.1485474","1.8215308","1.5575988","-2.2461226","0.67785996","0.4816278"
"era-30","2.831132","2.1435516","1.7176697","3.1553326","1.8396997","1.5774804","-2.2849894","0.70848906","0.48998052"
"era-31","2.814546","2.162289","1.7465845","3.161032","1.8575407","1.5969472","-2.3243973","0.7401213","0.49789527"
"era-32","2.7944334","2.181322","1.7755922","3.1657114","1.8750725","1.6160256","-2.3644226","0.77290046","0.5053079"
"era-33","2.770535","2.2007267","1.8047866","3.1694345","1.8923175","1.6347392","-2.405155","0.80699545","0.51214284"
"era-34","2.7425215","2.220579","1.8342638","3.1722667","1.9092892","1.6531093","-2.4466946","0.8426019","0.5183088"
"era-35","2.7099814","2.240975","1.864141","3.1742706","1.9260027","1.6711506","-2.4891539","0.87994856","0.5236962"
"era-36","2.6724002","2.2620265","1.8945502","3.1755211","1.9424701","1.688879","-2.5326707","0.9193128","0.5281735"
"era-37","2.6291437","2.2838645","1.9256411","3.1760933","1.9586971","1.706303","-2.577395","0.961021","0.53157353"
"era-38","2.5794175","2.3066504","1.9576014","3.1760736","1.9746917","1.7234277","-2.6235213","1.0054817","0.5336982"
"era-39","2.5222046","2.3305886","1.9906524","3.1755562","1.9904566","1.740261","-2.6712704","1.0531869","0.5342947"
"era-40","2.456204","2.3559294","2.0250866","3.1746538","2.0059893","1.7568021","-2.7209196","1.1047643","0.5330411"
"era-41","2.3797317","2.3830068","2.061276","3.1735148","2.021284","1.773044","-2.7728148","1.1610085","0.5295271"
"era-42","2.2905624","2.4122815","2.0997117","3.1723053","2.0363348","1.7889805","-2.8273957","1.2229501","0.5232201"
"era-43","2.1857264","2.4443662","2.1410825","3.1712344","2.0511217","1.8045919","-2.885223","1.2919472","0.51341146"
"era-44","2.0611837","2.480174","2.1863806","3.1705709","2.065623","1.8198571","-2.9470387","1.3698264","0.4991546"
"era-45","1.9114214","2.5210829","2.2370903","3.1706471","2.0798106","1.8347428","-3.0138097","1.4590658","0.47916374"
"era-46","1.729007","2.5692954","2.2955868","3.1718962","2.0936434","1.8491993","-3.0868003","1.5630505","0.45169428"
"era-47","1.5045385","2.62854","2.3658297","3.1748636","2.107068","1.8631719","-3.1675363","1.6862277","0.41445258"
"era-48","1.2287636","2.705416","2.4547358","3.1802077","2.120017","1.8765844","-3.2574685","1.8336807","0.36476803"
"era-49","0.90136653","2.8114116","2.5739923","3.188594","2.132414","1.8893449","-3.356742","2.0084867","0.30067503"
"era-50","0.5482944","2.9628892","2.7392914","3.2003398","2.1441464","1.901347","-3.4619849","2.2053905","0.22334196"
"era-51","0.21967717","3.1706748","2.9592202","3.214994","2.1550808","1.9124604","-3.566538","2.4084556","0.13802288"
"era-52","-0.057637278","3.424922","3.2220857","3.2313988","2.1650915","1.9225513","-3.6656106","2.6043136","0.049932353"
"era-53","-0.29464245","3.702973","3.5056458","3.248346","2.1740987","1.9315304","-3.7581396","2.7901669","-0.038448073"
"era-54","-0.5070672","3.987003","3.793253","3.2648988","2.182085","1.9393586","-3.8441083","2.966494","-0.12579183"
"era-55","-0.70246065","4.267291","4.0759487","3.2803752","2.1890538","1.9460332","-3.923437","3.1331491","-0.21101996"
"era-56","-0.88390315","4.5389957","4.349267","3.2942936","2.1950366","1.9515773","-3.9961603","3.289843","-0.29337174"
"era-57","-1.0531477","4.799841","4.6111035","3.3063493","2.2000706","1.9560281","-4.0625525","3.4366457","-0.3724428"
"era-58","-1.2115747","5.048971","4.8606935","3.3163683","2.204204","1.9594247","-4.12303","3.5739715","-0.44812799"
"era-59","-1.3603947","5.2863483","5.0980763","3.3242476","2.2074862","1.9618092","-4.178093","3.7024558","-0.5205096"
"era-60","-1.5006553","5.512365","5.32369","3.3299468","2.209959","1.9632192","-4.228244","3.8228276","-0.58978367"
"era-61","-1.633281","5.727654","5.5382285","3.33346","2.2116663","1.9636892","-4.273978","3.9358351","-0.6561903"
"era-62","-1.7590672","5.9329424","5.742462","3.3347888","2.2126398","1.9632444","-4.315734","4.0422015","-0.7200063"
"era-63","-1.8787044","6.1289854","5.9371686","3.333944","2.212914","1.9619011","-4.35391","4.142594","-0.7814951"
"era-64","-1.9927875","6.3165","6.123108","3.3309293","2.2125154","1.9596722","-4.388862","4.2376328","-0.8409207"
"era-65","-2.1018307","6.496173","6.3009853","3.325734","2.211459","1.9565581","-4.4208903","4.3278694","-0.8985314"
"era-66","-2.2062833","6.6686277","6.471446","3.31834","2.20976","1.9525532","-4.4502497","4.4137945","-0.9545621"
"era-67","-2.3065362","6.8344293","6.635089","3.3087153","2.207429","1.9476418","-4.4771686","4.495869","-1.0092449"
"era-68","-2.4029238","6.994098","6.792441","3.296804","2.204465","1.9417989","-4.5018377","4.5744796","-1.0627747"
"era-69","-2.4957416","7.148096","6.943967","3.2825317","2.2008765","1.9349855","-4.52441","4.6499867","-1.1153576"
"era-70","-2.5852628","7.296855","7.09011","3.2658024","2.1966498","1.9271553","-4.54502","4.72272","-1.1671891"
"era-71","-2.67172","7.4407344","7.2312536","3.246488","2.191786","1.9182478","-4.563778","4.792969","-1.218449"
"era-72","-2.7553148","7.5800724","7.3677344","3.2244208","2.1862607","1.9081794","-4.580759","4.8610067","-1.2693353"
"era-73","-2.8362489","7.715188","7.499889","3.1993911","2.1800644","1.8968483","-4.5960484","4.9270964","-1.3200287"
"era-74","-2.914689","7.8463492","7.6279764","3.171161","2.1731744","1.8841335","-4.609666","4.991461","-1.3707342"
"era-75","-2.9907951","7.9737988","7.752261","3.139411","2.1655674","1.869875","-4.621648","5.0543475","-1.4216688"
"era-76","-3.0647063","8.09775","7.8729644","3.1037529","2.1572192","1.8538749","-4.631992","5.115973","-1.4730589"
"era-77","-3.1365669","8.218431","7.990298","3.0637016","2.1480942","1.8358786","-4.6406693","5.1765685","-1.5251741"
"era-78","-3.206517","8.336001","8.104479","3.0186331","2.13817","1.8155614","-4.6476154","5.236368","-1.5783274"
"era-79","-3.2746813","8.450636","8.215654","2.967773","2.1274245","1.7924926","-4.6527596","5.29564","-1.6328825"
"era-80","-3.341203","8.562483","8.323979","2.910081","2.1158574","1.7660998","-4.655958","5.354662","-1.6892909"
"era-81","-3.40624","8.671693","8.429629","2.8442001","2.1035051","1.7355819","-4.6570206","5.4137726","-1.7481308"
"era-82","-3.4699678","8.778352","8.532708","2.7682593","2.0904984","1.6998088","-4.655669","5.47339","-1.8101724"
"era-83","-3.532622","8.882572","8.633335","2.679621","2.077098","1.6570787","-4.651512","5.5340514","-1.876469"
"era-84","-3.5945363","8.984412","8.731567","2.5743852","2.063936","1.6047155","-4.6439652","5.5964966","-1.9485537"
"era-85","-3.6562595","9.083929","8.827492","2.4464417","2.0523975","1.5381582","-4.6321425","5.6618214","-2.0288067"
"era-86","-3.718802","9.181026","8.921029","2.2853556","2.0457666","1.4487851","-4.6145806","5.731789","-2.1212847"
"era-87","-3.7843804","9.275373","9.011846","2.0708401","2.052718","1.3175495","-4.5886254","5.8096294","-2.2339606"
"era-88","-3.8593442","9.365806","9.098468","1.7531674","2.1015015","1.0900532","-4.5484896","5.902613","-2.38713"
"era-89","-3.975854","9.446473","9.170425","1.1381667","2.3381445","0.51006","-4.4778543","6.034099","-2.6744983"
"era-90","-4.31931","9.521217","9.104535","0.39109355","3.9076033","-1.1475343","-4.313943","6.304721","-3.6353328"
"era-91","-4.478489","9.767903","8.89851","0.94802725","5.997146","-2.6006587","-3.8778033","6.79537","-4.646773"
"era-92","-4.4906273","10.062445","8.6575","1.5327312","7.342031","-3.7057974","-3.5371108","7.143305","-5.342828"
"era-93","-4.457818","10.324717","8.424755","2.018002","8.285863","-4.5730896","-3.2822552","7.3835278","-5.844974"
"era-94","-4.415205","10.537851","8.2111845","2.4291165","9.019836","-5.2861714","-3.0770593","7.561923","-6.238133"
"era-95","-4.3742356","10.705394","8.016039","2.786128","9.629643","-5.8944106","-2.9019952","7.7017474","-6.564051"
"era-96","-4.337993","10.835102","7.8360405","3.101401","10.158635","-6.4272704","-2.7464123","7.815288","-6.8449717"
"era-97","-4.3065968","10.934188","7.6679583","3.3830168","10.631348","-6.903221","-2.603994","7.909632","-7.0937524"
"era-98","-4.279214","11.008467","7.5091596","3.6366208","11.06303","-7.3345","-2.4706974","7.989225","-7.318397"
"era-99","-4.254825","11.062431","7.357458","3.8663812","11.463718","-7.729612","-2.3437607","8.057058","-7.5242567"
"era-100","-4.2325","11.099544","7.211021","4.0754457","11.840413","-8.094676","-2.221185","8.115186","-7.7150702"
"era-101","-4.2114973","11.122479","7.0682464","4.266235","12.198197","-8.434217","-2.1014802","8.165097","-7.893612"
"era-102","-4.1912446","11.133346","6.927712","4.4406443","12.540901","-8.751659","-1.9834899","8.2078905","-8.062006"
"era-103","-4.171327","11.133786","6.788122","4.6001573","12.87155","-9.049648","-1.8662592","8.244346","-8.221949"
"era-104","-4.151443","11.125086","6.648293","4.745912","13.192579","-9.330204","-1.7489656","8.275043","-8.374819"
"era-105","-4.1313834","11.108221","6.507108","4.8788176","13.506045","-9.594973","-1.6308722","8.300386","-8.521789"
"era-106","-4.110984","11.08394","6.363491","4.9995513","13.8137665","-9.845241","-1.5112326","8.320638","-8.663892"
"era-107","-4.0901346","11.052777","6.216345","5.108613","14.117377","-10.0820675","-1.3893017","8.33597","-8.802071"
"era-108","-4.0687785","11.015116","6.0645967","5.206301","14.418449","-10.306276","-1.2642633","8.346412","-8.937198"
"era-109","-4.0468836","10.971177","5.9070425","5.2927365","14.718514","-10.518518","-1.1351829","8.35192","-9.070135"
"era-110","-4.024438","10.920994","5.7423854","5.3678575","15.019175","-10.719306","-1.0009706","8.352301","-9.201747"
"era-111","-4.001488","10.864461","5.56908","5.431348","15.322098","-10.908975","-0.86032397","8.347258","-9.332936"
"era-112","-3.9781294","10.801337","5.385251","5.4826374","15.629152","-11.087722","-0.71158856","8.3363","-9.464681"
"era-113","-3.9545503","10.731203","5.1884875","5.5207734","15.942484","-11.255578","-0.5526526","8.318751","-9.598107"
"era-114","-3.9310977","10.653473","4.97547","5.544271","16.26464","-11.412401","-0.38067254","8.293593","-9.734533"
"era-115","-3.9084158","10.567297","4.7413626","5.5507994","16.598816","-11.55784","-0.19169915","8.259396","-9.875588"
"era-116","-3.88777","10.471531","4.4784937","5.5365357","16.949245","-11.691382","0.020182734","8.214016","-10.023468"
"era-117","-3.8719304","10.36465","4.173479","5.494753","17.321793","-11.812623","0.2646699","8.153973","-10.181242"
"era-118","-3.8676476","10.245354","3.800686","5.4126067","17.724255","-11.922716","0.5591907","8.073816","-10.353588"
"era-119","-3.8902545","10.115612","3.3094807","5.264961","18.160471","-12.031682","0.93496084","7.967181","-10.545835"
"era-120","-3.9716575","9.979681","2.5952458","5.000638","18.605091","-12.187963","1.4401376","7.836181","-10.754519"
"era-121","-4.2347116","9.800615","1.3871154","4.567293","18.9096","-12.583974","2.09782","7.741603","-10.956793"
"era-122","-4.525881","9.538723","-0.7068538","4.515828","18.592947","-13.435754","2.6991384","8.030462","-10.923125"
"era-123","-4.376001","8.318947","-5.598531","5.644278","17.893032","-14.021","3.676656","9.419649","-9.717753"
"era-124","-3.6858635","8.206889","-7.3603354","6.404049","17.276176","-14.566483","4.0124593","10.176052","-9.296639"
"era-125","-3.5358653","8.326718","-8.209164","6.9036646","16.785748","-15.087934","4.0175066","10.62057","-9.360138"
"era-126","-3.5595334","8.558031","-8.748162","7.252954","16.492563","-15.476638","4.0449343","10.957438","-9.534928"
"era-127","-3.6484983","8.826659","-9.150872","7.5007377","16.351871","-15.7600765","4.108498","11.234222","-9.735422"
"era-128","-3.7608035","9.103145","-9.481991","7.679416","16.311068","-15.976583","4.189425","11.470504","-9.936521"
"era-129","-3.880222","9.375114","-9.770704","7.811844","16.333618","-16.15145","4.2751455","11.677028","-10.130163"
"era-130","-4.000403","9.637872","-10.031748","7.9145455","16.394787","-16.300922","4.3590508","11.860669","-10.314119"
"era-131","-4.1189747","9.890059","-10.273307","7.9986544","16.478605","-16.435127","4.438165","12.026321","-10.488248"
"era-132","-4.235118","10.131659","-10.500337","8.07132","16.57522","-16.5602","4.511515","12.17758","-10.652987"
"era-133","-4.348531","10.363112","-10.7160225","8.13696","16.678785","-16.679743","4.5791354","12.317145","-10.808906"
"era-134","-4.4590096","10.58498","-10.922539","8.198282","16.785868","-16.795835","4.641526","12.44698","-10.956531"
"era-135","-4.566356","10.7978325","-11.121326","8.256916","16.894531","-16.90967","4.699295","12.56844","-11.09636"
"era-136","-4.670439","11.002292","-11.313331","8.313818","17.003695","-17.02193","4.7530355","12.682439","-11.228906"
"era-137","-4.771247","11.199041","-11.499184","8.369563","17.112768","-17.133018","4.803226","12.789644","-11.35464"
"era-138","-4.868871","11.388787","-11.6793375","8.424468","17.22141","-17.243128","4.8502955","12.890554","-11.47411"
"era-139","-4.9634337","11.572189","-11.854177","8.478761","17.32948","-17.352444","4.8945775","12.985634","-11.587822"
"era-140","-5.0550733","11.749832","-12.024055","8.532568","17.436857","-17.461046","4.9363556","13.075302","-11.696244"
"era-141","-5.1438875","11.922218","-12.189323","8.585984","17.543514","-17.569021","4.975854","13.159943","-11.799769"
"era-142","-5.229942","12.089758","-12.350336","8.639066","17.649437","-17.676409","5.0133147","13.239932","-11.898787"
"era-143","-5.3132863","12.252819","-12.507435","8.691852","17.754616","-17.783243","5.048897","13.315599","-11.993643"
"era-144","-5.393953","12.41169","-12.660897","8.744361","17.859043","-17.88955","5.082766","13.387253","-12.084694"
"era-145","-5.4719877","12.566637","-12.811006","8.796632","17.962704","-17.99536","5.1150684","13.455152","-12.172222"
"era-146","-5.547462","12.717896","-12.957984","8.848675","18.065636","-18.100695","5.145918","13.519532","-12.256464"
"era-147","-5.620458","12.865678","-13.102015","8.900507","18.167814","-18.205568","5.1754284","13.5806","-12.337689"
"era-148","-5.691068","13.010178","-13.24326","8.952137","18.269258","-18.31","5.2036805","13.638538","-12.416118"
"era-149","-5.7594175","13.151602","-13.381864","9.003561","18.369968","-18.414","5.2307315","13.693503","-12.491969"
"era-150","-5.82564","13.290122","-13.517936","9.054789","18.46996","-18.517574","5.256661","13.745648","-12.565422"
"era-151","-5.889864","13.425912","-13.651585","9.105816","18.569223","-18.620739","5.2815123","13.795104","-12.636684"
"era-152","-5.9522285","13.559129","-13.782906","9.156646","18.667765","-18.723492","5.305345","13.842013","-12.7059355"
"era-153","-6.01288","13.68994","-13.912008","9.207275","18.765602","-18.825842","5.3282094","13.886502","-12.773324"
"era-154","-6.0719585","13.818489","-14.038976","9.257706","18.86274","-18.927795","5.350143","13.928726","-12.838986"
"era-155","-6.129587","13.944912","-14.163906","9.307945","18.95917","-19.029348","5.3712187","13.968811","-12.903084"
"era-156","-6.185905","14.069336","-14.286887","9.358003","19.054905","-19.130514","5.391485","14.006905","-12.9657"
"era-157","-6.241036","14.191877","-14.408006","9.407871","19.149933","-19.231274","5.410994","14.043159","-13.026939"
"era-158","-6.295103","14.312651","-14.52734","9.4575615","19.244257","-19.331623","5.429806","14.077709","-13.086874"
"era-159","-6.348215","14.431748","-14.644976","9.507079","19.3379","-19.43158","5.4479675","14.110738","-13.145581"
"era-160","-6.400497","14.549272","-14.76098","9.556443","19.43085","-19.53114","5.465541","14.142364","-13.203112"
"era-161","-6.4520483","14.665298","-14.87541","9.60564","19.523113","-19.63028","5.4825697","14.172751","-13.2595215"
"era-162","-6.502977","14.779917","-14.988335","9.654694","19.614717","-19.729023","5.4991074","14.202033","-13.314852"
"era-163","-6.553372","14.893196","-15.09982","9.703595","19.70566","-19.827343","5.515208","14.230333","-13.369167"
"era-164","-6.6033278","15.005204","-15.209908","9.752354","19.795938","-19.925243","5.5309086","14.25778","-13.422494"
"era-165","-6.652924","15.116008","-15.318656","9.800971","19.88559","-20.022724","5.5462484","14.284482","-13.474868"
"era-166","-6.7022514","15.2256775","-15.426115","9.849433","19.974606","-20.119755","5.561256","14.310536","-13.5263405"
"era-167","-6.751372","15.33426","-15.53233","9.897752","20.063005","-20.216349","5.575984","14.336041","-13.576949"
"era-168","-6.8003564","15.44182","-15.637353","9.945911","20.150831","-20.312485","5.590458","14.361074","-13.626729"
"era-169","-6.849266","15.548412","-15.741227","9.993912","20.238094","-20.408163","5.6047063","14.385727","-13.67573"
"era-170","-6.8981657","15.654084","-15.843988","10.041749","20.32479","-20.503365","5.6187634","14.410079","-13.724005"
"era-171","-6.947108","15.758884","-15.945688","10.089414","20.41095","-20.59808","5.6326737","14.434192","-13.771575"
"era-172","-6.996149","15.862858","-16.046352","10.136897","20.496601","-20.692295","5.646459","14.458144","-13.818471"
"era-173","-7.045338","15.96604","-16.14601","10.184196","20.581743","-20.785995","5.660165","14.482042","-13.864734"
"era-174","-7.0947156","16.068459","-16.244707","10.231305","20.666395","-20.87916","5.6738377","14.505952","-13.910358"
"era-175","-7.144318","16.170141","-16.342457","10.278223","20.75059","-20.971786","5.6875105","14.52997","-13.955383"
"era-176","-7.194174","16.271088","-16.43928","10.324949","20.834328","-21.06386","5.7012606","14.554189","-13.999809"
"era-177","-7.2443047","16.3713","-16.535194","10.371486","20.917603","-21.155346","5.7151427","14.578699","-14.043627"
"era-178","-7.294708","16.470758","-16.63022","10.417838","21.000427","-21.246248","5.729211","14.6036","-14.086846"
"era-179","-7.3453703","16.569435","-16.72436","10.463991","21.082811","-21.33653","5.7435484","14.62897","-14.129478"
"era-180","-7.396267","16.6673","-16.817656","10.509961","21.164755","-21.426191","5.758207","14.65488","-14.171508"
"era-181","-7.4473424","16.764292","-16.910116","10.555738","21.246239","-21.515217","5.7732396","14.681358","-14.212939"
"era-182","-7.498535","16.860376","-17.001795","10.601326","21.32728","-21.603594","5.7886906","14.708427","-14.253801"
"era-183","-7.5497575","16.955498","-17.092741","10.646709","21.407858","-21.691322","5.804586","14.736068","-14.294119"
"era-184","-7.6009183","17.0496","-17.182987","10.691879","21.487976","-21.778393","5.8209434","14.764226","-14.333931"
"era-185","-7.6519217","17.142635","-17.272593","10.736822","21.567602","-21.864805","5.8377733","14.792837","-14.373291"
"era-186","-7.7026677","17.234554","-17.3616","10.781534","21.64672","-21.950565","5.8550587","14.821777","-14.412245"
"era-187","-7.7530665","17.325323","-17.450043","10.825986","21.725338","-22.035679","5.8728","14.850937","-14.450856"
"era-188","-7.8030033","17.414898","-17.537956","10.870174","21.803394","-22.120142","5.8909636","14.880181","-14.489193"
"era-189","-7.852382","17.503242","-17.625368","10.91408","21.880901","-22.203989","5.9095316","14.909343","-14.527314"
"era-190","-7.9010687","17.590324","-17.712355","10.957693","21.957817","-22.28723","5.9284673","14.938267","-14.565283"
"era-191","-7.948956","17.67613","-17.79896","11.000998","22.034128","-22.369888","5.947719","14.966747","-14.60316"
"era-192","-7.995892","17.760668","-17.885323","11.043974","22.109789","-22.45198","5.967248","14.994573","-14.640997"
"era-193","-8.04173","17.843956","-17.971582","11.086612","22.184788","-22.533556","5.986979","15.021499","-14.67886"
"era-194","-8.08632","17.92607","-18.057964","11.128891","22.259087","-22.614635","6.0068374","15.047241","-14.716829"
"era-195","-8.129494","18.007141","-18.144758","11.170768","22.33267","-22.695248","6.026718","15.071437","-14.755014"
"era-196","-8.171083","18.087322","-18.23229","11.212209","22.405525","-22.775425","6.046489","15.093679","-14.793505"
"era-197","-8.210889","18.16669","-18.32084","11.253171","22.47768","-22.855175","6.0660734","15.113562","-14.832389"
"era-198","-8.2486515","18.245113","-18.41046","11.293619","22.549181","-22.934465","6.085493","15.130883","-14.8716545"
"era-199","-8.284264","18.322258","-18.500797","11.33356","22.620096","-23.013264","6.10493","15.14588","-14.91112"
"era-200","-8.31802","18.397863","-18.591124","11.373055","22.690462","-23.091526","6.124624","15.159153","-14.950543"
"era-201","-8.350645","18.472015","-18.680641","11.412176","22.760267","-23.169249","6.1447306","15.171385","-14.989735"
"era-202","-8.383155","18.545143","-18.768665","11.450989","22.829496","-23.246433","6.1653314","15.183301","-15.02854"
"era-203","-8.416664","18.6178","-18.854698","11.489558","22.89813","-23.323097","6.1865005","15.195771","-15.06677"
"era-204","-8.452427","18.690626","-18.938297","11.527967","22.966192","-23.39924","6.2083936","15.209969","-15.104118"
"era-205","-8.491946","18.764221","-19.018738","11.566319","23.03367","-23.47482","6.231352","15.227442","-15.14011"
"era-206","-8.536036","18.838215","-19.094837","11.604723","23.100624","-23.54977","6.2559915","15.249818","-15.174043"
"era-207","-8.582761","18.910713","-19.166512","11.64318","23.167084","-23.624105","6.282714","15.276971","-15.205538"
"era-208","-8.628489","18.980827","-19.237114","11.681528","23.232916","-23.698055","6.310783","15.305944","-15.235241"
"era-209","-8.670662","19.04886","-19.31056","11.7195425","23.298107","-23.771793","6.3392987","15.334421","-15.263962"
"era-210","-8.70914","19.115685","-19.387806","11.756988","23.362844","-23.845303","6.367433","15.361127","-15.29246"
"era-211","-8.744808","19.18197","-19.467932","11.793672","23.427414","-23.918531","6.394681","15.385457","-15.321251"
"era-212","-8.7784605","19.24789","-19.549679","11.829549","23.49195","-23.991453","6.4209003","15.407404","-15.350469"
"era-213","-8.810769","19.31344","-19.631868","11.864643","23.556505","-24.064081","6.446108","15.427231","-15.380093"
"era-214","-8.842488","19.37871","-19.71346","11.899008","23.6211","-24.13642","6.470383","15.445376","-15.410061"
"era-215","-8.874364","19.443863","-19.793694","11.932723","23.685698","-24.208494","6.493844","15.462363","-15.440228"
"era-216","-8.907079","19.509108","-19.872078","11.965899","23.750261","-24.280346","6.5166883","15.4789","-15.470378"
"era-217","-8.941293","19.574604","-19.94825","11.99866","23.814737","-24.351994","6.5391903","15.495884","-15.500205"
"era-218","-8.9777155","19.64055","-20.02185","12.031157","23.87907","-24.42347","6.5616474","15.514365","-15.529354"
"era-219","-9.017177","19.707136","-20.092321","12.063546","23.943213","-24.494799","6.5843964","15.535498","-15.557463"
"era-220","-9.060578","19.774498","-20.158726","12.095946","24.007164","-24.565983","6.607741","15.560393","-15.584216"
"era-221","-9.108369","19.842413","-20.219982","12.128451","24.070961","-24.637018","6.6319165","15.589849","-15.609386"
"era-222","-9.159463","19.90983","-20.276386","12.161207","24.134634","-24.707909","6.657315","15.624345","-15.632543"
"era-223","-9.211239","19.975357","-20.330719","12.194512","24.19815","-24.778631","6.6843863","15.663923","-15.65313"
"era-224","-9.261869","20.038666","-20.38543","12.228454","24.26146","-24.849136","6.712777","15.707534","-15.67144"
"era-225","-9.310754","20.100151","-20.44128","12.262951","24.324547","-24.919407","6.7416563","15.753682","-15.688275"
"era-226","-9.357784","20.160204","-20.498337","12.297872","24.387426","-24.989395","6.770413","15.801213","-15.7042675"
"era-227","-9.403033","20.219124","-20.556425","12.3331175","24.450098","-25.05908","6.798667","15.849366","-15.71984"
"era-228","-9.446628","20.27711","-20.61532","12.368579","24.512535","-25.12841","6.826207","15.897676","-15.735278"
"era-229","-9.488687","20.334305","-20.67484","12.404196","24.574738","-25.197372","6.8529215","15.945814","-15.750771"
"era-230","-9.529294","20.39083","-20.7349","12.439903","24.636673","-25.26594","6.8787637","15.993563","-15.766465"
"era-231","-9.568533","20.446777","-20.79544","12.475643","24.698317","-25.334112","6.9037","16.04075","-15.782469"
"era-232","-9.606462","20.502228","-20.856445","12.511372","24.759613","-25.401884","6.927724","16.087223","-15.798868"
"era-233","-9.643163","20.557255","-20.917852","12.54704","24.820543","-25.46927","6.9508405","16.132887","-15.815736"
"era-234","-9.678709","20.611933","-20.979645","12.582606","24.88107","-25.536278","6.97306","16.177647","-15.8331375"
"era-235","-9.713196","20.66634","-21.04175","12.618041","24.941145","-25.602932","6.9943905","16.221422","-15.851139"
"era-236","-9.746722","20.72054","-21.10409","12.653315","25.000742","-25.66923","7.014865","16.264143","-15.869775"
"era-237","-9.779375","20.774586","-21.166601","12.688419","25.059818","-25.735216","7.0344973","16.305765","-15.889093"
"era-238","-9.811243","20.828535","-21.229193","12.723348","25.118343","-25.800909","7.0533223","16.346264","-15.909133"
"era-239","-9.842423","20.882433","-21.291767","12.758125","25.176258","-25.866362","7.071365","16.385614","-15.929916"
"era-240","-9.873003","20.936316","-21.354248","12.792781","25.233488","-25.9316","7.088674","16.423832","-15.951475"
"era-241","-9.903073","20.990217","-21.416523","12.827358","25.289957","-25.996689","7.105282","16.460905","-15.9738"
"era-242","-9.932721","21.044176","-21.47852","12.861914","25.345589","-26.06168","7.121256","16.496885","-15.99692"
"era-243","-9.962","21.098194","-21.5402","12.896487","25.400333","-26.126608","7.1366687","16.531847","-16.02085"
"era-244","-9.990942","21.15225","-21.601536","12.931099","25.454157","-26.191484","7.1515946","16.565853","-16.045532"
"era-245","-10.019559","21.20633","-21.662567","12.965727","25.507126","-26.256287","7.166138","16.598976","-16.070969"
"era-246","-10.047849","21.260405","-21.723333","13.000285","25.5594","-26.320929","7.18041","16.631306","-16.097124"
"era-247","-10.075802","21.314423","-21.783888","13.034621","25.611227","-26.385263","7.19452","16.662931","-16.123936"
"era-248","-10.103426","21.368347","-21.844265","13.068555","25.662912","-26.4491","7.2085834","16.693913","-16.15134"
"era-249","-10.130733","21.422157","-21.904509","13.101927","25.714737","-26.512278","7.222687","16.724325","-16.179272"
"era-250","-10.157716","21.475813","-21.964632","13.134642","25.766853","-26.574696","7.2368774","16.754211","-16.20766"
"era-251","-10.184395","21.529297","-22.024632","13.166695","25.819296","-26.636328","7.251183","16.783611","-16.236433"
"era-252","-10.210776","21.582607","-22.08453","13.198132","25.871988","-26.697205","7.2655997","16.812569","-16.265545"
"era-253","-10.236854","21.635723","-22.144327","13.229027","25.92481","-26.75738","7.2801204","16.841114","-16.29496"
"era-254","-10.262656","21.68865","-22.204016","13.259445","25.977661","-26.816902","7.294737","16.869299","-16.324636"
"era-255","-10.288184","21.741377","-22.263603","13.289437","26.03045","-26.875807","7.3094435","16.89713","-16.35453"
"era-256","-10.313462","21.793922","-22.323084","13.319039","26.083109","-26.934124","7.3242188","16.92465","-16.38461"
"era-257","-10.338503","21.846277","-22.38246","13.348279","26.135588","-26.991869","7.339061","16.951874","-16.41484"
"era-258","-10.363322","21.898441","-22.44172","13.377179","26.187849","-27.049057","7.353961","16.97882","-16.445183"
"era-259","-10.387935","21.950426","-22.500862","13.405752","26.239834","-27.105682","7.368912","17.0055","-16.475613"
"era-260","-10.412356","22.002241","-22.55991","13.434012","26.291527","-27.16177","7.383909","17.031937","-16.506102"
"era-261","-10.436603","22.053894","-22.618858","13.461973","26.34291","-27.21732","7.39893","17.05815","-16.536613"
"era-262","-10.460695","22.105398","-22.677711","13.489643","26.393932","-27.27234","7.413963","17.084152","-16.56713"
"era-263","-10.484635","22.156746","-22.73646","13.517021","26.444572","-27.326818","7.4290047","17.10995","-16.59762"
"era-264","-10.508444","22.207966","-22.795137","13.544121","26.49481","-27.380768","7.44404","17.13555","-16.628057"
"era-265","-10.532134","22.259062","-22.853731","13.570933","26.544647","-27.43418","7.4590545","17.160955","-16.658436"
"era-266","-10.555705","22.310036","-22.912268","13.597467","26.59407","-27.487066","7.4740376","17.186182","-16.68872"
"era-267","-10.579173","22.360909","-22.970734","13.623725","26.643051","-27.539438","7.488976","17.211216","-16.71893"
"era-268","-10.602543","22.411676","-23.029163","13.649698","26.691616","-27.591276","7.503865","17.236078","-16.749022"
"era-269","-10.625826","22.462366","-23.087551","13.675403","26.739744","-27.642605","7.5186925","17.260742","-16.779009"
"era-270","-10.64903","22.512972","-23.145905","13.700828","26.78745","-27.693413","7.5334535","17.285238","-16.808876"
"era-271","-10.672156","22.563515","-23.204247","13.725966","26.834742","-27.743708","7.5481358","17.309544","-16.83863"
"era-272","-10.6952095","22.613989","-23.262587","13.7508335","26.88162","-27.793505","7.5627375","17.333658","-16.86824"
"era-273","-10.718208","22.664425","-23.320913","13.775415","26.928112","-27.84279","7.577246","17.357563","-16.897743"
"era-274","-10.741141","22.714815","-23.379248","13.799741","26.974205","-27.89161","7.5916595","17.381266","-16.927124"
"era-275","-10.764024","22.76518","-23.437597","13.8237915","27.019936","-27.939945","7.605968","17.404747","-16.956383"
"era-276","-10.786864","22.81553","-23.49597","13.847585","27.065285","-27.987823","7.6201653","17.428003","-16.985516"
"era-277","-10.809666","22.865871","-23.554358","13.871119","27.11029","-28.035246","7.6342583","17.451017","-17.014547"
"era-278","-10.832443","22.91622","-23.612762","13.894416","27.154928","-28.082241","7.6482387","17.473803","-17.04347"
"era-279","-10.855201","22.966585","-23.671186","13.917468","27.199228","-28.128805","7.66211","17.496328","-17.072275"
"era-280","-10.877942","23.01697","-23.729631","13.940294","27.243187","-28.17497","7.675862","17.518597","-17.100971"
"era-281","-10.900682","23.067398","-23.78809","13.9629","27.286814","-28.220743","7.6894937","17.540594","-17.129566"
"era-282","-10.9234295","23.117878","-23.84657","13.985289","27.330112","-28.266132","7.703007","17.562323","-17.158066"
"era-283","-10.946184","23.16841","-23.905052","14.007475","27.373087","-28.311152","7.7164044","17.583767","-17.186464"
"era-284","-10.96896","23.219007","-23.963537","14.029464","27.41574","-28.355822","7.72969","17.604944","-17.21476"
"era-285","-10.991764","23.269678","-24.022024","14.051273","27.458082","-28.400154","7.742855","17.625832","-17.242952"
"era-286","-11.014614","23.32044","-24.080496","14.072904","27.500097","-28.444159","7.7559147","17.646456","-17.271053"
"era-287","-11.037511","23.37129","-24.138947","14.094353","27.541822","-28.487835","7.7688723","17.66681","-17.299055"
"era-288","-11.060455","23.422228","-24.19739","14.115647","27.583233","-28.531206","7.7817307","17.686907","-17.326948"
"era-289","-11.083463","23.473265","-24.255783","14.136788","27.62434","-28.574272","7.794491","17.706741","-17.354738"
"era-290","-11.106542","23.524397","-24.31414","14.157765","27.665163","-28.617027","7.807171","17.726364","-17.382421"
"era-291","-11.129694","23.575636","-24.37245","14.178617","27.705652","-28.659515","7.819766","17.745766","-17.409985"
"era-292","-11.15293","23.626968","-24.430695","14.199306","27.745926","-28.70169","7.8322964","17.764967","-17.437439"
"era-293","-11.176248","23.6784","-24.488895","14.219888","27.78585","-28.74363","7.8447523","17.784004","-17.464764"
"era-294","-11.199656","23.729929","-24.547026","14.240333","27.825542","-28.785267","7.8571568","17.80288","-17.491962"
"era-295","-11.223161","23.781555","-24.605083","14.260664","27.864916","-28.826666","7.8695116","17.821619","-17.51904"
"era-296","-11.246769","23.833271","-24.663063","14.28088","27.90405","-28.867785","7.881823","17.840254","-17.545973"
"era-297","-11.270473","23.885077","-24.72097","14.30098","27.942924","-28.908644","7.894102","17.858795","-17.572773"
"era-298","-11.294276","23.93696","-24.77881","14.3209915","27.98153","-28.94926","7.9063506","17.877268","-17.599415"
"era-299","-11.318191","23.988926","-24.836565","14.340888","28.019901","-28.98961","7.918574","17.89569","-17.625908"
"era-300","-11.342207","24.040962","-24.894234","14.360688","28.058006","-29.02972","7.9307775","17.914085","-17.652256"
"era-301","-11.36633","24.093067","-24.951803","14.380391","28.095875","-29.06958","7.942967","17.932453","-17.678446"
"era-302","-11.390554","24.145224","-25.009298","14.400013","28.133522","-29.109194","7.9551425","17.950842","-17.704473"
"era-303","-11.414877","24.197428","-25.066692","14.41955","28.170918","-29.14858","7.9673085","17.969238","-17.730335"
"era-304","-11.439307","24.249685","-25.123991","14.438998","28.208092","-29.187721","7.979461","17.987644","-17.756031"
"era-305","-11.463828","24.301971","-25.181181","14.45837","28.24506","-29.226627","7.9916024","18.006075","-17.781567"
"era-306","-11.488443","24.354288","-25.238264","14.477664","28.281775","-29.265322","8.003728","18.024544","-17.806942"
"era-307","-11.513152","24.406626","-25.295227","14.496869","28.318329","-29.303747","8.015845","18.043036","-17.832157"
"era-308","-11.537941","24.458973","-25.352066","14.516017","28.354593","-29.341988","8.027932","18.061573","-17.85721"
"era-309","-11.562818","24.51133","-25.408756","14.535069","28.390707","-29.379955","8.039994","18.080118","-17.882105"
"era-310","-11.5877695","24.56368","-25.465292","14.554054","28.426579","-29.417719","8.052025","18.098694","-17.90684"
"era-311","-11.612806","24.616028","-25.521616","14.572976","28.462261","-29.455252","8.064021","18.117273","-17.931444"
"era-312","-11.637933","24.668379","-25.577677","14.591807","28.49777","-29.492542","8.075969","18.135864","-17.955912"
"era-313","-11.663173","24.720755","-25.633404","14.610568","28.533058","-29.52962","8.087844","18.154444","-17.980244"
"era-314","-11.688579","24.773207","-25.688576","14.629244","28.568182","-29.566454","8.099629","18.172977","-18.004467"
"era-315","-11.714334","24.825945","-25.742712","14.647809","28.60321","-29.603012","8.111256","18.191414","-18.028648"
"era-316","-11.741102","24.879799","-25.794153","14.666195","28.638277","-29.639217","8.122521","18.209585","-18.053013"
"era-317","-11.771545","24.941294","-25.832907","14.683863","28.675125","-29.673862","8.13247","18.226454","-18.078596"
"era-318","-11.755311","24.953394","-25.957518","14.705131","28.69033","-29.724634","8.144622","18.242033","-18.100658"
"era-319","-11.796388","25.029612","-25.981537","14.711544","28.76508","-29.731333","8.145953","18.239109","-18.136236"
"era-320","-11.826168","25.089083","-26.02827","14.739054","28.756435","-29.800074","8.15395","18.255693","-18.161802"
"era-321","-11.858912","25.156849","-26.056839","14.748415","28.832644","-29.803253","8.164886","18.269943","-18.186903"
"era-322","-11.871812","25.186176","-26.133268","14.7759495","28.814308","-29.878956","8.172442","18.295746","-18.211536"
"era-323","-11.903291","25.245638","-26.16863","14.781318","28.908293","-29.868244","8.184382","18.309093","-18.235765"
"era-324","-11.898249","25.270739","-26.270905","14.811047","28.87488","-29.955591","8.190319","18.320004","-18.261173"
"era-325","-11.938547","25.341286","-26.305344","14.816503","28.971008","-29.942347","8.199954","18.33057","-18.287289"
"era-326","-11.967065","25.39854","-26.343613","14.841326","28.97258","-30.001287","8.207068","18.343897","-18.312712"
"era-327","-11.963553","25.423851","-26.445782","14.857611","29.00377","-30.036726","8.216442","18.355066","-18.336485"
"era-328","-12.006665","25.50407","-26.469103","14.873226","29.054317","-30.056005","8.221668","18.362988","-18.365063"
"era-329","-11.994782","25.519985","-26.588995","14.891305","29.053202","-30.118422","8.232616","18.375465","-18.386301"
"era-330","-12.03812","25.602646","-26.611145","14.90177","29.136452","-30.111425","8.231877","18.372183","-18.421442"
"era-331","-12.074924","25.677954","-26.634605","14.923494","29.13352","-30.173796","8.238216","18.384893","-18.446709"
"era-332","-12.1255045","25.748034","-26.627113","14.939585","29.201763","-30.174894","8.242114","18.404352","-18.474838"
"era-333","-12.174585","25.832644","-26.60139","14.95595","29.196522","-30.239832","8.24401","18.423964","-18.503328"
"era-334","-12.205453","25.88617","-26.606833","14.974602","29.26154","-30.241098","8.249485","18.44286","-18.528456"
"era-335","-12.228439","25.932095","-26.619709","14.990893","29.27329","-30.290133","8.25623","18.461731","-18.551302"
"era-336","-12.249565","25.97203","-26.637236","15.0096","29.322752","-30.304045","8.263163","18.480196","-18.573767"
"era-337","-12.268765","26.010096","-26.655798","15.025749","29.341932","-30.345795","8.270595","18.49852","-18.59526"
"era-338","-12.287334","26.045732","-26.675844","15.0441","29.384295","-30.365417","8.277834","18.516552","-18.61659"
"era-339","-12.305065","26.080685","-26.695837","15.060371","29.407188","-30.403145","8.285399","18.534424","-18.63729"
"era-340","-12.322566","26.114407","-26.71625","15.078486","29.445896","-30.425465","8.2926655","18.552044","-18.657871"
"era-341","-12.339712","26.147963","-26.736115","15.094854","29.470634","-30.460882","8.300173","18.569506","-18.677982"
"era-342","-12.356909","26.180933","-26.755766","15.112856","29.507378","-30.484413","8.30733","18.586723","-18.698002"
"era-343","-12.374104","26.214128","-26.774426","15.129318","29.533056","-30.518364","8.314654","18.603777","-18.717667"
"era-344","-12.391662","26.247269","-26.792242","15.147274","29.568691","-30.542349","8.321592","18.620594","-18.737268"
"era-345","-12.409669","26.281158","-26.80837","15.163806","29.594824","-30.575333","8.328632","18.637234","-18.756607"
"era-346","-12.428608","26.315763","-26.82267","15.18179","29.629866","-30.599325","8.335198","18.653633","-18.775963"
"era-347","-12.448995","26.35218","-26.83389","15.198455","29.6562","-30.631594","8.341722","18.669838","-18.795225"
"era-348","-12.471706","26.390816","-26.841343","15.216547","29.691183","-30.655134","8.3475895","18.685783","-18.81469"
"era-349","-12.498444","26.43352","-26.842798","15.233371","29.717184","-30.687197","8.353056","18.701487","-18.834444"
"era-350","-12.530476","26.480665","-26.837994","15.251655","29.751802","-30.710537","8.357513","18.717031","-18.85475"
"era-351","-12.569019","26.532818","-26.827856","15.267772","29.77392","-30.745947","8.361512","18.73281","-18.875566"
"era-352","-12.582296","26.562502","-26.864428","15.28202","29.792664","-30.78468","8.37087","18.752357","-18.891058"
"era-353","-12.6066475","26.602549","-26.881275","15.302468","29.83901","-30.795298","8.376751","18.770405","-18.908937"
"era-354","-12.620373","26.61816","-26.935127","15.318714","29.828632","-30.85855","8.383726","18.787159","-18.925919"
"era-355","-12.613257","26.64011","-26.970543","15.332603","29.913223","-30.837807","8.397265","18.805586","-18.936539"
"era-356","-12.6677685","26.706032","-26.942842","15.337502","29.885475","-30.923058","8.399819","18.819078","-18.95951"
"era-357","-12.674414","26.680819","-27.048153","15.379596","29.95247","-30.902727","8.399491","18.828947","-18.980183"
"era-358","-12.62505","26.699648","-27.107615","15.385884","29.98089","-30.935905","8.420741","18.848133","-18.9827"
"era-359","-12.680212","26.772358","-27.06789","15.40349","30.010294","-30.962437","8.419535","18.859701","-19.00656"
"era-360","-12.727182","26.833387","-27.05675","15.413801","30.019857","-31.009954","8.42177","18.873585","-19.027807"
"era-361","-12.752049","26.815266","-27.148567","15.453326","30.053072","-31.020271","8.416512","18.878452","-19.05219"
"era-362","-12.690963","26.835272","-27.212326","15.451326","30.109657","-31.031504","8.441744","18.89801","-19.05047"
"era-363","-12.77118","26.928988","-27.144321","15.455021","30.096195","-31.103209","8.438561","18.906525","-19.077707"
"era-364","-12.801553","26.912859","-27.231936","15.500772","30.148417","-31.092772","8.430438","18.909847","-19.103598"
"era-365","-12.735892","26.933592","-27.29684","15.501205","30.184738","-31.120684","8.455849","18.92965","-19.101046"
"era-366","-12.824953","27.03571","-27.220179","15.510883","30.194384","-31.167732","8.4492","18.936615","-19.13008"
"era-367","-12.846042","27.009085","-27.323536","15.551693","30.217604","-31.18554","8.442015","18.936876","-19.154991"
"era-368","-12.778162","27.030659","-27.38831","15.5477295","30.281075","-31.190613","8.468784","18.956598","-19.150717"
"era-369","-12.869586","27.13332","-27.314074","15.54087","30.245693","-31.286432","8.465055","18.9625","-19.17888"
"era-370","-12.892638","27.104866","-27.417038","15.585215","30.33292","-31.244509","8.456904","18.96253","-19.20394"
"era-371","-12.819514","27.127728","-27.48278","15.578203","30.317295","-31.32244","8.485339","18.982641","-19.199179"
"era-372","-12.915241","27.237373","-27.399101","15.613351","30.39309","-31.295494","8.471404","18.987162","-19.23067"
"era-373","-12.940168","27.232548","-27.472605","15.614727","30.332804","-31.408848","8.471962","18.986895","-19.252474"
"era-374","-12.888945","27.251116","-27.529272","15.639736","30.438309","-31.359097","8.492045","19.006674","-19.253595"
"era-375","-12.960049","27.335052","-27.488346","15.639843","30.414495","-31.439655","8.489771","19.013477","-19.27811"
"era-376","-12.956502","27.358135","-27.548098","15.670913","30.502153","-31.403522","8.490476","19.01707","-19.294876"
"era-377","-12.999496","27.351206","-27.622787","15.693422","30.432695","-31.51331","8.48392","19.015951","-19.320076"
"era-378","-12.930902","27.372324","-27.686203","15.695357","30.539537","-31.472939","8.512249","19.035933","-19.31697"
"era-379","-13.029324","27.478718","-27.604313","15.712894","30.551172","-31.512197","8.500516","19.038092","-19.347883"
"era-380","-13.02157","27.499723","-27.664833","15.737455","30.602016","-31.512684","8.501746","19.037899","-19.364153"
"era-381","-13.073517","27.476427","-27.746164","15.755467","30.563517","-31.596394","8.49245","19.033113","-19.3921"
"era-382","-12.984375","27.504587","-27.813654","15.765208","30.65934","-31.562336","8.521511","19.05412","-19.383337"
"era-383","-13.09381","27.617456","-27.715294","15.763966","30.64529","-31.634296","8.511429","19.05389","-19.414732"
"era-384","-13.107373","27.564571","-27.848782","15.810339","30.710697","-31.609459","8.503034","19.048748","-19.436666"
"era-385","-13.018436","27.593403","-27.915031","15.793391","30.698736","-31.687672","8.536611","19.069872","-19.425987"
"era-386","-13.131879","27.714062","-27.804245","15.8296585","30.778788","-31.65461","8.517376","19.068306","-19.459896"
"era-387","-13.157409","27.657213","-27.933208","15.83767","30.687656","-31.791454","8.516808","19.064064","-19.47998"
"era-388","-13.061233","27.689693","-27.999336","15.845537","30.79403","-31.746271","8.549977","19.085287","-19.47325"
"era-389","-13.173301","27.80716","-27.889978","15.875329","30.855093","-31.733774","8.531741","19.083225","-19.506407"
"era-390","-13.167883","27.818834","-27.957363","15.857969","30.790274","-31.85999","8.54699","19.088997","-19.51441"
"era-391","-13.176996","27.85791","-27.98762","15.902649","30.896767","-31.796967","8.542122","19.086903","-19.536547"
"era-392","-13.189952","27.891163","-28.021322","15.900742","30.888126","-31.863895","8.543713","19.082722","-19.55526"
"era-393","-13.199871","27.926474","-28.054575","15.931634","30.96511","-31.836103","8.5386","19.078892","-19.574509"
"era-394","-13.211563","27.956182","-28.092783","15.917874","30.904568","-31.95618","8.543502","19.074888","-19.591932"
"era-395","-13.22282","27.99395","-28.122536","15.958704","31.007187","-31.898346","8.53845","19.07171","-19.613743"
"era-396","-13.233835","28.025015","-28.159563","15.954658","30.989296","-31.974432","8.54108","19.06778","-19.631428"
"era-397","-13.245429","28.061499","-28.19033","15.98567","31.073092","-31.939848","8.535971","19.064222","-19.650328"
"era-398","-13.256532","28.090776","-28.229105","15.97522","31.010298","-32.059967","8.540505","19.060555","-19.667358"
"era-399","-13.268072","28.128181","-28.258818","16.01327","31.112583","-32.00324","8.53645","19.057531","-19.688932"
"era-400","-13.279738","28.159912","-28.294437","16.01267","31.102335","-32.070312","8.538338","19.053936","-19.706402"
"era-401","-13.291087","28.195421","-28.32608","16.038538","31.181606","-32.042385","8.534177","19.05057","-19.72415"
"era-402","-13.302651","28.22494","-28.364033","16.03166","31.112803","-32.165924","8.538204","19.04737","-19.740965"
"era-403","-13.314073","28.261652","-28.394161","16.067863","31.212849","-32.11138","8.535413","19.04461","-19.762781"
"era-404","-13.326106","28.294386","-28.428205","16.073555","31.227343","-32.152664","8.5358305","19.041462","-19.77995"
"era-405","-13.337616","28.328588","-28.46086","16.091896","31.279707","-32.15311","8.533151","19.038439","-19.797037"
"era-406","-13.349225","28.359491","-28.49697","16.09479","31.243952","-32.241077","8.535069","19.035685","-19.81383"
"era-407","-13.361242","28.394829","-28.527891","16.118055","31.335825","-32.201775","8.532863","19.033043","-19.831373"
"era-408","-13.372942","28.425514","-28.564066","16.12219","31.287699","-32.300266","8.534836","19.030653","-19.847942"
"era-409","-13.385276","28.46085","-28.594618","16.145525","31.383053","-32.25703","8.533631","19.028284","-19.866343"
"era-410","-13.397235","28.492247","-28.62967","16.152166","31.356848","-32.334152","8.534885","19.026066","-19.88275"
"era-411","-13.409894","28.526861","-28.660606","16.168308","31.444305","-32.30265","8.533735","19.023773","-19.898705"
"era-412","-13.421254","28.557323","-28.696817","16.177778","31.384619","-32.408733","8.535097","19.02192","-19.91502"
"era-413","-13.434183","28.592222","-28.72705","16.200552","31.476198","-32.36811","8.535439","19.020004","-19.934446"
"era-414","-13.4468155","28.624756","-28.759924","16.20902","31.497538","-32.401226","8.535657","19.017979","-19.950144"
"era-415","-13.459274","28.657785","-28.792166","16.222055","31.5373","-32.415306","8.534567","19.01597","-19.965618"
"era-416","-13.471099","28.689468","-28.826078","16.23538","31.529938","-32.471615","8.53448","19.014198","-19.981503"
"era-417","-13.484468","28.722801","-28.857124","16.241276","31.606476","-32.455677","8.534626","19.012259","-19.99528"
"era-418","-13.49497","28.753065","-28.893112","16.260296","31.532951","-32.569267","8.534668","19.011002","-20.01137"
"era-419","-13.508921","28.786333","-28.923525","16.28091","31.5985","-32.551445","8.537924","19.009636","-20.032263"
"era-420","-13.522528","28.81937","-28.954151","16.279694","31.681568","-32.53278","8.540176","19.007816","-20.04546"
"era-421","-13.532617","28.850113","-28.989294","16.305119","31.616621","-32.634987","8.539007","19.006737","-20.061476"
"era-422","-13.547139","28.8829","-29.019394","16.321331","31.689014","-32.613716","8.542462","19.005432","-20.08101"
"era-423","-13.561006","28.915169","-29.05014","16.31515","31.761267","-32.607914","8.544903","19.00366","-20.093075"
"era-424","-13.570403","28.945831","-29.08517","16.34617","31.688097","-32.714706","8.542914","19.00279","-20.109081"
"era-425","-13.585337","28.977451","-29.115673","16.360464","31.738724","-32.71293","8.54829","19.001707","-20.129322"
"era-426","-13.599315","29.009832","-29.145529","16.358963","31.825739","-32.689487","8.552337","19.00015","-20.143599"
"era-427","-13.609526","29.041374","-29.178444","16.3884","31.801823","-32.75187","8.549805","18.999159","-20.15883"
"era-428","-13.625256","29.0724","-29.208525","16.377945","31.88521","-32.737133","8.55414","18.99762","-20.171034"
"era-429","-13.634054","29.103848","-29.24199","16.417984","31.830778","-32.821747","8.550309","18.99699","-20.186707"
"era-430","-13.650072","29.134695","-29.271696","16.422045","31.904795","-32.805584","8.555552","18.995846","-20.203804"
"era-431","-13.6640005","29.165722","-29.302042","16.41563","31.962593","-32.812916","8.557972","18.994345","-20.215063"
"era-432","-13.672198","29.197104","-29.335232","16.458742","31.909058","-32.894974","8.553685","18.993881","-20.230402"
"era-433","-13.688625","29.22719","-29.364862","16.460735","31.979929","-32.882565","8.559552","18.992828","-20.24717"
"era-434","-13.702959","29.257698","-29.394848","16.448914","32.041378","-32.889286","8.56298","18.991394","-20.257498"
"era-435","-13.710279","29.28928","-29.427649","16.499405","31.98228","-32.97253","8.557547","18.991184","-20.27284"
"era-436","-13.72669","29.318626","-29.457438","16.505083","32.03868","-32.970448","8.564026","18.990377","-20.290487"
"era-437","-13.742075","29.348494","-29.486826","16.482805","32.116756","-32.96667","8.570516","18.98902","-20.300253"
"era-438","-13.748882","29.380491","-29.518774","16.539186","32.0626","-33.042145","8.563942","18.98902","-20.31538"
"era-439","-13.765777","29.409163","-29.54835","16.540564","32.123837","-33.038242","8.5707035","18.988226","-20.331957"
"era-440","-13.781276","29.438469","-29.577595","16.515638","32.195076","-33.042393","8.576979","18.986948","-20.34061"
"era-441","-13.787076","29.470644","-29.609236","16.579662","32.133972","-33.12018","8.569276","18.987238","-20.355742"
"era-442","-13.803157","29.498873","-29.639109","16.587835","32.174618","-33.130276","8.576326","18.986832","-20.37321"
"era-443","-13.819164","29.527834","-29.667767","16.571333","32.24964","-33.124462","8.584545","18.985909","-20.385675"
"era-444","-13.831189","29.558073","-29.697092","16.588364","32.275497","-33.147938","8.583345","18.98529","-20.39722"
"era-445","-13.843992","29.587389","-29.726767","16.599516","32.302017","-33.173904","8.583189","18.984644","-20.408323"
"era-446","-13.856757","29.616627","-29.756311","16.611097","32.32789","-33.2002","8.5829935","18.984081","-20.419275"
"era-447","-13.869677","29.645674","-29.785727","16.621445","32.35513","-33.225887","8.583007","18.983576","-20.429949"
"era-448","-13.8822775","29.674753","-29.815058","16.634445","32.379116","-33.253067","8.582643","18.983196","-20.440601"
"era-449","-13.895657","29.703358","-29.844221","16.64093","32.410183","-33.27725","8.583273","18.98279","-20.450584"
"era-450","-13.9072485","29.732677","-29.873413","16.66155","32.42489","-33.30867","8.58182","18.982754","-20.461334"
"era-451","-13.922647","29.76","-29.902336","16.649124","32.471493","-33.32861","8.5855","18.98222","-20.469437"
"era-452","-13.929756","29.79119","-29.931675","16.701067","32.448193","-33.37774","8.579418","18.983149","-20.48137"
"era-453","-13.948667","29.816471","-29.960424","16.671368","32.517666","-33.384388","8.588394","18.982512","-20.490334"
"era-454","-13.957684","29.847063","-29.988863","16.713146","32.517006","-33.41833","8.583612","18.983356","-20.501314"
"era-455","-13.975401","29.872696","-30.017435","16.683088","32.57691","-33.434906","8.59077","18.982847","-20.507776"
"era-456","-13.980366","29.904772","-30.046291","16.752693","32.541866","-33.485268","8.582049","18.98464","-20.5198"
"era-457","-13.998718","29.929977","-30.074648","16.742193","32.600082","-33.490704","8.5899105","18.984562","-20.531805"
"era-458","-14.01449","29.956732","-30.102503","16.718796","32.651142","-33.51195","8.596002","18.984692","-20.537657"
"era-459","-14.020224","29.988182","-30.131016","16.781696","32.625122","-33.557507","8.588326","18.986692","-20.54862"
"era-460","-14.039191","30.012733","-30.159096","16.761072","32.686356","-33.566082","8.596759","18.986614","-20.558308"
"era-461","-14.05237","30.04052","-30.186821","16.766777","32.718925","-33.588863","8.597865","18.98756","-20.565556"
"era-462","-14.063368","30.069092","-30.214813","16.793064","32.730743","-33.619537","8.595727","18.988945","-20.57409"
"era-463","-14.079825","30.09457","-30.242779","16.774323","32.776268","-33.64321","8.600856","18.989445","-20.579664"
"era-464","-14.086879","30.12499","-30.27082","16.828136","32.7632","-33.681694","8.594651","18.991941","-20.588999"
"era-465","-14.105925","30.149023","-30.29851","16.800686","32.8213","-33.697258","8.603045","18.99226","-20.595846"
"era-466","-14.115923","30.177914","-30.326172","16.835232","32.831764","-33.72463","8.599771","18.994577","-20.603735"
"era-467","-14.132812","30.202917","-30.35381","16.815374","32.876865","-33.749016","8.605349","18.99556","-20.608568"
"era-468","-14.14037","30.232866","-30.381542","16.86691","32.868977","-33.783913","8.599639","18.998667","-20.616846"
"era-469","-14.15922","30.25675","-30.408955","16.841219","32.92276","-33.802498","8.607577","18.999521","-20.622694"
"era-470","-14.169357","30.285255","-30.436493","16.875586","32.933567","-33.829536","8.604548","19.002546","-20.629633"
"era-471","-14.186309","30.309992","-30.463923","16.85761","32.976463","-33.854733","8.610092","19.004162","-20.63386"
"era-472","-14.194974","30.339186","-30.491402","16.903154","32.97598","-33.88601","8.605479","19.007864","-20.640896"
"era-473","-14.213322","30.363096","-30.51867","16.88025","33.02448","-33.908104","8.612685","19.009453","-20.645493"
"era-474","-14.223351","30.391478","-30.546059","16.917067","33.0332","-33.93563","8.609529","19.013336","-20.651606"
"era-475","-14.2407055","30.415821","-30.573334","16.89938","33.075584","-33.96086","8.615463","19.015583","-20.65529"
"era-476","-14.250555","30.44429","-30.600609","16.938713","33.081844","-33.98923","8.612043","19.019947","-20.661064"
"era-477","-14.268244","30.468384","-30.62781","16.921076","33.12456","-34.013916","8.618307","19.022474","-20.664648"
"era-478","-14.278942","30.49634","-30.655006","16.95526","33.135204","-34.041004","8.615846","19.027157","-20.669676"
"era-479","-14.296095","30.520672","-30.682196","16.942017","33.174156","-34.06687","8.621351","19.0303","-20.672768"
"era-480","-14.30734","30.548323","-30.709297","16.97348","33.18658","-34.093716","8.619459","19.035372","-20.677189"
"era-481","-14.324265","30.572735","-30.736452","16.96336","33.223305","-34.119965","8.624587","19.039068","-20.679956"
"era-482","-14.336209","30.599997","-30.763472","16.990902","33.23833","-34.14647","8.623491","19.044527","-20.683704"
"era-483","-14.352766","30.624603","-30.790586","16.984894","33.272243","-34.173107","8.628062","19.048862","-20.686123"
"era-484","-14.365436","30.651457","-30.817537","17.008373","33.289673","-34.199493","8.627794","19.054714","-20.689196"
"era-485","-14.381644","30.676252","-30.8446","17.00654","33.32098","-34.22632","8.631831","19.059725","-20.691286"
"era-486","-14.395019","30.702692","-30.87151","17.025928","33.34068","-34.25273","8.63245","19.065996","-20.69371"
"era-487","-14.410885","30.727688","-30.898502","17.028318","33.36951","-34.27958","8.635985","19.071753","-20.695469"
"era-488","-14.424938","30.75372","-30.925367","17.043953","33.391144","-34.306137","8.637455","19.078485","-20.69726"
"era-489","-14.440519","30.778866","-30.952274","17.049934","33.417934","-34.33291","8.640639","19.085012","-20.698645"
"era-490","-14.455129","30.80453","-30.979086","17.062735","33.441","-34.359554","8.642861","19.092264","-20.699867"
"era-491","-14.470532","30.829723","-31.005898","17.071241","33.46637","-34.386257","8.645935","19.099579","-20.700829"
"era-492","-14.485492","30.855091","-31.032642","17.082523","33.4902","-34.41292","8.64875","19.107447","-20.70153"
"era-493","-14.500798","30.88021","-31.059341","17.09239","33.51481","-34.439552","8.651955","19.115557","-20.702013"
"era-494","-14.51589","30.905312","-31.085995","17.10311","33.538906","-34.466167","8.655258","19.124144","-20.702219"
"era-495","-14.531062","30.930265","-31.11258","17.113586","33.563152","-34.49275","8.658788","19.133081","-20.702194"
"era-496","-14.54608","30.955135","-31.139105","17.124344","33.58726","-34.519287","8.662507","19.142443","-20.70188"
"era-497","-14.561034","30.979887","-31.165554","17.135149","33.6113","-34.545788","8.666409","19.152145","-20.701363"
"era-498","-14.575824","31.00455","-31.19193","17.146095","33.6353","-34.572235","8.670488","19.162195","-20.700623"
"era-499","-14.590526","31.029127","-31.218227","17.157093","33.65923","-34.59865","8.674701","19.172504","-20.699736"
"era-500","-14.605084","31.053638","-31.244429","17.168167","33.683086","-34.625034","8.679028","19.18304","-20.698732"
"era-501","-14.619585","31.078098","-31.270538","17.17934","33.70689","-34.65135","8.683417","19.19373","-20.697676"
"era-502","-14.63396","31.10254","-31.296564","17.190609","33.730618","-34.67764","8.687871","19.204542","-20.69658"
"era-503","-14.648425","31.12691","-31.32248","17.201931","33.754295","-34.70391","8.692315","19.215397","-20.695557"
"era-504","-14.662361","31.151411","-31.348372","17.213448","33.777866","-34.730114","8.69689","19.226425","-20.694452"
"era-505","-14.677872","31.175438","-31.373957","17.225023","33.801296","-34.756313","8.701025","19.23703","-20.693937"
"era-506","-14.686805","31.201563","-31.400291","17.237207","33.824696","-34.782154","8.706887","19.249218","-20.691652"
"era-507","-14.716413","31.22198","-31.42326","17.249638","33.84694","-34.80863","8.706762","19.255812","-20.696115"
"era-508","-14.626668","31.284029","-31.459593","17.272194","33.86887","-34.83074","8.732486","19.284071","-20.671629"
"era-509","-14.669351","31.234022","-31.53787","17.2858","33.887024","-34.85839","8.718002","19.27171","-20.692171"
"era-510","-14.667372","31.320713","-31.497915","17.295353","33.914036","-34.881927","8.722186","19.27927","-20.692085"
"era-511","-14.719812","31.32928","-31.518562","17.319616","33.92798","-34.908463","8.712631","19.277843","-20.707853"
"era-512","-14.764709","31.346794","-31.53777","17.433168","33.897263","-34.926723","8.690157","19.273714","-20.7347"
"era-513","-14.7435665","31.385633","-31.56749","17.52197","33.8236","-34.989902","8.694684","19.290438","-20.737158"
"era-514","-14.786163","31.400433","-31.590582","17.54103","33.804676","-35.038147","8.692683","19.285835","-20.756624"
"era-515","-14.780997","31.431547","-31.620338","17.553082","33.79375","-35.081715","8.71001","19.299074","-20.757528"
"era-516","-14.817088","31.448923","-31.644136","17.559994","33.78359","-35.1264","8.7144785","19.299507","-20.771631"
"era-517","-14.757632","31.502073","-31.678192","17.553848","33.76176","-35.18751","8.748267","19.323292","-20.75719"
"era-518","-14.804389","31.510754","-31.702002","17.536612","33.732315","-35.261967","8.754382","19.322554","-20.773504"
"era-519","-14.869124","31.515358","-31.722672","17.559755","33.7603","-35.266857","8.749462","19.316277","-20.800621"
"era-520","-14.794668","31.587643","-31.73051","17.594795","33.818935","-35.23852","8.777355","19.338987","-20.792257"
"era-521","-14.781204","31.598478","-31.781597","17.570482","33.784138","-35.3221","8.796751","19.344677","-20.796535"
"era-522","-14.784918","31.59577","-31.832771","17.641119","33.929153","-35.1998","8.788736","19.343596","-20.816084"
"era-523","-14.7985525","31.646303","-31.823198","17.641916","33.902576","-35.26188","8.7948675","19.344234","-20.827505"
"era-524","-14.850104","31.601755","-31.892776","17.633366","33.87168","-35.332634","8.790863","19.333492","-20.85122"
"era-525","-14.835235","31.681599","-31.866535","17.63198","33.875134","-35.37193","8.810608","19.343458","-20.855194"
"era-526","-14.830938","31.71307","-31.892546","17.677904","33.9563","-35.31799","8.815807","19.3497","-20.866842"
"era-527","-14.797047","31.712254","-31.964579","17.664038","33.923172","-35.39405","8.833156","19.353472","-20.87045"
"era-528","-14.902669","31.648243","-32.027943","17.709442","34.06125","-35.290165","8.8012495","19.330368","-20.913925"
"era-529","-14.846947","31.73933","-32.011406","17.720469","34.04517","-35.337425","8.828565","19.353119","-20.902056"
"era-530","-14.882295","31.795546","-31.981392","17.71824","34.017315","-35.401722","8.829255","19.349339","-20.918629"
"era-531","-14.864994","31.825768","-32.014996","17.701628","33.98429","-35.47938","8.8482","19.356445","-20.921518"
"era-532","-14.877452","31.802273","-32.084805","17.738546","34.164894","-35.343662","8.833687","19.344734","-20.941042"
"era-533","-14.905982","31.864956","-32.0511","17.759352","34.138912","-35.395935","8.831549","19.3418","-20.957472"
"era-534","-14.893941","31.895454","-32.078945","17.768381","34.117317","-35.44905","8.842288","19.346823","-20.962315"
"era-535","-14.882359","31.882214","-32.152325","17.760883","34.085896","-35.519455","8.846809","19.338976","-20.976341"
"era-536","-14.944473","31.916542","-32.130135","17.789358","34.155838","-35.484226","8.83493","19.328451","-21.005293"
"era-537","-14.922416","31.962717","-32.14897","17.785587","34.129322","-35.547813","8.85259","19.33761","-21.005104"
"era-538","-14.994334","31.905235","-32.22101","17.813679","34.226208","-35.48869","8.833939","19.320833","-21.038523"
"era-539","-14.966802","31.984533","-32.199947","17.822151","34.206486","-35.5403","8.852905","19.335304","-21.034868"
"era-540","-14.94649","32.02839","-32.218903","17.817085","34.177555","-35.606953","8.869805","19.34361","-21.035835"
"era-541","-14.950431","32.008633","-32.289497","17.830252","34.323917","-35.512833","8.863864","19.333244","-21.053913"
"era-542","-14.997563","32.056988","-32.259514","17.852142","34.30276","-35.55987","8.856787","19.327229","-21.074549"
"era-543","-14.972344","32.098366","-32.284683","17.864511","34.28671","-35.60598","8.871595","19.336708","-21.074373"
"era-544","-14.976126","32.090267","-32.34347","17.859884","34.254578","-35.675434","8.868499","19.322393","-21.094917"
"era-545","-15.047215","32.10913","-32.33029","17.883621","34.34634","-35.623665","8.856075","19.312674","-21.123268"
"era-546","-15.001192","32.164715","-32.35132","17.89378","34.329937","-35.670887","8.877685","19.326853","-21.116304"
"era-547","-14.99107","32.14998","-32.425285","17.891457","34.30293","-35.735996","8.882608","19.319983","-21.13075"
"era-548","-15.085342","32.16285","-32.405037","17.892658","34.461407","-35.637962","8.864282","19.305117","-21.160269"
"era-549","-15.03002","32.228577","-32.41752","17.918453","34.4476","-35.676907","8.886657","19.322695","-21.15106"
"era-550","-15.032062","32.20937","-32.489113","17.936676","34.43225","-35.71884","8.88456","19.316303","-21.165474"
"era-551","-15.092058","32.244633","-32.46438","17.94293","34.40815","-35.77476","8.87751","19.308807","-21.187145"
"era-552","-15.058343","32.29314","-32.48372","17.941998","34.38624","-35.83543","8.899767","19.31999","-21.1855"
"era-553","-15.069499","32.269844","-32.553032","17.942013","34.55278","-35.731785","8.894287","19.31483","-21.19382"
"era-554","-15.116178","32.312706","-32.5272","17.969473","34.536137","-35.77208","8.886897","19.309492","-21.213572"
"era-555","-15.084331","32.36022","-32.5461","17.987223","34.52428","-35.81185","8.902251","19.319788","-21.211533"
"era-556","-15.069709","32.34713","-32.620487","17.995872","34.500774","-35.865585","8.903927","19.313826","-21.223467"
"era-557","-15.137966","32.36512","-32.61045","18.00367","34.50616","-35.89794","8.895375","19.301895","-21.25175"
"era-558","-15.143187","32.40712","-32.609947","18.019558","34.568863","-35.875385","8.904022","19.30637","-21.260345"
"era-559","-15.130084","32.441635","-32.630905","18.027094","34.545296","-35.930164","8.916564","19.3139","-21.262396"
"era-560","-15.194472","32.418488","-32.66772","18.039312","34.622986","-35.896427","8.906869","19.30354","-21.28837"
"era-561","-15.168273","32.47216","-32.673195","18.053091","34.607487","-35.94071","8.92406","19.316555","-21.284239"
"era-562","-15.167","32.500183","-32.693417","18.056154","34.57954","-36.00321","8.93532","19.321737","-21.290375"
"era-563","-15.240288","32.48194","-32.71789","18.038195","34.742516","-35.911877","8.924953","19.312544","-21.30817"
"era-564","-15.1844635","32.54244","-32.734436","18.06521","34.73377","-35.945843","8.947817","19.331455","-21.29745"
"era-565","-15.236668","32.53092","-32.765278","18.091011","34.720203","-35.98321","8.937537","19.323061","-21.31915"
"era-566","-15.205949","32.58288","-32.776085","18.10717","34.70661","-36.024544","8.953172","19.334118","-21.315857"
"era-567","-15.263104","32.57199","-32.8024","18.113558","34.67852","-36.084656","8.946793","19.326214","-21.337566"
"era-568","-15.25512","32.608524","-32.81579","18.083735","34.836372","-36.003452","8.963526","19.334932","-21.333368"
"era-569","-15.226348","32.652283","-32.835587","18.112553","34.82799","-36.035976","8.975007","19.34385","-21.33324"
"era-570","-15.202943","32.643734","-32.90996","18.139635","34.81672","-36.069942","8.975695","19.340548","-21.342554"
"era-571","-15.230554","32.659466","-32.930176","18.157904","34.799393","-36.11295","8.969108","19.332905","-21.359915"
"era-572","-15.315187","32.671215","-32.914654","18.165096","34.772106","-36.171917","8.955682","19.320707","-21.388443"
"era-573","-15.331971","32.69637","-32.923996","18.133583","34.92697","-36.09411","8.96838","19.327192","-21.38879"
"era-574","-15.284466","32.750416","-32.942036","18.15854","34.921635","-36.126137","8.988347","19.343103","-21.380604"
"era-575","-15.344178","32.73616","-32.969967","18.188734","34.911587","-36.15836","8.975938","19.334246","-21.403614"
"era-576","-15.316005","32.78431","-32.982082","18.207907","34.9022","-36.19465","8.991264","19.34618","-21.399832"
"era-577","-15.336729","32.80037","-33.00037","18.222582","34.881546","-36.24267","8.992388","19.346931","-21.410742"
"era-578","-15.337544","32.828274","-33.017975","18.231503","34.928444","-36.237427","9.002099","19.351244","-21.418184"
"era-579","-15.354539","32.84282","-33.040115","18.24395","34.90445","-36.290234","9.004968","19.352497","-21.428759"
"era-580","-15.386464","32.852158","-33.05892","18.19791","35.058113","-36.221046","9.012311","19.352003","-21.434843"
"era-581","-15.346507","32.899357","-33.08071","18.220894","35.054626","-36.25234","9.027636","19.36286","-21.430824"
"era-582","-15.336297","32.886707","-33.150017","18.255463","35.04478","-36.281605","9.024916","19.359293","-21.442286"
"era-583","-15.430606","32.88704","-33.140667","18.278288","35.03193","-36.318798","9.003931","19.34398","-21.473532"
"era-584","-15.4355","32.920734","-33.14702","18.29531","35.017097","-36.360226","9.012931","19.352978","-21.475628"
"era-585","-15.410511","32.963108","-33.162914","18.306334","35.00422","-36.407066","9.031697","19.364614","-21.474688"
"era-586","-15.461262","32.96289","-33.180058","18.263632","35.162403","-36.33312","9.030652","19.36085","-21.482283"
"era-587","-15.415694","33.012096","-33.201714","18.281866","35.162716","-36.363415","9.050222","19.375248","-21.474455"
"era-588","-15.482369","32.99351","-33.229275","18.316277","35.156906","-36.389816","9.035143","19.365425","-21.499088"
"era-589","-15.466905","33.032555","-33.24239","18.337748","35.15232","-36.42105","9.047709","19.376438","-21.497486"
"era-590","-15.45702","33.06831","-33.25672","18.357132","35.13957","-36.459232","9.054787","19.38176","-21.500362"
"era-591","-15.484913","33.076878","-33.278072","18.370703","35.11478","-36.51329","9.055114","19.380846","-21.514421"
"era-592","-15.513484","33.088684","-33.295006","18.32064","35.272594","-36.443485","9.060604","19.380377","-21.516018"
"era-593","-15.470224","33.13531","-33.318478","18.33521","35.27507","-36.47358","9.07841","19.392134","-21.509851"
"era-594","-15.54994","33.09518","-33.362633","18.374111","35.269775","-36.497124","9.057211","19.377441","-21.5396"
"era-595","-15.565059","33.124622","-33.366776","18.396477","35.26786","-36.5258","9.063524","19.385454","-21.544212"
"era-596","-15.56343","33.15433","-33.38097","18.416368","35.26043","-36.55943","9.073701","19.39616","-21.544138"
"era-597","-15.552418","33.186783","-33.398514","18.434706","35.24397","-36.601536","9.084292","19.405638","-21.54405"
"era-598","-15.558582","33.211834","-33.414425","18.426348","35.321022","-36.57874","9.094175","19.40848","-21.550495"
"era-599","-15.5484295","33.24555","-33.43098","18.446955","35.311054","-36.613907","9.10029","19.413092","-21.553682"
"era-600","-15.586827","33.246803","-33.45363","18.465807","35.289776","-36.66037","9.095201","19.41","-21.569643"
"era-601","-15.604465","33.261257","-33.474133","18.405909","35.43238","-36.60794","9.109019","19.41163","-21.571404"
"era-602","-15.5755","33.301727","-33.49458","18.421494","35.438065","-36.634403","9.122925","19.421024","-21.568455"
"era-603","-15.621951","33.300873","-33.514454","18.453995","35.439053","-36.655846","9.113636","19.416298","-21.5868"
"era-604","-15.601336","33.338196","-33.532883","18.47729","35.4402","-36.68155","9.123996","19.424255","-21.586681"
"era-605","-15.632392","33.347855","-33.550606","18.502062","35.432693","-36.712864","9.1195","19.422216","-21.60024"
"era-606","-15.624158","33.378784","-33.568573","18.522318","35.419838","-36.750275","9.125097","19.426834","-21.603413"
"era-607","-15.6475725","33.39153","-33.587376","18.536785","35.402172","-36.799187","9.126818","19.426092","-21.617386"
"era-608","-15.689239","33.39282","-33.60714","18.483273","35.557827","-36.73305","9.128717","19.42297","-21.621794"
"era-609","-15.666697","33.425507","-33.631126","18.486437","35.56948","-36.76058","9.145719","19.43446","-21.617083"
"era-610","-15.672419","33.45068","-33.646553","18.508709","35.57651","-36.78194","9.148367","19.436298","-21.624268"
"era-611","-15.683543","33.472023","-33.662918","18.53364","35.58067","-36.804295","9.149","19.437138","-21.633265"
"era-612","-15.68977","33.495018","-33.680458","18.55938","35.580433","-36.829586","9.150496","19.438768","-21.641161"
"era-613","-15.70485","33.512024","-33.699226","18.582499","35.573284","-36.86109","9.149773","19.439087","-21.65052"
"era-614","-15.716097","33.531033","-33.71784","18.603693","35.558796","-36.899303","9.149869","19.440134","-21.658705"
"era-615","-15.72102","33.553238","-33.73674","18.617294","35.56499","-36.92791","9.15653","19.44223","-21.668007"
"era-616","-15.780093","33.543205","-33.75791","18.551828","35.696144","-36.888306","9.160453","19.43595","-21.68035"
"era-617","-15.772067","33.564392","-33.784763","18.571432","35.71062","-36.904278","9.172491","19.44768","-21.678331"
"era-618","-15.784903","33.579548","-33.805687","18.586643","35.72464","-36.922997","9.178413","19.452988","-21.68302"
"era-619","-15.805922","33.590862","-33.825672","18.602674","35.738422","-36.941547","9.182585","19.457468","-21.68947"
"era-620","-15.83105","33.59974","-33.84561","18.618866","35.752373","-36.95992","9.186844","19.463026","-21.69597"
"era-621","-15.861823","33.609867","-33.859425","18.635422","35.765743","-36.97868","9.190263","19.469131","-21.703362"
"era-622","-15.775634","33.697514","-33.857998","18.644012","35.77573","-37.004158","9.221437","19.494047","-21.682981"
"era-623","-15.853743","33.658333","-33.900105","18.677359","35.775562","-37.025265","9.202511","19.481827","-21.709923"
"era-624","-15.888121","33.663204","-33.91841","18.697927","35.776592","-37.051395","9.203386","19.48653","-21.718632"
"era-625","-15.8138895","33.74413","-33.91705","18.712807","35.772484","-37.08352","9.2291","19.50946","-21.700857"
"era-626","-15.851223","33.740765","-33.945107","18.736893","35.75182","-37.126698","9.221702","19.505363","-21.717379"
"era-627","-15.90442","33.728554","-33.972176","18.658503","35.908257","-37.07211","9.227566","19.500847","-21.723316"
"era-628","-15.946328","33.73019","-33.98838","18.661228","35.936817","-37.08363","9.230243","19.50473","-21.73184"
"era-629","-15.858598","33.830307","-33.978027","18.611368","35.98062","-37.106926","9.272596","19.530478","-21.703909"
"era-630","-15.877364","33.8197","-34.025883","18.622015","35.998882","-37.123276","9.270748","19.527742","-21.713604"
"era-631","-15.905787","33.827698","-34.046196","18.633707","36.018295","-37.13811","9.267741","19.524553","-21.724533"
"era-632","-15.938813","33.828987","-34.070274","18.645384","36.03751","-37.153316","9.26615","19.523535","-21.73424"
"era-633","-15.990215","33.819496","-34.09448","18.659285","36.054806","-37.169483","9.262826","19.523996","-21.745739"
"era-634","-15.919076","33.911133","-34.084106","18.62282","36.091137","-37.192497","9.29815","19.547192","-21.721926"
"era-635","-15.906177","33.932545","-34.116524","18.61462","36.085674","-37.241585","9.30651","19.54945","-21.722235"
"era-636","-16.00713","33.89002","-34.148285","18.68688","36.11475","-37.215755","9.274017","19.53422","-21.755457"
"era-637","-15.975561","33.94226","-34.15232","18.661995","36.120827","-37.262592","9.297087","19.55009","-21.74372"
"era-638","-15.991432","33.947693","-34.182423","18.697405","36.153336","-37.252373","9.294992","19.552301","-21.750393"
"era-639","-16.055252","33.9306","-34.207333","18.704008","36.168633","-37.274242","9.288661","19.548708","-21.765282"
"era-640","-16.002665","34.01089","-34.198017","18.661247","36.209057","-37.29645","9.320343","19.568693","-21.744938"
"era-641","-15.948812","34.05137","-34.2346","18.6191","36.185505","-37.380566","9.344233","19.577154","-21.732292"
"era-642","-16.076273","33.960865","-34.305073","18.744621","36.22475","-37.317814","9.290116","19.550638","-21.78089"
"era-643","-16.061195","34.01618","-34.300198","18.68382","36.272545","-37.34248","9.317196","19.565504","-21.76702"
"era-644","-16.115309","34.015305","-34.31147","18.716475","36.244915","-37.393204","9.3082905","19.566755","-21.780441"
"era-645","-16.046654","34.097866","-34.30696","18.675884","36.298817","-37.400967","9.342349","19.589066","-21.75544"
"era-646","-16.076939","34.096188","-34.336475","18.656067","36.269775","-37.479336","9.343528","19.586102","-21.762724"
"era-647","-16.155174","34.071465","-34.3607","18.789555","36.327286","-37.395046","9.30911","19.580048","-21.790596"
"era-648","-16.042475","34.177555","-34.35569","18.726973","36.351795","-37.44305","9.357677","19.608223","-21.75581"
"era-649","-16.147726","34.127014","-34.393948","18.71322","36.33423","-37.507076","9.338958","19.591963","-21.782848"
"era-650","-16.049717","34.23054","-34.386948","18.70801","36.383797","-37.500725","9.370997","19.617254","-21.75556"
"era-651","-16.14543","34.139458","-34.476456","18.700672","36.35942","-37.5681","9.346507","19.594809","-21.786507"
"era-652","-16.154013","34.184376","-34.471745","18.718315","36.438705","-37.522118","9.351055","19.605766","-21.783508"
"era-653","-16.20203","34.18679","-34.482944","18.836735","36.42145","-37.519073","9.327269","19.607973","-21.802723"
"era-654","-16.165066","34.25212","-34.47947","18.730083","36.47356","-37.56299","9.365862","19.624876","-21.780094"
"era-655","-16.232769","34.225735","-34.512024","18.83205","36.453434","-37.571392","9.339381","19.620644","-21.803556"
"era-656","-16.151236","34.313225","-34.509327","18.734022","36.50444","-37.6116","9.385627","19.643684","-21.771498"
"era-657","-16.1655","34.32032","-34.539673","18.724371","36.464405","-37.695934","9.385734","19.640606","-21.77788"
"era-658","-16.268085","34.281315","-34.564957","18.852795","36.538067","-37.59901","9.34259","19.625753","-21.81366"
"era-659","-16.139666","34.393997","-34.56177","18.807844","36.550583","-37.6492","9.390032","19.655071","-21.777233"
"era-660","-16.299112","34.28907","-34.62664","18.798864","36.533783","-37.710175","9.352905","19.622814","-21.821465"
"era-661","-16.144459","34.413387","-34.62421","18.764297","36.58989","-37.712677","9.403616","19.657501","-21.777037"
"era-662","-16.316092","34.332058","-34.654713","18.855337","36.575726","-37.721043","9.345011","19.623573","-21.832783"
"era-663","-16.16252","34.45483","-34.65333","18.768206","36.626987","-37.755165","9.405119","19.657751","-21.78445"
"era-664","-16.318094","34.36735","-34.70061","18.902668","36.62099","-37.733612","9.342262","19.626116","-21.840315"
"era-665","-16.226923","34.458305","-34.698837","18.789618","36.676964","-37.776882","9.394214","19.652065","-21.803278"
"era-666","-16.35241","34.419983","-34.708588","18.975445","36.672447","-37.727955","9.334226","19.631577","-21.85202"
"era-667","-16.198164","34.543785","-34.7071","18.823458","36.70415","-37.814907","9.406987","19.664904","-21.80028"
"era-668","-16.3443","34.42584","-34.7962","18.874271","36.682877","-37.850574","9.353749","19.625483","-21.854074"
"era-669","-16.30796","34.48672","-34.79583","18.838396","36.76897","-37.8258","9.37928","19.644344","-21.834442"
"era-670","-16.264149","34.548435","-34.79855","18.983084","36.737743","-37.822334","9.370454","19.660872","-21.834219"
"era-671","-16.41307","34.501945","-34.802784","18.95818","36.789886","-37.824543","9.34348","19.635107","-21.870575"
"era-672","-16.232027","34.638073","-34.802624","18.805807","36.754005","-37.976765","9.422285","19.673063","-21.812536"
"era-673","-16.407598","34.536102","-34.853485","19.010887","36.825123","-37.843716","9.326302","19.61686","-21.89455"
"era-674","-16.277056","34.6552","-34.84453","18.93506","36.84015","-37.907875","9.38252","19.649363","-21.853088"
"era-675","-16.442719","34.581684","-34.869976","18.869396","36.806534","-38.014397","9.357834","19.621979","-21.890123"
"era-676","-16.272831","34.71044","-34.870594","18.844505","36.870033","-38.00535","9.409216","19.658484","-21.84295"
"era-677","-16.40247","34.600624","-34.96032","19.060188","36.881855","-37.925842","9.331196","19.623352","-21.90629"
"era-678","-16.386608","34.654358","-34.957607","18.90059","36.935093","-37.996323","9.374775","19.637362","-21.883549"
"era-679","-16.302622","34.741684","-34.957047","19.03717","36.907707","-37.99388","9.376302","19.65979","-21.873138"
"era-680","-16.490383","34.66859","-34.96838","19.00875","36.964558","-37.99328","9.338311","19.62621","-21.919607"
"era-681","-16.328909","34.797977","-34.965153","18.78011","36.90003","-38.212467","9.427199","19.662855","-21.858334"
"era-682","-16.505238","34.70706","-35.002434","19.046","36.97791","-38.045776","9.3374","19.628914","-21.929958"
"era-683","-16.345112","34.838326","-34.99625","18.926802","37.009975","-38.114815","9.406458","19.665482","-21.876501"
"era-684","-16.498417","34.734478","-35.06287","19.12836","37.018494","-38.045906","9.331443","19.633226","-21.93829"
"era-685","-16.42374","34.822704","-35.05571","18.944609","37.061928","-38.138187","9.394042","19.65775","-21.898932"
"era-686","-16.549385","34.78069","-35.06842","19.006222","37.021053","-38.18854","9.356577","19.6397","-21.93354"
"era-687","-16.381453","34.912094","-35.065422","18.920387","37.090805","-38.2049","9.419227","19.676888","-21.880518"
"era-688","-16.537504","34.792103","-35.14932","19.035034","37.06122","-38.21742","9.356059","19.643198","-21.93524"
"era-689","-16.475536","34.872204","-35.143097","19.00175","37.162773","-38.177082","9.387209","19.666739","-21.908962"
"era-690","-16.576754","34.842377","-35.157875","19.138689","37.0943","-38.21206","9.343827","19.656622","-21.94231"
"era-691","-16.457815","34.954304","-35.149193","19.028866","37.203785","-38.20425","9.402118","19.68823","-21.897564"
"era-692","-16.602583","34.897137","-35.167656","19.155039","37.13096","-38.24901","9.346071","19.663868","-21.944841"
"era-693","-16.440907","35.0248","-35.165157","19.024078","37.228096","-38.263493","9.415831","19.699347","-21.890482"
"era-694","-16.580626","34.90577","-35.25771","19.236856","37.19568","-38.22621","9.339084","19.667727","-21.951162"
"era-695","-16.53961","34.97453","-35.252663","19.04019","37.270428","-38.296146","9.395351","19.686148","-21.919085"
"era-696","-16.631794","34.949314","-35.267303","19.215506","37.213226","-38.30089","9.347782","19.679037","-21.952988"
"era-697","-16.524761","35.05539","-35.25845","19.084524","37.32155","-38.3053","9.407383","19.70869","-21.909588"
"era-698","-16.676306","34.996136","-35.274376","19.115114","37.214443","-38.430775","9.366263","19.683031","-21.949442"
"era-699","-16.495564","35.13555","-35.26919","19.087387","37.345577","-38.360497","9.420812","19.722057","-21.89841"
"era-700","-16.636774","35.011528","-35.36641","19.290905","37.3048","-38.33556","9.342266","19.685982","-21.961702"
"era-701","-16.59288","35.082203","-35.360966","19.105835","37.391163","-38.388676","9.396809","19.704535","-21.930117"
"era-702","-16.697075","35.048992","-35.37723","19.157934","37.292217","-38.495434","9.367311","19.694738","-21.955994"
"era-703","-16.58429","35.159805","-35.366318","19.132563","37.43757","-38.410946","9.407965","19.725998","-21.918623"
"era-704","-16.736328","35.103096","-35.378708","19.189833","37.32903","-38.522945","9.361628","19.700165","-21.960388"
"era-705","-16.553232","35.246014","-35.371426","19.134563","37.461147","-38.46606","9.421995","19.739786","-21.906258"
"era-706","-16.707945","35.113605","-35.46936","19.287598","37.39449","-38.491013","9.347365","19.699831","-21.968803"
"era-707","-16.65035","35.193653","-35.46109","19.192234","37.523075","-38.45825","9.389084","19.721882","-21.939476"
"era-708","-16.7516","35.162262","-35.476814","19.353865","37.436657","-38.493717","9.341128","19.712152","-21.974056"
"era-709","-16.646326","35.27201","-35.46358","19.195583","37.552692","-38.50551","9.405763","19.741703","-21.929173"
"era-710","-16.794348","35.213924","-35.47973","19.293024","37.45031","-38.590443","9.35383","19.71706","-21.972982"
"era-711","-16.609724","35.3584","-35.471844","19.183672","37.57403","-38.569374","9.424813","19.756704","-21.91434"
"era-712","-16.781942","35.22489","-35.559555","19.273088","37.48388","-38.64894","9.352743","19.70741","-21.97923"
"era-713","-16.692886","35.32519","-35.547146","19.221832","37.62985","-38.57727","9.393174","19.735142","-21.94498"
"era-714","-16.819485","35.282604","-35.55915","19.4053","37.545433","-38.599705","9.332775","19.716677","-21.989464"
"era-715","-16.665787","35.418713","-35.544716","19.22916","37.657787","-38.624184","9.410969","19.752726","-21.932592"
"era-716","-16.852459","35.32308","-35.58017","19.274324","37.543","-38.748466","9.356479","19.719734","-21.983238"
"era-717","-16.665356","35.46898","-35.57183","19.230959","37.686222","-38.67531","9.415454","19.760036","-21.92899"
"era-718","-16.837814","35.329365","-35.666172","19.276302","37.58049","-38.79199","9.35192","19.712389","-21.988815"
"era-719","-16.743454","35.435356","-35.650936","19.269112","37.741524","-38.68377","9.385033","19.740852","-21.956993"
"era-720","-16.87372","35.392418","-35.660797","19.467628","37.659214","-38.69612","9.320767","19.721231","-22.003933"
"era-721","-16.721561","35.52978","-35.64455","19.28023","37.77011","-38.72792","9.400931","19.7571","-21.946682"
"era-722","-16.909046","35.435658","-35.677555","19.344908","37.65775","-38.839626","9.342799","19.724054","-21.999033"
"era-723","-16.722086","35.58187","-35.668747","19.28129","37.799","-38.778744","9.4058485","19.764553","-21.942902"
"era-724","-16.897165","35.44068","-35.762794","19.298637","37.68233","-38.919838","9.345908","19.7156","-22.001354"
"era-725","-16.785734","35.55843","-35.74479","19.317087","37.85229","-38.790276","9.378154","19.746658","-21.967827"
"era-726","-16.932444","35.507694","-35.7529","19.517605","37.768948","-38.802628","9.308176","19.721973","-22.020254"
"era-727","-16.766214","35.652016","-35.73702","19.326757","37.880486","-38.8356","9.392088","19.759745","-21.95962"
"era-728","-16.939083","35.522392","-35.818787","19.413416","37.773346","-38.930725","9.329054","19.722492","-22.014511"
"era-729","-16.812027","35.648243","-35.800858","19.344944","37.923203","-38.864376","9.381164","19.755716","-21.970228"
"era-730","-16.973825","35.585094","-35.813965","19.542768","37.837788","-38.880424","9.306708","19.72701","-22.02715"
"era-731","-16.797247","35.732464","-35.800117","19.361431","37.953922","-38.904133","9.390924","19.766031","-21.964972"
"era-732","-16.968246","35.590492","-35.897114","19.425138","37.84117","-39.016525","9.324418","19.718822","-22.025385"
"era-733","-16.846992","35.71485","-35.877872","19.38444","37.99891","-38.928516","9.369938","19.75104","-21.984797"
"era-734","-17.007116","35.657707","-35.884953","19.584518","37.913822","-38.9428","9.295607","19.722324","-22.041649"
"era-735","-16.837257","35.80476","-35.868286","19.397217","38.02943","-38.970177","9.37994","19.760735","-21.980385"
"era-736","-16.999453","35.66608","-35.966698","19.510054","37.92737","-39.046608","9.313038","19.7237","-22.036673"
"era-737","-16.877502","35.79037","-35.9481","19.428776","38.07471","-38.989193","9.366503","19.75547","-21.993298"
"era-738","-17.044022","35.731243","-35.953526","19.624382","37.987995","-39.007095","9.29115","19.72499","-22.051954"
"era-739","-16.874428","35.879436","-35.935738","19.430716","38.102192","-39.039127","9.376695","19.763346","-21.990366"
"era-740","-17.037197","35.74034","-36.03414","19.544657","37.999672","-39.11539","9.309384","19.726116","-22.046913"
"era-741","-16.908833","35.869087","-36.014523","19.465338","38.148014","-39.056","9.363992","19.758757","-22.002352"
"era-742","-17.082851","35.80702","-36.018707","19.657902","38.06007","-39.07664","9.287061","19.72665","-22.062971"
"era-743","-16.910158","35.95685","-36.000904","19.46545","38.175438","-39.106956","9.373161","19.765484","-22.000769"
"era-744","-17.070606","35.815617","-36.10316","19.563568","38.069077","-39.195072","9.306898","19.725754","-22.057621"
"era-745","-16.939909","35.945133","-36.084007","19.502317","38.221554","-39.122425","9.358519","19.758533","-22.014078"
"era-746","-17.119802","35.882626","-36.085045","19.69019","38.13236","-39.146717","9.280734","19.725079","-22.076084"
"era-747","-16.946415","36.033157","-36.066925","19.50109","38.2493","-39.173805","9.366586","19.76416","-22.013847"
"era-748","-17.109016","35.891487","-36.168095","19.60791","38.143944","-39.256454","9.297427","19.722778","-22.072865"
"era-749","-16.970753","36.026665","-36.147358","19.538515","38.294975","-39.189354","9.352686","19.756907","-22.026876"
"era-750","-17.158735","35.96123","-36.14677","19.720984","38.204407","-39.217793","9.273761","19.722086","-22.090582"
"era-751","-16.98295","36.11194","-36.1295","19.535505","38.32231","-39.242073","9.359737","19.761713","-22.027897"
"era-752","-17.15259","35.970284","-36.225956","19.626799","38.211742","-39.337917","9.288579","19.714613","-22.090405"
"era-753","-17.002628","36.11329","-36.203396","19.56962","38.36688","-39.260647","9.344726","19.751207","-22.042082"
"era-754","-17.19599","36.039032","-36.209602","19.742258","38.273567","-39.29713","9.266276","19.716019","-22.10595"
"era-755","-17.020315","36.18869","-36.193024","19.576735","38.398285","-39.30462","9.349006","19.756067","-22.044355"
"era-756","-17.186775","36.04758","-36.29061","19.684372","38.291096","-39.38863","9.276785","19.710804","-22.10672"
"era-757","-17.034565","36.1917","-36.268223","19.609022","38.441406","-39.325233","9.337339","19.74778","-22.056597"
"era-758","-17.230993","36.114353","-36.275867","19.776594","38.346886","-39.365425","9.258941","19.711838","-22.121119"
"era-759","-17.057287","36.263367","-36.25891","19.612478","38.471893","-39.371902","9.341326","19.75183","-22.05995"
"era-760","-17.219107","36.1229","-36.358707","19.704653","38.36152","-39.4669","9.27502","19.710411","-22.117735"
"era-761","-17.06765","36.26542","-36.33749","19.648159","38.51511","-39.39063","9.3318","19.747019","-22.069443"
"era-762","-17.266106","36.187706","-36.34415","19.806595","38.418488","-39.437626","9.2544","19.710468","-22.13393"
"era-763","-17.093721","36.33673","-36.326534","19.650858","38.546143","-39.437237","9.335237","19.750477","-22.073523"
"era-764","-17.249533","36.199215","-36.426983","19.735962","38.434277","-39.53721","9.2736635","19.71281","-22.127266"
"era-765","-17.100912","36.338245","-36.407776","19.687824","38.588745","-39.455738","9.328012","19.748426","-22.080738"
"era-766","-17.301355","36.260124","-36.413628","19.839006","38.4905","-39.50808","9.251307","19.711264","-22.145351"
"era-767","-17.129808","36.409615","-36.395214","19.688637","38.619774","-39.50339","9.33119","19.751274","-22.085493"
"era-768","-17.286549","36.272705","-36.49432","19.776997","38.50822","-39.60136","9.269851","19.714645","-22.138824"
"era-769","-17.135569","36.413624","-36.474525","19.726088","38.66179","-39.522118","9.325533","19.75069","-22.09161"
"era-770","-17.33758","36.332676","-36.482403","19.867771","38.561295","-39.581635","9.249844","19.712872","-22.15611"
"era-771","-17.166197","36.482708","-36.46339","19.727945","38.69351","-39.568665","9.327973","19.752989","-22.09699"
"era-772","-17.326256","36.345467","-36.56064","19.820559","38.5824","-39.66402","9.265652","19.716267","-22.151146"
"era-773","-17.17092","36.49007","-36.539482","19.763653","38.73451","-39.589222","9.323916","19.75328","-22.102346"
"era-774","-17.372793","36.403244","-36.55383","19.894627","38.63121","-39.657097","9.249655","19.714668","-22.16639"
"era-775","-17.201591","36.554398","-36.5337","19.768492","38.767345","-39.633278","9.325441","19.754904","-22.108244"
"era-776","-17.367147","36.417477","-36.626858","19.872608","38.65815","-39.720886","9.260392","19.717546","-22.164467"
"era-777","-17.206553","36.5668","-36.60385","19.800297","38.806965","-39.65713","9.323472","19.755974","-22.112993"
"era-778","-17.40576","36.47119","-36.62951","19.920536","38.700752","-39.73349","9.251068","19.7166","-22.17609"
"era-779","-17.235226","36.623787","-36.607834","19.80982","38.84106","-39.69769","9.324055","19.756874","-22.119223"
"era-780","-17.407413","36.490765","-36.69227","19.915691","38.731556","-39.78475","9.25805","19.718967","-22.176598"
"era-781","-17.242832","36.643127","-36.66834","19.837107","38.87915","-39.725376","9.323742","19.758444","-22.12351"
"era-782","-17.439186","36.53895","-36.70519","19.932882","38.76727","-39.819996","9.255851","19.718847","-22.184078"
"era-783","-17.268818","36.692715","-36.682365","19.852654","38.914326","-39.761963","9.323269","19.759203","-22.129461"
"era-784","-17.449142","36.56526","-36.75537","19.918644","38.795647","-39.87858","9.263276","19.72092","-22.184433"
"era-785","-17.28098","36.71957","-36.731163","19.877188","38.951122","-39.79247","9.322852","19.761","-22.13323"
"era-786","-17.476692","36.606503","-36.77829","19.896776","38.821777","-39.943398","9.268238","19.72133","-22.187098"
"era-787","-17.30362","36.76289","-36.754192","19.896347","38.986443","-39.827393","9.321147","19.762249","-22.137787"
"era-788","-17.494375","36.635742","-36.820324","19.827286","38.836903","-40.04353","9.2827425","19.72274","-22.183477"
"era-789","-17.318808","36.795414","-36.794365","19.916075","39.023388","-39.86144","9.319391","19.764147","-22.140905"
"era-790","-17.51585","36.67279","-36.85146","19.817244","38.866955","-40.09957","9.285039","19.72397","-22.185394"
"era-791","-17.338085","36.833958","-36.825066","19.933681","39.060066","-39.89726","9.317297","19.765875","-22.144596"
"era-792","-17.53386","36.706516","-36.888428","19.800755","38.895832","-40.16049","9.289031","19.725636","-22.186222"
"era-793","-17.355028","36.86918","-36.8612","19.951445","39.097134","-39.933258","9.315634","19.76802","-22.147964"
"era-794","-17.55338","36.742058","-36.922626","19.791832","38.9268","-40.21617","9.291502","19.72741","-22.188044"
"era-795","-17.373344","36.90585","-36.894882","19.96889","39.13415","-39.970066","9.314085","19.770414","-22.151472"
"era-796","-17.57289","36.777298","-36.957203","19.781069","38.957672","-40.273537","9.294612","19.729555","-22.189663"
"era-797","-17.39223","36.941685","-36.929058","19.985878","39.171375","-40.007824","9.31315","19.773357","-22.15481"
"era-798","-17.594429","36.814896","-36.98765","19.787403","38.993034","-40.318844","9.295072","19.732214","-22.192743"
"era-799","-17.413334","36.97945","-36.959362","20.002848","39.20874","-40.046074","9.312275","19.776436","-22.15844"
"era-800","-17.61544","36.85352","-37.01694","19.819437","39.03502","-40.345264","9.291687","19.73542","-22.197525"
"era-801","-17.432846","37.018826","-36.98874","20.02123","39.24623","-40.083252","9.311206","19.779423","-22.162048"
"era-802","-17.628122","36.887672","-37.056583","19.879549","39.084373","-40.350002","9.284596","19.739042","-22.203337"
"era-803","-17.446949","37.052","-37.02886","20.040518","39.283638","-40.11929","9.310307","19.78201","-22.165337"
"era-804","-17.640978","36.924484","-37.09345","19.96464","39.139908","-40.335327","9.272774","19.742092","-22.211664"
"era-805","-17.463017","37.086147","-37.066822","20.060066","39.320488","-40.15498","9.309305","19.783995","-22.169176"
"era-806","-17.65475","36.964893","-37.125763","20.0897","39.205708","-40.289692","9.254562","19.744888","-22.22382"
"era-807","-17.4815","37.12249","-37.10086","20.074284","39.356987","-40.193584","9.311075","19.785902","-22.173544"
"era-808","-17.671522","37.00263","-37.159283","20.14857","39.254234","-40.294037","9.249198","19.747177","-22.23165"
"era-809","-17.500357","37.158577","-37.135006","20.083063","39.39284","-40.235786","9.31479","19.78785","-22.178057"
"era-810","-17.69018","37.04017","-37.1919","20.186691","39.29728","-40.314323","9.247912","19.749289","-22.238544"
"era-811","-17.520048","37.195248","-37.167965","20.091827","39.42818","-40.27855","9.318769","19.789816","-22.18295"
"era-812","-17.708937","37.07853","-37.22347","20.23617","39.3445","-40.324863","9.245421","19.751528","-22.246887"
"era-813","-17.541506","37.231316","-37.20039","20.080751","39.458897","-40.336113","9.326594","19.791655","-22.187176"
"era-814","-17.732786","37.119034","-37.24925","20.262104","39.38867","-40.350407","9.246685","19.753181","-22.255066"
"era-815","-17.566576","37.270267","-37.226967","20.060606","39.485962","-40.401516","9.335616","19.793095","-22.19179"
"era-816","-17.75859","37.15988","-37.273037","20.26832","39.429424","-40.38954","9.25068","19.754684","-22.261799"
"era-817","-17.591808","37.31067","-37.25131","20.051949","39.515774","-40.458416","9.342139","19.794641","-22.196922"
"era-818","-17.78132","37.199482","-37.299633","20.295038","39.47146","-40.417324","9.250833","19.756842","-22.268555"
"era-819","-17.616676","37.348164","-37.278767","20.034353","39.54265","-40.52334","9.34965","19.796474","-22.200584"
"era-820","-17.81217","37.240902","-37.318848","20.24962","39.49781","-40.49863","9.259735","19.757895","-22.269566"
"era-821","-17.640718","37.393272","-37.297184","20.101358","39.594585","-40.52218","9.339857","19.798918","-22.208212"
"era-822","-17.824886","37.274147","-37.357525","20.32074","39.546856","-40.49735","9.253329","19.762026","-22.275675"
"era-823","-17.65906","37.42325","-37.33659","20.068289","39.617493","-40.599525","9.351013","19.80195","-22.20786"
"era-824","-17.864992","37.306335","-37.381058","20.030087","39.515743","-40.759533","9.302121","19.761518","-22.257633"
"era-825","-17.686441","37.465664","-37.355675","20.10387","39.660946","-40.624634","9.34247","19.804651","-22.211758"
"era-826","-17.902096","37.340405","-37.403465","20.14754","39.595158","-40.721127","9.275466","19.762995","-22.271612"
"era-827","-17.743046","37.49234","-37.372997","20.096994","39.692276","-40.694046","9.336241","19.806644","-22.2169"
"era-828","-17.947603","37.427395","-37.36027","20.13147","39.691353","-40.726032","9.286484","19.771282","-22.273981"
"era-829","-17.964136","37.44429","-37.365566","20.272358","39.825394","-40.59386","9.278333","19.788443","-22.282696"
"era-830","-17.913073","37.512676","-37.35465","20.321478","39.694237","-40.726208","9.294998","19.81652","-22.25839"
"era-831","-17.903522","37.54847","-37.35777","20.271034","39.810993","-40.680458","9.319496","19.83081","-22.243418"
"era-832","-17.993551","37.525646","-37.368095","19.989325","39.701283","-40.97819","9.357955","19.827993","-22.233374"
"era-833","-18.060482","37.496273","-37.38921","20.34395","39.907898","-40.675198","9.2973995","19.830992","-22.27563"
"era-834","-17.877758","37.66556","-37.35007","20.453587","39.799816","-40.755642","9.335401","19.879436","-22.228308"
"era-835","-18.082367","37.586185","-37.35225","20.349384","39.90521","-40.74892","9.310818","19.845638","-22.270428"
"era-836","-18.07667","37.57176","-37.400818","20.094292","39.83604","-40.993973","9.38185","19.866558","-22.238592"
"era-837","-18.111563","37.54888","-37.432938","20.383982","40.009674","-40.756397","9.337939","19.87743","-22.26282"
"era-838","-17.934448","37.71349","-37.39551","20.31314","39.849213","-40.977962","9.402373","19.92363","-22.200975"
"era-839","-18.138622","37.645245","-37.385563","20.404259","39.994293","-40.832905","9.340826","19.890505","-22.257332"
"era-840","-17.984148","37.69117","-37.46136","20.35154","40.039932","-40.878056","9.408651","19.930336","-22.219461"
"era-841","-18.127909","37.63393","-37.47503","20.513653","39.9362","-40.92701","9.352943","19.913933","-22.262398"
