"era-0","0.5231612","-0.23077168","0.8199781","-0.5457447","-0.02065487","0.1080557","-0.46007967","-0.7482184","-0.16650888"
"era-1","0.7937078","-0.4225437","1.2434175","-0.37423533","0.06087586","0.21109438","-0.3034789","-0.8891374","-0.11235975"
"era-2","0.97512877","-0.9749296","1.8576858","-0.16693728","0.1595941","0.3204139","0.0014475994","-1.2899921","-8.494966E-5"
"era-3","1.1909916","-2.2057724","3.0770936","0.094317526","0.29952046","0.43721756","0.6708742","-2.349082","0.32558683"
"era-4","1.7841297","-3.659483","4.6934147","0.40492123","0.420509","0.67917794","1.5240271","-3.8046916","0.8761562"
"era-5","2.3867633","-4.7094107","5.887226","0.5892931","0.31946796","1.0766622","2.0466406","-4.7858176","1.3745582"
"era-6","2.8327444","-5.5140967","6.7675138","0.4832803","-0.07829495","1.4824611","2.3529294","-5.448407","1.919228"
"era-7","3.0336833","-6.357989","7.4723005","-0.42071053","-1.6002605","1.9891859","2.830744","-5.854198","3.2468686"
"era-8","3.0781822","-7.249238","7.9308863","-1.4182154","-3.9322426","3.6655343","3.1807747","-6.6036167","5.8230987"
"era-9","3.179944","-7.751159","8.281951","-2.0312994","-5.011453","4.789105","3.3897645","-7.363559","7.294106"
"era-10","3.2973118","-8.098783","8.581512","-2.460637","-5.6754704","5.5261054","3.5946295","-7.951089","8.192941"
"era-11","3.413221","-8.384302","8.842422","-2.7864015","-6.181656","6.0762467","3.776246","-8.430413","8.833864"
"era-12","3.5241668","-8.6347475","9.074732","-3.0471475","-6.6030264","6.520785","3.935203","-8.835695","9.330257"
"era-13","3.629348","-8.861083","9.285673","-3.2653592","-6.9687495","6.899048","4.075365","-9.186724","9.734342"
"era-14","3.7287655","-9.069035","9.480187","-3.454493","-7.2943106","7.232204","4.2002654","-9.496152","10.074568"
"era-15","3.8227215","-9.262188","9.661696","-3.6227725","-7.589479","7.5326395","4.312674","-9.772676","10.368234"
"era-16","3.9116907","-9.443095","9.832569","-3.7754018","-7.860957","7.8081565","4.414696","-10.022532","10.626558"
"era-17","3.996139","-9.613647","9.994541","-3.9157958","-8.113532","8.063931","4.507961","-10.25036","10.857264"
"era-18","4.076544","-9.775315","10.148905","-4.0463023","-8.350765","8.3036","4.5937557","-10.459677","11.065859"
"era-19","4.153333","-9.929262","10.29663","-4.1685863","-8.575341","8.529817","4.6731334","-10.653243","11.256372"
"era-20","4.2269154","-10.07645","10.4384985","-4.28388","-8.7892885","8.744553","4.7469273","-10.833192","11.431864"
"era-21","4.2976217","-10.21766","10.575153","-4.3931174","-8.994192","8.949368","4.8158393","-11.001282","11.594666"
"era-22","4.365758","-10.353537","10.707122","-4.4970417","-9.191266","9.145483","4.880456","-11.158918","11.746603"
"era-23","4.431586","-10.484629","10.834822","-4.596252","-9.381451","9.33392","4.9412584","-11.307294","11.889131"
"era-24","4.495327","-10.611411","10.958654","-4.6912465","-9.565506","9.515519","4.998661","-11.447402","12.023401"
"era-25","4.557185","-10.734282","11.078921","-4.7824516","-9.744036","9.690993","5.053007","-11.580074","12.150387"
"era-26","4.6173153","-10.853577","11.195917","-4.870239","-9.917488","9.860946","5.1045885","-11.706018","12.270841"
"era-27","4.675866","-10.9696","11.309886","-4.9549227","-10.08625","10.0259","5.1536593","-11.825856","12.38543"
"era-28","4.732952","-11.082591","11.421037","-5.0367794","-10.250645","10.18631","5.200439","-11.940122","12.494677"
"era-29","4.7886853","-11.192794","11.529585","-5.1160536","-10.410935","10.342558","5.24512","-12.049285","12.599042"
"era-30","4.8431587","-11.300402","11.635695","-5.192976","-10.567349","10.494999","5.2878604","-12.153753","12.6989355"
"era-31","4.896453","-11.405595","11.739529","-5.2677264","-10.720095","10.643916","5.328803","-12.2539015","12.794698"
"era-32","4.9486413","-11.508527","11.84122","-5.3404875","-10.869348","10.789569","5.3680806","-12.350041","12.8866415"
"era-33","4.9997926","-11.609345","11.9409","-5.4114184","-11.015289","10.932196","5.4057937","-12.442451","12.975035"
"era-34","5.049959","-11.708171","12.0387","-5.4806595","-11.158041","11.0719795","5.4420533","-12.531367","13.060112"
"era-35","5.099195","-11.805112","12.134704","-5.548333","-11.29778","11.2091055","5.476957","-12.61705","13.142076"
"era-36","5.147548","-11.900279","12.229023","-5.614554","-11.434623","11.343723","5.5105724","-12.699674","13.221128"
"era-37","5.1950607","-11.993768","12.321741","-5.6794147","-11.568705","11.475973","5.542967","-12.779447","13.2974415"
"era-38","5.2417784","-12.085668","12.412949","-5.743022","-11.700139","11.605975","5.5742116","-12.8565035","13.3711815"
"era-39","5.287735","-12.176055","12.50271","-5.805447","-11.829073","11.733851","5.604369","-12.931019","13.442479"
"era-40","5.3329673","-12.265007","12.591104","-5.866774","-11.955591","11.859702","5.633494","-13.003136","13.51149"
"era-41","5.377494","-12.352579","12.678195","-5.9270644","-12.079812","11.983626","5.6616454","-13.073017","13.578334"
"era-42","5.4213552","-12.438844","12.764033","-5.986385","-12.201845","12.105713","5.6888585","-13.140754","13.643117"
"era-43","5.4645786","-12.523859","12.84869","-6.044793","-12.321781","12.226041","5.715194","-13.206481","13.705961"
"era-44","5.5071855","-12.607674","12.932204","-6.1023426","-12.4397335","12.344688","5.740692","-13.270293","13.7669735"
"era-45","5.5491967","-12.690342","13.014633","-6.1590834","-12.555783","12.461731","5.765378","-13.332303","13.826255"
"era-46","5.5906434","-12.771911","13.096024","-6.2150636","-12.670017","12.577232","5.7893095","-13.392602","13.883893"
"era-47","5.6315346","-12.852411","13.176411","-6.270328","-12.782521","12.691265","5.8125153","-13.451278","13.939977"
"era-48","5.6718965","-12.931898","13.255842","-6.3249097","-12.893359","12.803883","5.835014","-13.508414","13.994581"
"era-49","5.7117434","-13.010406","13.334357","-6.3788543","-13.0026245","12.915146","5.8568406","-13.564069","14.047808"
"era-50","5.751094","-13.087962","13.411985","-6.432195","-13.110382","13.025112","5.8780313","-13.618326","14.099715"
"era-51","5.78996","-13.164608","13.488776","-6.4849615","-13.216706","13.133828","5.898602","-13.67125","14.150393"
"era-52","5.8283634","-13.2403755","13.564737","-6.5371833","-13.321659","13.24135","5.918579","-13.722916","14.1999035"
"era-53","5.8663144","-13.3152895","13.639911","-6.5888853","-13.425295","13.347714","5.9379826","-13.773365","14.248306"
"era-54","5.9038234","-13.389374","13.714328","-6.6401067","-13.527669","13.452978","5.9568415","-13.822658","14.295665"
"era-55","5.940907","-13.462661","13.78802","-6.6908655","-13.628841","13.557182","5.975186","-13.87085","14.342034"
"era-56","5.977581","-13.535175","13.860999","-6.741186","-13.728862","13.66037","5.993021","-13.917981","14.387464"
"era-57","6.0138464","-13.606928","13.933295","-6.7910857","-13.827766","13.7625675","6.0103817","-13.964115","14.432002"
"era-58","6.0497274","-13.677955","14.004927","-6.8405833","-13.925609","13.863817","6.0272903","-14.009301","14.475697"
"era-59","6.0852284","-13.748267","14.075913","-6.8896985","-14.022415","13.96415","6.043766","-14.053571","14.518601"
"era-60","6.1203585","-13.817882","14.1462755","-6.938453","-14.118232","14.0636","6.0598273","-14.096956","14.560766"
"era-61","6.155136","-13.886821","14.216023","-6.986852","-14.213088","14.1621895","6.075498","-14.139521","14.602223"
"era-62","6.1895676","-13.955107","14.285181","-7.034915","-14.307024","14.2599535","6.0907826","-14.181272","14.643002"
"era-63","6.223661","-14.022745","14.353763","-7.082662","-14.400051","14.356922","6.105715","-14.222258","14.683146"
"era-64","6.2574286","-14.089759","14.421786","-7.130096","-14.4922085","14.453114","6.1203156","-14.262521","14.722686"
"era-65","6.2908797","-14.156162","14.489264","-7.177228","-14.5835085","14.548545","6.1345997","-14.302078","14.761657"
"era-66","6.324023","-14.221971","14.556206","-7.2240644","-14.673976","14.643242","6.1485777","-14.340973","14.800079"
"era-67","6.3568726","-14.287192","14.622613","-7.2706223","-14.763626","14.737233","6.1622777","-14.379235","14.837983"
"era-68","6.3894243","-14.351838","14.688512","-7.316906","-14.852485","14.830527","6.175702","-14.416874","14.875395"
"era-69","6.421699","-14.415933","14.753907","-7.362922","-14.940565","14.923154","6.1888742","-14.4539385","14.91234"
"era-70","6.453702","-14.479478","14.818803","-7.4086804","-15.027867","15.015117","6.2018104","-14.490447","14.948847"
"era-71","6.485439","-14.542484","14.883215","-7.454188","-15.114424","15.106438","6.2145333","-14.526418","14.984931"
"era-72","6.516918","-14.604962","14.947136","-7.4994507","-15.200226","15.197131","6.2270465","-14.561878","15.02062"
"era-73","6.5481462","-14.666924","15.010583","-7.5444746","-15.285298","15.287214","6.2393646","-14.596847","15.055927"
"era-74","6.579132","-14.728382","15.073572","-7.589262","-15.369648","15.3766985","6.251501","-14.631336","15.090866"
"era-75","6.609877","-14.789335","15.136094","-7.6338215","-15.453283","15.465596","6.263474","-14.665388","15.125465"
"era-76","6.6403937","-14.849801","15.198163","-7.6781597","-15.536215","15.553926","6.2752953","-14.698997","15.159733"
"era-77","6.670684","-14.909782","15.259785","-7.7222824","-15.618451","15.641692","6.286976","-14.732183","15.193689"
"era-78","6.7007513","-14.969288","15.320959","-7.766189","-15.700003","15.728908","6.298519","-14.764969","15.227346"
"era-79","6.7306013","-15.028321","15.381695","-7.8098836","-15.7808695","15.815582","6.3099437","-14.79737","15.260716"
"era-80","6.760241","-15.086895","15.442002","-7.853373","-15.861064","15.901723","6.321262","-14.829389","15.293813"
"era-81","6.789662","-15.145005","15.501889","-7.896656","-15.940604","15.987341","6.332477","-14.861041","15.326661"
"era-82","6.8188787","-15.202665","15.561364","-7.939741","-16.019485","16.072437","6.343604","-14.892331","15.359261"
"era-83","6.847888","-15.259879","15.620433","-7.982628","-16.097729","16.157026","6.3546495","-14.923281","15.391634"
"era-84","6.87669","-15.316647","15.6791","-8.025319","-16.175331","16.241106","6.3656178","-14.953882","15.423784"
"era-85","6.905282","-15.372971","15.737379","-8.067817","-16.252304","16.32469","6.376516","-14.9841385","15.455729"
"era-86","6.9336715","-15.428862","15.79527","-8.110109","-16.328665","16.40776","6.3873534","-15.014065","15.487487"
"era-87","6.961851","-15.484318","15.852795","-8.152223","-16.404408","16.490355","6.3981314","-15.043667","15.51906"
"era-88","6.989822","-15.539347","15.909973","-8.194144","-16.479567","16.572458","6.4088655","-15.072933","15.550468"
"era-89","7.017588","-15.593958","15.966809","-8.235882","-16.554123","16.654066","6.4195437","-15.101844","15.581725"
"era-90","7.045142","-15.64815","16.023325","-8.277433","-16.628105","16.735193","6.4301887","-15.13043","15.612828"
"era-91","7.072487","-15.701933","16.079529","-8.318798","-16.701508","16.815842","6.4407964","-15.158692","15.643807"
"era-92","7.099616","-15.755309","16.135447","-8.359968","-16.774345","16.895996","6.4513707","-15.18662","15.674668"
"era-93","7.126532","-15.808282","16.191076","-8.400956","-16.846634","16.975674","6.461909","-15.214209","15.705428"
"era-94","7.1532354","-15.860857","16.246435","-8.44176","-16.918379","17.054873","6.4724197","-15.241451","15.736092"
"era-95","7.179725","-15.913048","16.301554","-8.482373","-16.989595","17.133589","6.4829044","-15.268347","15.766673"
"era-96","7.206007","-15.964862","16.356434","-8.522797","-17.060287","17.211817","6.4933567","-15.294893","15.79719"
"era-97","7.232079","-16.016304","16.41109","-8.563026","-17.130459","17.289557","6.5037932","-15.321091","15.827654"
"era-98","7.257949","-16.067387","16.46553","-8.60307","-17.200132","17.36681","6.5142016","-15.346923","15.858083"
"era-99","7.283615","-16.118116","16.519781","-8.642915","-17.269293","17.443583","6.524598","-15.372416","15.888476"
"era-100","7.3090854","-16.168503","16.573843","-8.682563","-17.337967","17.519857","6.5349746","-15.397549","15.918854"
"era-101","7.3343763","-16.218569","16.627712","-8.7220125","-17.406155","17.595644","6.545338","-15.422335","15.949225"
"era-102","7.359488","-16.268316","16.681404","-8.761255","-17.473875","17.670942","6.5556912","-15.44677","15.979602"
"era-103","7.3844423","-16.317764","16.734905","-8.800297","-17.541115","17.74575","6.5660315","-15.470855","16.00998"
"era-104","7.409239","-16.36692","16.788225","-8.839125","-17.607885","17.820063","6.5763693","-15.49461","16.040384"
"era-105","7.4338937","-16.415802","16.84137","-8.877747","-17.674208","17.893892","6.5866947","-15.518034","16.070831"
"era-106","7.458419","-16.46442","16.894325","-8.916147","-17.740082","17.967224","6.59702","-15.541138","16.101318"
"era-107","7.4828243","-16.512789","16.947102","-8.954327","-17.805494","18.040068","6.607349","-15.563927","16.13186"
"era-108","7.507127","-16.56092","16.999683","-8.9922905","-17.870462","18.112415","6.617682","-15.586404","16.162468"
"era-109","7.5313425","-16.608831","17.052053","-9.030029","-17.934988","18.184278","6.6280184","-15.608579","16.19313"
"era-110","7.5554767","-16.656525","17.104218","-9.067539","-17.999083","18.255661","6.6383696","-15.630477","16.223858"
"era-111","7.579546","-16.704014","17.156147","-9.10482","-18.062733","18.32656","6.64873","-15.652108","16.25467"
"era-112","7.6035748","-16.75131","17.207819","-9.14187","-18.125937","18.396978","6.6591105","-15.673487","16.285547"
"era-113","7.6275654","-16.79843","17.25924","-9.178694","-18.1887","18.466938","6.66951","-15.694636","16.3165"
"era-114","7.651536","-16.845383","17.310387","-9.215286","-18.251038","18.536442","6.679932","-15.715563","16.347548"
"era-115","7.6755013","-16.89218","17.361242","-9.251647","-18.312954","18.605497","6.6903844","-15.7363","16.378666"
"era-116","7.6994658","-16.938818","17.411785","-9.287789","-18.374432","18.674133","6.7008715","-15.756876","16.409855"
"era-117","7.7234435","-16.985313","17.462011","-9.323696","-18.43547","18.742329","6.7113953","-15.777287","16.441116"
"era-118","7.747445","-17.03167","17.511894","-9.359368","-18.496092","18.810104","6.7219586","-15.797582","16.472446"
"era-119","7.7714853","-17.077896","17.56141","-9.394822","-18.55628","18.877474","6.7325683","-15.8177595","16.503843"
"era-120","7.795548","-17.123978","17.61056","-9.430055","-18.616045","18.94446","6.743232","-15.83786","16.5353"
"era-121","7.8196616","-17.169933","17.65931","-9.465065","-18.675396","19.011068","6.753953","-15.857907","16.566778"
"era-122","7.8438163","-17.215755","17.707651","-9.49985","-18.73433","19.077309","6.764731","-15.877916","16.598305"
"era-123","7.8680205","-17.26145","17.755575","-9.534426","-18.79287","19.143204","6.7755694","-15.897902","16.629866"
"era-124","7.8922696","-17.307003","17.803053","-9.568792","-18.851023","19.208763","6.786475","-15.917909","16.661467"
"era-125","7.9165673","-17.352423","17.850086","-9.602951","-18.908781","19.274004","6.7974524","-15.937947","16.693077"
"era-126","7.940897","-17.39769","17.896662","-9.63689","-18.966177","19.338923","6.8085027","-15.9580345","16.724695"
"era-127","7.965269","-17.442812","17.942762","-9.67063","-19.023209","19.40355","6.8196282","-15.978191","16.756296"
"era-128","7.9896812","-17.487783","17.988388","-9.70416","-19.079908","19.467882","6.8308363","-15.998419","16.787907"
"era-129","8.014114","-17.53259","18.03354","-9.737487","-19.136305","19.531944","6.8421154","-16.018747","16.81949"
"era-130","8.038565","-17.577232","18.078209","-9.770611","-19.192406","19.595741","6.8534703","-16.039188","16.851051"
"era-131","8.063028","-17.621698","18.122395","-9.803519","-19.248224","19.65927","6.8649054","-16.059727","16.882555"
"era-132","8.087491","-17.665983","18.1661","-9.836218","-19.303787","19.722538","6.8764143","-16.080393","16.914028"
"era-133","8.111939","-17.71007","18.209333","-9.8687","-19.359125","19.785547","6.888008","-16.101173","16.945465"
"era-134","8.136371","-17.753958","18.252089","-9.900967","-19.41425","19.8483","6.899669","-16.12206","16.976849"
"era-135","8.160765","-17.797634","18.294374","-9.933003","-19.469198","19.9108","6.911406","-16.143082","17.008183"
"era-136","8.185102","-17.84108","18.336197","-9.964819","-19.523973","19.973053","6.9232044","-16.164227","17.039461"
"era-137","8.209391","-17.884304","18.377565","-9.996397","-19.578604","20.035051","6.9350734","-16.185478","17.070683"
"era-138","8.233602","-17.927279","18.418474","-10.027733","-19.6331","20.096786","6.947001","-16.206831","17.10184"
"era-139","8.257727","-17.970005","18.45896","-10.058827","-19.687477","20.158249","6.958987","-16.228264","17.132942"
"era-140","8.281757","-18.012478","18.499031","-10.089661","-19.741747","20.219442","6.9710307","-16.249771","17.163992"
"era-141","8.305673","-18.054682","18.538694","-10.120243","-19.795914","20.280365","6.9831166","-16.271368","17.194998"
"era-142","8.329482","-18.096626","18.577955","-10.150568","-19.849977","20.341002","6.995248","-16.293016","17.22597"
"era-143","8.353161","-18.138296","18.61684","-10.180634","-19.903938","20.401358","7.0074177","-16.314718","17.2569"
"era-144","8.376696","-18.179684","18.65537","-10.210439","-19.95779","20.46142","7.0196204","-16.33644","17.2878"
"era-145","8.400083","-18.220789","18.693548","-10.239993","-20.011528","20.521187","7.031843","-16.358189","17.318668"
"era-146","8.423309","-18.261606","18.731401","-10.269279","-20.065155","20.580656","7.044086","-16.379938","17.349518"
"era-147","8.44637","-18.302137","18.768927","-10.298315","-20.11865","20.639814","7.056332","-16.401691","17.380354"
"era-148","8.469262","-18.342379","18.806147","-10.327101","-20.17201","20.698668","7.0685782","-16.423433","17.411175"
"era-149","8.491973","-18.382324","18.843063","-10.355635","-20.225225","20.757208","7.0808163","-16.445156","17.441986"
"era-150","8.514501","-18.421982","18.879705","-10.383927","-20.278275","20.815422","7.093036","-16.466839","17.472795"
"era-151","8.536839","-18.46135","18.916082","-10.411989","-20.331161","20.873314","7.1052275","-16.488493","17.503595"
"era-152","8.558979","-18.500427","18.952208","-10.439812","-20.383865","20.930874","7.117386","-16.510098","17.534374"
"era-153","8.580925","-18.539219","18.988087","-10.46742","-20.436384","20.988106","7.1295023","-16.531662","17.56513"
"era-154","8.602669","-18.577732","19.023737","-10.494813","-20.488708","21.045006","7.1415634","-16.553179","17.595863"
"era-155","8.624213","-18.615965","19.05917","-10.522009","-20.540833","21.101578","7.153566","-16.574648","17.626572"
"era-156","8.645553","-18.653925","19.094406","-10.549003","-20.592741","21.157803","7.1654954","-16.596045","17.657234"
"era-157","8.666694","-18.691618","19.129425","-10.575816","-20.644423","21.213694","7.177344","-16.617384","17.687855"
"era-158","8.6876335","-18.729046","19.16425","-10.602462","-20.69588","21.26925","7.189106","-16.638662","17.71843"
"era-159","8.708377","-18.766216","19.198885","-10.628942","-20.747091","21.32446","7.200771","-16.659859","17.748947"
"era-160","8.728925","-18.803143","19.233355","-10.655274","-20.798061","21.379343","7.2123275","-16.680998","17.779398"
"era-161","8.749279","-18.839823","19.267633","-10.681464","-20.848772","21.433891","7.223776","-16.70207","17.809778"
"era-162","8.769438","-18.876259","19.30174","-10.707515","-20.899227","21.4881","7.2351055","-16.723078","17.840073"
"era-163","8.789411","-18.91246","19.33568","-10.733436","-20.949417","21.541977","7.246312","-16.74402","17.87028"
"era-164","8.809203","-18.948439","19.369453","-10.759245","-20.99933","21.595541","7.25739","-16.764877","17.900381"
"era-165","8.8288145","-18.984192","19.40306","-10.784946","-21.048979","21.64879","7.268344","-16.785673","17.930363"
"era-166","8.848244","-19.019724","19.436506","-10.810544","-21.09834","21.701725","7.279163","-16.806408","17.960241"
"era-167","8.867508","-19.05505","19.469791","-10.836034","-21.147413","21.754341","7.2898436","-16.827065","17.99"
"era-168","8.886599","-19.09016","19.502913","-10.861431","-21.196205","21.806665","7.300383","-16.84766","18.019648"
"era-169","8.905522","-19.125069","19.535883","-10.8867445","-21.2447","21.85869","7.310779","-16.868181","18.049164"
"era-170","8.924284","-19.159779","19.568705","-10.911958","-21.292902","21.91042","7.3210406","-16.88863","18.078554"
"era-171","8.942892","-19.194298","19.601372","-10.937089","-21.340816","21.961863","7.3311615","-16.909004","18.107822"
"era-172","8.961344","-19.228622","19.633886","-10.962132","-21.388441","22.013025","7.3411436","-16.929314","18.136969"
"era-173","8.979649","-19.262764","19.666252","-10.98708","-21.435776","22.063906","7.350987","-16.949547","18.16598"
"era-174","8.997809","-19.296726","19.69847","-11.011942","-21.482817","22.1145","7.360688","-16.969694","18.194868"
"era-175","9.015831","-19.33051","19.730537","-11.036707","-21.529577","22.16482","7.37026","-16.989782","18.223639"
"era-176","9.033722","-19.364126","19.762457","-11.061379","-21.57605","22.214863","7.379699","-17.009787","18.252298"
"era-177","9.051477","-19.397566","19.794224","-11.085942","-21.622248","22.264618","7.389005","-17.02971","18.280857"
"era-178","9.0691","-19.430832","19.825848","-11.110404","-21.668179","22.314093","7.3981876","-17.049547","18.309313"
"era-179","9.086604","-19.46394","19.857323","-11.134749","-21.713835","22.363276","7.407247","-17.069304","18.337671"
"era-180","9.103982","-19.496881","19.888662","-11.158984","-21.759228","22.412178","7.4161887","-17.088968","18.365942"
"era-181","9.121237","-19.529657","19.919851","-11.1831","-21.804363","22.460793","7.4250126","-17.108543","18.394129"
"era-182","9.138383","-19.562279","19.950891","-11.2070875","-21.849241","22.509106","7.433725","-17.128038","18.422235"
"era-183","9.155415","-19.59474","19.981794","-11.230945","-21.893858","22.557123","7.4423304","-17.147423","18.450264"
"era-184","9.172347","-19.627064","20.012558","-11.254663","-21.938234","22.60483","7.4508266","-17.166712","18.478222"
"era-185","9.189172","-19.659237","20.04319","-11.278247","-21.982357","22.652235","7.4592175","-17.185888","18.506107"
"era-186","9.205894","-19.69126","20.07367","-11.301672","-22.026234","22.699316","7.4675155","-17.204979","18.533924"
"era-187","9.222513","-19.723124","20.104004","-11.324957","-22.069866","22.746094","7.47571","-17.223957","18.561663"
"era-188","9.239033","-19.754848","20.134209","-11.348085","-22.113258","22.792547","7.4838142","-17.24285","18.589355"
"era-189","9.255457","-19.786432","20.164276","-11.371052","-22.156406","22.838682","7.4918256","-17.261633","18.616968"
"era-190","9.271794","-19.817879","20.194204","-11.393866","-22.199303","22.884493","7.499745","-17.280306","18.644512"
"era-191","9.28804","-19.849184","20.223991","-11.416518","-22.241959","22.929977","7.5075774","-17.298882","18.671982"
"era-192","9.304196","-19.880358","20.253649","-11.439006","-22.284365","22.97514","7.5153265","-17.317354","18.699371"
"era-193","9.320271","-19.911398","20.283173","-11.461334","-22.326525","23.01998","7.5229855","-17.33572","18.726688"
"era-194","9.336251","-19.942297","20.312553","-11.483494","-22.36842","23.06449","7.530558","-17.353992","18.753906"
"era-195","9.352147","-19.973063","20.341803","-11.505486","-22.410078","23.108675","7.5380545","-17.37217","18.781042"
"era-196","9.367954","-20.003693","20.370924","-11.527317","-22.451477","23.15254","7.545466","-17.390244","18.808086"
"era-197","9.383684","-20.034203","20.399914","-11.548986","-22.49261","23.196093","7.552794","-17.40824","18.835032"
"era-198","9.399338","-20.064583","20.428766","-11.57049","-22.533482","23.239313","7.5600476","-17.426113","18.86187"
"era-199","9.414911","-20.094835","20.457487","-11.591838","-22.574068","23.282215","7.5672174","-17.443893","18.88861"
"era-200","9.430413","-20.124968","20.48608","-11.613025","-22.614386","23.324799","7.5743113","-17.461573","18.915243"
"era-201","9.445838","-20.15498","20.514544","-11.634056","-22.654434","23.36708","7.58133","-17.479168","18.941769"
"era-202","9.461185","-20.184866","20.542881","-11.654934","-22.694199","23.40905","7.5882773","-17.496672","18.968178"
"era-203","9.476465","-20.214642","20.571096","-11.675659","-22.733692","23.450718","7.5951424","-17.514086","18.994484"
"era-204","9.49167","-20.24429","20.59918","-11.696238","-22.772898","23.492079","7.6019435","-17.531397","19.020678"
"era-205","9.506801","-20.273829","20.627157","-11.716676","-22.811827","23.53316","7.6086683","-17.54863","19.046757"
"era-206","9.52187","-20.303255","20.655005","-11.736967","-22.850483","23.573948","7.615321","-17.565775","19.072718"
"era-207","9.536867","-20.332565","20.68273","-11.757119","-22.88887","23.614454","7.621905","-17.582834","19.098557"
"era-208","9.551801","-20.361769","20.71034","-11.777126","-22.926985","23.654676","7.628421","-17.59981","19.124289"
"era-209","9.5666685","-20.390854","20.737818","-11.797003","-22.964819","23.694622","7.6348734","-17.616693","19.149908"
"era-210","9.581472","-20.419834","20.765186","-11.816745","-23.00239","23.734291","7.6412616","-17.633482","19.175417"
"era-211","9.596214","-20.44871","20.792444","-11.836353","-23.0397","23.773699","7.6475863","-17.650192","19.200808"
"era-212","9.610893","-20.477472","20.819576","-11.855837","-23.07675","23.812845","7.65385","-17.666811","19.22607"
"era-213","9.625507","-20.506126","20.846598","-11.87518","-23.113554","23.851725","7.660058","-17.683365","19.25123"
"era-214","9.640059","-20.53467","20.873505","-11.8944025","-23.15011","23.890354","7.6662135","-17.699831","19.276274"
"era-215","9.6545515","-20.563112","20.900303","-11.913503","-23.186428","23.928738","7.672309","-17.716206","19.301199"
"era-216","9.668993","-20.591457","20.926983","-11.93247","-23.222515","23.966864","7.678352","-17.732498","19.326029"
"era-217","9.683379","-20.619701","20.953556","-11.951327","-23.25837","24.004755","7.684344","-17.748688","19.35075"
"era-218","9.697702","-20.647839","20.980024","-11.970064","-23.294003","24.042408","7.690288","-17.7648","19.375353"
"era-219","9.711973","-20.67588","21.0064","-11.988684","-23.329416","24.079828","7.6961865","-17.780834","19.39986"
"era-220","9.726183","-20.703815","21.032663","-12.007188","-23.364616","24.117016","7.7020364","-17.796785","19.424263"
"era-221","9.740337","-20.73165","21.058819","-12.025574","-23.399607","24.153969","7.707842","-17.812643","19.44855"
"era-222","9.754442","-20.759388","21.084873","-12.043851","-23.434387","24.190697","7.713608","-17.82841","19.472733"
"era-223","9.76849","-20.787027","21.110838","-12.062018","-23.468975","24.227213","7.7193317","-17.844107","19.496813"
"era-224","9.782489","-20.814573","21.136692","-12.080076","-23.503376","24.263515","7.7250075","-17.859718","19.520798"
"era-225","9.796433","-20.84202","21.162453","-12.098033","-23.537579","24.299604","7.730649","-17.875238","19.544672"
"era-226","9.81032","-20.869366","21.188108","-12.115878","-23.571587","24.335474","7.7362547","-17.890686","19.56844"
"era-227","9.824149","-20.896606","21.213673","-12.13363","-23.605412","24.371145","7.741821","-17.906027","19.592098"
"era-228","9.837935","-20.923761","21.23914","-12.151276","-23.639065","24.40661","7.7473493","-17.921291","19.615639"
"era-229","9.851669","-20.95082","21.264511","-12.168827","-23.672531","24.441877","7.752843","-17.936466","19.63909"
"era-230","9.865354","-20.977789","21.289795","-12.186284","-23.705828","24.476955","7.7583","-17.95158","19.662432"
"era-231","9.878991","-21.004671","21.314991","-12.203648","-23.738958","24.511845","7.7637224","-17.966589","19.685673"
"era-232","9.892572","-21.031452","21.340097","-12.220922","-23.77191","24.54654","7.7691116","-17.981514","19.708809"
"era-233","9.906107","-21.05814","21.365097","-12.238105","-23.804697","24.581045","7.774469","-17.99637","19.731842"
"era-234","9.919587","-21.084738","21.39002","-12.255201","-23.837324","24.615376","7.779797","-18.011133","19.75476"
"era-235","9.9330225","-21.111248","21.41486","-12.272208","-23.869785","24.649515","7.785087","-18.025814","19.77758"
"era-236","9.946406","-21.137663","21.439615","-12.289136","-23.902084","24.683485","7.790352","-18.040415","19.80029"
"era-237","9.959742","-21.163988","21.464283","-12.305982","-23.934223","24.717278","7.79558","-18.054935","19.822897"
"era-238","9.973033","-21.190231","21.488865","-12.322746","-23.96621","24.7509","7.800779","-18.069365","19.8454"
"era-239","9.986276","-21.216389","21.51337","-12.339433","-23.99805","24.784351","7.8059464","-18.083721","19.867805"
"era-240","9.999474","-21.242458","21.53779","-12.356038","-24.029736","24.817635","7.8110824","-18.098003","19.890095"
"era-241","10.012618","-21.268435","21.56213","-12.372572","-24.061272","24.850754","7.8161893","-18.112198","19.91228"
"era-242","10.02572","-21.294333","21.586393","-12.389028","-24.09266","24.883705","7.8212657","-18.12631","19.934355"
"era-243","10.038781","-21.320148","21.610573","-12.405416","-24.123896","24.916502","7.8263144","-18.140347","19.956327"
"era-244","10.051786","-21.345871","21.634676","-12.42173","-24.154987","24.94914","7.8313317","-18.154299","19.978193"
"era-245","10.064748","-21.371508","21.658697","-12.437972","-24.185946","24.981615","7.836322","-18.16819","19.999952"
"era-246","10.077662","-21.397064","21.68265","-12.454148","-24.216753","25.013939","7.8412833","-18.182","20.021606"
"era-247","10.090532","-21.42254","21.706522","-12.470257","-24.247423","25.046112","7.846214","-18.19573","20.043156"
"era-248","10.103357","-21.447931","21.730318","-12.486303","-24.27796","25.078135","7.851114","-18.209387","20.064594"
"era-249","10.11614","-21.473246","21.754036","-12.502283","-24.30837","25.110012","7.855983","-18.222977","20.085926"
"era-250","10.128872","-21.498474","21.777685","-12.518199","-24.338638","25.141743","7.8608227","-18.236496","20.10715"
"era-251","10.141564","-21.523626","21.801266","-12.534057","-24.368774","25.17333","7.8656263","-18.249928","20.128263"
"era-252","10.154215","-21.548704","21.824768","-12.549854","-24.398787","25.204771","7.8704004","-18.263279","20.149275"
"era-253","10.166821","-21.573698","21.84821","-12.565588","-24.42866","25.23607","7.8751493","-18.276566","20.17017"
"era-254","10.179383","-21.598623","21.871588","-12.581267","-24.45841","25.267237","7.8798685","-18.289791","20.190956"
"era-255","10.191898","-21.623463","21.894894","-12.596888","-24.488039","25.298264","7.8845572","-18.302948","20.211636"
"era-256","10.204371","-21.648224","21.918121","-12.612452","-24.517551","25.329157","7.889215","-18.316042","20.232212"
"era-257","10.216801","-21.672915","21.941288","-12.627961","-24.546925","25.359905","7.893843","-18.32906","20.25268"
"era-258","10.22919","-21.697525","21.964382","-12.6434145","-24.576181","25.390528","7.898443","-18.342018","20.273037"
"era-259","10.24153","-21.722061","21.987417","-12.658817","-24.605312","25.421015","7.9030128","-18.354908","20.293283"
"era-260","10.253833","-21.746523","22.01039","-12.674164","-24.634325","25.451368","7.907551","-18.367722","20.313425"
"era-261","10.266092","-21.77091","22.03329","-12.689461","-24.663221","25.481592","7.9120617","-18.38048","20.333458"
"era-262","10.278314","-21.795229","22.056128","-12.704704","-24.692003","25.511679","7.9165387","-18.393166","20.353388"
"era-263","10.290491","-21.819475","22.078907","-12.719897","-24.720663","25.541643","7.9209895","-18.405792","20.373207"
"era-264","10.302625","-21.843645","22.101622","-12.735046","-24.749216","25.571474","7.9254065","-18.418356","20.39292"
"era-265","10.31472","-21.867743","22.124266","-12.750142","-24.777649","25.601185","7.929795","-18.430859","20.412525"
"era-266","10.326775","-21.891771","22.146858","-12.765196","-24.805964","25.630772","7.934153","-18.443287","20.432016"
"era-267","10.338785","-21.915728","22.169392","-12.780194","-24.834187","25.660227","7.9384775","-18.455656","20.451397"
"era-268","10.3507595","-21.939615","22.191856","-12.795155","-24.86229","25.689566","7.9427667","-18.467966","20.47067"
"era-269","10.362687","-21.96343","22.214268","-12.810071","-24.89028","25.718782","7.9470286","-18.480207","20.489832"
"era-270","10.374577","-21.987171","22.236618","-12.824938","-24.918169","25.747873","7.951261","-18.492388","20.508875"
"era-271","10.386424","-22.010849","22.258919","-12.839759","-24.94595","25.776844","7.955465","-18.50451","20.527811"
"era-272","10.398239","-22.034462","22.281157","-12.854541","-24.973633","25.805702","7.959641","-18.516579","20.546625"
"era-273","10.410008","-22.058004","22.303337","-12.869276","-25.001213","25.83444","7.963784","-18.528595","20.565334"
"era-274","10.421745","-22.08149","22.325466","-12.883974","-25.02868","25.863062","7.9678936","-18.540543","20.58393"
"era-275","10.433442","-22.104898","22.347536","-12.898626","-25.05605","25.891567","7.971976","-18.552433","20.602415"
"era-276","10.445096","-22.128242","22.369545","-12.913245","-25.083319","25.919952","7.9760237","-18.564257","20.620787"
"era-277","10.4567175","-22.151524","22.391504","-12.927811","-25.110493","25.948221","7.980044","-18.576033","20.639051"
"era-278","10.468291","-22.174732","22.413414","-12.942346","-25.137558","25.976381","7.984033","-18.587742","20.657192"
"era-279","10.479835","-22.197884","22.435266","-12.956838","-25.164534","26.004427","7.987993","-18.59941","20.675222"
"era-280","10.491343","-22.220974","22.457075","-12.971285","-25.191402","26.032358","7.991925","-18.611015","20.69314"
"era-281","10.502807","-22.243998","22.478827","-12.985701","-25.21818","26.060173","7.9958224","-18.622566","20.710945"
"era-282","10.514235","-22.266953","22.500525","-13.0000725","-25.244862","26.087875","7.9996924","-18.634073","20.728632"
"era-283","10.525622","-22.289843","22.522173","-13.014402","-25.271456","26.115467","8.003535","-18.645517","20.746208"
"era-284","10.536973","-22.312677","22.54378","-13.028699","-25.297945","26.142956","8.007343","-18.656916","20.763666"
"era-285","10.548294","-22.335457","22.565332","-13.042957","-25.32435","26.170328","8.011126","-18.668257","20.781006"
"era-286","10.559574","-22.358166","22.586828","-13.057171","-25.350649","26.19759","8.014877","-18.679548","20.798239"
"era-287","10.570816","-22.380814","22.60828","-13.071358","-25.37687","26.224741","8.018599","-18.690783","20.81536"
"era-288","10.582028","-22.40341","22.62969","-13.085506","-25.402996","26.251797","8.022286","-18.701956","20.832365"
"era-289","10.593201","-22.425932","22.651037","-13.099619","-25.429037","26.278738","8.025948","-18.713076","20.84926"
"era-290","10.604335","-22.448397","22.67234","-13.113698","-25.454985","26.305588","8.029582","-18.724152","20.866043"
"era-291","10.615439","-22.470802","22.693594","-13.127733","-25.480844","26.332333","8.033189","-18.73518","20.88271"
"era-292","10.626498","-22.493147","22.714811","-13.141744","-25.506628","26.358953","8.036764","-18.746153","20.899267"
"era-293","10.637533","-22.515434","22.735971","-13.155712","-25.532318","26.385492","8.040311","-18.75708","20.91571"
"era-294","10.64853","-22.537666","22.757095","-13.169641","-25.557917","26.411928","8.043836","-18.767967","20.932043"
"era-295","10.659489","-22.55984","22.778175","-13.183546","-25.583445","26.438248","8.047322","-18.778795","20.94826"
"era-296","10.670418","-22.581957","22.7992","-13.197412","-25.608889","26.464485","8.050784","-18.789574","20.964365"
"era-297","10.681308","-22.604008","22.82019","-13.211252","-25.634256","26.490625","8.054218","-18.800297","20.980354"
"era-298","10.692165","-22.626007","22.841127","-13.225046","-25.659534","26.51667","8.057631","-18.810984","20.996237"
"era-299","10.702984","-22.647938","22.862026","-13.2388115","-25.684725","26.542616","8.061009","-18.8216","21.012005"
"era-300","10.713774","-22.66982","22.882881","-13.252552","-25.709852","26.568459","8.064365","-18.832174","21.027668"
"era-301","10.724531","-22.691648","22.903688","-13.266252","-25.734894","26.59422","8.067695","-18.842712","21.043217"
"era-302","10.735254","-22.713419","22.92446","-13.27991","-25.759851","26.619884","8.071","-18.853195","21.058659"
"era-303","10.745944","-22.735128","22.945175","-13.293547","-25.784739","26.645443","8.074277","-18.863634","21.07399"
"era-304","10.756597","-22.75678","22.965853","-13.307154","-25.809547","26.67091","8.077532","-18.87402","21.089222"
"era-305","10.767223","-22.778383","22.986492","-13.320727","-25.834284","26.696299","8.080759","-18.884363","21.10434"
"era-306","10.777814","-22.799927","23.007088","-13.33426","-25.858952","26.721601","8.083965","-18.894655","21.119356"
"era-307","10.788374","-22.821419","23.027641","-13.347767","-25.883541","26.746817","8.087141","-18.904898","21.134262"
"era-308","10.798906","-22.842854","23.048143","-13.361241","-25.908054","26.771946","8.090293","-18.915092","21.149067"
"era-309","10.8094","-22.864233","23.068605","-13.374684","-25.932499","26.796978","8.093419","-18.92525","21.163763"
"era-310","10.8198595","-22.885551","23.089035","-13.38809","-25.95687","26.821926","8.096526","-18.93535","21.178356"
"era-311","10.830295","-22.906822","23.109417","-13.4014635","-25.981167","26.846802","8.099608","-18.945402","21.192846"
"era-312","10.840693","-22.92804","23.129772","-13.414809","-26.005398","26.871593","8.102668","-18.955408","21.207228"
"era-313","10.851059","-22.9492","23.150078","-13.428129","-26.02956","26.8963","8.105706","-18.96537","21.221506"
"era-314","10.861397","-22.970308","23.170341","-13.441416","-26.05366","26.920921","8.108722","-18.975288","21.235685"
"era-315","10.871708","-22.991364","23.190565","-13.454674","-26.077684","26.945463","8.111714","-18.985155","21.249763"
"era-316","10.881989","-23.01237","23.210749","-13.46789","-26.101637","26.969936","8.114687","-18.99497","21.263744"
"era-317","10.89224","-23.033321","23.230896","-13.481082","-26.125528","26.994335","8.117642","-19.004745","21.277632"
"era-318","10.902458","-23.054222","23.251003","-13.494246","-26.149359","27.018658","8.120569","-19.014486","21.291422"
"era-319","10.912649","-23.07507","23.271067","-13.507376","-26.17312","27.04291","8.123476","-19.024174","21.305117"
"era-320","10.92281","-23.095865","23.291092","-13.520468","-26.19682","27.067085","8.126362","-19.033827","21.318718"
"era-321","10.932945","-23.116617","23.311085","-13.533542","-26.220444","27.091175","8.129226","-19.043434","21.332222"
"era-322","10.943047","-23.137314","23.331036","-13.546579","-26.24402","27.115204","8.132075","-19.052994","21.345642"
"era-323","10.953127","-23.157965","23.350945","-13.55958","-26.267523","27.139166","8.134903","-19.062506","21.358976"
"era-324","10.963178","-23.178562","23.370817","-13.572556","-26.29097","27.163052","8.137707","-19.071978","21.37222"
"era-325","10.973192","-23.199108","23.39066","-13.585507","-26.31435","27.186872","8.140489","-19.081394","21.385372"
"era-326","10.983185","-23.219603","23.410456","-13.598424","-26.33767","27.21063","8.143247","-19.090763","21.398438"
"era-327","10.993153","-23.240059","23.430222","-13.611316","-26.360928","27.234324","8.145994","-19.100094","21.411419"
"era-328","11.003089","-23.260458","23.449945","-13.624167","-26.384127","27.257954","8.148717","-19.109377","21.424316"
"era-329","11.012997","-23.280804","23.46963","-13.637002","-26.407267","27.281507","8.15142","-19.118624","21.437134"
"era-330","11.022875","-23.3011","23.489273","-13.649793","-26.430342","27.30501","8.154108","-19.127829","21.449865"
"era-331","11.032732","-23.321354","23.508884","-13.662551","-26.45335","27.328453","8.156778","-19.13699","21.462513"
"era-332","11.042559","-23.341562","23.52846","-13.675297","-26.476318","27.351822","8.159429","-19.146112","21.475088"
"era-333","11.052368","-23.361725","23.548","-13.688003","-26.499214","27.375143","8.162057","-19.155178","21.487587"
"era-334","11.062143","-23.381836","23.567503","-13.700691","-26.522053","27.398409","8.164663","-19.164196","21.500015"
"era-335","11.071898","-23.401909","23.58697","-13.71334","-26.544834","27.42162","8.167261","-19.173174","21.512365"
"era-336","11.081627","-23.421926","23.606394","-13.72596","-26.567554","27.444769","8.169839","-19.182112","21.524637"
"era-337","11.091327","-23.4419","23.62579","-13.738563","-26.59021","27.467861","8.172396","-19.191","21.536842"
"era-338","11.101007","-23.46183","23.645151","-13.751124","-26.612808","27.4909","8.17494","-19.199842","21.548992"
"era-339","11.110659","-23.481712","23.664474","-13.763665","-26.63535","27.513885","8.177465","-19.20864","21.561066"
"era-340","11.120285","-23.501545","23.683762","-13.776177","-26.657827","27.536823","8.179974","-19.217398","21.573069"
"era-341","11.129886","-23.521334","23.70301","-13.788658","-26.680243","27.559723","8.182463","-19.22611","21.585003"
"era-342","11.139464","-23.541079","23.722225","-13.801119","-26.702604","27.582563","8.184934","-19.234777","21.596888"
"era-343","11.149017","-23.560776","23.7414","-13.813546","-26.7249","27.605362","8.1873865","-19.243402","21.608707"
"era-344","11.158548","-23.580439","23.760555","-13.82595","-26.747135","27.628107","8.18982","-19.251986","21.620474"
"era-345","11.168062","-23.60006","23.779667","-13.838325","-26.769302","27.650812","8.192237","-19.260523","21.632183"
"era-346","11.177547","-23.619629","23.798733","-13.850662","-26.791405","27.673489","8.194642","-19.26902","21.643845"
"era-347","11.187007","-23.639153","23.817778","-13.862995","-26.813444","27.6961","8.197024","-19.277473","21.655447"
"era-348","11.196441","-23.65863","23.836784","-13.875282","-26.835419","27.718693","8.199394","-19.285875","21.667007"
"era-349","11.205857","-23.678076","23.855751","-13.887557","-26.85732","27.741232","8.201746","-19.294256","21.678526"
"era-350","11.215257","-23.697477","23.874697","-13.899805","-26.87915","27.763744","8.204084","-19.302578","21.69"
"era-351","11.224627","-23.716833","23.893604","-13.91202","-26.900904","27.786232","8.206405","-19.310856","21.70143"
"era-352","11.233977","-23.736149","23.912472","-13.924223","-26.922575","27.808683","8.208706","-19.319098","21.712833"
"era-353","11.243311","-23.755428","23.931314","-13.9364","-26.944168","27.831099","8.210991","-19.32729","21.724209"
"era-354","11.252623","-23.774664","23.950123","-13.948557","-26.965673","27.853493","8.213264","-19.335438","21.735554"
"era-355","11.26191","-23.793861","23.968904","-13.960694","-26.987087","27.875866","8.215526","-19.343546","21.746883"
"era-356","11.271183","-23.813019","23.987646","-13.9728","-27.00839","27.898232","8.2177725","-19.351604","21.758183"
"era-357","11.28043","-23.832125","24.00635","-13.984894","-27.029581","27.920584","8.220014","-19.359621","21.769474"
"era-358","11.289662","-23.851194","24.02502","-13.996971","-27.05064","27.942934","8.222239","-19.367596","21.780766"
"era-359","11.298871","-23.87022","24.04367","-14.009024","-27.07157","27.965292","8.224456","-19.375519","21.79206"
"era-360","11.308058","-23.889206","24.062283","-14.021078","-27.092333","27.98767","8.226658","-19.383398","21.80337"
"era-361","11.317225","-23.908146","24.08086","-14.033123","-27.112915","28.010092","8.228852","-19.39123","21.814697"
"era-362","11.326376","-23.927048","24.099415","-14.04515","-27.133268","28.032581","8.231042","-19.399023","21.826065"
"era-363","11.335509","-23.945902","24.11794","-14.057177","-27.153345","28.055176","8.233228","-19.406754","21.837486"
"era-364","11.344626","-23.964714","24.136436","-14.069202","-27.173067","28.07792","8.23541","-19.414427","21.84899"
"era-365","11.353724","-23.983484","24.154913","-14.081243","-27.192331","28.100904","8.237594","-19.42205","21.8606"
"era-366","11.362801","-24.002193","24.173374","-14.09329","-27.210928","28.124275","8.239786","-19.429611","21.872358"
"era-367","11.371853","-24.020844","24.191828","-14.105374","-27.228579","28.148252","8.241996","-19.437105","21.884317"
"era-368","11.380887","-24.039425","24.210297","-14.117506","-27.244743","28.173296","8.244241","-19.44451","21.896564"
"era-369","11.389899","-24.057901","24.228802","-14.129644","-27.25833","28.200308","8.246556","-19.451805","21.909237"
"era-370","11.398883","-24.07621","24.24742","-14.141715","-27.267183","28.231178","8.249006","-19.458937","21.92258"
"era-371","11.407882","-24.094189","24.266308","-14.152949","-27.266768","28.270231","8.251825","-19.465683","21.937056"
"era-372","11.417127","-24.111452","24.28574","-14.160955","-27.250906","28.324303","8.255431","-19.471653","21.953375"
"era-373","11.426636","-24.128046","24.305624","-14.169193","-27.229647","28.382975","8.259014","-19.477713","21.971155"
"era-374","11.435328","-24.14502","24.325344","-14.18288","-27.23095","28.419252","8.261957","-19.484686","21.989445"
"era-375","11.443665","-24.162468","24.344528","-14.196142","-27.245804","28.444271","8.265174","-19.491512","22.00815"
"era-376","11.452158","-24.180185","24.363226","-14.208843","-27.26354","28.467031","8.268405","-19.498253","22.026867"
"era-377","11.460821","-24.198061","24.381567","-14.221298","-27.282055","28.489119","8.271563","-19.504984","22.045477"
"era-378","11.469601","-24.216019","24.399675","-14.233625","-27.300774","28.51093","8.2746315","-19.51173","22.063951"
"era-379","11.478443","-24.234026","24.41762","-14.245873","-27.319544","28.532562","8.277606","-19.51848","22.082283"
"era-380","11.48732","-24.25205","24.43545","-14.258047","-27.338287","28.554089","8.280506","-19.52524","22.100473"
"era-381","11.496209","-24.270077","24.453217","-14.2701435","-27.356995","28.5755","8.2833395","-19.532001","22.118507"
"era-382","11.505103","-24.288101","24.470905","-14.282178","-27.375679","28.596783","8.286097","-19.538767","22.136385"
"era-383","11.513991","-24.306116","24.488554","-14.294146","-27.394304","28.617962","8.28879","-19.54553","22.154112"
"era-384","11.522871","-24.324123","24.506151","-14.306039","-27.412886","28.639027","8.291421","-19.552303","22.171684"
"era-385","11.531733","-24.342112","24.523718","-14.317876","-27.431417","28.659977","8.293988","-19.559067","22.189112"
"era-386","11.540577","-24.360073","24.54125","-14.329653","-27.44989","28.680809","8.296499","-19.565832","22.206388"
"era-387","11.549409","-24.378021","24.558746","-14.34136","-27.4683","28.70153","8.298948","-19.572584","22.223509"
"era-388","11.558217","-24.39594","24.57622","-14.353008","-27.486652","28.722143","8.301346","-19.57933","22.24048"
"era-389","11.567008","-24.413843","24.593666","-14.3645935","-27.504938","28.742645","8.303692","-19.58607","22.257296"
"era-390","11.575786","-24.431726","24.61108","-14.376116","-27.523165","28.763039","8.305988","-19.592793","22.27397"
"era-391","11.584542","-24.449589","24.628477","-14.387593","-27.541325","28.783316","8.3082285","-19.599508","22.290485"
"era-392","11.593285","-24.467432","24.645855","-14.3989935","-27.559395","28.803507","8.310414","-19.606209","22.306854"
"era-393","11.602009","-24.48525","24.663197","-14.410338","-27.577415","28.823578","8.312555","-19.612902","22.323078"
"era-394","11.610715","-24.50305","24.68052","-14.421635","-27.59537","28.84355","8.314646","-19.619581","22.339155"
"era-395","11.61941","-24.520828","24.697807","-14.432868","-27.613241","28.86343","8.316694","-19.626245","22.355097"
"era-396","11.628085","-24.538578","24.71508","-14.444032","-27.631046","28.883202","8.318699","-19.632893","22.370905"
"era-397","11.636742","-24.556316","24.732325","-14.455168","-27.648788","28.90286","8.320652","-19.639523","22.386566"
"era-398","11.645385","-24.574022","24.749548","-14.466228","-27.666428","28.922457","8.322561","-19.646147","22.402084"
"era-399","11.654017","-24.591713","24.76674","-14.477243","-27.68402","28.941944","8.324431","-19.652742","22.417479"
"era-400","11.662635","-24.609383","24.783913","-14.488203","-27.701527","28.961353","8.326264","-19.659317","22.432735"
"era-401","11.671234","-24.627026","24.801054","-14.499116","-27.71897","28.980661","8.328047","-19.665867","22.44786"
"era-402","11.67982","-24.644648","24.818186","-14.509968","-27.736336","28.999897","8.329791","-19.6724","22.462862"
"era-403","11.6883955","-24.662245","24.835278","-14.520787","-27.753643","29.01904","8.331499","-19.67891","22.477741"
"era-404","11.696963","-24.67983","24.852352","-14.531535","-27.770857","29.038124","8.333177","-19.685402","22.492496"
"era-405","11.705512","-24.697392","24.869402","-14.542254","-27.788027","29.057102","8.334809","-19.69188","22.507133"
"era-406","11.714055","-24.71493","24.886421","-14.552913","-27.805107","29.076038","8.336412","-19.698324","22.521664"
"era-407","11.722582","-24.732443","24.903416","-14.563524","-27.822134","29.094885","8.337978","-19.704744","22.536081"
"era-408","11.731098","-24.749937","24.920383","-14.5741005","-27.839098","29.113646","8.339511","-19.711155","22.550385"
"era-409","11.7396","-24.767406","24.93733","-14.58461","-27.855972","29.132368","8.341015","-19.717537","22.56458"
"era-410","11.7480955","-24.784857","24.954254","-14.595101","-27.87282","29.150988","8.342478","-19.723892","22.578665"
"era-411","11.75657","-24.80228","24.971153","-14.605537","-27.889566","29.169579","8.343912","-19.730217","22.592644"
"era-412","11.765044","-24.819689","24.988026","-14.615921","-27.906265","29.1881","8.345321","-19.73652","22.606535"
"era-413","11.773505","-24.837076","25.00487","-14.626288","-27.922918","29.206535","8.346696","-19.742798","22.620317"
"era-414","11.781965","-24.85444","25.021688","-14.636582","-27.93947","29.22496","8.348046","-19.749054","22.634007"
"era-415","11.79041","-24.871784","25.038479","-14.646851","-27.95599","29.243296","8.349366","-19.75529","22.647594"
"era-416","11.79884","-24.889107","25.055248","-14.6570835","-27.972445","29.26159","8.350655","-19.761509","22.661095"
"era-417","11.807264","-24.906404","25.071991","-14.667274","-27.988838","29.27984","8.351915","-19.7677","22.6745"
"era-418","11.815682","-24.923676","25.088703","-14.677399","-28.005169","29.298054","8.353149","-19.773851","22.687815"
"era-419","11.824082","-24.940931","25.105394","-14.687521","-28.021475","29.316187","8.354351","-19.77999","22.701044"
"era-420","11.83248","-24.958166","25.122059","-14.697587","-28.037695","29.334307","8.35553","-19.786108","22.714191"
"era-421","11.840862","-24.975372","25.138704","-14.707615","-28.053871","29.352377","8.356688","-19.792175","22.727257"
"era-422","11.849243","-24.992563","25.155317","-14.717624","-28.070005","29.370392","8.35781","-19.798231","22.740248"
"era-423","11.857613","-25.009735","25.171919","-14.727577","-28.086077","29.388395","8.358911","-19.804266","22.753159"
"era-424","11.865975","-25.026882","25.18848","-14.73751","-28.1021","29.406342","8.359988","-19.810274","22.76599"
"era-425","11.874333","-25.044012","25.205027","-14.747375","-28.118055","29.424284","8.361042","-19.816254","22.778748"
"era-426","11.882675","-25.061115","25.221537","-14.757228","-28.133997","29.442158","8.362069","-19.822214","22.791435"
"era-427","11.891007","-25.07819","25.23802","-14.767059","-28.14988","29.460005","8.363073","-19.828154","22.804047"
"era-428","11.89934","-25.095247","25.254482","-14.776831","-28.16569","29.477848","8.364059","-19.834064","22.816591"
"era-429","11.907661","-25.112284","25.270918","-14.786581","-28.181479","29.495638","8.365025","-19.83996","22.829067"
"era-430","11.915972","-25.1293","25.28733","-14.796291","-28.197212","29.513412","8.365959","-19.845823","22.841476"
"era-431","11.92428","-25.146294","25.30371","-14.80597","-28.212912","29.531164","8.366873","-19.85167","22.853825"
"era-432","11.932574","-25.163261","25.32007","-14.815633","-28.228579","29.548878","8.367755","-19.857487","22.866114"
"era-433","11.940858","-25.180208","25.336409","-14.82523","-28.244175","29.566612","8.368626","-19.863287","22.87834"
"era-434","11.949138","-25.19714","25.35272","-14.834849","-28.259779","29.584263","8.369466","-19.869068","22.890503"
"era-435","11.957408","-25.21404","25.369013","-14.844392","-28.275288","29.601957","8.370289","-19.87482","22.902615"
"era-436","11.965673","-25.230927","25.385273","-14.853909","-28.290789","29.619608","8.371087","-19.880547","22.91467"
"era-437","11.973926","-25.247787","25.401508","-14.863414","-28.306267","29.637224","8.371861","-19.88626","22.92667"
"era-438","11.982175","-25.26463","25.417723","-14.872888","-28.321693","29.654839","8.372615","-19.891956","22.938623"
"era-439","11.990414","-25.281448","25.433912","-14.882326","-28.337076","29.672453","8.37335","-19.897617","22.95053"
"era-440","11.998651","-25.298244","25.450068","-14.891758","-28.352455","29.690025","8.374064","-19.903273","22.962387"
"era-441","12.006872","-25.315022","25.46621","-14.901139","-28.367775","29.707619","8.374765","-19.908913","22.9742"
"era-442","12.015089","-25.331778","25.482317","-14.91052","-28.383093","29.725168","8.375443","-19.914532","22.985968"
"era-443","12.023297","-25.348509","25.498407","-14.919855","-28.398355","29.742743","8.376101","-19.920122","22.997702"
"era-444","12.031497","-25.365221","25.514471","-14.929199","-28.413624","29.760275","8.376734","-19.925703","23.00939"
"era-445","12.039688","-25.381903","25.53051","-14.93849","-28.428835","29.777836","8.377355","-19.931265","23.021046"
"era-446","12.04787","-25.398571","25.546528","-14.947785","-28.444048","29.795359","8.377949","-19.93682","23.032667"
"era-447","12.056052","-25.415224","25.56252","-14.957037","-28.45922","29.812902","8.3785305","-19.94234","23.04426"
"era-448","12.064216","-25.431854","25.57849","-14.966306","-28.474401","29.830406","8.379086","-19.947855","23.055822"
"era-449","12.072382","-25.448462","25.594435","-14.975539","-28.489536","29.847939","8.3796215","-19.95334","23.067352"
"era-450","12.080528","-25.465046","25.61036","-14.9847555","-28.504671","29.865461","8.380137","-19.95881","23.07886"
"era-451","12.0886755","-25.481615","25.626259","-14.993981","-28.519802","29.882963","8.380631","-19.96427","23.090342"
"era-452","12.09681","-25.498158","25.642132","-15.003169","-28.534903","29.900497","8.381114","-19.969717","23.101807"
"era-453","12.104936","-25.514683","25.657988","-15.012376","-28.55002","29.917997","8.381577","-19.975145","23.113255"
"era-454","12.113054","-25.531183","25.673811","-15.021557","-28.565107","29.935526","8.382021","-19.980556","23.124683"
"era-455","12.121165","-25.547668","25.689623","-15.030742","-28.580202","29.953045","8.382453","-19.985954","23.13611"
"era-456","12.129266","-25.564129","25.705404","-15.039907","-28.595291","29.970581","8.382872","-19.991331","23.147516"
"era-457","12.137356","-25.580576","25.721163","-15.049123","-28.610405","29.988068","8.383267","-19.996702","23.158924"
"era-458","12.145447","-25.596996","25.7369","-15.05827","-28.62548","30.00565","8.383653","-20.002045","23.170336"
"era-459","12.153519","-25.613401","25.752615","-15.067502","-28.640633","30.023123","8.384008","-20.007383","23.181751"
"era-460","12.161586","-25.629786","25.768305","-15.0766735","-28.655724","30.040709","8.384362","-20.012701","23.193174"
"era-461","12.169641","-25.646154","25.783974","-15.085926","-28.6709","30.058191","8.384686","-20.018015","23.204609"
"era-462","12.177692","-25.662502","25.799623","-15.09514","-28.68604","30.075766","8.385005","-20.02331","23.216057"
"era-463","12.185727","-25.678831","25.815252","-15.104413","-28.701254","30.093287","8.385304","-20.028587","23.227522"
"era-464","12.193756","-25.695143","25.830854","-15.113706","-28.716484","30.110817","8.385588","-20.03385","23.239004"
"era-465","12.201777","-25.711441","25.846426","-15.123039","-28.731762","30.128336","8.3858595","-20.039095","23.250511"
"era-466","12.209792","-25.727726","25.861973","-15.132422","-28.747097","30.145832","8.386111","-20.044333","23.262043"
"era-467","12.217806","-25.743996","25.877499","-15.141818","-28.762491","30.163328","8.386354","-20.049543","23.273605"
"era-468","12.225799","-25.760248","25.893002","-15.1513195","-28.777994","30.180729","8.386583","-20.054749","23.28519"
"era-469","12.233788","-25.77649","25.90847","-15.160887","-28.793575","30.1981","8.386793","-20.059942","23.296816"
"era-470","12.241769","-25.79272","25.923903","-15.170527","-28.809273","30.215399","8.386984","-20.065132","23.308466"
"era-471","12.249744","-25.808939","25.939306","-15.180263","-28.825134","30.232563","8.387156","-20.07031","23.320154"
"era-472","12.25772","-25.825153","25.954668","-15.190105","-28.841185","30.249573","8.387304","-20.075466","23.331861"
"era-473","12.265695","-25.841373","25.969992","-15.200087","-28.857475","30.266373","8.387426","-20.080618","23.343582"
"era-474","12.273669","-25.857586","25.985264","-15.210197","-28.874025","30.282904","8.387525","-20.085766","23.35531"
"era-475","12.281649","-25.873804","26.00049","-15.220487","-28.890903","30.29908","8.387587","-20.090914","23.367022"
"era-476","12.289634","-25.890034","26.01565","-15.230937","-28.90814","30.314863","8.38762","-20.096062","23.378696"
"era-477","12.297627","-25.906277","26.030743","-15.241596","-28.92575","30.330175","8.38761","-20.101204","23.390305"
"era-478","12.305638","-25.922531","26.045773","-15.252396","-28.943743","30.345034","8.387568","-20.10635","23.401825"
"era-479","12.313659","-25.938787","26.060738","-15.263396","-28.96204","30.359442","8.387487","-20.111492","23.413223"
"era-480","12.32168","-25.955046","26.075647","-15.274538","-28.980568","30.373474","8.387366","-20.11663","23.424477"
"era-481","12.329699","-25.971294","26.090515","-15.285768","-28.999191","30.387255","8.387222","-20.121752","23.435566"
"era-482","12.337719","-25.987543","26.105341","-15.297104","-29.017923","30.40077","8.387047","-20.126871","23.446486"
"era-483","12.345738","-26.003769","26.12013","-15.30837","-29.036524","30.414314","8.386867","-20.131968","23.457237"
"era-484","12.353758","-26.01997","26.134909","-15.319546","-29.055","30.427902","8.386682","-20.137018","23.46784"
"era-485","12.361768","-26.036154","26.149668","-15.330672","-29.07332","30.441545","8.386497","-20.14205","23.478283"
"era-486","12.369775","-26.052303","26.164413","-15.341657","-29.09149","30.455297","8.386317","-20.147026","23.488577"
"era-487","12.377771","-26.06842","26.179142","-15.352518","-29.10945","30.469208","8.386146","-20.151972","23.498737"
"era-488","12.3857565","-26.084513","26.19386","-15.36334","-29.12741","30.483055","8.385965","-20.156895","23.508766"
"era-489","12.393747","-26.10058","26.208574","-15.373899","-29.144949","30.497328","8.385805","-20.161753","23.518679"
"era-490","12.401728","-26.116629","26.22326","-15.384642","-29.162846","30.51112","8.385608","-20.166636","23.528452"
"era-491","12.40971","-26.132637","26.237951","-15.394879","-29.179947","30.52581","8.385476","-20.171406","23.538157"
"era-492","12.417679","-26.148645","26.252598","-15.405675","-29.198015","30.539295","8.385239","-20.176264","23.547688"
"era-493","12.425654","-26.164585","26.267267","-15.415318","-29.21428","30.554916","8.385186","-20.180899","23.55721"
"era-494","12.43361","-26.180563","26.28185","-15.426645","-29.233309","30.567163","8.384833","-20.185812","23.566479"
"era-495","12.441584","-26.196407","26.296535","-15.434847","-29.247265","30.585472","8.385","-20.190174","23.575932"
"era-496","12.449515","-26.212437","26.310987","-15.448606","-29.270393","30.592737","8.3842","-20.195486","23.584759"
"era-497","12.457493","-26.228075","26.325832","-15.451988","-29.276217","30.620674","8.385167","-20.199","23.594467"
"era-498","12.465486","-26.244383","26.33983","-15.475244","-29.316225","30.608038","8.382636","-20.20599","23.602106"
"era-499","12.473403","-26.259535","26.355171","-15.464478","-29.295527","30.6666","8.385923","-20.207129","23.612614"
"era-500","12.482498","-26.27611","26.36803","-15.505991","-29.385485","30.600979","8.379657","-20.217686","23.617697"
"era-501","12.488838","-26.29209","26.383299","-15.492711","-29.347471","30.673733","8.383551","-20.218388","23.62601"
"era-502","12.497326","-26.307621","26.397696","-15.507104","-29.372581","30.678667","8.382443","-20.223755","23.634253"
"era-503","12.505128","-26.322939","26.412735","-15.506931","-29.371302","30.714546","8.384027","-20.22655","23.643866"
"era-504","12.513649","-26.339155","26.426208","-15.537072","-29.432007","30.680046","8.37999","-20.234856","23.650059"
"era-505","12.520902","-26.354328","26.441662","-15.520819","-29.394638","30.75483","8.384191","-20.235058","23.659544"
"era-506","12.53057","-26.37043","26.454432","-15.559605","-29.489683","30.686068","8.378145","-20.245197","23.664047"
"era-507","12.535998","-26.38669","26.469667","-15.551075","-29.452063","30.755522","8.381459","-20.246544","23.671322"
"era-508","12.544665","-26.401535","26.484478","-15.554024","-29.455399","30.78555","8.382278","-20.24982","23.68038"
"era-509","12.5531435","-26.417444","26.498104","-15.579382","-29.508244","30.76023","8.379093","-20.257189","23.686724"
"era-510","12.560331","-26.432451","26.513565","-15.564411","-29.471447","30.83405","8.383118","-20.257513","23.696157"
"era-511","12.570681","-26.448269","26.525995","-15.602692","-29.582174","30.751904","8.376856","-20.26769","23.699549"
"era-512","12.574761","-26.465158","26.541124","-15.6008835","-29.546207","30.816051","8.379416","-20.26991","23.70566"
"era-513","12.583979","-26.479172","26.55635","-15.589787","-29.516953","30.881903","8.382363","-20.270864","23.715343"
"era-514","12.59466","-26.494778","26.568666","-15.626936","-29.634394","30.79453","8.376165","-20.280909","23.71812"
"era-515","12.598113","-26.511913","26.58379","-15.628043","-29.599215","30.856388","8.378424","-20.283493","23.723795"
"era-516","12.607595","-26.525719","26.598963","-15.615076","-29.563751","30.928204","8.381561","-20.28416","23.733124"
"era-517","12.618505","-26.541117","26.61124","-15.65076","-29.683098","30.839928","8.375541","-20.293964","23.735577"
"era-518","12.621594","-26.558353","26.626337","-15.65344","-29.648348","30.900526","8.37765","-20.296738","23.74099"
"era-519","12.631166","-26.572092","26.64142","-15.640515","-29.61112","30.97363","8.380747","-20.297388","23.750032"
"era-520","12.64229","-26.5873","26.653675","-15.674413","-29.730532","30.886211","8.3749695","-20.306889","23.75233"
"era-521","12.6451235","-26.604609","26.668736","-15.678182","-29.696104","30.945896","8.376981","-20.309803","23.757547"
"era-522","12.654705","-26.618294","26.68374","-15.665605","-29.657995","31.019444","8.380015","-20.31048","23.766378"
"era-523","12.666045","-26.633303","26.695948","-15.697863","-29.777754","30.932571","8.374464","-20.319715","23.768475"
"era-524","12.668614","-26.650679","26.710953","-15.702661","-29.743671","30.991365","8.376386","-20.322739","23.773493"
"era-525","12.67823","-26.66432","26.725855","-15.690493","-29.704815","31.06521","8.379353","-20.323462","23.782114"
"era-526","12.689776","-26.679152","26.738008","-15.721196","-29.82449","30.979202","8.37401","-20.33243","23.78406"
"era-527","12.692125","-26.696589","26.75296","-15.726814","-29.7907","31.037245","8.375871","-20.33554","23.788914"
"era-528","12.701747","-26.710197","26.767784","-15.715111","-29.751307","31.111198","8.378758","-20.336315","23.797333"
"era-529","12.7134905","-26.724848","26.779898","-15.744386","-29.870953","31.025967","8.373612","-20.345049","23.79911"
"era-530","12.715622","-26.742344","26.794788","-15.750747","-29.837454","31.083313","8.375428","-20.34825","23.803818"
"era-531","12.725254","-26.75592","26.809511","-15.7395315","-29.797617","31.157282","8.378242","-20.349092","23.812048"
"era-532","12.737182","-26.770403","26.821579","-15.7674675","-29.91712","31.072872","8.373283","-20.357613","23.81367"
"era-533","12.739129","-26.787956","26.836405","-15.774434","-29.883879","31.129608","8.375064","-20.360872","23.818235"
"era-534","12.748752","-26.801506","26.851044","-15.763723","-29.843702","31.203533","8.377812","-20.361776","23.826298"
"era-535","12.760871","-26.815823","26.863071","-15.790461","-29.96301","31.11991","8.373018","-20.370104","23.827763"
"era-536","12.76264","-26.833426","26.877823","-15.797943","-29.930023","31.176104","8.374783","-20.373426","23.832209"
"era-537","12.77225","-26.846947","26.89238","-15.787712","-29.889559","31.249966","8.377476","-20.37439","23.840126"
"era-538","12.784542","-26.861103","26.904356","-15.813366","-30.008673","31.167093","8.37283","-20.382544","23.841413"
"era-539","12.786156","-26.878756","26.919037","-15.821282","-29.975916","31.222795","8.374586","-20.3859","23.845732"
"era-540","12.795748","-26.89226","26.93351","-15.811496","-29.935211","31.296562","8.377226","-20.386917","23.853516"
"era-541","12.808214","-26.906261","26.945435","-15.836193","-30.054073","31.214424","8.372702","-20.394918","23.854635"
"era-542","12.809684","-26.923954","26.960035","-15.844477","-30.02152","31.269693","8.374456","-20.39832","23.858845"
"era-543","12.819255","-26.937439","26.97444","-15.835056","-29.980621","31.34342","8.377062","-20.39937","23.866524"
"era-544","12.831869","-26.9513","26.98632","-15.858968","-30.09923","31.261923","8.372638","-20.407269","23.867455"
"era-545","12.833223","-26.96903","27.000841","-15.867512","-30.066835","31.316849","8.374397","-20.41069","23.871565"
"era-546","12.842751","-26.982502","27.015173","-15.858414","-30.025784","31.390532","8.376987","-20.411762","23.87916"
"era-547","12.855529","-26.996214","27.026995","-15.8817005","-30.144125","31.309624","8.372636","-20.419569","23.879896"
"era-548","12.856773","-27.013983","27.04143","-15.890456","-30.111858","31.364258","8.374417","-20.423016","23.88392"
"era-549","12.866246","-27.027443","27.055706","-15.88157","-30.070705","31.437935","8.377015","-20.424097","23.891483"
"era-550","12.879185","-27.041016","27.067482","-15.904384","-30.188725","31.357565","8.372705","-20.431852","23.892008"
"era-551","12.880356","-27.058817","27.081816","-15.913259","-30.156536","31.412","8.374509","-20.435305","23.895939"
"era-552","12.889734","-27.072258","27.096037","-15.904532","-30.115385","31.485657","8.377138","-20.436382","23.903484"
"era-553","12.902823","-27.085693","27.107754","-15.9270525","-30.23303","31.405806","8.372838","-20.44412","23.9038"
"era-554","12.903938","-27.103506","27.12199","-15.936","-30.200844","31.460115","8.374668","-20.447588","23.907644"
"era-555","12.913207","-27.116955","27.136166","-15.927273","-30.159863","31.533752","8.377366","-20.44864","23.915232"
"era-556","12.926454","-27.130253","27.147831","-15.949715","-30.277037","31.454395","8.373043","-20.456394","23.915333"
"era-557","12.927543","-27.148073","27.161959","-15.958686","-30.244787","31.508657","8.374892","-20.459864","23.919096"
"era-558","12.936669","-27.161549","27.176096","-15.949929","-30.204315","31.582037","8.377689","-20.46088","23.926779"
"era-559","12.950084","-27.174715","27.187696","-15.972376","-30.320854","31.50326","8.37332","-20.468681","23.926685"
"era-560","12.951175","-27.192545","27.201702","-15.98133","-30.288486","31.557558","8.375193","-20.47217","23.930368"
"era-561","12.960139","-27.20605","27.215797","-15.972524","-30.249052","31.630266","8.37809","-20.473124","23.938183"
"era-562","12.973724","-27.219091","27.227348","-15.995013","-30.364794","31.552176","8.37367","-20.48097","23.937937"
"era-563","12.974813","-27.236925","27.241241","-16.003996","-30.332294","31.60648","8.375552","-20.484476","23.941542"
"era-564","12.983621","-27.25047","27.255276","-15.995358","-30.294407","31.677933","8.378527","-20.485418","23.949444"
"era-565","12.997349","-27.263386","27.266764","-16.017616","-30.409237","31.600769","8.37412","-20.49325","23.949116"
"era-566","12.998436","-27.281229","27.28053","-16.026726","-30.376703","31.654963","8.376002","-20.496784","23.952633"
"era-567","13.007129","-27.294804","27.294493","-16.018373","-30.340118","31.725214","8.379009","-20.497734","23.96056"
"era-568","13.020985","-27.307598","27.305925","-16.040182","-30.454008","31.649088","8.374668","-20.505516","23.960184"
"era-569","13.022051","-27.325466","27.319574","-16.049492","-30.421516","31.703064","8.376549","-20.509094","23.96361"
"era-570","13.030668","-27.339054","27.333466","-16.041351","-30.38579","31.772493","8.379582","-20.510067","23.971518"
"era-571","13.044642","-27.351748","27.344841","-16.062695","-30.498716","31.697432","8.375304","-20.517786","23.97111"
"era-572","13.045695","-27.36963","27.35837","-16.072218","-30.46626","31.751202","8.377176","-20.521404","23.974434"
"era-573","13.054238","-27.383238","27.37218","-16.064352","-30.431595","31.819616","8.380234","-20.522392","23.982311"
"era-574","13.068316","-27.39583","27.3835","-16.085155","-30.54361","31.745615","8.376039","-20.530043","23.981882"
"era-575","13.069354","-27.413738","27.396904","-16.094921","-30.511246","31.799126","8.377902","-20.533714","23.985117"
"era-576","13.077845","-27.427345","27.410646","-16.087234","-30.477179","31.866924","8.380979","-20.534716","23.992947"
"era-577","13.092014","-27.439854","27.421919","-16.107578","-30.588224","31.79399","8.3768635","-20.5423","23.992487"
"era-578","13.0930605","-27.457779","27.43521","-16.11756","-30.55588","31.847292","8.378714","-20.546015","23.99562"
"era-579","13.101481","-27.47141","27.448866","-16.110277","-30.523167","31.91371","8.381796","-20.547058","24.003414"
"era-580","13.115735","-27.483822","27.460077","-16.129921","-30.633408","31.841791","8.377802","-20.554535","24.002962"
"era-581","13.116745","-27.501787","27.473246","-16.140217","-30.601269","31.894705","8.379638","-20.558308","24.006006"
"era-582","13.125157","-27.5154","27.486841","-16.132673","-30.56792","31.96179","8.382789","-20.559313","24.01375"
"era-583","13.139484","-27.527729","27.498","-16.152248","-30.676989","31.890942","8.378805","-20.56681","24.013239"
"era-584","13.14057","-27.54567","27.511034","-16.162714","-30.644642","31.943878","8.380605","-20.570633","24.016195"
"era-585","13.148835","-27.559372","27.524487","-16.15697","-30.616238","32.005737","8.383565","-20.571894","24.023829"
"era-586","13.163247","-27.571629","27.535576","-16.174414","-30.725239","31.935926","8.3799715","-20.579006","24.023533"
"era-587","13.164078","-27.5897","27.548525","-16.185358","-30.693893","31.98772","8.381817","-20.582844","24.0264"
"era-588","13.172635","-27.60313","27.562035","-16.176464","-30.655182","32.05994","8.38517","-20.583685","24.03392"
"era-589","13.187011","-27.615316","27.57313","-16.196615","-30.760063","31.992537","8.381084","-20.591352","24.03324"
"era-590","13.18857","-27.633047","27.5859","-16.206774","-30.726181","32.046837","8.382812","-20.595268","24.036127"
"era-591","13.197225","-27.64715","27.59841","-16.214287","-30.739351","32.064667","8.383531","-20.598825","24.042015"
"era-592","13.205857","-27.661436","27.610676","-16.22202","-30.764215","32.071968","8.384141","-20.60256","24.047556"
"era-593","13.21228","-27.676065","27.62393","-16.218573","-30.737007","32.131508","8.387267","-20.604134","24.054846"
"era-594","13.226767","-27.688202","27.634851","-16.234703","-30.843634","32.064423","8.383926","-20.611063","24.054482"
"era-595","13.227654","-27.706303","27.64746","-16.246471","-30.812439","32.115475","8.385671","-20.615084","24.05708"
"era-596","13.236051","-27.719765","27.660763","-16.23769","-30.776121","32.18566","8.389158","-20.6159","24.06458"
"era-597","13.250569","-27.73178","27.6717","-16.256575","-30.877928","32.121544","8.385302","-20.623398","24.063887"
"era-598","13.252259","-27.749493","27.68414","-16.26772","-30.843925","32.175304","8.386869","-20.62753","24.066507"
"era-599","13.26169","-27.763351","27.69618","-16.273794","-30.871954","32.180607","8.387594","-20.631079","24.07194"
"era-600","13.267958","-27.777895","27.709417","-16.267448","-30.835203","32.24981","8.391238","-20.632242","24.079138"
"era-601","13.282357","-27.789906","27.720312","-16.286049","-30.934147","32.188354","8.38747","-20.639706","24.078417"
"era-602","13.28429","-27.807499","27.732601","-16.297165","-30.899246","32.24294","8.388981","-20.64391","24.081028"
"era-603","13.295613","-27.82058","27.744177","-16.297033","-30.953188","32.228752","8.390052","-20.646921","24.086166"
"era-604","13.30043","-27.836363","27.756706","-16.309023","-30.915903","32.2854","8.39067","-20.651464","24.089108"
"era-605","13.314121","-27.848711","27.767523","-16.314837","-31.01435","32.230072","8.389637","-20.656332","24.09103"
"era-606","13.314655","-27.866825","27.780008","-16.325018","-30.985987","32.279583","8.391942","-20.659914","24.0938"
"era-607","13.323917","-27.879898","27.792849","-16.325108","-30.942928","32.34889","8.393561","-20.662533","24.0988"
"era-608","13.338309","-27.891819","27.803621","-16.33549","-31.042673","32.2908","8.391276","-20.668598","24.09864"
"era-609","13.339624","-27.909674","27.81578","-16.349113","-31.010683","32.341274","8.392648","-20.673075","24.100744"
"era-610","13.347678","-27.92364","27.828245","-16.35352","-31.00664","32.375973","8.3942795","-20.675974","24.106844"
"era-611","13.361633","-27.935717","27.839031","-16.357904","-31.099035","32.32645","8.393559","-20.680506","24.109354"
"era-612","13.36256","-27.953596","27.851345","-16.36935","-31.070454","32.375298","8.395567","-20.684359","24.111822"
"era-613","13.3715515","-27.966635","27.86421","-16.366516","-31.026411","32.447487","8.397859","-20.68643","24.117363"
"era-614","13.385941","-27.97838","27.875004","-16.377264","-31.118284","32.396225","8.3955145","-20.692608","24.117138"
"era-615","13.388124","-27.995728","27.887003","-16.390266","-31.082756","32.450314","8.396706","-20.697224","24.119457"
"era-616","13.400966","-28.008179","27.897902","-16.391619","-31.164482","32.41142","8.396951","-20.701025","24.122921"
"era-617","13.4026785","-28.025614","27.910076","-16.407005","-31.135004","32.458733","8.398061","-20.705704","24.12477"
"era-618","13.411128","-28.03866","27.923115","-16.39605","-31.096039","32.53216","8.402107","-20.706194","24.132044"
"era-619","13.4254675","-28.050264","27.933945","-16.410975","-31.183931","32.48228","8.399122","-20.713083","24.13152"
"era-620","13.427887","-28.067389","27.945902","-16.42427","-31.146345","32.538425","8.400228","-20.717798","24.134151"
"era-621","13.441433","-28.079605","27.956448","-16.428022","-31.246244","32.482983","8.3995905","-20.722477","24.135311"
"era-622","13.441748","-28.097681","27.968613","-16.438833","-31.218925","32.530994","8.40197","-20.726175","24.137777"
"era-623","13.450834","-28.110607","27.981236","-16.441095","-31.175999","32.598793","8.403405","-20.729177","24.142235"
"era-624","13.465174","-28.122217","27.991901","-16.446907","-31.269016","32.54892","8.4019985","-20.734526","24.142294"
"era-625","13.466852","-28.139732","28.00373","-16.46351","-31.23655","32.598045","8.402829","-20.739647","24.143887"
"era-626","13.47713","-28.1528","28.015295","-16.461153","-31.275015","32.598316","8.404897","-20.742012","24.14921"
"era-627","13.482619","-28.167652","28.027796","-16.469742","-31.233597","32.661457","8.4062","-20.74595","24.153107"
"era-628","13.496689","-28.179298","28.038473","-16.474104","-31.324327","32.61432","8.405124","-20.751057","24.153255"
"era-629","13.498471","-28.196688","28.050255","-16.49161","-31.291477","32.663284","8.405775","-20.756378","24.154749"
"era-630","13.510121","-28.209076","28.061592","-16.482405","-31.346004","32.653137","8.408506","-20.757973","24.160093"
"era-631","13.514257","-28.22495","28.07362","-16.504198","-31.31262","32.700523","8.407831","-20.764175","24.161411"
"era-632","13.52746","-28.23693","28.084352","-16.502546","-31.398108","32.65991","8.408549","-20.767616","24.16448"
"era-633","13.528445","-28.254442","28.096432","-16.518883","-31.370993","32.704502","8.409851","-20.772358","24.166098"
"era-634","13.537082","-28.267132","28.10931","-16.512836","-31.3261","32.77943","8.4130125","-20.773838","24.171919"
"era-635","13.55127","-28.27822","28.120382","-16.51374","-31.399141","32.749805","8.412534","-20.77839","24.17249"
"era-636","13.553143","-28.295073","28.132547","-16.531477","-31.359875","32.8067","8.413299","-20.783667","24.175873"
"era-637","13.566847","-28.30652","28.143435","-16.530981","-31.438877","32.772472","8.413173","-20.78798","24.176443"
"era-638","13.5689535","-28.323456","28.155293","-16.551207","-31.40224","32.824223","8.41332","-20.793846","24.178432"
"era-639","13.582475","-28.335241","28.165846","-16.55123","-31.499065","32.773552","8.41331","-20.798073","24.179157"
"era-640","13.5827055","-28.353092","28.177795","-16.568865","-31.472282","32.81704","8.414609","-20.803026","24.180523"
"era-641","13.591151","-28.365652","28.190762","-16.560167","-31.427246","32.893696","8.418352","-20.80402","24.186663"
"era-642","13.605319","-28.376429","28.202023","-16.556393","-31.494164","32.87188","8.418729","-20.80779","24.187647"
"era-643","13.606943","-28.393063","28.214401","-16.573208","-31.456913","32.92863","8.419924","-20.812756","24.191935"
"era-644","13.620549","-28.404104","28.225662","-16.568897","-31.522102","32.90862","8.420553","-20.816427","24.192982"
"era-645","13.622099","-28.42074","28.238035","-16.585798","-31.487156","32.96365","8.421829","-20.821346","24.197535"
"era-646","13.635722","-28.431751","28.249258","-16.582968","-31.55326","32.94207","8.422231","-20.825254","24.19847"
"era-647","13.6372","-28.44844","28.26156","-16.601439","-31.51761","32.996754","8.423253","-20.830446","24.202755"
"era-648","13.65086","-28.459354","28.272833","-16.595133","-31.580643","32.97968","8.424238","-20.833786","24.203972"
"era-649","13.652288","-28.47605","28.285128","-16.614765","-31.549196","33.03045","8.425171","-20.839098","24.208471"
"era-650","13.666029","-28.486984","28.296276","-16.611876","-31.617195","33.007183","8.425582","-20.84302","24.209383"
"era-651","13.667311","-28.503878","28.308374","-16.636282","-31.580542","33.058956","8.425592","-20.849277","24.212624"
"era-652","13.681155","-28.51458","28.319696","-16.62176","-31.640446","33.04886","8.4279175","-20.851278","24.214447"
"era-653","13.68244","-28.531279","28.331978","-16.644026","-31.610044","33.097374","8.428489","-20.856995","24.218729"
"era-654","13.696255","-28.54203","28.343195","-16.637924","-31.67594","33.07762","8.429446","-20.860386","24.219902"
"era-655","13.697373","-28.558912","28.355316","-16.664158","-31.640444","33.127666","8.429259","-20.866915","24.223145"
"era-656","13.711243","-28.569405","28.366758","-16.646414","-31.696135","33.122967","8.432153","-20.86838","24.225246"
"era-657","13.71215","-28.586449","28.378778","-16.68051","-31.679926","33.15309","8.431011","-20.875906","24.228762"
"era-658","13.726391","-28.597282","28.389526","-16.678627","-31.763826","33.11502","8.431175","-20.880018","24.229383"
"era-659","13.727624","-28.614595","28.400963","-16.709812","-31.73456","33.153427","8.429789","-20.887703","24.229355"
"era-660","13.740652","-28.625816","28.412004","-16.690184","-31.805532","33.13445","8.433902","-20.888027","24.2343"
"era-661","13.741338","-28.643158","28.423752","-16.72651","-31.783142","33.163937","8.431986","-20.896236","24.23367"
"era-662","13.749518","-28.655369","28.436802","-16.708946","-31.743704","33.241154","8.43761","-20.89559","24.240995"
"era-663","13.764212","-28.665295","28.44822","-16.697533","-31.809422","33.22424","8.4393015","-20.898155","24.242561"
"era-664","13.764864","-28.682299","28.460253","-16.734985","-31.775944","33.26594","8.437323","-20.906574","24.244272"
"era-665","13.779093","-28.692303","28.471828","-16.705816","-31.830477","33.268063","8.442065","-20.906212","24.247217"
"era-666","13.779735","-28.708982","28.484198","-16.73714","-31.801498","33.310543","8.441385","-20.913378","24.250637"
"era-667","13.793776","-28.719004","28.495827","-16.71721","-31.856153","33.30787","8.4446945","-20.914494","24.252974"
"era-668","13.794146","-28.735989","28.507954","-16.756756","-31.839302","33.3358","8.442868","-20.922863","24.25603"
"era-669","13.808651","-28.746195","28.519032","-16.744745","-31.91297","33.312054","8.444733","-20.925358","24.257553"
"era-670","13.809544","-28.763412","28.530504","-16.786776","-31.883673","33.345535","8.441684","-20.934847","24.257204"
"era-671","13.823437","-28.774218","28.541204","-16.771606","-31.973043","33.30905","8.444343","-20.936623","24.259148"
"era-672","13.82241","-28.792238","28.552956","-16.803312","-31.951982","33.33978","8.443732","-20.943884","24.258924"
"era-673","13.830587","-28.804438","28.565794","-16.796238","-31.906153","33.415806","8.447444","-20.945208","24.264263"
"era-674","13.84561","-28.81349","28.577784","-16.759333","-31.951029","33.430527","8.4533415","-20.943596","24.267883"
"era-675","13.845398","-28.830952","28.589527","-16.823011","-31.960052","33.42307","8.447807","-20.955767","24.268791"
"era-676","13.860195","-28.84117","28.600254","-16.805523","-32.04895","33.38802","8.450761","-20.957113","24.271294"
"era-677","13.858967","-28.859118","28.612112","-16.83374","-32.029278","33.419437","8.450871","-20.963709","24.271574"
"era-678","13.867386","-28.87148","28.624502","-16.841488","-31.987522","33.48278","8.451887","-20.967705","24.274643"
"era-679","13.88292","-28.880548","28.636032","-16.803213","-32.05052","33.48201","8.457881","-20.96595","24.278212"
"era-680","13.883005","-28.89771","28.647806","-16.856604","-32.024246","33.50724","8.453235","-20.977211","24.277145"
"era-681","13.897403","-28.907757","28.658854","-16.831156","-32.106686","33.482357","8.457453","-20.977423","24.279716"
"era-682","13.896043","-28.925785","28.670517","-16.878206","-32.08749","33.503212","8.454264","-20.987385","24.2779"
"era-683","13.903542","-28.938204","28.683321","-16.865717","-32.0598","33.567513","8.459422","-20.987446","24.284649"
"era-684","13.919443","-28.947136","28.694666","-16.842821","-32.136543","33.546543","8.462857","-20.988213","24.287052"
"era-685","13.918953","-28.964619","28.706316","-16.895496","-32.115257","33.566483","8.458411","-20.999348","24.284975"
"era-686","13.932443","-28.974554","28.718006","-16.851355","-32.169205","33.574898","8.46679","-20.995512","24.29236"
"era-687","13.932568","-28.991678","28.729715","-16.913166","-32.1533","33.58519","8.460794","-21.008062","24.28936"
"era-688","13.939981","-29.004772","28.741657","-16.919245","-32.1577","33.611137","8.462872","-21.011246","24.29393"
"era-689","13.954626","-29.014023","28.753378","-16.87017","-32.21231","33.62154","8.471768","-21.006708","24.301596"
"era-690","13.954171","-29.031359","28.765123","-16.935465","-32.198315","33.628345","8.4653635","-21.01975","24.298292"
"era-691","13.961407","-29.044178","28.777454","-16.933432","-32.18409","33.67519","8.468889","-21.021507","24.303886"
"era-692","13.9777565","-29.05292","28.78859","-16.903332","-32.268173","33.651016","8.47357","-21.020983","24.307163"
"era-693","13.975091","-29.071144","28.800604","-16.949705","-32.25329","33.66855","8.470981","-21.030571","24.305668"
"era-694","13.983363","-29.083242","28.813078","-16.950253","-32.209026","33.738487","8.47338","-21.033312","24.309631"
"era-695","13.999575","-29.09098","28.825405","-16.88856","-32.24769","33.771515","8.483167","-21.027786","24.315218"
"era-696","13.997908","-29.107632","28.838427","-16.945581","-32.232193","33.78931","8.479181","-21.03878","24.316923"
"era-697","14.013506","-29.115871","28.850485","-16.902155","-32.276188","33.808376","8.486201","-21.036179","24.321281"
"era-698","14.011677","-29.13279","28.86323","-16.960423","-32.263744","33.82305","8.48211","-21.047329","24.323038"
"era-699","14.027795","-29.140965","28.875004","-16.915054","-32.310204","33.84092","8.489347","-21.044476","24.327581"
"era-700","14.025298","-29.158447","28.887428","-16.984907","-32.294827","33.85126","8.483346","-21.05764","24.327692"
"era-701","14.040703","-29.167032","28.899155","-16.93639","-32.32643","33.88389","8.491244","-21.054214","24.332249"
"era-702","14.040257","-29.18436","28.910416","-17.020628","-32.37538","33.83068","8.482578","-21.069723","24.331078"
"era-703","14.046393","-29.198532","28.92158","-17.028906","-32.371033","33.86333","8.484688","-21.073235","24.335518"
"era-704","14.06361","-29.206923","28.932323","-16.979755","-32.448017","33.854877","8.492569","-21.06951","24.341185"
"era-705","14.059766","-29.22533","28.944504","-17.025053","-32.43762","33.869244","8.490605","-21.078733","24.34025"
"era-706","14.069228","-29.23753","28.955873","-17.044212","-32.40198","33.920044","8.489432","-21.084972","24.341295"
"era-707","14.085821","-29.245716","28.96714","-16.99143","-32.47597","33.916718","8.497778","-21.080936","24.346216"
"era-708","14.080931","-29.26451","28.97937","-17.067251","-32.468136","33.912617","8.490806","-21.095331","24.34202"
"era-709","14.089955","-29.276033","28.99176","-17.038996","-32.42229","34.00076","8.498157","-21.09314","24.349596"
"era-710","14.106422","-29.28331","29.004105","-16.986568","-32.462444","34.027966","8.506526","-21.089151","24.35475"
"era-711","14.102619","-29.300673","29.01717","-17.069841","-32.4566","34.022884","8.498691","-21.104362","24.353716"
"era-712","14.118828","-29.308523","29.029015","-17.01227","-32.482616","34.06513","8.507909","-21.099531","24.358904"
"era-713","14.116601","-29.325945","29.040974","-17.104416","-32.527245","34.011997","8.498533","-21.116024","24.357418"
"era-714","14.13204","-29.334887","29.052027","-17.04","-32.56714","34.04313","8.510004","-21.109005","24.36659"
"era-715","14.131103","-29.351803","29.063808","-17.116636","-32.556244","34.041412","8.501899","-21.123991","24.36234"
"era-716","14.143722","-29.362295","29.074808","-17.08082","-32.589844","34.063087","8.509452","-21.121248","24.369349"
"era-717","14.146411","-29.377275","29.086643","-17.123161","-32.561806","34.095154","8.50606","-21.130953","24.36851"
"era-718","14.163864","-29.38462","29.098057","-17.056395","-32.632328","34.102142","8.516559","-21.124737","24.374704"
"era-719","14.156277","-29.40372","29.111221","-17.1447","-32.63158","34.085533","8.508331","-21.140852","24.36973"
"era-720","14.166413","-29.415379","29.122532","-17.134449","-32.58464","34.164005","8.512262","-21.141953","24.37473"
"era-721","14.181699","-29.423193","29.13475","-17.077415","-32.60702","34.20926","8.521629","-21.137161","24.379787"
"era-722","14.179981","-29.439627","29.147282","-17.163773","-32.664497","34.147785","8.513065","-21.152826","24.378513"
"era-723","14.186743","-29.453028","29.158487","-17.165487","-32.649487","34.193413","8.516188","-21.155317","24.383512"
"era-724","14.206198","-29.459251","29.169813","-17.091364","-32.71816","34.205853","8.52747","-21.148046","24.390398"
"era-725","14.196683","-29.478497","29.183762","-17.185028","-32.722225","34.18242","8.518947","-21.164766","24.385284"
"era-726","14.208213","-29.490004","29.194254","-17.18806","-32.678925","34.249752","8.520223","-21.168352","24.388372"
"era-727","14.225523","-29.49637","29.206663","-17.095861","-32.704628","34.310158","8.534837","-21.158117","24.39646"
"era-728","14.220626","-29.513788","29.219782","-17.200186","-32.727093","34.26669","8.523497","-21.177105","24.391895"
"era-729","14.240282","-29.520033","29.23078","-17.122248","-32.796947","34.279636","8.535612","-21.169025","24.399937"
"era-730","14.230969","-29.538174","29.245668","-17.176111","-32.799294","34.278957","8.533898","-21.178999","24.399267"
"era-731","14.242818","-29.55012","29.255234","-17.225828","-32.779392","34.298958","8.527279","-21.190521","24.396915"
"era-732","14.258515","-29.557795","29.266941","-17.138908","-32.82005","34.34132","8.542343","-21.18007","24.40781"
"era-733","14.251084","-29.576132","29.280413","-17.246897","-32.830475","34.30498","8.531081","-21.199287","24.401482"
"era-734","14.262714","-29.587524","29.290745","-17.230715","-32.78232","34.387863","8.535722","-21.199575","24.407015"
"era-735","14.276903","-29.595503","29.302973","-17.180458","-32.802223","34.43192","8.544302","-21.195843","24.411459"
"era-736","14.277213","-29.609919","29.316061","-17.238947","-32.871445","34.374626","8.539827","-21.207262","24.412243"
"era-737","14.282152","-29.623726","29.327345","-17.266865","-32.835617","34.422577","8.538554","-21.214565","24.413382"
"era-738","14.300122","-29.629543","29.3396","-17.17028","-32.857212","34.48897","8.553757","-21.203732","24.421816"
"era-739","14.293253","-29.648144","29.35225","-17.289093","-32.901558","34.418472","8.540622","-21.224865","24.415726"
"era-740","14.306224","-29.658789","29.362204","-17.27497","-32.92679","34.43629","8.544731","-21.225622","24.420868"
"era-741","14.308347","-29.672781","29.37482","-17.284016","-32.885822","34.499744","8.54738","-21.229464","24.42435"
"era-742","14.324163","-29.679934","29.386808","-17.231665","-32.903973","34.54648","8.555959","-21.225525","24.428911"
"era-743","14.321591","-29.695513","29.400118","-17.311714","-32.968643","34.48218","8.548748","-21.240108","24.428087"
"era-744","14.329643","-29.707558","29.411385","-17.292635","-32.93383","34.556263","8.555006","-21.239458","24.434912"
"era-745","14.349746","-29.711298","29.424345","-17.196453","-32.979137","34.601887","8.569824","-21.228819","24.44417"
"era-746","14.33806","-29.732508","29.436785","-17.301378","-33.10913","34.463135","8.561334","-21.246141","24.442343"
"era-747","14.352975","-29.744127","29.444407","-17.320623","-33.21477","34.38427","8.560071","-21.251873","24.443209"
"era-748","14.363134","-29.75622","29.45405","-17.281847","-33.348774","34.309006","8.569961","-21.247278","24.450136"
"era-749","14.366962","-29.770996","29.464615","-17.238367","-33.404404","34.310577","8.581825","-21.241539","24.457005"
"era-750","14.367829","-29.788868","29.47388","-17.288944","-33.39523","34.32943","8.578291","-21.251404","24.457684"
"era-751","14.380714","-29.801355","29.482096","-17.288177","-33.436504","34.322723","8.5813465","-21.252869","24.462368"
"era-752","14.391342","-29.811892","29.493753","-17.197458","-33.39983","34.43981","8.598661","-21.240578","24.473238"
"era-753","14.393183","-29.82795","29.504341","-17.304695","-33.467678","34.353348","8.586103","-21.259321","24.469236"
"era-754","14.406219","-29.837332","29.515886","-17.2104","-33.431515","34.471714","8.603483","-21.24658","24.480387"
"era-755","14.406921","-29.853418","29.527098","-17.320446","-33.49912","34.38406","8.590722","-21.265692","24.476248"
"era-756","14.420533","-29.862356","29.538765","-17.224745","-33.46326","34.50281","8.60821","-21.252752","24.487497"
"era-757","14.420705","-29.878355","29.550348","-17.33597","-33.530666","34.414757","8.59539","-21.272001","24.48333"
"era-758","14.434716","-29.88698","29.562084","-17.238743","-33.49479","34.53434","8.613041","-21.25885","24.494686"
"era-759","14.434386","-29.902916","29.573992","-17.351406","-33.562267","34.44551","8.600106","-21.278286","24.490463"
"era-760","14.448814","-29.911263","29.58574","-17.25266","-33.52625","34.566017","8.617904","-21.26492","24.501919"
"era-761","14.447953","-29.927155","29.59795","-17.366762","-33.593864","34.47633","8.604864","-21.284548","24.497639"
"era-762","14.462844","-29.935244","29.609655","-17.266436","-33.557648","34.597862","8.622814","-21.270983","24.509205"
"era-763","14.461406","-29.951105","29.622162","-17.38206","-33.625523","34.507183","8.609666","-21.290817","24.504864"
"era-764","14.476803","-29.958939","29.633791","-17.28003","-33.58901","34.6299","8.627776","-21.277044","24.516542"
"era-765","14.474739","-29.974792","29.646606","-17.397287","-33.657116","34.538174","8.614513","-21.297102","24.512133"
"era-766","14.490676","-29.982378","29.65811","-17.293962","-33.62048","34.66172","8.632708","-21.283178","24.52389"
"era-767","14.487964","-29.99823","29.671234","-17.412426","-33.688713","34.569267","8.61941","-21.303383","24.519442"
"era-768","14.504479","-30.005566","29.6826","-17.307833","-33.65196","34.693626","8.637676","-21.289318","24.531282"
"era-769","14.501073","-30.02142","29.696045","-17.427471","-33.720318","34.600494","8.624352","-21.309664","24.526802"
"era-770","14.518201","-30.028503","29.70724","-17.321684","-33.683445","34.725594","8.642671","-21.295473","24.53871"
"era-771","14.514075","-30.044363","29.720997","-17.442421","-33.751873","34.631847","8.629346","-21.315947","24.53421"
"era-772","14.531817","-30.051205","29.732004","-17.335804","-33.71502","34.757397","8.647656","-21.301702","24.546164"
"era-773","14.526999","-30.067068","29.746078","-17.457285","-33.783417","34.66331","8.634379","-21.32225","24.54167"
"era-774","14.545343","-30.073666","29.756912","-17.349903","-33.74661","34.78922","8.652681","-21.307955","24.553661"
"era-775","14.539864","-30.089523","29.77127","-17.471989","-33.81491","34.69495","8.639474","-21.328552","24.549181"
"era-776","14.558749","-30.095888","29.78193","-17.364151","-33.778263","34.820953","8.657724","-21.314257","24.561184"
"era-777","14.552694","-30.111742","29.796528","-17.486582","-33.84639","34.726677","8.644605","-21.334885","24.556746"
"era-778","14.572033","-30.1179","29.807035","-17.378332","-33.809883","34.852795","8.662812","-21.320578","24.56875"
"era-779","14.565529","-30.13374","29.821812","-17.501064","-33.877842","34.758537","8.64977","-21.341232","24.564363"
"era-780","14.585193","-30.139734","29.83222","-17.39259","-33.84155","34.88459","8.667931","-21.326944","24.576359"
"era-781","14.578409","-30.155533","29.8471","-17.515396","-33.909237","34.79058","8.654966","-21.347597","24.57203"
"era-782","14.59821","-30.161402","29.857447","-17.407125","-33.87331","34.916183","8.673056","-21.333385","24.583984"
"era-783","14.591369","-30.177132","29.872314","-17.529606","-33.940594","34.82273","8.660183","-21.354","24.579752"
"era-784","14.611087","-30.182919","29.88268","-17.4217","-33.90508","34.947754","8.678228","-21.339874","24.591648"
"era-785","14.604409","-30.198559","29.897436","-17.543663","-33.97189","34.855034","8.665438","-21.360418","24.58753"
"era-786","14.623842","-30.204329","29.907866","-17.436485","-33.936928","34.97917","8.683421","-21.346432","24.599344"
"era-787","14.617532","-30.219862","29.922415","-17.55763","-34.00318","34.88743","8.670716","-21.366886","24.595366"
"era-788","14.636499","-30.225664","29.93297","-17.451324","-33.968773","35.0106","8.688649","-21.353031","24.60708"
"era-789","14.630723","-30.241083","29.947226","-17.571535","-34.034447","34.919914","8.676011","-21.373398","24.603233"
"era-790","14.649071","-30.24697","29.957924","-17.466545","-34.000793","35.041725","8.693872","-21.359753","24.61482"
"era-791","14.643958","-30.262272","29.971819","-17.585365","-34.06569","34.952515","8.681348","-21.379948","24.611147"
"era-792","14.6616","-30.268282","29.982677","-17.481985","-34.03284","35.07274","8.6991","-21.366549","24.622578"
"era-793","14.65721","-30.283464","29.99617","-17.599222","-34.09694","34.9851","8.686705","-21.386568","24.619097"
"era-794","14.674112","-30.289639","30.00717","-17.497658","-34.064972","35.103546","8.704327","-21.373447","24.630363"
"era-795","14.6704445","-30.304726","30.02025","-17.6131","-34.128162","35.017685","8.692089","-21.393236","24.627085"
"era-796","14.6866255","-30.311075","30.031372","-17.513746","-34.097202","35.134037","8.709514","-21.380453","24.638157"
"era-797","14.683662","-30.326069","30.04406","-17.62706","-34.159405","35.050198","8.697498","-21.399967","24.6351"
"era-798","14.699181","-30.332602","30.055283","-17.529716","-34.129375","35.164635","8.714741","-21.387484","24.645994"
"era-799","14.696841","-30.347517","30.067604","-17.641113","-34.19066","35.082695","8.702914","-21.406742","24.643133"
"era-800","14.711771","-30.354218","30.078907","-17.545887","-34.161602","35.19513","8.719952","-21.394583","24.653843"
"era-801","14.709989","-30.36907","30.090897","-17.655294","-34.221962","35.115067","8.708346","-21.413568","24.651196"
"era-802","14.724399","-30.375929","30.102251","-17.562315","-34.193924","35.2254","8.725144","-21.401772","24.661718"
"era-803","14.723099","-30.390734","30.113962","-17.669704","-34.253304","35.147335","8.713772","-21.420477","24.659267"
"era-804","14.737022","-30.397755","30.125349","-17.579573","-34.226475","35.255043","8.730224","-21.409124","24.669561"
"era-805","14.736184","-30.412481","30.136806","-17.684322","-34.28465","35.179462","8.719198","-21.427454","24.667353"
"era-806","14.74964","-30.419662","30.148216","-17.597477","-34.25916","35.284195","8.735232","-21.416603","24.677383"
"era-807","14.74925","-30.434294","30.159466","-17.699009","-34.31606","35.211464","8.724648","-21.434446","24.675453"
"era-808","14.762336","-30.441591","30.170914","-17.614391","-34.291573","35.314114","8.740418","-21.423952","24.685308"
"era-809","14.762265","-30.456161","30.181982","-17.714012","-34.347507","35.243313","8.730079","-21.441515","24.683558"
"era-810","14.774989","-30.463589","30.19344","-17.63242","-34.32427","35.34321","8.745453","-21.431498","24.693184"
"era-811","14.775278","-30.478071","30.20435","-17.729116","-34.37898","35.275066","8.73552","-21.44863","24.691692"
"era-812","14.787649","-30.485622","30.215824","-17.650585","-34.357002","35.372192","8.750488","-21.439085","24.701077"
"era-813","14.788265","-30.500011","30.226606","-17.744497","-34.410507","35.306633","8.740949","-21.455788","24.69982"
"era-814","14.800294","-30.507698","30.238081","-17.669365","-34.389877","35.400723","8.755466","-21.446766","24.70895"
"era-815","14.801242","-30.521976","30.248743","-17.760063","-34.442062","35.338043","8.746393","-21.462982","24.707954"
"era-816","14.8129635","-30.529783","30.260223","-17.687994","-34.422676","35.42937","8.760504","-21.454422","24.716867"
"era-817","14.814189","-30.54396","30.270782","-17.775795","-34.47364","35.369335","8.751847","-21.470205","24.716118"
"era-818","14.82559","-30.551907","30.282255","-17.70741","-34.45569","35.457394","8.765455","-21.462227","24.724768"
"era-819","14.82712","-30.56597","30.292732","-17.79196","-34.505272","35.400352","8.757263","-21.477512","24.724272"
"era-820","14.838166","-30.574078","30.304176","-17.728125","-34.489","35.484444","8.770248","-21.470226","24.732595"
"era-821","14.840054","-30.58796","30.314598","-17.80795","-34.536877","35.431408","8.762764","-21.484774","24.732473"
"era-822","14.850838","-30.59618","30.326036","-17.746971","-34.52177","35.512913","8.775367","-21.477922","24.740593"
"era-823","14.852956","-30.60997","30.336386","-17.82437","-34.568542","35.462193","8.768237","-21.492088","24.740673"
"era-824","14.863431","-30.618345","30.347788","-17.767647","-34.555046","35.539978","8.780253","-21.485888","24.748508"
"era-825","14.865841","-30.631987","30.358095","-17.841087","-34.600227","35.492794","8.773713","-21.499434","24.748892"
"era-826","14.875977","-30.640549","30.369455","-17.789457","-34.588573","35.566174","8.78502","-21.494017","24.75638"
"era-827","14.878738","-30.653988","30.379742","-17.857712","-34.6319","35.523384","8.779267","-21.506744","24.757168"
"era-828","14.888611","-30.662687","30.391077","-17.809608","-34.621613","35.59362","8.790093","-21.501863","24.764423"
"era-829","14.891611","-30.676012","30.401333","-17.87481","-34.663605","35.553658","8.784794","-21.514124","24.765448"
"era-830","14.90116","-30.684896","30.412611","-17.831856","-34.655178","35.61947","8.794899","-21.510035","24.772367"
"era-831","14.90449","-30.698008","30.422861","-17.891678","-34.695286","35.584045","8.790419","-21.521435","24.773815"
"era-832","14.913819","-30.706999","30.434101","-17.851662","-34.688072","35.64718","8.80013","-21.517782","24.78055"
"era-833","14.917321","-30.720018","30.444313","-17.909338","-34.727074","35.613937","8.795971","-21.528845","24.782156"
"era-834","14.926347","-30.729208","30.455488","-17.874567","-34.721767","35.672523","8.80495","-21.52598","24.788572"
"era-835","14.930175","-30.742016","30.465714","-17.926888","-34.7588","35.64388","8.801618","-21.536186","24.790598"
"era-836","14.93894","-30.751375","30.476831","-17.896479","-34.75515","35.698635","8.809995","-21.533978","24.796741"
"era-837","14.943021","-30.764023","30.487055","-17.944683","-34.79059","35.673653","8.80729","-21.543526","24.799084"
