"era-0","0.32597628","-0.23588012","0.6195373","-0.6438593","-0.06827753","0.04947293","-0.51573056","-0.75218624","-0.19136861"
"era-1","0.44176966","-0.27842343","0.80453473","-0.5979439","-0.046244025","0.08471771","-0.46016172","-0.794592","-0.17130539"
"era-2","0.5597279","-0.37622043","1.0215402","-0.54905283","-0.023287572","0.11962729","-0.38245395","-0.8729532","-0.14594434"
"era-3","0.67827415","-0.55527353","1.2931945","-0.49726343","6.281447E-4","0.1536089","-0.26808444","-1.0085618","-0.10893316"
"era-4","0.7979302","-0.8621059","1.6622434","-0.442173","0.026167555","0.18563722","-0.08927222","-1.2440872","-0.047742844"
"era-5","0.9352419","-1.3688574","2.2060754","-0.38079023","0.05637671","0.21525647","0.20433336","-1.6578282","0.0620528"
"era-6","1.1533422","-2.1145911","3.0008674","-0.3020476","0.09755055","0.25002825","0.66598874","-2.3279302","0.25375742"
"era-7","1.5017017","-2.962704","3.9372873","-0.19269283","0.13689518","0.32543847","1.224677","-3.147641","0.5170542"
"era-8","1.9076006","-3.7162154","4.7841206","-0.06746133","0.118228585","0.48773506","1.7082865","-3.8723001","0.79631954"
"era-9","2.2886567","-4.3388085","5.4791913","0.034964267","-0.010466026","0.7424674","2.0617905","-4.43879","1.0996375"
"era-10","2.618417","-4.8720956","6.059807","0.045993425","-0.30877796","1.0656193","2.3150067","-4.8956575","1.499814"
"era-11","2.8772006","-5.38402","6.562372","-0.17095844","-0.96052206","1.4709506","2.545372","-5.2746067","2.184898"
"era-12","3.0019388","-5.99094","6.978323","-0.70085335","-2.2802424","2.2510471","2.8239493","-5.6446633","3.5918143"
"era-13","3.0110192","-6.5902443","7.288817","-1.2457356","-3.5982168","3.2996237","2.9725451","-6.227984","5.2337394"
"era-14","3.0529456","-6.9923897","7.54801","-1.6730233","-4.411371","4.085565","3.1027322","-6.7861075","6.3869004"
"era-15","3.1170766","-7.275383","7.7755594","-2.001899","-4.9452987","4.6578417","3.2464728","-7.24964","7.188695"
"era-16","3.1871922","-7.500392","7.9771037","-2.265178","-5.34305","5.103886","3.3882284","-7.642479","7.793418"
"era-17","3.257993","-7.6931105","8.157422","-2.4829113","-5.6657085","5.469581","3.5214367","-7.984014","8.278523"
"era-18","3.3276215","-7.8651304","8.320653","-2.667619","-5.9415154","5.7802525","3.6447072","-8.286725","8.684291"
"era-19","3.3953297","-8.022339","8.470089","-2.8276794","-6.1850533","6.051233","3.75846","-8.558925","9.033757"
"era-20","3.4607978","-8.168082","8.608279","-2.9689307","-6.4046626","6.2924566","3.8636317","-8.806469","9.341235"
"era-21","3.523909","-8.304494","8.737235","-3.0955307","-6.6056137","6.5106773","3.9612288","-9.0336275","9.616172"
"era-22","3.584639","-8.433016","8.858514","-3.2104852","-6.791492","6.710644","4.052182","-9.243667","9.8651495"
"era-23","3.6430535","-8.554722","8.973284","-3.3160284","-6.964896","6.8957844","4.1372848","-9.439048","10.092966"
"era-24","3.699238","-8.670452","9.082515","-3.413814","-7.1277733","7.0686526","4.2172284","-9.621781","10.303174"
"era-25","3.7532928","-8.780872","9.186938","-3.5051155","-7.281643","7.231204","4.292576","-9.793481","10.498522"
"era-26","3.8053648","-8.886554","9.287124","-3.5909157","-7.4277225","7.384944","4.3638315","-9.955457","10.681141"
"era-27","3.855559","-8.987949","9.383554","-3.671988","-7.566999","7.5310764","4.431413","-10.108796","10.852728"
"era-28","3.9040067","-9.085464","9.476603","-3.7489536","-7.7002773","7.6705627","4.495682","-10.254423","11.014666"
"era-29","3.9508252","-9.179449","9.566616","-3.8223197","-7.8282166","7.804195","4.5569425","-10.393113","11.168097"
"era-30","3.996124","-9.270206","9.653839","-3.892501","-7.9513783","7.932623","4.615461","-10.525515","11.313946"
"era-31","4.0400114","-9.357993","9.738493","-3.959844","-8.070211","8.056395","4.6714816","-10.652237","11.453029"
"era-32","4.08258","-9.44307","9.820823","-4.0246263","-8.185128","8.175961","4.7252","-10.773767","11.585985"
"era-33","4.123923","-9.525627","9.9009695","-4.0870967","-8.296483","8.291721","4.7768054","-10.890538","11.713402"
"era-34","4.1641126","-9.60584","9.979081","-4.147468","-8.404579","8.404013","4.8264627","-11.002939","11.835793"
"era-35","4.20324","-9.6839","10.05531","-4.2059135","-8.509672","8.513115","4.8743095","-11.111292","11.953564"
"era-36","4.2413588","-9.75993","10.129755","-4.262597","-8.611974","8.619296","4.920475","-11.215904","12.067095"
"era-37","4.2785525","-9.834094","10.202529","-4.3176584","-8.711699","8.722781","4.9650655","-11.317051","12.176725"
"era-38","4.314872","-9.906491","10.2737255","-4.3712277","-8.809008","8.823763","5.008207","-11.414933","12.282729"
"era-39","4.350373","-9.977245","10.343429","-4.423403","-8.904066","8.922424","5.049972","-11.509803","12.385375"
"era-40","4.3850994","-10.046447","10.411719","-4.47428","-8.997023","9.018915","5.0904613","-11.601857","12.484899"
"era-41","4.4191","-10.114194","10.4786825","-4.523948","-9.088004","9.113383","5.1297445","-11.691255","12.581512"
"era-42","4.452413","-10.180555","10.544356","-4.572486","-9.177126","9.205949","5.167887","-11.778145","12.675394"
"era-43","4.485071","-10.245608","10.608825","-4.619958","-9.264489","9.296723","5.2049613","-11.86269","12.766711"
"era-44","4.5171156","-10.309428","10.672142","-4.6664286","-9.350181","9.385811","5.241035","-11.945021","12.855619"
"era-45","4.548577","-10.372077","10.734364","-4.7119546","-9.434293","9.473307","5.27615","-12.025261","12.94226"
"era-46","4.5794826","-10.4336195","10.795539","-4.7565894","-9.516908","9.559299","5.3103576","-12.103543","13.0267725"
"era-47","4.609863","-10.494103","10.8557005","-4.8003783","-9.598103","9.643863","5.3437114","-12.179941","13.109257"
"era-48","4.6397424","-10.5535755","10.914897","-4.843364","-9.677957","9.727072","5.3762507","-12.254565","13.189833"
"era-49","4.6691422","-10.612074","10.973156","-4.885593","-9.756511","9.808981","5.408019","-12.327473","13.26859"
"era-50","4.6980734","-10.669643","11.030542","-4.927097","-9.833835","9.889657","5.439041","-12.398753","13.345624"
"era-51","4.7265687","-10.726331","11.087076","-4.967914","-9.910007","9.969154","5.469356","-12.468478","13.421032"
"era-52","4.7546415","-10.782165","11.142779","-5.008076","-9.9850445","10.047527","5.4989867","-12.536712","13.494867"
"era-53","4.782304","-10.837188","11.197718","-5.047606","-10.059017","10.12482","5.5279627","-12.603518","13.567213"
"era-54","4.809585","-10.891429","11.251886","-5.086547","-10.131961","10.201081","5.556315","-12.668938","13.63813"
"era-55","4.8364882","-10.944915","11.305318","-5.12491","-10.203915","10.276348","5.5840607","-12.733051","13.707694"
"era-56","4.8630333","-10.997681","11.358038","-5.162726","-10.274925","10.350673","5.6112413","-12.795946","13.775961"
"era-57","4.8892345","-11.049752","11.410089","-5.2000113","-10.345033","10.424079","5.6378746","-12.857639","13.842985"
"era-58","4.9151015","-11.101153","11.461474","-5.236787","-10.414261","10.4966","5.663987","-12.9182005","13.908823"
"era-59","4.9406414","-11.151901","11.512231","-5.27308","-10.482653","10.568274","5.689589","-12.97765","13.973514"
"era-60","4.9658704","-11.20202","11.562363","-5.3089004","-10.550235","10.639122","5.7147164","-13.036055","14.037118"
"era-61","4.990799","-11.251533","11.611906","-5.3442736","-10.617031","10.709182","5.7393856","-13.093449","14.099673"
"era-62","5.0154357","-11.300456","11.66087","-5.379216","-10.683068","10.778473","5.7636104","-13.149867","14.161219"
"era-63","5.0397954","-11.348819","11.709272","-5.4137435","-10.748383","10.847026","5.7873993","-13.205332","14.221792"
"era-64","5.063883","-11.396631","11.757134","-5.44787","-10.813008","10.914871","5.810773","-13.259889","14.281428"
"era-65","5.0877004","-11.443908","11.80447","-5.481609","-10.876949","10.982023","5.8337398","-13.313574","14.340164"
"era-66","5.111263","-11.490669","11.851288","-5.514974","-10.940233","11.048502","5.8563085","-13.366403","14.398045"
"era-67","5.1345754","-11.53693","11.897612","-5.5479755","-11.002881","11.114329","5.878502","-13.418426","14.455078"
"era-68","5.1576395","-11.582699","11.943449","-5.5806355","-11.064902","11.179528","5.900319","-13.469632","14.5113125"
"era-69","5.180469","-11.627999","11.988822","-5.6129556","-11.126341","11.244122","5.9217796","-13.52009","14.566758"
"era-70","5.203068","-11.672839","12.033739","-5.64495","-11.187184","11.308113","5.9428988","-13.569806","14.621458"
"era-71","5.225443","-11.717231","12.078209","-5.676633","-11.247476","11.371534","5.9636774","-13.6187935","14.675431"
"era-72","5.2476015","-11.761189","12.122246","-5.7080116","-11.30722","11.43439","5.984127","-13.667086","14.728716"
"era-73","5.2695494","-11.804724","12.165856","-5.7391024","-11.366436","11.496707","6.0042586","-13.714687","14.781307"
"era-74","5.291284","-11.84784","12.20906","-5.7699084","-11.425123","11.55849","6.0240817","-13.761632","14.833247"
"era-75","5.312819","-11.8905525","12.251862","-5.8004413","-11.483321","11.619757","6.04361","-13.807931","14.884546"
"era-76","5.334154","-11.932872","12.294274","-5.830711","-11.54103","11.68053","6.062849","-13.853618","14.935229"
"era-77","5.3552923","-11.974803","12.336308","-5.8607254","-11.598255","11.740815","6.081806","-13.898706","14.985325"
"era-78","5.376247","-12.016366","12.377972","-5.8904905","-11.655013","11.800619","6.1004877","-13.943205","15.034842"
"era-79","5.3970227","-12.057566","12.419261","-5.9200134","-11.711326","11.8599615","6.1188993","-13.987132","15.083798"
"era-80","5.4176154","-12.098406","12.460201","-5.949307","-11.767192","11.918854","6.1370525","-14.0305","15.132215"
"era-81","5.438034","-12.138897","12.50079","-5.978374","-11.822624","11.977304","6.1549506","-14.073323","15.180103"
"era-82","5.458282","-12.179049","12.5410385","-6.007224","-11.877624","12.035318","6.1725974","-14.115612","15.227485"
"era-83","5.47836","-12.218865","12.580959","-6.035857","-11.932211","12.092907","6.190008","-14.15739","15.274384"
"era-84","5.498274","-12.258357","12.620554","-6.0642867","-11.98639","12.150092","6.20718","-14.198678","15.320796"
"era-85","5.518026","-12.2975235","12.659829","-6.09251","-12.040186","12.206867","6.224129","-14.239465","15.366747"
"era-86","5.5376215","-12.336381","12.698793","-6.1205444","-12.093582","12.263258","6.2408576","-14.279785","15.412229"
"era-87","5.5570683","-12.374936","12.737441","-6.148386","-12.146607","12.319263","6.2573676","-14.319645","15.457278"
"era-88","5.576362","-12.413187","12.775795","-6.176042","-12.199258","12.3748865","6.2736697","-14.359047","15.501898"
"era-89","5.5955133","-12.451155","12.813862","-6.203521","-12.251541","12.430146","6.2897573","-14.398008","15.54611"
"era-90","5.6145186","-12.488829","12.851629","-6.23082","-12.303479","12.485049","6.305645","-14.436536","15.589912"
"era-91","5.63338","-12.5262165","12.88911","-6.257957","-12.355061","12.539604","6.3213396","-14.4746475","15.63333"
"era-92","5.652105","-12.563331","12.92632","-6.284926","-12.406302","12.593811","6.336848","-14.512343","15.676357"
"era-93","5.670689","-12.600168","12.963252","-6.3117323","-12.457201","12.647679","6.3521643","-14.549639","15.719008"
"era-94","5.689145","-12.63675","12.99993","-6.338382","-12.507771","12.701218","6.3672957","-14.586539","15.761303"
"era-95","5.7074647","-12.673064","13.036343","-6.3648763","-12.558011","12.754433","6.3822455","-14.623055","15.8032465"
"era-96","5.725657","-12.709124","13.072497","-6.3912225","-12.607926","12.807325","6.3970222","-14.659194","15.844843"
"era-97","5.7437234","-12.7449255","13.108399","-6.417422","-12.657527","12.859901","6.411639","-14.694964","15.886113"
"era-98","5.7616677","-12.780491","13.144055","-6.4434714","-12.706813","12.912166","6.426078","-14.730375","15.927054"
"era-99","5.7794914","-12.815812","13.179466","-6.4693813","-12.755804","12.96413","6.440352","-14.765431","15.96768"
"era-100","5.7971964","-12.850894","13.214637","-6.4951544","-12.804496","13.015793","6.454475","-14.800138","16.008013"
"era-101","5.814787","-12.885745","13.249576","-6.520797","-12.8528805","13.06717","6.468439","-14.834506","16.04802"
"era-102","5.8322606","-12.920364","13.284282","-6.546306","-12.900979","13.118258","6.4822526","-14.868536","16.08774"
"era-103","5.849619","-12.954753","13.318751","-6.571685","-12.94879","13.169063","6.4959116","-14.902246","16.127182"
"era-104","5.866863","-12.988918","13.353008","-6.596935","-12.996315","13.219587","6.5094247","-14.935639","16.166346"
"era-105","5.8840003","-13.02287","13.387041","-6.622058","-13.043573","13.269834","6.5227957","-14.968715","16.205238"
"era-106","5.90103","-13.056604","13.420857","-6.647059","-13.09055","13.319812","6.5360246","-15.001479","16.243864"
"era-107","5.917956","-13.090127","13.454455","-6.6719437","-13.137254","13.369527","6.5491147","-15.033943","16.28223"
"era-108","5.934781","-13.1234455","13.487841","-6.6967134","-13.183691","13.4189825","6.5620737","-15.06611","16.320347"
"era-109","5.9514995","-13.156555","13.521022","-6.721364","-13.229868","13.46818","6.574904","-15.097995","16.358221"
"era-110","5.9681187","-13.189459","13.553991","-6.7458997","-13.275783","13.517118","6.5876036","-15.12959","16.395859"
"era-111","5.9846377","-13.222165","13.5867605","-6.7703247","-13.321443","13.565809","6.6001806","-15.160914","16.433262"
"era-112","6.0010576","-13.254672","13.619329","-6.7946405","-13.3668585","13.614254","6.6126356","-15.191961","16.47045"
"era-113","6.017383","-13.28699","13.651709","-6.8188434","-13.412013","13.66245","6.6249676","-15.222742","16.507397"
"era-114","6.033614","-13.319113","13.683885","-6.8429427","-13.456923","13.710411","6.6371865","-15.253265","16.544125"
"era-115","6.04975","-13.3510475","13.715871","-6.8669286","-13.501591","13.758126","6.649292","-15.283535","16.580635"
"era-116","6.065795","-13.3828","13.747674","-6.8908124","-13.54601","13.805604","6.6612816","-15.313547","16.616947"
"era-117","6.0817494","-13.414371","13.7792845","-6.91459","-13.590192","13.85285","6.673158","-15.343318","16.653053"
"era-118","6.0976105","-13.445759","13.810724","-6.938268","-13.634133","13.899868","6.684927","-15.372847","16.68896"
"era-119","6.1133823","-13.47697","13.841982","-6.961842","-13.677849","13.946654","6.696586","-15.402122","16.724672"
"era-120","6.1290708","-13.508003","13.873051","-6.9853187","-13.72133","13.993214","6.7081394","-15.431154","16.760195"
"era-121","6.144673","-13.538864","13.903945","-7.0086975","-13.764584","14.039553","6.719594","-15.459959","16.795536"
"era-122","6.160189","-13.569552","13.934665","-7.0319805","-13.807611","14.085673","6.730947","-15.488539","16.830702"
"era-123","6.175624","-13.600074","13.96521","-7.0551667","-13.850411","14.131574","6.7422","-15.516893","16.865688"
"era-124","6.190974","-13.630428","13.995587","-7.0782576","-13.892994","14.177262","6.753357","-15.545027","16.900496"
"era-125","6.206246","-13.660619","14.02579","-7.101251","-13.935368","14.2227335","6.7644143","-15.572938","16.93514"
"era-126","6.2214384","-13.690653","14.055832","-7.124149","-13.977518","14.267991","6.775377","-15.60064","16.969622"
"era-127","6.236548","-13.720518","14.085701","-7.146955","-14.019458","14.313044","6.786249","-15.628135","17.003933"
"era-128","6.251583","-13.750231","14.11541","-7.169671","-14.061184","14.357889","6.797028","-15.655417","17.038082"
"era-129","6.2665415","-13.77979","14.144961","-7.1922994","-14.1027","14.4025345","6.8077154","-15.682499","17.072083"
"era-130","6.2814226","-13.809192","14.1743555","-7.2148337","-14.144007","14.446969","6.818323","-15.709376","17.105923"
"era-131","6.296228","-13.838443","14.203598","-7.2372804","-14.185109","14.491207","6.8288436","-15.736061","17.139618"
"era-132","6.3109593","-13.867546","14.232681","-7.2596393","-14.226009","14.535252","6.839273","-15.762555","17.17316"
"era-133","6.3256183","-13.896502","14.261611","-7.2819076","-14.26671","14.579091","6.8496203","-15.788854","17.206564"
"era-134","6.3402033","-13.925309","14.290395","-7.3040886","-14.307214","14.622735","6.859888","-15.814961","17.239817"
"era-135","6.35472","-13.953973","14.319024","-7.3261843","-14.347515","14.66619","6.87008","-15.840889","17.272934"
"era-136","6.3691673","-13.982496","14.347505","-7.348191","-14.387622","14.709446","6.8801875","-15.866635","17.30591"
"era-137","6.383545","-14.010879","14.37584","-7.370109","-14.427534","14.752509","6.890218","-15.892201","17.338762"
"era-138","6.3978524","-14.039117","14.404024","-7.391946","-14.467248","14.795384","6.9001737","-15.917589","17.371468"
"era-139","6.41209","-14.067219","14.432071","-7.4136977","-14.506777","14.838073","6.9100494","-15.942798","17.404055"
"era-140","6.4262643","-14.095187","14.459972","-7.4353657","-14.546111","14.88057","6.9198503","-15.967834","17.436518"
"era-141","6.440372","-14.12302","14.487735","-7.4569507","-14.585255","14.922882","6.9295807","-15.992698","17.468851"
"era-142","6.4544096","-14.150714","14.515359","-7.478449","-14.624217","14.96501","6.939244","-16.017397","17.501062"
"era-143","6.468383","-14.178277","14.542845","-7.499865","-14.662996","15.006952","6.9488387","-16.041939","17.533155"
"era-144","6.48229","-14.205707","14.570194","-7.5211987","-14.701594","15.048716","6.958359","-16.066313","17.56514"
"era-145","6.4961376","-14.233013","14.5974045","-7.542446","-14.740006","15.09029","6.9678116","-16.090528","17.597004"
"era-146","6.509919","-14.260187","14.624479","-7.5636096","-14.778233","15.131689","6.9771943","-16.1146","17.628738"
"era-147","6.5236387","-14.287233","14.651419","-7.584696","-14.816282","15.172912","6.9865136","-16.13851","17.660368"
"era-148","6.537297","-14.314154","14.678228","-7.605699","-14.854162","15.213958","6.995765","-16.162262","17.691877"
"era-149","6.5508876","-14.340947","14.704919","-7.626622","-14.891862","15.254828","7.004956","-16.185865","17.723265"
"era-150","6.5644264","-14.367625","14.731478","-7.6474643","-14.929388","15.29552","7.014084","-16.20931","17.75455"
"era-151","6.5779047","-14.394187","14.7579155","-7.6682224","-14.966744","15.3360405","7.0231485","-16.232628","17.785725"
"era-152","6.591325","-14.420628","14.78422","-7.6889024","-15.003923","15.376389","7.0321474","-16.2558","17.816813"
"era-153","6.604684","-14.446946","14.810405","-7.7095003","-15.0409355","15.416563","7.0410876","-16.27882","17.847776"
"era-154","6.617985","-14.473149","14.836464","-7.7300158","-15.077781","15.456566","7.0499654","-16.301712","17.878645"
"era-155","6.631229","-14.499231","14.862394","-7.7504535","-15.11446","15.496399","7.0587883","-16.324461","17.909412"
"era-156","6.6444154","-14.525199","14.888206","-7.7708125","-15.150967","15.536059","7.067549","-16.347063","17.940079"
"era-157","6.657546","-14.551052","14.913895","-7.7910876","-15.18731","15.575549","7.076256","-16.369535","17.97065"
"era-158","6.6706195","-14.57679","14.939465","-7.811292","-15.223496","15.614881","7.084901","-16.391869","18.001125"
"era-159","6.6836414","-14.60242","14.964912","-7.8314123","-15.259516","15.654043","7.0934916","-16.414076","18.0315"
"era-160","6.6966004","-14.627933","14.990251","-7.851457","-15.295374","15.693042","7.102026","-16.436163","18.06178"
"era-161","6.709509","-14.6533375","15.015464","-7.8714223","-15.331073","15.731876","7.1105013","-16.458109","18.091974"
"era-162","6.722363","-14.678632","15.040559","-7.891308","-15.366619","15.770547","7.118922","-16.479935","18.122059"
"era-163","6.735163","-14.703817","15.065544","-7.911116","-15.402006","15.809058","7.127297","-16.501648","18.152065"
"era-164","6.747911","-14.728897","15.090416","-7.9308434","-15.437232","15.847399","7.135617","-16.523224","18.181973"
"era-165","6.7606077","-14.75387","15.115176","-7.950494","-15.472306","15.885576","7.1438837","-16.54467","18.211788"
"era-166","6.7732534","-14.778741","15.13982","-7.9700646","-15.507226","15.9236","7.1520963","-16.566017","18.241516"
"era-167","6.7858458","-14.803507","15.164359","-7.989559","-15.541993","15.96146","7.1602592","-16.58723","18.271158"
"era-168","6.798384","-14.828165","15.188786","-8.008979","-15.576607","15.9991665","7.16837","-16.608332","18.300709"
"era-169","6.810874","-14.852725","15.2131","-8.028316","-15.611074","16.036713","7.176433","-16.629345","18.330175"
"era-170","6.823311","-14.87718","15.237307","-8.04757","-15.645391","16.074095","7.184448","-16.650242","18.359556"
"era-171","6.835698","-14.901534","15.261404","-8.066751","-15.679558","16.111328","7.192411","-16.671024","18.388834"
"era-172","6.8480387","-14.925791","15.285394","-8.085849","-15.713578","16.148397","7.2003264","-16.691692","18.418032"
"era-173","6.8603277","-14.949946","15.30928","-8.104877","-15.7474575","16.185316","7.208186","-16.712238","18.44715"
"era-174","6.872565","-14.974","15.333058","-8.123835","-15.78119","16.222092","7.216001","-16.732683","18.47617"
"era-175","6.8847547","-14.997958","15.356733","-8.142707","-15.814778","16.25871","7.223769","-16.753035","18.505108"
"era-176","6.896895","-15.021816","15.380303","-8.161503","-15.848226","16.29517","7.2314887","-16.773272","18.533972"
"era-177","6.908985","-15.045577","15.4037695","-8.180227","-15.881529","16.331484","7.239161","-16.7934","18.562746"
"era-178","6.9210305","-15.069243","15.427134","-8.198872","-15.91469","16.367641","7.24679","-16.813429","18.591427"
"era-179","6.9330287","-15.092818","15.450398","-8.217436","-15.947715","16.403646","7.2543716","-16.833357","18.620043"
"era-180","6.944981","-15.116299","15.473565","-8.235924","-15.980607","16.439495","7.261906","-16.85317","18.648575"
"era-181","6.956887","-15.139685","15.496624","-8.254344","-16.013351","16.47521","7.269394","-16.872898","18.677023"
"era-182","6.968745","-15.162981","15.519589","-8.272682","-16.045967","16.51077","7.276839","-16.892525","18.705395"
"era-183","6.980555","-15.18618","15.542454","-8.290947","-16.078442","16.54618","7.284238","-16.912064","18.733688"
"era-184","6.9923244","-15.209294","15.565227","-8.3091345","-16.110785","16.58144","7.291597","-16.931492","18.761894"
"era-185","7.004049","-15.232318","15.587898","-8.327243","-16.142996","16.616554","7.2989144","-16.950834","18.790024"
"era-186","7.015724","-15.255248","15.610475","-8.345276","-16.175064","16.65152","7.3061914","-16.970097","18.818071"
"era-187","7.0273557","-15.278091","15.632957","-8.363235","-16.207005","16.68634","7.3134212","-16.989262","18.84605"
"era-188","7.038946","-15.300848","15.655345","-8.381121","-16.238815","16.721018","7.3206124","-17.00833","18.873943"
"era-189","7.050496","-15.3235235","15.677642","-8.39893","-16.2705","16.755548","7.3277593","-17.027302","18.901762"
"era-190","7.062001","-15.346109","15.699842","-8.416665","-16.302042","16.789934","7.334867","-17.046194","18.929499"
"era-191","7.073468","-15.368613","15.7219515","-8.434321","-16.333467","16.824171","7.3419333","-17.06498","18.95716"
"era-192","7.0848885","-15.391028","15.743967","-8.451905","-16.364763","16.858273","7.348965","-17.083704","18.984743"
"era-193","7.0962663","-15.413358","15.76589","-8.4694195","-16.39592","16.892227","7.3559475","-17.102318","19.012253"
"era-194","7.1075993","-15.4356","15.787722","-8.486854","-16.426962","16.926043","7.3629","-17.120863","19.039684"
"era-195","7.1188955","-15.457762","15.8094635","-8.504214","-16.457874","16.959711","7.369816","-17.139309","19.067036"
"era-196","7.1301465","-15.47984","15.831121","-8.521504","-16.48866","16.993242","7.37669","-17.157688","19.094322"
"era-197","7.1413603","-15.501843","15.852693","-8.538719","-16.519331","17.02664","7.3835244","-17.175987","19.121529"
"era-198","7.152531","-15.523763","15.874172","-8.555863","-16.549875","17.0599","7.390323","-17.19421","19.148653"
"era-199","7.163664","-15.545599","15.895564","-8.572937","-16.580288","17.09302","7.397085","-17.212334","19.175701"
"era-200","7.1747575","-15.567359","15.916865","-8.589929","-16.610586","17.125996","7.403812","-17.230398","19.202665"
"era-201","7.1858125","-15.589035","15.938076","-8.606851","-16.640764","17.15884","7.410507","-17.248379","19.229553"
"era-202","7.196824","-15.610632","15.959202","-8.623706","-16.670828","17.191555","7.4171567","-17.266285","19.25637"
"era-203","7.207799","-15.632152","15.980247","-8.640485","-16.700764","17.224129","7.423776","-17.284113","19.28311"
"era-204","7.2187343","-15.653591","16.001205","-8.657198","-16.730581","17.256565","7.430361","-17.301847","19.309786"
"era-205","7.229631","-15.6749525","16.02208","-8.673835","-16.760286","17.28887","7.4369106","-17.319515","19.33637"
"era-206","7.2404876","-15.696237","16.042877","-8.690401","-16.789879","17.32104","7.4434295","-17.3371","19.36288"
"era-207","7.2513046","-15.717443","16.06359","-8.70689","-16.81935","17.35307","7.4499097","-17.354618","19.389324"
"era-208","7.262085","-15.738577","16.084211","-8.723316","-16.84871","17.384977","7.456355","-17.372076","19.4157"
"era-209","7.272831","-15.759639","16.104761","-8.739673","-16.877945","17.416752","7.462763","-17.389448","19.442003"
"era-210","7.2835393","-15.780626","16.125229","-8.755962","-16.907072","17.448397","7.469138","-17.406744","19.46823"
"era-211","7.2942066","-15.8015375","16.145628","-8.772171","-16.936087","17.479902","7.475485","-17.423965","19.49438"
"era-212","7.3048368","-15.822369","16.165934","-8.788319","-16.96499","17.511286","7.4817967","-17.441109","19.52044"
"era-213","7.3154354","-15.843133","16.186155","-8.804397","-16.993782","17.54254","7.4880686","-17.458181","19.546434"
"era-214","7.3259974","-15.863821","16.206293","-8.820403","-17.022459","17.573662","7.4943104","-17.475187","19.572353"
"era-215","7.336522","-15.884432","16.226349","-8.836342","-17.051022","17.604654","7.500525","-17.492117","19.598202"
"era-216","7.347009","-15.90497","16.246326","-8.852215","-17.079472","17.635523","7.506706","-17.508984","19.623972"
"era-217","7.357461","-15.925439","16.266228","-8.86802","-17.10782","17.66627","7.512856","-17.525785","19.649675"
"era-218","7.3678756","-15.945837","16.28606","-8.883758","-17.136068","17.696888","7.518974","-17.542517","19.675303"
"era-219","7.378252","-15.966157","16.305803","-8.8994255","-17.164196","17.72738","7.525063","-17.559196","19.700867"
"era-220","7.388597","-15.986412","16.32548","-8.915031","-17.192217","17.757751","7.531122","-17.575792","19.726347"
"era-221","7.398906","-16.006594","16.345072","-8.930564","-17.220135","17.787987","7.537153","-17.592325","19.751757"
"era-222","7.4091806","-16.026709","16.364594","-8.9460335","-17.247936","17.818104","7.54315","-17.6088","19.777092"
"era-223","7.41942","-16.046755","16.384048","-8.961436","-17.27564","17.8481","7.549119","-17.625206","19.802353"
"era-224","7.4296274","-16.06673","16.40342","-8.976778","-17.303238","17.877981","7.5550575","-17.641544","19.827541"
"era-225","7.439802","-16.086641","16.422718","-8.992052","-17.330727","17.907734","7.5609665","-17.657806","19.852655"
"era-226","7.449941","-16.10648","16.441936","-9.007264","-17.358114","17.937368","7.566847","-17.674004","19.877693"
"era-227","7.4600487","-16.126253","16.461084","-9.0224085","-17.385399","17.966883","7.5726967","-17.690155","19.902649"
"era-228","7.4701247","-16.14596","16.480158","-9.037485","-17.412592","17.996273","7.5785203","-17.70623","19.927536"
"era-229","7.4801674","-16.165602","16.499157","-9.052501","-17.439676","18.02555","7.584312","-17.722239","19.952349"
"era-230","7.4901776","-16.185179","16.518087","-9.067457","-17.466658","18.054718","7.590071","-17.738197","19.977085"
"era-231","7.5001516","-16.204687","16.536943","-9.082348","-17.493542","18.083765","7.595804","-17.754093","20.001757"
"era-232","7.5100946","-16.224129","16.555733","-9.097185","-17.520319","18.1127","7.601511","-17.769926","20.026358"
"era-233","7.520006","-16.243505","16.574444","-9.111948","-17.546997","18.141512","7.607196","-17.785717","20.050882"
"era-234","7.529878","-16.26281","16.593086","-9.126653","-17.573582","18.170216","7.6128554","-17.801453","20.075335"
"era-235","7.539723","-16.282055","16.611658","-9.141301","-17.600073","18.19881","7.6184816","-17.81713","20.099718"
"era-236","7.5495358","-16.30124","16.630167","-9.155883","-17.626463","18.227285","7.6240845","-17.832739","20.124018"
"era-237","7.5593195","-16.320362","16.648605","-9.1704035","-17.652746","18.255648","7.6296577","-17.848291","20.14825"
"era-238","7.569071","-16.33942","16.666983","-9.184867","-17.678925","18.28389","7.635207","-17.86377","20.172407"
"era-239","7.5787916","-16.358416","16.68528","-9.199271","-17.705017","18.312027","7.6407294","-17.879208","20.196503"
"era-240","7.5884824","-16.377354","16.703524","-9.213619","-17.731014","18.340057","7.6462255","-17.89458","20.22052"
"era-241","7.598143","-16.396229","16.721699","-9.227904","-17.756918","18.36798","7.651701","-17.909912","20.244461"
"era-242","7.607781","-16.41505","16.739809","-9.242129","-17.782726","18.395782","7.657151","-17.925167","20.268337"
"era-243","7.617384","-16.433805","16.757849","-9.256298","-17.808453","18.423489","7.66257","-17.940376","20.292137"
"era-244","7.6269503","-16.452492","16.775824","-9.270407","-17.834082","18.451084","7.6679683","-17.955532","20.315866"
"era-245","7.636488","-16.47112","16.793734","-9.284465","-17.859613","18.478579","7.6733375","-17.970634","20.339521"
"era-246","7.6459994","-16.489695","16.811577","-9.298461","-17.885061","18.505964","7.6786838","-17.985683","20.36311"
"era-247","7.655481","-16.50821","16.829363","-9.312403","-17.910406","18.533241","7.684006","-18.000679","20.386625"
"era-248","7.664932","-16.526665","16.84709","-9.326289","-17.935656","18.560413","7.6893034","-18.01561","20.41007"
"era-249","7.674356","-16.545061","16.864737","-9.340119","-17.960827","18.587488","7.6945734","-18.0305","20.433437"
"era-250","7.6837506","-16.563396","16.88232","-9.353893","-17.985907","18.614456","7.699818","-18.045324","20.456738"
"era-251","7.6931276","-16.581686","16.899847","-9.367605","-18.010904","18.64132","7.7050447","-18.06011","20.479967"
"era-252","7.702466","-16.599909","16.917315","-9.381274","-18.035807","18.668089","7.7102475","-18.074833","20.50312"
"era-253","7.7117805","-16.618076","16.934708","-9.39489","-18.060621","18.69476","7.7154255","-18.089506","20.526197"
"era-254","7.7210627","-16.636185","16.952051","-9.408447","-18.085344","18.721325","7.7205815","-18.10413","20.549206"
"era-255","7.730314","-16.654234","16.969336","-9.421961","-18.109995","18.747805","7.7257156","-18.118706","20.572144"
"era-256","7.739545","-16.672232","16.98655","-9.435415","-18.13455","18.774174","7.7308254","-18.133226","20.59502"
"era-257","7.7487497","-16.690176","17.003698","-9.448814","-18.159023","18.800447","7.7359104","-18.147696","20.617815"
"era-258","7.7579217","-16.708055","17.020788","-9.462171","-18.183409","18.826628","7.740974","-18.16211","20.640553"
"era-259","7.767068","-16.725885","17.037825","-9.475466","-18.207716","18.852707","7.7460165","-18.176485","20.663216"
"era-260","7.7761908","-16.743662","17.054796","-9.488715","-18.231936","18.878693","7.751038","-18.190798","20.68579"
"era-261","7.785283","-16.761383","17.071718","-9.501913","-18.256075","18.904583","7.756038","-18.205067","20.708303"
"era-262","7.7943473","-16.77905","17.088587","-9.515063","-18.280117","18.93038","7.7610116","-18.219284","20.730745"
"era-263","7.803388","-16.796658","17.105373","-9.528158","-18.304089","18.95608","7.765967","-18.233454","20.753126"
"era-264","7.8124027","-16.814219","17.122122","-9.541207","-18.327965","18.981682","7.770898","-18.247568","20.775434"
"era-265","7.8213897","-16.831726","17.138807","-9.554206","-18.351776","19.007202","7.775809","-18.261635","20.797659"
"era-266","7.8303523","-16.849176","17.155428","-9.567161","-18.3755","19.032633","7.7807","-18.27565","20.819818"
"era-267","7.8392878","-16.866573","17.171997","-9.580064","-18.399155","19.05797","7.785566","-18.289598","20.841913"
"era-268","7.8481936","-16.883915","17.18851","-9.592924","-18.422716","19.083214","7.790412","-18.303514","20.863941"
"era-269","7.85708","-16.90121","17.204964","-9.605732","-18.4462","19.108372","7.7952366","-18.317392","20.885895"
"era-270","7.8659377","-16.918453","17.221363","-9.61849","-18.469604","19.133442","7.8000407","-18.331224","20.907772"
"era-271","7.8747716","-16.935642","17.237703","-9.631207","-18.492931","19.158419","7.8048267","-18.345007","20.929588"
"era-272","7.883577","-16.95278","17.25399","-9.643873","-18.516184","19.183315","7.809594","-18.358751","20.951328"
"era-273","7.89236","-16.969862","17.270222","-9.656492","-18.539362","19.208118","7.8143425","-18.372438","20.973"
"era-274","7.901115","-16.986895","17.2864","-9.6690645","-18.562466","19.232836","7.8190684","-18.386076","20.9946"
"era-275","7.9098425","-17.003878","17.302532","-9.681595","-18.585487","19.257475","7.823779","-18.399683","21.01613"
"era-276","7.9185543","-17.020823","17.318613","-9.694077","-18.608438","19.28202","7.8284655","-18.413242","21.037598"
"era-277","7.9272385","-17.037706","17.334623","-9.706521","-18.631313","19.306492","7.833133","-18.426752","21.058989"
"era-278","7.935901","-17.054548","17.350592","-9.718915","-18.654112","19.330875","7.8377843","-18.440216","21.080317"
"era-279","7.944541","-17.071342","17.366503","-9.731265","-18.676838","19.355175","7.8424153","-18.45365","21.101576"
"era-280","7.953157","-17.088089","17.382364","-9.743576","-18.69949","19.379396","7.8470235","-18.467037","21.12277"
"era-281","7.9617434","-17.104778","17.398174","-9.755841","-18.722067","19.403536","7.851618","-18.480383","21.143898"
"era-282","7.970312","-17.12143","17.413937","-9.768066","-18.744577","19.427595","7.8561907","-18.493673","21.16495"
"era-283","7.9788575","-17.138031","17.429644","-9.780248","-18.767008","19.451572","7.860742","-18.506922","21.18594"
"era-284","7.987378","-17.15458","17.445295","-9.79238","-18.789371","19.475466","7.86528","-18.520136","21.20686"
"era-285","7.9958725","-17.171076","17.46089","-9.80448","-18.81166","19.499283","7.869799","-18.533297","21.227715"
"era-286","8.004346","-17.18753","17.476442","-9.816537","-18.833878","19.523026","7.874302","-18.546423","21.2485"
"era-287","8.012797","-17.203938","17.49194","-9.828553","-18.856033","19.546692","7.878782","-18.559505","21.26922"
"era-288","8.021223","-17.220299","17.50739","-9.8405285","-18.878115","19.570282","7.883248","-18.572542","21.28987"
"era-289","8.02963","-17.236612","17.522787","-9.852464","-18.900131","19.593788","7.8876944","-18.585533","21.310457"
"era-290","8.03801","-17.252876","17.538137","-9.864359","-18.922075","19.617224","7.8921237","-18.598484","21.33098"
"era-291","8.0463705","-17.269098","17.553448","-9.87621","-18.943956","19.640575","7.8965387","-18.611385","21.35144"
"era-292","8.054715","-17.285282","17.568708","-9.888029","-18.965769","19.663866","7.9009356","-18.624249","21.37183"
"era-293","8.063036","-17.301416","17.583908","-9.899809","-18.987509","19.687073","7.9053135","-18.63707","21.392159"
"era-294","8.071332","-17.317509","17.59907","-9.911545","-19.009184","19.710207","7.9096766","-18.649862","21.41243"
"era-295","8.079606","-17.33355","17.614172","-9.923249","-19.030794","19.733274","7.914016","-18.662598","21.432621"
"era-296","8.087858","-17.349545","17.629227","-9.934909","-19.052341","19.756266","7.918341","-18.675297","21.452753"
"era-297","8.096085","-17.365496","17.644238","-9.946541","-19.073828","19.779194","7.92265","-18.687944","21.472818"
"era-298","8.104296","-17.381403","17.659203","-9.958137","-19.095242","19.802052","7.9269443","-18.700554","21.492819"
"era-299","8.112486","-17.39727","17.67412","-9.96969","-19.116596","19.82483","7.9312205","-18.713133","21.512754"
"era-300","8.12065","-17.41309","17.688988","-9.981207","-19.137884","19.847544","7.93548","-18.725664","21.532629"
"era-301","8.128799","-17.428873","17.703817","-9.992688","-19.159105","19.870182","7.9397216","-18.738157","21.552435"
"era-302","8.136923","-17.444609","17.718596","-10.004129","-19.180262","19.89275","7.9439416","-18.750608","21.572176"
"era-303","8.145031","-17.460306","17.73333","-10.015537","-19.201365","19.915255","7.94815","-18.763021","21.591856"
"era-304","8.153117","-17.475962","17.748022","-10.026906","-19.222399","19.937687","7.9523444","-18.775396","21.611473"
"era-305","8.161179","-17.491564","17.762655","-10.03824","-19.243376","19.960052","7.956522","-18.787737","21.63103"
"era-306","8.169222","-17.507132","17.777254","-10.049541","-19.264292","19.982355","7.9606776","-18.800034","21.650515"
"era-307","8.177246","-17.522657","17.791807","-10.060807","-19.285149","20.00459","7.9648213","-18.81229","21.669945"
"era-308","8.185245","-17.53814","17.806324","-10.07204","-19.305943","20.026758","7.968953","-18.824509","21.689306"
"era-309","8.193227","-17.553583","17.820795","-10.08324","-19.32667","20.048862","7.973065","-18.836689","21.708601"
"era-310","8.201192","-17.568989","17.83522","-10.0943985","-19.347345","20.070898","7.9771614","-18.848833","21.727839"
"era-311","8.209139","-17.584354","17.849596","-10.105528","-19.367962","20.09287","7.9812407","-18.860933","21.747017"
"era-312","8.217066","-17.599678","17.863932","-10.11662","-19.388512","20.114775","7.9853053","-18.872992","21.766125"
"era-313","8.224971","-17.61496","17.878222","-10.127683","-19.409004","20.13662","7.9893527","-18.885021","21.785177"
"era-314","8.23286","-17.630205","17.892475","-10.138712","-19.429445","20.158401","7.9933877","-18.897005","21.804163"
"era-315","8.240729","-17.645414","17.906685","-10.149707","-19.449831","20.180122","7.997405","-18.908957","21.823088"
"era-316","8.248575","-17.660578","17.920858","-10.160674","-19.470148","20.20178","8.001407","-18.920881","21.841959"
"era-317","8.256398","-17.675697","17.934984","-10.171605","-19.490423","20.223383","8.005396","-18.932762","21.86076"
"era-318","8.264205","-17.69078","17.94907","-10.182505","-19.510633","20.244917","8.009366","-18.944613","21.879515"
"era-319","8.271993","-17.70583","17.963114","-10.193368","-19.530785","20.26639","8.013318","-18.956442","21.898203"
"era-320","8.279764","-17.72084","17.977116","-10.204205","-19.550884","20.28781","8.01726","-18.968218","21.916828"
"era-321","8.287521","-17.735813","17.991076","-10.215015","-19.570938","20.309177","8.02119","-18.979956","21.9354"
"era-322","8.295259","-17.750751","18.004993","-10.225789","-19.590933","20.330477","8.025104","-18.991665","21.953917"
"era-323","8.302976","-17.765644","18.018871","-10.236533","-19.610874","20.351719","8.029001","-19.00334","21.972366"
"era-324","8.3106785","-17.780506","18.032715","-10.247245","-19.630764","20.372902","8.03289","-19.014984","21.990757"
"era-325","8.31836","-17.795328","18.046509","-10.257929","-19.650602","20.394033","8.036761","-19.02659","22.009089"
"era-326","8.326023","-17.81011","18.060268","-10.268587","-19.670374","20.415106","8.040623","-19.03816","22.027351"
"era-327","8.333669","-17.824858","18.073992","-10.279212","-19.690111","20.436123","8.04447","-19.04969","22.045563"
"era-328","8.341293","-17.839567","18.087677","-10.2898035","-19.70979","20.457083","8.048303","-19.061201","22.063715"
"era-329","8.348907","-17.854244","18.101318","-10.300376","-19.729412","20.47799","8.052117","-19.07266","22.081814"
"era-330","8.356499","-17.868881","18.114931","-10.310908","-19.748978","20.49883","8.055918","-19.084085","22.099848"
"era-331","8.364073","-17.883484","18.128492","-10.321416","-19.768496","20.519615","8.0597","-19.095469","22.117826"
"era-332","8.371633","-17.89805","18.14202","-10.331894","-19.787964","20.540354","8.06348","-19.106834","22.135744"
"era-333","8.379176","-17.912584","18.155512","-10.342344","-19.80739","20.561037","8.067245","-19.118166","22.153606"
"era-334","8.386696","-17.927076","18.168966","-10.352767","-19.826761","20.58167","8.070997","-19.129467","22.171408"
"era-335","8.394206","-17.941542","18.18238","-10.363158","-19.846092","20.602242","8.074727","-19.14071","22.189157"
"era-336","8.401695","-17.955969","18.19577","-10.373524","-19.86537","20.622768","8.078438","-19.15193","22.206848"
"era-337","8.409162","-17.970354","18.209116","-10.383864","-19.884594","20.64324","8.082145","-19.163115","22.224487"
"era-338","8.416618","-17.984715","18.222424","-10.394176","-19.903774","20.663662","8.085833","-19.174274","22.242071"
"era-339","8.424061","-17.99904","18.235691","-10.404458","-19.922907","20.684032","8.089509","-19.185394","22.25959"
"era-340","8.431485","-18.013327","18.248919","-10.414715","-19.94199","20.70435","8.093175","-19.196478","22.277054"
"era-341","8.438895","-18.027588","18.262123","-10.424947","-19.961018","20.724617","8.096833","-19.20754","22.29447"
"era-342","8.44629","-18.041813","18.275286","-10.435149","-19.980007","20.744827","8.100475","-19.218573","22.311825"
"era-343","8.453662","-18.056","18.288422","-10.445322","-19.998941","20.764988","8.104106","-19.229563","22.329119"
"era-344","8.4610195","-18.070158","18.301517","-10.455468","-20.017836","20.7851","8.107716","-19.240522","22.34636"
"era-345","8.4683695","-18.084286","18.314575","-10.465593","-20.036684","20.805168","8.111322","-19.251461","22.363552"
"era-346","8.475699","-18.09838","18.327599","-10.475692","-20.055485","20.825188","8.114915","-19.26236","22.38068"
"era-347","8.483015","-18.11244","18.340586","-10.485765","-20.07424","20.845158","8.118493","-19.273226","22.397755"
"era-348","8.490309","-18.126465","18.353546","-10.495817","-20.092943","20.865078","8.122059","-19.284052","22.41478"
"era-349","8.497587","-18.140453","18.36646","-10.5058365","-20.111614","20.88495","8.125612","-19.294855","22.431751"
"era-350","8.504855","-18.154417","18.379347","-10.515833","-20.13024","20.904772","8.129154","-19.305628","22.448666"
"era-351","8.512108","-18.168352","18.3922","-10.525799","-20.148817","20.924553","8.132673","-19.31637","22.465525"
"era-352","8.519345","-18.182253","18.40502","-10.535747","-20.167355","20.944284","8.136188","-19.327072","22.482336"
"era-353","8.526567","-18.196123","18.417807","-10.545669","-20.185848","20.96397","8.139686","-19.337744","22.499084"
"era-354","8.53377","-18.209959","18.430567","-10.555565","-20.204298","20.98361","8.143173","-19.348387","22.515778"
"era-355","8.540959","-18.223764","18.443295","-10.565434","-20.22271","21.0032","8.146658","-19.359015","22.532429"
"era-356","8.548137","-18.237545","18.455992","-10.575283","-20.241068","21.022747","8.15013","-19.369596","22.549023"
"era-357","8.5553","-18.251291","18.468647","-10.585104","-20.259386","21.042246","8.153585","-19.380167","22.565556"
"era-358","8.562451","-18.265009","18.48127","-10.594897","-20.277666","21.061699","8.157035","-19.390694","22.582039"
"era-359","8.569579","-18.278694","18.493872","-10.604672","-20.295904","21.08111","8.16047","-19.4012","22.598473"
"era-360","8.5767","-18.292355","18.506437","-10.614422","-20.314106","21.100481","8.163892","-19.411678","22.61486"
"era-361","8.583802","-18.30598","18.518976","-10.624152","-20.332264","21.119806","8.167299","-19.422108","22.63119"
"era-362","8.590893","-18.319582","18.531483","-10.633858","-20.350384","21.13909","8.170694","-19.432508","22.647469"
"era-363","8.597971","-18.333153","18.543953","-10.643539","-20.368454","21.158329","8.174079","-19.442886","22.663687"
"era-364","8.605029","-18.346685","18.556395","-10.653199","-20.386494","21.177523","8.177458","-19.453236","22.679869"
"era-365","8.6120825","-18.360203","18.568806","-10.662832","-20.404486","21.196669","8.180822","-19.463554","22.695997"
"era-366","8.619115","-18.373686","18.58119","-10.672444","-20.42244","21.215775","8.184174","-19.47384","22.712076"
"era-367","8.626135","-18.38714","18.593542","-10.682033","-20.44036","21.234842","8.187521","-19.484102","22.728106"
"era-368","8.633141","-18.400564","18.605865","-10.691598","-20.458242","21.253872","8.190857","-19.494345","22.744078"
"era-369","8.640127","-18.413956","18.618158","-10.701139","-20.476084","21.27285","8.194176","-19.504562","22.760004"
"era-370","8.647105","-18.427328","18.630426","-10.710656","-20.493889","21.291794","8.197488","-19.51476","22.775888"
"era-371","8.654072","-18.440674","18.642668","-10.7201605","-20.511658","21.310698","8.20079","-19.524912","22.791716"
"era-372","8.661026","-18.453989","18.654873","-10.729632","-20.529383","21.329554","8.204082","-19.535046","22.807499"
"era-373","8.667963","-18.467274","18.66705","-10.739085","-20.547071","21.348373","8.207358","-19.545149","22.823238"
"era-374","8.674892","-18.480537","18.6792","-10.748521","-20.56472","21.367155","8.210632","-19.555231","22.838919"
"era-375","8.68181","-18.493774","18.69131","-10.757934","-20.582333","21.385895","8.213889","-19.565283","22.854557"
"era-376","8.688713","-18.506983","18.703398","-10.767323","-20.599913","21.404594","8.217139","-19.5753","22.870144"
"era-377","8.695608","-18.520168","18.715458","-10.776686","-20.617447","21.423252","8.220379","-19.585308","22.885685"
"era-378","8.702478","-18.533318","18.7275","-10.786037","-20.634956","21.441874","8.223613","-19.595276","22.901175"
"era-379","8.709337","-18.546442","18.739508","-10.795357","-20.652431","21.460457","8.2268305","-19.605215","22.9166"
"era-380","8.716185","-18.559538","18.751488","-10.804662","-20.669865","21.479002","8.230044","-19.615135","22.931995"
"era-381","8.723022","-18.572613","18.763441","-10.813943","-20.687271","21.497509","8.23325","-19.625029","22.947346"
"era-382","8.72985","-18.58566","18.775362","-10.82321","-20.704636","21.515978","8.236449","-19.634897","22.962646"
"era-383","8.736667","-18.598686","18.787254","-10.832457","-20.721968","21.534416","8.239635","-19.644733","22.977894"
"era-384","8.743461","-18.61167","18.799126","-10.841679","-20.739271","21.552809","8.242816","-19.654535","22.993097"
"era-385","8.750244","-18.624634","18.81097","-10.850886","-20.756533","21.571175","8.245981","-19.664322","23.008257"
"era-386","8.757015","-18.637573","18.822784","-10.860071","-20.773764","21.589499","8.249132","-19.67407","23.02337"
"era-387","8.763775","-18.650488","18.834568","-10.869231","-20.790964","21.60778","8.2522745","-19.683802","23.038433"
"era-388","8.770526","-18.663382","18.84633","-10.878369","-20.80813","21.62603","8.25541","-19.69351","23.053452"
"era-389","8.777263","-18.676243","18.858065","-10.887496","-20.825268","21.644241","8.258541","-19.703186","23.068426"
"era-390","8.783986","-18.68908","18.869772","-10.896604","-20.842365","21.662426","8.261658","-19.71283","23.083359"
"era-391","8.790701","-18.701895","18.881449","-10.905692","-20.859432","21.68057","8.264767","-19.72244","23.098248"
"era-392","8.797405","-18.714685","18.893106","-10.91476","-20.876469","21.698685","8.267868","-19.732033","23.113083"
"era-393","8.804101","-18.727457","18.904736","-10.923814","-20.893475","21.716763","8.270957","-19.741594","23.12787"
"era-394","8.810779","-18.740194","18.916336","-10.932841","-20.910452","21.734806","8.274043","-19.751139","23.14262"
"era-395","8.817443","-18.752909","18.927917","-10.941847","-20.927393","21.752811","8.277119","-19.760664","23.157324"
"era-396","8.824096","-18.765598","18.939472","-10.950839","-20.944302","21.77078","8.280183","-19.770157","23.171984"
"era-397","8.83074","-18.778267","18.951","-10.959809","-20.961182","21.788717","8.28324","-19.779634","23.186598"
"era-398","8.837377","-18.790915","18.962505","-10.96876","-20.978025","21.806618","8.286294","-19.789083","23.20117"
"era-399","8.843994","-18.803534","18.973984","-10.977692","-20.99484","21.824486","8.289339","-19.798515","23.2157"
"era-400","8.850608","-18.81613","18.985437","-10.986606","-21.011623","21.84232","8.292378","-19.80791","23.23018"
"era-401","8.857209","-18.828707","18.99687","-10.995502","-21.028383","21.860123","8.295408","-19.817291","23.244629"
"era-402","8.863796","-18.841257","19.008278","-11.004378","-21.045107","21.87789","8.298431","-19.826649","23.259024"
"era-403","8.870374","-18.853788","19.019665","-11.013238","-21.0618","21.895624","8.301444","-19.83598","23.273378"
"era-404","8.876938","-18.86629","19.031029","-11.022079","-21.078466","21.91333","8.30445","-19.845282","23.287695"
"era-405","8.883493","-18.87877","19.04236","-11.030906","-21.095102","21.931002","8.307444","-19.854559","23.301966"
"era-406","8.890039","-18.891228","19.053675","-11.039718","-21.111717","21.94864","8.310438","-19.8638","23.316193"
"era-407","8.896568","-18.90366","19.064962","-11.048508","-21.128294","21.966251","8.313416","-19.87303","23.33038"
"era-408","8.9030905","-18.916073","19.076231","-11.057281","-21.144848","21.983833","8.316381","-19.882236","23.344528"
"era-409","8.909601","-18.928465","19.08747","-11.066029","-21.161371","22.00138","8.319342","-19.891428","23.358637"
"era-410","8.916103","-18.940832","19.098682","-11.074767","-21.177868","22.018892","8.322296","-19.9006","23.37271"
"era-411","8.922597","-18.95318","19.109879","-11.083481","-21.194336","22.036375","8.325245","-19.909727","23.386736"
"era-412","8.929081","-18.965513","19.121061","-11.092188","-21.21078","22.05383","8.328183","-19.918835","23.400717"
"era-413","8.935551","-18.977818","19.132214","-11.100869","-21.227194","22.071253","8.331114","-19.92792","23.414652"
"era-414","8.942012","-18.990099","19.143343","-11.10954","-21.243584","22.088646","8.334034","-19.936983","23.428556"
"era-415","8.948458","-19.002354","19.15445","-11.118192","-21.25994","22.106012","8.336953","-19.94603","23.442417"
"era-416","8.954896","-19.014593","19.165535","-11.126823","-21.276278","22.123352","8.339865","-19.955061","23.456244"
"era-417","8.9613285","-19.026812","19.176594","-11.135443","-21.292587","22.140657","8.342766","-19.964058","23.470024"
"era-418","8.967748","-19.039007","19.187637","-11.14404","-21.30887","22.15793","8.345658","-19.973036","23.483763"
"era-419","8.974161","-19.051193","19.198666","-11.152621","-21.325127","22.175173","8.348549","-19.98199","23.497465"
"era-420","8.980567","-19.063354","19.209663","-11.161191","-21.341352","22.19239","8.351428","-19.990925","23.51113"
"era-421","8.986954","-19.075481","19.22064","-11.1697445","-21.357557","22.209578","8.354303","-19.999832","23.524755"
"era-422","8.993335","-19.0876","19.231604","-11.178278","-21.373737","22.226738","8.357167","-20.008709","23.538336"
"era-423","8.999704","-19.099697","19.242542","-11.186798","-21.389889","22.243872","8.3600235","-20.017576","23.55188"
"era-424","9.006063","-19.111769","19.253466","-11.195301","-21.406017","22.260979","8.362875","-20.026424","23.565386"
"era-425","9.01241","-19.123817","19.264359","-11.203783","-21.422123","22.27805","8.365722","-20.03525","23.578852"
"era-426","9.01875","-19.135849","19.275232","-11.21225","-21.438202","22.295095","8.36856","-20.044054","23.59228"
"era-427","9.025082","-19.147861","19.286085","-11.220706","-21.454258","22.312115","8.371387","-20.05284","23.60567"
"era-428","9.031405","-19.159857","19.296913","-11.229142","-21.470287","22.329105","8.374211","-20.061592","23.61903"
"era-429","9.037721","-19.171831","19.307724","-11.237565","-21.486286","22.346067","8.37703","-20.070337","23.632347"
"era-430","9.044023","-19.183783","19.318512","-11.245969","-21.502277","22.363007","8.379839","-20.07906","23.64563"
"era-431","9.0503235","-19.195719","19.329277","-11.254364","-21.518238","22.379923","8.382646","-20.087753","23.658867"
"era-432","9.056608","-19.207638","19.340036","-11.26274","-21.534172","22.396805","8.385438","-20.09642","23.672071"
"era-433","9.0628805","-19.21953","19.35077","-11.271098","-21.550087","22.413662","8.388228","-20.105074","23.685236"
"era-434","9.069142","-19.231396","19.361483","-11.279443","-21.565975","22.43049","8.391017","-20.113714","23.698364"
"era-435","9.075391","-19.24324","19.372173","-11.287772","-21.581837","22.447289","8.393797","-20.12231","23.711462"
"era-436","9.081634","-19.255072","19.38285","-11.296083","-21.597675","22.464064","8.396568","-20.13089","23.724516"
"era-437","9.087865","-19.266874","19.3935","-11.304387","-21.6135","22.480812","8.399333","-20.139448","23.737537"
"era-438","9.09409","-19.27867","19.40413","-11.312669","-21.629292","22.497536","8.402091","-20.14799","23.750511"
"era-439","9.100309","-19.290443","19.414742","-11.32094","-21.64507","22.514235","8.404848","-20.156513","23.763462"
"era-440","9.106521","-19.302197","19.425333","-11.329191","-21.660822","22.530909","8.407599","-20.16502","23.77637"
"era-441","9.11272","-19.313932","19.435904","-11.337434","-21.67655","22.54755","8.410342","-20.173496","23.789242"
"era-442","9.118907","-19.325645","19.44646","-11.345657","-21.692255","22.56417","8.413077","-20.181967","23.802076"
"era-443","9.12509","-19.337345","19.456993","-11.353864","-21.707945","22.580767","8.415808","-20.190407","23.814882"
"era-444","9.131264","-19.349026","19.46751","-11.362059","-21.723606","22.597336","8.418532","-20.198822","23.82765"
"era-445","9.137428","-19.36069","19.478018","-11.37024","-21.73925","22.61388","8.4212475","-20.207226","23.840387"
"era-446","9.143582","-19.372328","19.488495","-11.3784075","-21.75487","22.6304","8.423959","-20.215601","23.853085"
"era-447","9.149729","-19.383957","19.498964","-11.386559","-21.770472","22.646896","8.426666","-20.22396","23.865757"
"era-448","9.155864","-19.395565","19.509417","-11.394693","-21.78605","22.663368","8.429366","-20.23231","23.878386"
"era-449","9.161993","-19.407154","19.519842","-11.402817","-21.801615","22.679817","8.432062","-20.24063","23.890982"
"era-450","9.168118","-19.418728","19.53025","-11.41093","-21.817154","22.696243","8.434748","-20.248934","23.903543"
"era-451","9.174231","-19.430283","19.540642","-11.419027","-21.832676","22.712652","8.437428","-20.257223","23.91607"
"era-452","9.180332","-19.441818","19.551022","-11.427118","-21.848175","22.729036","8.440112","-20.265493","23.928564"
"era-453","9.186428","-19.453339","19.561382","-11.435183","-21.863665","22.745396","8.442788","-20.27375","23.941027"
"era-454","9.192514","-19.46484","19.571722","-11.44324","-21.87913","22.761734","8.4454565","-20.281988","23.953457"
"era-455","9.1986","-19.47633","19.582047","-11.451278","-21.89457","22.77804","8.448126","-20.290205","23.965845"
"era-456","9.204671","-19.4878","19.592367","-11.459306","-21.909986","22.79432","8.450786","-20.298399","23.978207"
"era-457","9.210733","-19.499252","19.602655","-11.467317","-21.925386","22.810583","8.453435","-20.306574","23.990532"
"era-458","9.216789","-19.51069","19.612932","-11.475323","-21.940773","22.826824","8.456085","-20.314728","24.002823"
"era-459","9.22284","-19.522112","19.623194","-11.483311","-21.956148","22.84305","8.458728","-20.322857","24.015085"
"era-460","9.228878","-19.533512","19.63344","-11.49129","-21.971493","22.85925","8.461366","-20.330967","24.027319"
"era-461","9.234916","-19.5449","19.64367","-11.499253","-21.986818","22.87542","8.463998","-20.339062","24.039518"
"era-462","9.240943","-19.556276","19.653877","-11.507201","-22.002132","22.89157","8.46663","-20.347136","24.051691"
"era-463","9.246964","-19.56763","19.664072","-11.515138","-22.017427","22.907705","8.46925","-20.355186","24.063826"
"era-464","9.252976","-19.578972","19.674248","-11.523066","-22.0327","22.923815","8.47187","-20.36323","24.075937"
"era-465","9.258977","-19.590292","19.684414","-11.530978","-22.047955","22.939901","8.474487","-20.371248","24.088017"
"era-466","9.264972","-19.601593","19.694553","-11.538877","-22.063194","22.955967","8.4771","-20.379242","24.100067"
"era-467","9.270956","-19.612875","19.704681","-11.546761","-22.07842","22.972008","8.479703","-20.387224","24.11208"
"era-468","9.276937","-19.624151","19.714796","-11.554632","-22.093624","22.988035","8.482304","-20.395191","24.12405"
"era-469","9.282908","-19.635408","19.724895","-11.562493","-22.108805","23.004036","8.4848995","-20.403143","24.135996"
"era-470","9.288873","-19.646646","19.734976","-11.570343","-22.123972","23.02002","8.487492","-20.411076","24.147915"
"era-471","9.294826","-19.65787","19.745037","-11.578177","-22.139126","23.03598","8.490081","-20.418991","24.159807"
"era-472","9.300778","-19.669079","19.755093","-11.586001","-22.154264","23.051924","8.492662","-20.426888","24.171667"
"era-473","9.306724","-19.680277","19.765123","-11.593813","-22.169382","23.067842","8.495239","-20.43477","24.183502"
"era-474","9.31266","-19.691456","19.775145","-11.601612","-22.184483","23.083742","8.497812","-20.442638","24.195305"
"era-475","9.318591","-19.702625","19.78515","-11.609398","-22.199566","23.09962","8.5003805","-20.450478","24.207062"
"era-476","9.324516","-19.713774","19.795141","-11.617174","-22.214636","23.11548","8.502952","-20.458307","24.218792"
"era-477","9.330426","-19.724903","19.805115","-11.624937","-22.22968","23.13132","8.505512","-20.466116","24.230497"
"era-478","9.336329","-19.736021","19.815079","-11.63269","-22.244713","23.14714","8.508061","-20.473915","24.242178"
"era-479","9.342226","-19.747124","19.825026","-11.64042","-22.259735","23.162933","8.510604","-20.481693","24.253828"
"era-480","9.348118","-19.758211","19.834955","-11.648149","-22.274742","23.178715","8.51315","-20.48945","24.265451"
"era-481","9.353997","-19.76928","19.844883","-11.655864","-22.289726","23.194473","8.515689","-20.497185","24.277042"
"era-482","9.359878","-19.78034","19.854784","-11.66357","-22.304699","23.210217","8.518226","-20.504898","24.28861"
"era-483","9.365754","-19.79139","19.86467","-11.67126","-22.319658","23.225937","8.520757","-20.5126","24.300148"
"era-484","9.371615","-19.802416","19.87454","-11.678941","-22.334604","23.241642","8.523285","-20.5203","24.311646"
"era-485","9.377464","-19.813417","19.884405","-11.686607","-22.349531","23.257324","8.525811","-20.527964","24.323118"
"era-486","9.38331","-19.824413","19.894253","-11.694268","-22.364435","23.27299","8.52833","-20.53562","24.33457"
"era-487","9.389148","-19.835396","19.90409","-11.701917","-22.379324","23.288633","8.5308485","-20.543262","24.345991"
"era-488","9.394981","-19.846367","19.91391","-11.709549","-22.394209","23.30426","8.533356","-20.550894","24.357393"
"era-489","9.400808","-19.85732","19.923714","-11.717177","-22.409077","23.319878","8.535862","-20.558502","24.368753"
"era-490","9.4066305","-19.868261","19.9335","-11.724788","-22.423937","23.335474","8.538361","-20.566097","24.380095"
"era-491","9.412443","-19.879189","19.943281","-11.732391","-22.438774","23.351046","8.540858","-20.573683","24.391401"
"era-492","9.418247","-19.890097","19.953041","-11.739983","-22.453592","23.366602","8.543352","-20.58125","24.402683"
"era-493","9.424044","-19.900991","19.96279","-11.747564","-22.468403","23.382143","8.54584","-20.588799","24.413939"
"era-494","9.429837","-19.911875","19.97252","-11.755133","-22.483198","23.397663","8.548324","-20.596325","24.42517"
"era-495","9.435621","-19.922739","19.982239","-11.762693","-22.497986","23.413166","8.550807","-20.603834","24.436373"
"era-496","9.441401","-19.933592","19.99195","-11.770242","-22.512754","23.42865","8.553285","-20.611332","24.447552"
"era-497","9.447168","-19.944426","20.001642","-11.77778","-22.527506","23.444118","8.555762","-20.618807","24.458696"
"era-498","9.452932","-19.955252","20.011332","-11.785303","-22.54225","23.459568","8.558232","-20.626265","24.469822"
"era-499","9.45869","-19.966063","20.021002","-11.792822","-22.556982","23.475","8.5607","-20.633709","24.480915"
"era-500","9.46444","-19.97686","20.03066","-11.80033","-22.571695","23.490417","8.563166","-20.641138","24.49198"
"era-501","9.470188","-19.987646","20.040302","-11.807833","-22.5864","23.505821","8.5656185","-20.64855","24.503027"
"era-502","9.475925","-19.998415","20.049929","-11.815322","-22.601088","23.521212","8.568074","-20.65595","24.514042"
"era-503","9.481658","-20.009174","20.059547","-11.822797","-22.615768","23.536577","8.570529","-20.663334","24.525032"
"era-504","9.487383","-20.019915","20.06915","-11.830258","-22.630432","23.551926","8.572982","-20.670712","24.535997"
"era-505","9.493102","-20.030645","20.078747","-11.837713","-22.64508","23.567257","8.575427","-20.67806","24.546938"
"era-506","9.498815","-20.041359","20.088322","-11.8451605","-22.659714","23.582571","8.577867","-20.6854","24.557846"
"era-507","9.504517","-20.052055","20.097889","-11.852593","-22.674337","23.597868","8.580307","-20.692726","24.568731"
"era-508","9.510211","-20.06274","20.107445","-11.860015","-22.688946","23.61315","8.582744","-20.700039","24.579594"
"era-509","9.5159025","-20.073414","20.11698","-11.867433","-22.703543","23.628418","8.585175","-20.707335","24.590433"
"era-510","9.521584","-20.084063","20.126503","-11.874838","-22.71813","23.643665","8.587611","-20.714607","24.601246"
"era-511","9.527258","-20.094706","20.136023","-11.882238","-22.732708","23.658901","8.59004","-20.721867","24.612036"
"era-512","9.532928","-20.105337","20.145529","-11.889624","-22.747269","23.674116","8.592465","-20.729115","24.6228"
"era-513","9.538592","-20.115953","20.155024","-11.896999","-22.761818","23.689316","8.594892","-20.736347","24.633541"
"era-514","9.5442505","-20.126558","20.1645","-11.904363","-22.776352","23.704502","8.597304","-20.743555","24.64426"
"era-515","9.549905","-20.137154","20.173964","-11.911718","-22.790882","23.71967","8.599717","-20.750751","24.654947"
"era-516","9.555555","-20.147738","20.183422","-11.919074","-22.805399","23.734827","8.60213","-20.757935","24.665607"
"era-517","9.561201","-20.158314","20.192875","-11.926413","-22.8199","23.749968","8.60454","-20.765097","24.676247"
"era-518","9.566836","-20.168869","20.202307","-11.93374","-22.834396","23.76509","8.606948","-20.77225","24.686865"
"era-519","9.572467","-20.179413","20.21173","-11.941066","-22.848873","23.780203","8.609352","-20.779396","24.69746"
"era-520","9.57809","-20.189941","20.221136","-11.9483795","-22.86334","23.795301","8.611755","-20.78652","24.708035"
"era-521","9.583708","-20.20046","20.23054","-11.955683","-22.8778","23.810379","8.614152","-20.793621","24.718582"
"era-522","9.589316","-20.210962","20.239923","-11.962975","-22.892246","23.825438","8.616546","-20.800726","24.729109"
"era-523","9.594923","-20.221458","20.249292","-11.970259","-22.906681","23.840487","8.618937","-20.807825","24.739613"
"era-524","9.600526","-20.231941","20.258652","-11.977534","-22.92111","23.855528","8.621324","-20.814898","24.75009"
"era-525","9.606119","-20.24241","20.268005","-11.984802","-22.935524","23.87055","8.623713","-20.821962","24.760538"
"era-526","9.61171","-20.25287","20.277346","-11.992063","-22.94992","23.88556","8.626094","-20.82901","24.77097"
"era-527","9.6172905","-20.263317","20.286678","-11.9993105","-22.96432","23.900553","8.628473","-20.836035","24.781382"
"era-528","9.62287","-20.27375","20.295998","-12.006554","-22.978708","23.915531","8.630853","-20.843046","24.791765"
"era-529","9.62844","-20.284172","20.305304","-12.013788","-22.99308","23.930496","8.6332245","-20.850042","24.802128"
"era-530","9.634008","-20.294584","20.3146","-12.02101","-23.007444","23.94545","8.635599","-20.857021","24.81247"
"era-531","9.639569","-20.304981","20.323893","-12.028232","-23.021807","23.960394","8.637967","-20.863983","24.822786"
"era-532","9.645122","-20.315367","20.333174","-12.035442","-23.03615","23.97532","8.640334","-20.870937","24.83309"
"era-533","9.650665","-20.325739","20.342447","-12.042647","-23.050478","23.99023","8.642695","-20.87788","24.843359"
"era-534","9.656203","-20.3361","20.351711","-12.049833","-23.064802","24.005125","8.64505","-20.884811","24.853613"
"era-535","9.661736","-20.346447","20.360958","-12.057017","-23.079117","24.020008","8.647411","-20.891731","24.86384"
"era-536","9.667265","-20.356789","20.370197","-12.064188","-23.09343","24.03488","8.64976","-20.898643","24.87405"
"era-537","9.672791","-20.367117","20.379423","-12.071351","-23.107723","24.049728","8.652114","-20.905537","24.884237"
"era-538","9.6783085","-20.377432","20.38864","-12.078507","-23.122005","24.064571","8.65446","-20.912415","24.894405"
"era-539","9.683822","-20.38774","20.39785","-12.085658","-23.136282","24.079401","8.656806","-20.91929","24.904552"
"era-540","9.689328","-20.398033","20.407051","-12.092798","-23.150549","24.094221","8.659139","-20.926138","24.914669"
"era-541","9.694828","-20.408318","20.416248","-12.099932","-23.164812","24.109026","8.661478","-20.93298","24.924772"
"era-542","9.700329","-20.41859","20.425425","-12.107062","-23.179062","24.123823","8.663823","-20.93981","24.934849"
"era-543","9.705818","-20.428852","20.4346","-12.1141815","-23.193306","24.138605","8.666157","-20.946617","24.944904"
"era-544","9.711306","-20.439106","20.443766","-12.121296","-23.207539","24.153378","8.668491","-20.953423","24.954947"
"era-545","9.716787","-20.449347","20.452915","-12.1284","-23.221767","24.168135","8.670817","-20.96021","24.964966"
"era-546","9.722263","-20.459578","20.462057","-12.1355","-23.235987","24.182878","8.673142","-20.96699","24.97497"
"era-547","9.7277355","-20.469797","20.471184","-12.142582","-23.250195","24.197613","8.675466","-20.973757","24.98495"
"era-548","9.733201","-20.480003","20.480309","-12.149666","-23.264399","24.212334","8.677783","-20.980513","24.994911"
"era-549","9.738655","-20.490196","20.489422","-12.156734","-23.278585","24.22704","8.680102","-20.987246","25.004852"
"era-550","9.744113","-20.500385","20.49852","-12.163805","-23.292768","24.241728","8.682421","-20.993965","25.014769"
"era-551","9.749559","-20.51056","20.507614","-12.17086","-23.306942","24.256407","8.684737","-21.000683","25.024672"
"era-552","9.755004","-20.520721","20.516695","-12.177911","-23.32111","24.271076","8.687045","-21.007385","25.034555"
"era-553","9.760446","-20.53088","20.525768","-12.184957","-23.335264","24.285738","8.689353","-21.014078","25.044413"
"era-554","9.765882","-20.541021","20.534828","-12.191998","-23.349419","24.300385","8.691663","-21.020756","25.054255"
"era-555","9.771311","-20.551153","20.543888","-12.199024","-23.363564","24.315025","8.693967","-21.027414","25.064075"
"era-556","9.7767315","-20.561277","20.552935","-12.206046","-23.377695","24.329647","8.69626","-21.034065","25.073877"
"era-557","9.782152","-20.57139","20.561975","-12.213061","-23.391825","24.344254","8.698564","-21.040707","25.08366"
"era-558","9.787563","-20.58149","20.571001","-12.220064","-23.405943","24.358856","8.700854","-21.04733","25.093424"
"era-559","9.792964","-20.591574","20.58002","-12.22707","-23.420055","24.373442","8.703146","-21.053946","25.10317"
"era-560","9.798365","-20.601652","20.58903","-12.234065","-23.434158","24.388025","8.705436","-21.060549","25.112892"
"era-561","9.803758","-20.611717","20.59803","-12.241057","-23.448256","24.402592","8.707723","-21.067146","25.122604"
"era-562","9.809152","-20.621782","20.607029","-12.24804","-23.462345","24.417152","8.710008","-21.073736","25.132296"
"era-563","9.814536","-20.631834","20.616014","-12.255014","-23.47643","24.431704","8.712289","-21.08031","25.141964"
"era-564","9.819921","-20.641874","20.624989","-12.261979","-23.490501","24.446238","8.714566","-21.086878","25.15162"
"era-565","9.825293","-20.651901","20.633959","-12.268936","-23.50457","24.46076","8.716838","-21.093428","25.161255"
"era-566","9.830659","-20.661915","20.642918","-12.275895","-23.518633","24.475273","8.719111","-21.09996","25.170877"
"era-567","9.836026","-20.671923","20.651865","-12.282845","-23.532688","24.489779","8.721386","-21.106472","25.180483"
"era-568","9.84139","-20.681921","20.6608","-12.289786","-23.546738","24.504274","8.723658","-21.11298","25.190067"
"era-569","9.84674","-20.691904","20.669737","-12.296729","-23.560783","24.518763","8.7259245","-21.119476","25.19963"
"era-570","9.852087","-20.701878","20.678665","-12.303656","-23.574816","24.53323","8.728195","-21.125963","25.209175"
"era-571","9.857431","-20.71184","20.687572","-12.310585","-23.58884","24.547693","8.730459","-21.132444","25.218702"
"era-572","9.862764","-20.721788","20.696474","-12.3175","-23.602863","24.562145","8.732723","-21.138924","25.228212"
"era-573","9.8681","-20.731737","20.70537","-12.3244095","-23.61688","24.576588","8.734983","-21.145376","25.237705"
"era-574","9.873434","-20.741678","20.71426","-12.331319","-23.630888","24.591024","8.737238","-21.151817","25.24718"
"era-575","9.878756","-20.7516","20.723143","-12.338216","-23.64489","24.605452","8.739492","-21.158257","25.25664"
"era-576","9.884069","-20.761513","20.732014","-12.345115","-23.65889","24.619864","8.741743","-21.164684","25.266083"
"era-577","9.889383","-20.771421","20.740885","-12.352001","-23.67288","24.63427","8.743998","-21.1711","25.275507"
"era-578","9.894693","-20.781322","20.749746","-12.358888","-23.686863","24.648663","8.7462435","-21.177498","25.284914"
"era-579","9.899998","-20.79121","20.758595","-12.365759","-23.700842","24.663048","8.748485","-21.183897","25.294308"
"era-580","9.905299","-20.801088","20.767439","-12.372625","-23.714813","24.677422","8.750725","-21.190268","25.303679"
"era-581","9.910587","-20.810951","20.776276","-12.379493","-23.728783","24.691788","8.752971","-21.196636","25.313038"
"era-582","9.91588","-20.82081","20.785095","-12.386356","-23.74274","24.70614","8.755203","-21.202993","25.32238"
"era-583","9.921163","-20.83066","20.793919","-12.393207","-23.756695","24.720491","8.757437","-21.20934","25.331709"
"era-584","9.926441","-20.840498","20.802729","-12.400057","-23.770645","24.73483","8.75967","-21.215673","25.341019"
"era-585","9.93172","-20.850328","20.811527","-12.406899","-23.784594","24.74916","8.761904","-21.221994","25.350315"
"era-586","9.936986","-20.860146","20.820324","-12.413735","-23.798529","24.76348","8.764131","-21.228312","25.359594"
"era-587","9.942251","-20.869959","20.829113","-12.420573","-23.812462","24.777798","8.766357","-21.23462","25.368856"
"era-588","9.947511","-20.879759","20.837893","-12.427403","-23.82639","24.792099","8.768583","-21.240915","25.37811"
"era-589","9.952766","-20.889551","20.846664","-12.434227","-23.840305","24.80639","8.770803","-21.247175","25.387352"
"era-590","9.958018","-20.899334","20.855421","-12.441044","-23.854225","24.820677","8.773022","-21.253452","25.396572"
"era-591","9.963263","-20.909107","20.864185","-12.447857","-23.868135","24.834955","8.775235","-21.259708","25.405773"
"era-592","9.968507","-20.918879","20.87294","-12.454666","-23.882044","24.849226","8.777448","-21.265959","25.41496"
"era-593","9.973744","-20.928637","20.881687","-12.461474","-23.895945","24.86349","8.779654","-21.272192","25.424131"
"era-594","9.978978","-20.938389","20.890425","-12.468273","-23.909834","24.877743","8.781864","-21.278423","25.433292"
"era-595","9.984212","-20.948132","20.899155","-12.475067","-23.923733","24.891989","8.784074","-21.284637","25.442436"
"era-596","9.989436","-20.957863","20.907873","-12.48186","-23.937618","24.90622","8.786279","-21.290844","25.451567"
"era-597","9.994655","-20.967583","20.91659","-12.488645","-23.951502","24.920454","8.788483","-21.297033","25.460688"
"era-598","9.999869","-20.977293","20.925297","-12.495421","-23.965374","24.934673","8.790683","-21.303219","25.469793"
"era-599","10.005081","-20.987001","20.933994","-12.502199","-23.97925","24.948883","8.79288","-21.309383","25.478878"
"era-600","10.010288","-20.996696","20.942694","-12.508967","-23.99312","24.963093","8.795075","-21.315548","25.48795"
"era-601","10.0154915","-21.006388","20.951384","-12.515741","-24.00698","24.977295","8.797274","-21.321709","25.497011"
"era-602","10.020688","-21.016062","20.960064","-12.522505","-24.020842","24.991486","8.79947","-21.327854","25.506048"
"era-603","10.025875","-21.025728","20.96874","-12.529266","-24.034698","25.005672","8.801658","-21.333994","25.515076"
"era-604","10.031064","-21.035387","20.977407","-12.536021","-24.048555","25.019854","8.803848","-21.340117","25.524092"
"era-605","10.036248","-21.045038","20.986065","-12.54278","-24.062397","25.034021","8.806036","-21.346228","25.533092"
"era-606","10.041426","-21.05468","20.994719","-12.54952","-24.07624","25.04818","8.808223","-21.352337","25.54208"
"era-607","10.0465975","-21.064314","21.003366","-12.556261","-24.090073","25.062332","8.810404","-21.358442","25.551054"
"era-608","10.051763","-21.073935","21.012009","-12.562994","-24.103905","25.076477","8.812582","-21.364529","25.560007"
"era-609","10.056925","-21.083551","21.020638","-12.569726","-24.117731","25.09061","8.814754","-21.370611","25.568958"
"era-610","10.062087","-21.093163","21.029268","-12.57645","-24.131556","25.10474","8.816926","-21.376678","25.577894"
"era-611","10.067239","-21.102758","21.03789","-12.583176","-24.145374","25.118864","8.819098","-21.382744","25.586817"
"era-612","10.072388","-21.11235","21.046503","-12.589899","-24.15919","25.13298","8.82127","-21.38879","25.595718"
"era-613","10.077537","-21.121933","21.055113","-12.596616","-24.173","25.147087","8.823436","-21.394829","25.604612"
"era-614","10.08268","-21.131508","21.06371","-12.603332","-24.186806","25.161192","8.825605","-21.400852","25.613493"
"era-615","10.087817","-21.141073","21.072308","-12.610039","-24.20061","25.17529","8.827772","-21.406868","25.62236"
"era-616","10.092952","-21.15063","21.080898","-12.616749","-24.21441","25.189377","8.829933","-21.412878","25.631212"
"era-617","10.098081","-21.16018","21.089478","-12.623445","-24.228207","25.203459","8.832097","-21.418875","25.640057"
"era-618","10.1032","-21.169714","21.098055","-12.630147","-24.241997","25.21753","8.834258","-21.424868","25.648886"
"era-619","10.10832","-21.179247","21.106627","-12.636846","-24.255787","25.231606","8.836413","-21.430847","25.657713"
"era-620","10.113443","-21.188774","21.11518","-12.6435375","-24.26957","25.24567","8.838572","-21.436815","25.666523"
"era-621","10.118552","-21.19829","21.123737","-12.6502285","-24.283354","25.259731","8.840727","-21.442785","25.675318"
"era-622","10.123661","-21.2078","21.132288","-12.656918","-24.297132","25.273787","8.84288","-21.448746","25.684101"
"era-623","10.128769","-21.217304","21.140825","-12.663604","-24.310904","25.28783","8.845024","-21.45469","25.692875"
"era-624","10.133865","-21.226791","21.14936","-12.670277","-24.324673","25.30187","8.847173","-21.460627","25.701637"
"era-625","10.138957","-21.236273","21.157892","-12.676952","-24.33844","25.315899","8.84931","-21.46656","25.710382"
"era-626","10.144047","-21.245749","21.16642","-12.683627","-24.3522","25.329926","8.851455","-21.472479","25.71912"
"era-627","10.149135","-21.255217","21.174934","-12.69029","-24.365957","25.343943","8.853596","-21.47839","25.727844"
"era-628","10.154217","-21.264673","21.183443","-12.6969595","-24.379713","25.357956","8.855732","-21.484287","25.736557"
"era-629","10.159295","-21.274122","21.19194","-12.703623","-24.39346","25.371964","8.857868","-21.490177","25.745256"
"era-630","10.164368","-21.283562","21.20044","-12.710285","-24.407211","25.385971","8.860002","-21.496063","25.753942"
"era-631","10.169435","-21.293001","21.208935","-12.716946","-24.420952","25.399967","8.862133","-21.50194","25.762619"
"era-632","10.174501","-21.302431","21.21743","-12.723597","-24.434692","25.413958","8.864263","-21.5078","25.77129"
"era-633","10.179562","-21.311852","21.225912","-12.7302475","-24.44843","25.427935","8.866392","-21.51366","25.779945"
"era-634","10.184622","-21.321268","21.2344","-12.736895","-24.462156","25.441914","8.868519","-21.519506","25.788595"
"era-635","10.189679","-21.33068","21.242874","-12.743541","-24.475882","25.455883","8.870637","-21.525341","25.797234"
"era-636","10.194725","-21.340082","21.251348","-12.750181","-24.4896","25.469849","8.872755","-21.531176","25.805851"
"era-637","10.199775","-21.349478","21.259813","-12.756823","-24.503317","25.483805","8.874871","-21.536997","25.814466"
"era-638","10.204823","-21.358868","21.268269","-12.763458","-24.517042","25.497759","8.876991","-21.542814","25.823069"
"era-639","10.209861","-21.368244","21.276714","-12.770093","-24.530748","25.511705","8.879111","-21.548622","25.831669"
"era-640","10.214897","-21.377613","21.285154","-12.776725","-24.544462","25.52565","8.881224","-21.554422","25.840256"
"era-641","10.21993","-21.38698","21.293592","-12.783358","-24.558168","25.53959","8.883337","-21.560204","25.848831"
"era-642","10.224956","-21.396328","21.302025","-12.789984","-24.57187","25.553522","8.885446","-21.565979","25.857397"
"era-643","10.229976","-21.405672","21.310448","-12.796612","-24.585567","25.56745","8.887559","-21.571756","25.865952"
"era-644","10.234989","-21.415009","21.318872","-12.803241","-24.599262","25.58137","8.8896675","-21.577532","25.874502"
"era-645","10.240002","-21.424335","21.32729","-12.809856","-24.612955","25.595293","8.891773","-21.583294","25.88304"
"era-646","10.24501","-21.433659","21.335701","-12.816475","-24.626648","25.609205","8.893877","-21.589039","25.891565"
"era-647","10.250016","-21.442974","21.344107","-12.823091","-24.640337","25.623116","8.89598","-21.59478","25.900084"
"era-648","10.25502","-21.452288","21.352507","-12.829701","-24.654022","25.637018","8.898077","-21.600517","25.908588"
"era-649","10.2600155","-21.461586","21.3609","-12.836315","-24.667706","25.650913","8.900175","-21.606256","25.917088"
"era-650","10.265004","-21.470873","21.369293","-12.842929","-24.681381","25.66481","8.902269","-21.61198","25.92558"
"era-651","10.269992","-21.480158","21.377672","-12.849533","-24.695057","25.678701","8.90436","-21.617699","25.934065"
"era-652","10.274972","-21.489428","21.386042","-12.856138","-24.70873","25.692587","8.906453","-21.62342","25.942533"
"era-653","10.279946","-21.498692","21.39441","-12.862747","-24.722403","25.70647","8.908539","-21.629124","25.950994"
"era-654","10.284916","-21.507946","21.402771","-12.869345","-24.736074","25.720352","8.910621","-21.634823","25.959448"
"era-655","10.2898855","-21.5172","21.411129","-12.875946","-24.749744","25.734226","8.912698","-21.640518","25.967896"
"era-656","10.294852","-21.526447","21.419481","-12.88254","-24.763405","25.7481","8.914772","-21.646202","25.976337"
"era-657","10.299814","-21.535685","21.427822","-12.889144","-24.777067","25.761965","8.916844","-21.651867","25.984766"
"era-658","10.304774","-21.544918","21.436165","-12.895745","-24.790718","25.775827","8.918916","-21.657532","25.993189"
"era-659","10.309732","-21.554146","21.4445","-12.902343","-24.804367","25.789688","8.920984","-21.663181","26.001604"
"era-660","10.314683","-21.563364","21.452833","-12.908936","-24.81802","25.803535","8.923055","-21.668821","26.01001"
"era-661","10.319631","-21.572577","21.461166","-12.9155245","-24.831663","25.817385","8.92512","-21.674454","26.01841"
"era-662","10.324574","-21.581781","21.46949","-12.922116","-24.845306","25.831226","8.927183","-21.68008","26.026806"
"era-663","10.329517","-21.590982","21.477806","-12.928705","-24.858944","25.845068","8.929246","-21.685703","26.03519"
"era-664","10.334455","-21.600178","21.48612","-12.935292","-24.872591","25.858906","8.931307","-21.691319","26.043564"
"era-665","10.339383","-21.60936","21.494432","-12.941881","-24.886223","25.87274","8.93336","-21.696924","26.051935"
"era-666","10.344313","-21.61854","21.502739","-12.948464","-24.899853","25.886572","8.935416","-21.702532","26.060295"
"era-667","10.349237","-21.627703","21.511023","-12.955058","-24.913486","25.900398","8.937463","-21.70812","26.06865"
"era-668","10.354158","-21.63687","21.519314","-12.961639","-24.927114","25.914223","8.939512","-21.713709","26.076994"
"era-669","10.359078","-21.646027","21.527601","-12.968221","-24.94074","25.928043","8.941559","-21.719292","26.085331"
"era-670","10.363992","-21.655176","21.535881","-12.9748","-24.954361","25.941854","8.943608","-21.72487","26.093664"
"era-671","10.368903","-21.664318","21.544151","-12.981382","-24.967974","25.955664","8.945653","-21.730434","26.101992"
"era-672","10.373806","-21.673456","21.552425","-12.98796","-24.981583","25.969471","8.947692","-21.735994","26.110304"
"era-673","10.37871","-21.682587","21.560696","-12.994533","-24.995201","25.983273","8.94973","-21.741537","26.118618"
"era-674","10.383608","-21.691706","21.568956","-13.001114","-25.00881","25.997072","8.951767","-21.747074","26.126923"
"era-675","10.388503","-21.70082","21.577211","-13.007693","-25.022413","26.01087","8.953799","-21.7526","26.13522"
"era-676","10.393393","-21.709929","21.585464","-13.014269","-25.036016","26.02466","8.955834","-21.758131","26.143513"
"era-677","10.398278","-21.719027","21.593712","-13.020845","-25.049616","26.03846","8.957862","-21.76366","26.151794"
"era-678","10.403156","-21.72812","21.601967","-13.027419","-25.063223","26.052248","8.959889","-21.769178","26.16007"
"era-679","10.408033","-21.737206","21.6102","-13.033997","-25.076818","26.066034","8.961916","-21.774685","26.168343"
"era-680","10.412909","-21.746286","21.618433","-13.040572","-25.090414","26.07982","8.963939","-21.780195","26.176607"
"era-681","10.417778","-21.755363","21.626665","-13.047149","-25.10401","26.093603","8.965959","-21.785694","26.184868"
"era-682","10.422646","-21.76443","21.634886","-13.053716","-25.1176","26.107384","8.967982","-21.791185","26.193121"
"era-683","10.42751","-21.773489","21.643105","-13.060289","-25.131184","26.12116","8.969998","-21.796675","26.20137"
"era-684","10.432372","-21.782545","21.651316","-13.066866","-25.144764","26.134933","8.97201","-21.802162","26.209612"
"era-685","10.4372225","-21.791586","21.659523","-13.073434","-25.15834","26.148703","8.974027","-21.807646","26.217848"
"era-686","10.44207","-21.800627","21.66773","-13.080005","-25.171919","26.162468","8.976034","-21.813108","26.226082"
"era-687","10.4469185","-21.80966","21.675938","-13.086576","-25.185482","26.17623","8.97804","-21.818579","26.234312"
"era-688","10.45176","-21.818686","21.684132","-13.093147","-25.19905","26.18999","8.980041","-21.82403","26.242533"
"era-689","10.456604","-21.827707","21.69232","-13.099716","-25.212616","26.203747","8.982041","-21.829472","26.250751"
"era-690","10.46144","-21.836721","21.700508","-13.106287","-25.22618","26.217499","8.984046","-21.83491","26.25897"
"era-691","10.466273","-21.84573","21.708693","-13.112861","-25.23974","26.231247","8.986045","-21.840347","26.267183"
"era-692","10.471101","-21.85473","21.716867","-13.119427","-25.253296","26.245005","8.988046","-21.845778","26.275387"
"era-693","10.475927","-21.863724","21.725039","-13.125997","-25.266855","26.258745","8.99004","-21.85119","26.283587"
"era-694","10.480743","-21.872705","21.733208","-13.132566","-25.280409","26.272491","8.992027","-21.856598","26.291782"
"era-695","10.48556","-21.881681","21.74137","-13.139139","-25.293953","26.286236","8.994017","-21.86201","26.299969"
"era-696","10.490373","-21.890652","21.749517","-13.14571","-25.3075","26.299978","8.996005","-21.867413","26.308153"
"era-697","10.495178","-21.899616","21.757671","-13.152282","-25.321037","26.313713","8.99799","-21.87281","26.316328"
"era-698","10.499985","-21.908575","21.76582","-13.158852","-25.334574","26.327446","8.999972","-21.878193","26.324501"
"era-699","10.504787","-21.917532","21.773966","-13.165419","-25.348106","26.341175","9.0019455","-21.88358","26.332672"
"era-700","10.509585","-21.926477","21.782103","-13.1719885","-25.361633","26.354902","9.0039215","-21.888962","26.340837"
"era-701","10.514381","-21.93542","21.790234","-13.178561","-25.375154","26.368633","9.005896","-21.894333","26.349005"
"era-702","10.519171","-21.94435","21.798363","-13.185133","-25.388674","26.382357","9.007864","-21.899693","26.357162"
"era-703","10.523959","-21.95328","21.806488","-13.191705","-25.402195","26.396082","9.009831","-21.905058","26.36532"
"era-704","10.528746","-21.962208","21.814617","-13.198279","-25.415714","26.4098","9.011798","-21.91041","26.373468"
"era-705","10.533535","-21.971134","21.822731","-13.20485","-25.429226","26.42352","9.01376","-21.915762","26.38161"
"era-706","10.538319","-21.980053","21.830845","-13.211418","-25.442734","26.437231","9.0157175","-21.921103","26.389757"
"era-707","10.543094","-21.988964","21.838963","-13.217987","-25.456236","26.450941","9.017679","-21.926435","26.397898"
"era-708","10.547871","-21.997873","21.847073","-13.224562","-25.469738","26.464651","9.019631","-21.931763","26.406029"
"era-709","10.55264","-22.006771","21.855185","-13.2311325","-25.483234","26.478357","9.021584","-21.937077","26.414162"
"era-710","10.557409","-22.015665","21.86328","-13.237704","-25.496727","26.492065","9.02353","-21.942394","26.422293"
"era-711","10.562171","-22.024551","21.871376","-13.244282","-25.51021","26.505766","9.025476","-21.9477","26.430424"
"era-712","10.566929","-22.033432","21.87947","-13.250862","-25.523693","26.519468","9.02742","-21.95301","26.43855"
"era-713","10.571686","-22.042309","21.887564","-13.257436","-25.53717","26.533169","9.029363","-21.958307","26.446674"
"era-714","10.57644","-22.05118","21.895653","-13.26401","-25.55065","26.546865","9.0313015","-21.9636","26.45479"
"era-715","10.581191","-22.060047","21.903738","-13.270584","-25.564117","26.560562","9.033237","-21.968893","26.462912"
"era-716","10.585934","-22.068901","21.911816","-13.2771635","-25.577587","26.574251","9.03517","-21.974176","26.471027"
"era-717","10.590675","-22.077751","21.919886","-13.283738","-25.59105","26.587946","9.037101","-21.979458","26.479141"
"era-718","10.595411","-22.086594","21.927954","-13.29032","-25.604511","26.601643","9.039025","-21.984726","26.487257"
"era-719","10.600144","-22.09543","21.93602","-13.2969","-25.617966","26.615326","9.040948","-21.990004","26.495369"
"era-720","10.604871","-22.104263","21.944084","-13.303478","-25.631416","26.629019","9.042867","-21.995274","26.503479"
"era-721","10.609597","-22.113094","21.952139","-13.310061","-25.64486","26.642698","9.044779","-22.000538","26.511585"
"era-722","10.614322","-22.121916","21.960192","-13.316641","-25.658306","26.65638","9.046694","-22.005787","26.519691"
"era-723","10.619052","-22.130741","21.96824","-13.323225","-25.671741","26.670063","9.048601","-22.011036","26.527792"
"era-724","10.62377","-22.139555","21.976288","-13.329809","-25.685175","26.68374","9.05051","-22.01628","26.535896"
"era-725","10.628487","-22.148367","21.98433","-13.336392","-25.698603","26.697422","9.05242","-22.021519","26.543991"
"era-726","10.633194","-22.157162","21.992363","-13.342978","-25.712029","26.711092","9.05432","-22.026764","26.552094"
"era-727","10.637899","-22.165956","22.000402","-13.349559","-25.725447","26.724766","9.056221","-22.031996","26.560186"
"era-728","10.642603","-22.174746","22.008432","-13.356145","-25.73886","26.738438","9.058115","-22.037228","26.568281"
"era-729","10.647302","-22.18353","22.016459","-13.362736","-25.752277","26.752113","9.06001","-22.042458","26.576376"
"era-730","10.652004","-22.192314","22.024483","-13.369326","-25.765684","26.765789","9.061901","-22.047678","26.584469"
"era-731","10.656698","-22.201088","22.032503","-13.375916","-25.779085","26.779457","9.06379","-22.052893","26.592558"
"era-732","10.661387","-22.209852","22.040514","-13.382507","-25.792486","26.793123","9.065673","-22.058107","26.600649"
"era-733","10.66607","-22.218609","22.048523","-13.389099","-25.805878","26.806791","9.067555","-22.063313","26.608738"
"era-734","10.670753","-22.227364","22.056534","-13.395696","-25.819263","26.820456","9.069436","-22.068516","26.61683"
"era-735","10.675433","-22.236115","22.064533","-13.402291","-25.832642","26.83412","9.071313","-22.073708","26.62492"
"era-736","10.680108","-22.244856","22.072535","-13.408888","-25.84602","26.847786","9.073185","-22.078903","26.633005"
"era-737","10.684776","-22.253593","22.080523","-13.415488","-25.859386","26.861443","9.075052","-22.08409","26.641092"
"era-738","10.6894455","-22.262323","22.088514","-13.422092","-25.872744","26.875101","9.076919","-22.089266","26.649178"
"era-739","10.694111","-22.271048","22.096495","-13.428694","-25.886093","26.888756","9.078784","-22.094442","26.657259"
"era-740","10.698772","-22.279768","22.104475","-13.435297","-25.89944","26.902409","9.0806465","-22.099613","26.665337"
"era-741","10.703433","-22.288486","22.112455","-13.441894","-25.912786","26.916063","9.082502","-22.104784","26.67342"
"era-742","10.70809","-22.2972","22.120436","-13.4485","-25.926115","26.929707","9.084359","-22.109951","26.681503"
"era-743","10.712746","-22.30591","22.128408","-13.455106","-25.939444","26.943357","9.086208","-22.115108","26.68959"
"era-744","10.717391","-22.314606","22.136374","-13.461711","-25.952768","26.957003","9.088057","-22.120266","26.697674"
"era-745","10.722036","-22.323301","22.144337","-13.468324","-25.966084","26.97065","9.089902","-22.12542","26.705753"
"era-746","10.726676","-22.331987","22.152302","-13.47493","-25.979399","26.984293","9.091743","-22.130566","26.713835"
"era-747","10.731313","-22.340673","22.160263","-13.481542","-25.992706","26.997936","9.093582","-22.135712","26.721924"
"era-748","10.7359495","-22.349358","22.168222","-13.488152","-26.006002","27.011576","9.095416","-22.140854","26.730007"
"era-749","10.740583","-22.358034","22.176178","-13.494772","-26.019293","27.025215","9.097248","-22.146","26.73809"
"era-750","10.745212","-22.366701","22.184124","-13.501388","-26.03257","27.038855","9.099073","-22.15112","26.746174"
"era-751","10.749836","-22.375364","22.192062","-13.508007","-26.045837","27.052486","9.100895","-22.156246","26.754265"
"era-752","10.754459","-22.384024","22.200005","-13.514622","-26.059109","27.066113","9.102717","-22.161364","26.762356"
"era-753","10.759076","-22.392675","22.207935","-13.521241","-26.07236","27.079744","9.10453","-22.166477","26.770447"
"era-754","10.763694","-22.40133","22.215876","-13.527866","-26.085613","27.093374","9.106342","-22.171597","26.77854"
"era-755","10.768309","-22.409973","22.223804","-13.534491","-26.098846","27.107002","9.108153","-22.176702","26.786634"
"era-756","10.772917","-22.418613","22.231733","-13.541116","-26.112078","27.120625","9.10996","-22.181808","26.794725"
"era-757","10.777524","-22.427248","22.239655","-13.547749","-26.1253","27.134247","9.111763","-22.186907","26.80282"
"era-758","10.78213","-22.435879","22.247578","-13.554374","-26.13851","27.147865","9.113565","-22.192005","26.810925"
"era-759","10.78673","-22.444506","22.255497","-13.5610075","-26.151722","27.161488","9.115363","-22.197096","26.819023"
"era-760","10.791326","-22.453125","22.263416","-13.567648","-26.164923","27.175108","9.117156","-22.202183","26.827126"
"era-761","10.795914","-22.461735","22.271332","-13.57428","-26.178114","27.188726","9.118945","-22.20726","26.835236"
"era-762","10.800504","-22.470348","22.279247","-13.580924","-26.191298","27.202343","9.120729","-22.212337","26.843348"
"era-763","10.805092","-22.47895","22.287148","-13.587563","-26.204466","27.215956","9.122507","-22.217415","26.851463"
"era-764","10.809673","-22.48755","22.295046","-13.594203","-26.21763","27.229568","9.124281","-22.222486","26.859575"
"era-765","10.81426","-22.496151","22.302942","-13.600846","-26.230783","27.243177","9.126052","-22.227554","26.867691"
"era-766","10.8188305","-22.50474","22.31084","-13.607492","-26.243921","27.256788","9.127821","-22.232618","26.875807"
"era-767","10.823406","-22.513325","22.318733","-13.61414","-26.25705","27.270395","9.129587","-22.23768","26.883928"
"era-768","10.827975","-22.521904","22.326624","-13.6207905","-26.270172","27.283995","9.13135","-22.242735","26.89205"
"era-769","10.832542","-22.530483","22.334515","-13.627436","-26.283283","27.297598","9.13311","-22.247797","26.900177"
"era-770","10.837103","-22.539051","22.342392","-13.634088","-26.296381","27.311195","9.134866","-22.252857","26.90831"
"era-771","10.8416605","-22.547611","22.350266","-13.640747","-26.309471","27.324795","9.136618","-22.25792","26.916441"
"era-772","10.846217","-22.556171","22.35814","-13.647403","-26.322552","27.338392","9.138367","-22.262962","26.924583"
"era-773","10.85077","-22.564726","22.366009","-13.654066","-26.335613","27.351986","9.140113","-22.268017","26.932734"
"era-774","10.855322","-22.573273","22.373869","-13.660728","-26.348661","27.36558","9.141858","-22.27306","26.940876"
"era-775","10.859866","-22.581816","22.381731","-13.667393","-26.361702","27.379173","9.143599","-22.278097","26.949028"
"era-776","10.864412","-22.590357","22.389587","-13.674059","-26.374735","27.39276","9.145334","-22.283134","26.957191"
"era-777","10.868954","-22.59889","22.39744","-13.680727","-26.387747","27.40634","9.14706","-22.288157","26.965357"
"era-778","10.873491","-22.607426","22.405294","-13.687398","-26.400745","27.41992","9.148784","-22.29318","26.973522"
"era-779","10.878031","-22.61596","22.41315","-13.694064","-26.41373","27.433504","9.150513","-22.2982","26.981693"
"era-780","10.882561","-22.624474","22.420992","-13.700739","-26.426708","27.447075","9.152237","-22.303226","26.989866"
"era-781","10.887087","-22.632986","22.428823","-13.707418","-26.439665","27.46065","9.153957","-22.308235","26.998043"
"era-782","10.891614","-22.641495","22.43666","-13.714094","-26.452614","27.474226","9.155676","-22.313255","27.00623"
"era-783","10.896133","-22.649996","22.444498","-13.720774","-26.465551","27.487797","9.1573925","-22.318264","27.014414"
"era-784","10.900648","-22.658497","22.452326","-13.727457","-26.478474","27.501364","9.159101","-22.323286","27.022606"
"era-785","10.905164","-22.666994","22.460157","-13.734141","-26.491373","27.514923","9.160806","-22.32829","27.030806"
"era-786","10.909674","-22.675482","22.467983","-13.74083","-26.504263","27.528492","9.162503","-22.333292","27.039005"
"era-787","10.914179","-22.683968","22.475807","-13.747519","-26.517134","27.542051","9.164196","-22.338295","27.047213"
"era-788","10.918683","-22.692448","22.483627","-13.754206","-26.529999","27.555613","9.165886","-22.343292","27.055426"
"era-789","10.923184","-22.700928","22.491444","-13.760899","-26.542852","27.569172","9.167572","-22.34829","27.063646"
"era-790","10.927681","-22.709398","22.499256","-13.767593","-26.55568","27.582727","9.16926","-22.353281","27.071877"
"era-791","10.932173","-22.717863","22.507063","-13.774293","-26.568487","27.596277","9.17094","-22.358267","27.080107"
"era-792","10.936663","-22.726318","22.51486","-13.7809925","-26.581287","27.609827","9.172617","-22.363245","27.08834"
"era-793","10.941152","-22.734776","22.522661","-13.787692","-26.594065","27.623375","9.174289","-22.36823","27.096582"
"era-794","10.945634","-22.743227","22.53046","-13.79439","-26.606825","27.636913","9.17596","-22.373215","27.104834"
"era-795","10.950113","-22.751673","22.538252","-13.80109","-26.619566","27.650452","9.177624","-22.378197","27.11309"
"era-796","10.95459","-22.760115","22.546047","-13.8077965","-26.632282","27.663982","9.179287","-22.383179","27.121353"
"era-797","10.959062","-22.768547","22.553835","-13.814503","-26.644987","27.677517","9.180944","-22.38815","27.129622"
"era-798","10.963537","-22.776983","22.561613","-13.821204","-26.65767","27.69104","9.1826","-22.39312","27.137897"
"era-799","10.968005","-22.785414","22.569399","-13.827913","-26.67033","27.704561","9.184257","-22.398087","27.146185"
"era-800","10.972468","-22.793837","22.577179","-13.834618","-26.682976","27.71808","9.1859045","-22.40305","27.15448"
"era-801","10.976933","-22.802261","22.584963","-13.841328","-26.6956","27.731592","9.187548","-22.408009","27.162775"
"era-802","10.981395","-22.810682","22.592737","-13.848034","-26.7082","27.745104","9.189185","-22.412964","27.171082"
"era-803","10.985851","-22.819096","22.600513","-13.854746","-26.72079","27.758614","9.190824","-22.417913","27.179392"
"era-804","10.990301","-22.827496","22.60828","-13.861453","-26.73335","27.772114","9.192457","-22.422865","27.187714"
"era-805","10.994749","-22.835901","22.61605","-13.868161","-26.745895","27.78562","9.194089","-22.42781","27.196043"
"era-806","10.999195","-22.844301","22.623816","-13.874873","-26.758419","27.799116","9.195717","-22.432768","27.204384"
"era-807","11.00364","-22.852695","22.631577","-13.881582","-26.770922","27.812609","9.19734","-22.437714","27.212732"
"era-808","11.008079","-22.861084","22.639332","-13.888294","-26.7834","27.826094","9.198965","-22.442656","27.221092"
"era-809","11.012522","-22.869474","22.64708","-13.894998","-26.795856","27.83957","9.200583","-22.447592","27.229456"
"era-810","11.016959","-22.87786","22.654829","-13.901704","-26.808287","27.853048","9.202197","-22.452528","27.237823"
"era-811","11.021394","-22.88624","22.662582","-13.908412","-26.820698","27.86652","9.203812","-22.457462","27.246204"
"era-812","11.025821","-22.894613","22.670328","-13.915118","-26.833088","27.879992","9.205422","-22.4624","27.254591"
"era-813","11.030246","-22.902983","22.67807","-13.9218235","-26.845451","27.893452","9.207025","-22.467337","27.262989"
"era-814","11.034669","-22.911354","22.685816","-13.928523","-26.85779","27.906908","9.208626","-22.47227","27.271397"
"era-815","11.039087","-22.919714","22.693552","-13.935225","-26.870104","27.920362","9.21022","-22.477201","27.279812"
"era-816","11.043505","-22.928072","22.701283","-13.941921","-26.882387","27.933805","9.211802","-22.482119","27.288237"
"era-817","11.047916","-22.936424","22.709019","-13.948614","-26.894653","27.947243","9.21339","-22.48704","27.296673"
"era-818","11.052325","-22.944773","22.716747","-13.955305","-26.90689","27.960674","9.214975","-22.491959","27.305115"
"era-819","11.056732","-22.953115","22.724472","-13.961993","-26.919102","27.9741","9.2165575","-22.496878","27.313566"
"era-820","11.061133","-22.961454","22.732191","-13.968669","-26.931286","27.987513","9.218135","-22.501795","27.322023"
"era-821","11.065534","-22.969791","22.739914","-13.975348","-26.943447","28.000921","9.219711","-22.5067","27.33049"
"era-822","11.069927","-22.97812","22.747639","-13.9820175","-26.955584","28.01432","9.221288","-22.511602","27.33897"
"era-823","11.074326","-22.98645","22.755354","-13.988686","-26.967697","28.027718","9.2228565","-22.516502","27.347462"
"era-824","11.078717","-22.994774","22.763058","-13.995351","-26.979784","28.041103","9.224428","-22.521414","27.35596"
"era-825","11.08311","-23.0031","22.770763","-14.002001","-26.991844","28.05448","9.225996","-22.52632","27.364468"
"era-826","11.087497","-23.011417","22.778467","-14.008648","-27.003881","28.06785","9.227552","-22.53122","27.372976"
"era-827","11.091879","-23.019726","22.786167","-14.0152855","-27.015892","28.081211","9.229114","-22.53612","27.3815"
"era-828","11.09626","-23.028036","22.793863","-14.021915","-27.027868","28.094555","9.230668","-22.541012","27.390036"
"era-829","11.100635","-23.036335","22.801561","-14.0285425","-27.039822","28.107895","9.2322235","-22.545908","27.39858"
"era-830","11.105008","-23.044638","22.809252","-14.03516","-27.051743","28.121227","9.233771","-22.55079","27.40713"
"era-831","11.109383","-23.052935","22.816936","-14.041768","-27.063646","28.134548","9.235322","-22.555677","27.415693"
"era-832","11.113752","-23.061224","22.824621","-14.048371","-27.07552","28.147858","9.236867","-22.560549","27.42427"
"era-833","11.1181135","-23.069506","22.832302","-14.054958","-27.08737","28.161154","9.238408","-22.565416","27.432854"
"era-834","11.12247","-23.077782","22.839985","-14.061538","-27.099194","28.174437","9.239953","-22.57028","27.441448"
"era-835","11.126829","-23.086061","22.847662","-14.068104","-27.11099","28.187708","9.241493","-22.575142","27.45005"
"era-836","11.131185","-23.094334","22.855341","-14.074667","-27.122763","28.200974","9.243032","-22.580006","27.458658"
"era-837","11.135538","-23.102606","22.863012","-14.081213","-27.134506","28.21423","9.244569","-22.584858","27.46728"
"era-838","11.139888","-23.11087","22.870682","-14.087751","-27.146227","28.227465","9.246093","-22.589708","27.475906"
"era-839","11.144237","-23.119131","22.87835","-14.094275","-27.157917","28.240692","9.247623","-22.594557","27.484547"
