"era-0","0.7820445","-0.2520926","1.0681131","-0.37214392","0.061436385","0.20318219","-0.37902775","-0.76110506","-0.13366663"
"era-1","1.1029192","-0.8240391","1.7977785","0.076021515","0.27423885","0.43693763","-0.04569655","-1.1718934","-0.011875555"
"era-2","1.3340571","-2.6750522","3.5494745","0.61145025","0.5747854","0.68927103","0.8295822","-2.7958448","0.5364854"
"era-3","2.184607","-4.5177608","5.6176677","0.97442794","0.70225346","1.1145552","1.760421","-4.627392","1.3616407"
"era-4","2.8197854","-5.6783514","6.893471","0.97579557","0.4928328","1.5775006","2.1949582","-5.575202","1.9457908"
"era-5","3.2061765","-6.5765615","7.8542576","0.45550364","-0.20154464","1.9678216","2.4727757","-6.214258","2.6350203"
"era-6","3.214296","-7.7001724","8.537342","-1.3049303","-3.4592404","3.3870327","3.2825794","-6.6305213","5.472481"
"era-7","3.3409224","-8.37264","8.954156","-2.1447406","-5.171678","5.048313","3.5449219","-7.566249","7.517087"
"era-8","3.4969647","-8.806285","9.31195","-2.698379","-6.074464","6.022604","3.7825322","-8.256431","8.563054"
"era-9","3.647104","-9.161428","9.627459","-3.1025374","-6.7481394","6.7203116","3.9806998","-8.799265","9.248053"
"era-10","3.7873235","-9.473691","9.911587","-3.4208093","-7.302052","7.281298","4.1466136","-9.245169","9.748335"
"era-11","3.9180357","-9.756479","10.171964","-3.6879678","-7.7770877","7.7620664","4.2877655","-9.622363","10.137287"
"era-12","4.040438","-10.01696","10.413706","-3.9220366","-8.195807","8.188968","4.40952","-9.948523","10.452801"
"era-13","4.1557546","-10.259735","10.640273","-4.1325574","-8.572812","8.576225","4.5156875","-10.235521","10.716698"
"era-14","4.2650595","-10.488017","10.854216","-4.3249145","-8.918434","8.932526","4.60913","-10.491646","10.942647"
"era-15","4.3692546","-10.704132","11.05746","-4.502482","-9.240333","9.263741","4.692119","-10.722741","11.13979"
"era-16","4.4690824","-10.909785","11.2515545","-4.6675773","-9.544249","9.574093","4.766561","-10.933037","11.314545"
"era-17","4.5651383","-11.106336","11.437726","-4.8219695","-9.834326","9.866845","4.833944","-11.125681","11.4715185"
"era-18","4.6578894","-11.29485","11.616924","-4.9670296","-10.113486","10.14456","4.8954544","-11.303116","11.614049"
"era-19","4.7476974","-11.476224","11.789955","-5.1039233","-10.383656","10.40934","4.9520063","-11.467273","11.744605"
"era-20","4.834832","-11.65119","11.957446","-5.233639","-10.646016","10.66294","5.0043","-11.619742","11.86504"
"era-21","4.919499","-11.820355","12.119942","-5.3570275","-10.901248","10.906814","5.0528936","-11.761831","11.976755"
"era-22","5.0018606","-11.984248","12.277917","-5.47482","-11.149789","11.142185","5.0982366","-11.894648","12.080893"
"era-23","5.082045","-12.143303","12.431769","-5.5876484","-11.391897","11.370067","5.1406946","-12.019086","12.178378"
"era-24","5.1601624","-12.297892","12.581839","-5.696049","-11.62777","11.591292","5.180573","-12.13591","12.270001"
"era-25","5.2363176","-12.448347","12.728409","-5.8005195","-11.857545","11.806582","5.2181125","-12.245736","12.356435"
"era-26","5.310589","-12.594953","12.871738","-5.9014516","-12.081412","12.016519","5.2535224","-12.3491535","12.438275"
"era-27","5.38307","-12.737986","13.012042","-5.999205","-12.299558","12.221597","5.2869587","-12.446677","12.516024"
"era-28","5.453836","-12.877674","13.149485","-6.0940604","-12.512214","12.4222","5.3185244","-12.538736","12.590083"
"era-29","5.5229597","-13.014243","13.284219","-6.186223","-12.719654","12.618605","5.348308","-12.625754","12.660761"
"era-30","5.5905323","-13.147896","13.416376","-6.2758317","-12.922223","12.810981","5.376388","-12.708086","12.72831"
"era-31","5.6566453","-13.278836","13.546058","-6.3629603","-13.1202965","12.999415","5.40283","-12.786107","12.792943"
"era-32","5.721398","-13.407236","13.673367","-6.4476976","-13.314232","13.183942","5.427729","-12.860088","12.85484"
"era-33","5.7848964","-13.533262","13.79839","-6.530141","-13.504326","13.364548","5.451184","-12.930232","12.914185"
"era-34","5.847258","-13.65707","13.921197","-6.610417","-13.69079","13.54124","5.473305","-12.996768","12.971187"
"era-35","5.908596","-13.778781","14.041858","-6.68869","-13.873778","13.7140255","5.4942484","-13.059816","13.026036"
"era-36","5.9690194","-13.898523","14.160452","-6.765125","-14.053425","13.882924","5.514157","-13.119514","13.078941"
"era-37","6.02863","-14.016403","14.277049","-6.8398905","-14.229823","14.047966","5.5331755","-13.175956","13.130107"
"era-38","6.0875216","-14.132525","14.391727","-6.913156","-14.403018","14.209207","5.551443","-13.229248","13.179711"
"era-39","6.145763","-14.246982","14.504563","-6.9851346","-14.572972","14.366799","5.569043","-13.279523","13.227921"
"era-40","6.203401","-14.359863","14.6156435","-7.056092","-14.739536","14.521028","5.5860205","-13.326969","13.274853"
"era-41","6.260454","-14.471265","14.725058","-7.1263413","-14.902393","14.672304","5.6023355","-13.371845","13.320561"
"era-42","6.316893","-14.581259","14.832901","-7.196239","-15.061146","14.821216","5.6178718","-13.41449","13.3650255"
"era-43","6.3726993","-14.689942","14.939286","-7.2660594","-15.2154665","14.968329","5.632488","-13.455265","13.408159"
"era-44","6.4278193","-14.797363","15.044324","-7.335943","-15.365325","15.114084","5.646076","-13.49449","13.449877"
"era-45","6.4822326","-14.903581","15.148115","-7.40586","-15.51101","15.258698","5.658599","-13.532423","13.490138"
"era-46","6.535934","-15.008631","15.250744","-7.4756856","-15.653009","15.402183","5.670079","-13.569213","13.528974"
"era-47","6.58893","-15.112557","15.352289","-7.5452538","-15.791891","15.544469","5.6805897","-13.604991","13.5664425"
"era-48","6.6412635","-15.215397","15.452795","-7.6144524","-15.928159","15.685478","5.690215","-13.639819","13.602668"
"era-49","6.6929536","-15.317183","15.552322","-7.6831884","-16.062216","15.825148","5.6990256","-13.673764","13.637732"
"era-50","6.744035","-15.417946","15.650905","-7.751407","-16.194395","15.963438","5.707102","-13.706891","13.671735"
"era-51","6.794542","-15.517718","15.748583","-7.8190866","-16.324917","16.100346","5.7145143","-13.7392645","13.70476"
"era-52","6.844492","-15.616518","15.845379","-7.8862333","-16.454016","16.2359","5.7213154","-13.77093","13.736887"
"era-53","6.8939195","-15.714373","15.941331","-7.9528337","-16.581833","16.370102","5.72758","-13.801941","13.7682"
"era-54","6.9428453","-15.8112955","16.03646","-8.018897","-16.7085","16.50295","5.7333627","-13.832336","13.798769"
"era-55","6.9912767","-15.907293","16.1308","-8.084423","-16.83414","16.634462","5.738723","-13.862163","13.828657"
"era-56","7.039242","-16.002388","16.224382","-8.149419","-16.958849","16.764624","5.7437253","-13.891429","13.857944"
"era-57","7.086766","-16.0966","16.317232","-8.213886","-17.082722","16.893442","5.748427","-13.920145","13.886693"
"era-58","7.1338534","-16.189917","16.409378","-8.277829","-17.205841","17.020885","5.7529","-13.948328","13.91498"
"era-59","7.1805305","-16.282358","16.500818","-8.341241","-17.328274","17.146952","5.7571993","-13.975995","13.942892"
"era-60","7.226805","-16.373928","16.5916","-8.404137","-17.450047","17.271622","5.761385","-14.003126","13.970498"
"era-61","7.272686","-16.464607","16.681719","-8.466532","-17.571194","17.39488","5.765519","-14.029684","13.997891"
"era-62","7.3181953","-16.554424","16.771208","-8.528422","-17.691725","17.516726","5.769639","-14.055685","14.025147"
"era-63","7.3633223","-16.643354","16.860075","-8.589842","-17.81164","17.63719","5.773792","-14.081104","14.052335"
"era-64","7.408089","-16.731424","16.94836","-8.650814","-17.930864","17.756308","5.778022","-14.1059475","14.079525"
"era-65","7.452503","-16.818634","17.03608","-8.711373","-18.049332","17.874132","5.782344","-14.13018","14.106779"
"era-66","7.4965405","-16.904985","17.123285","-8.771554","-18.16693","17.990725","5.7867804","-14.153806","14.134142"
"era-67","7.5402083","-16.990479","17.20998","-8.83141","-18.28353","18.10621","5.79132","-14.176849","14.161644"
"era-68","7.5834727","-17.075104","17.296213","-8.890991","-18.398993","18.220673","5.7959704","-14.199298","14.189304"
"era-69","7.6263304","-17.158878","17.382006","-8.95037","-18.513153","18.334284","5.8006797","-14.221183","14.217111"
"era-70","7.668737","-17.2418","17.467413","-9.009589","-18.625818","18.447157","5.8054223","-14.24253","14.245007"
"era-71","7.7106733","-17.323895","17.55248","-9.06869","-18.73688","18.559425","5.810144","-14.263401","14.272962"
"era-72","7.7521014","-17.405157","17.63725","-9.127709","-18.846241","18.671198","5.814797","-14.28383","14.30088"
"era-73","7.7929897","-17.4856","17.721746","-9.186641","-18.953852","18.782537","5.8193192","-14.303842","14.328691"
"era-74","7.8333235","-17.565252","17.80602","-9.245476","-19.059717","18.893509","5.8236713","-14.323505","14.356322"
"era-75","7.873081","-17.644117","17.890076","-9.304203","-19.163887","19.004122","5.827811","-14.342818","14.383746"
"era-76","7.9122653","-17.722225","17.973944","-9.362813","-19.266405","19.114382","5.8317237","-14.361807","14.410933"
"era-77","7.950865","-17.79957","18.057617","-9.421282","-19.367308","19.22427","5.835419","-14.380496","14.437875"
"era-78","7.9889174","-17.876194","18.141079","-9.479607","-19.466673","19.333786","5.8389","-14.398902","14.464571"
"era-79","8.026438","-17.952105","18.224314","-9.537793","-19.564531","19.442953","5.842189","-14.41705","14.49102"
"era-80","8.063473","-18.027338","18.307274","-9.595826","-19.660946","19.551785","5.84532","-14.435037","14.517189"
"era-81","8.100069","-18.101929","18.389929","-9.653667","-19.756023","19.660282","5.8483315","-14.452931","14.543016"
"era-82","8.136288","-18.175913","18.472202","-9.711263","-19.849895","19.768435","5.8512745","-14.47086","14.568428"
"era-83","8.172227","-18.249334","18.553993","-9.768531","-19.942741","19.876205","5.85423","-14.488937","14.593355"
"era-84","8.208002","-18.322279","18.635221","-9.825389","-20.034742","19.983587","5.8572764","-14.507347","14.617697"
"era-85","8.243737","-18.394808","18.715765","-9.881779","-20.12601","20.090574","5.8605266","-14.526254","14.641361"
"era-86","8.279593","-18.466995","18.795467","-9.937662","-20.216629","20.197197","5.8640895","-14.545871","14.664269"
"era-87","8.315721","-18.538904","18.874144","-9.993035","-20.306604","20.303505","5.8681083","-14.566416","14.686366"
"era-88","8.35226","-18.610561","18.951609","-10.0478945","-20.395954","20.409521","5.872753","-14.588107","14.707622"
"era-89","8.38931","-18.681944","19.027643","-10.102252","-20.484709","20.515245","5.878219","-14.611096","14.728052"
"era-90","8.426872","-18.752935","19.102068","-10.156136","-20.572931","20.620663","5.884679","-14.635446","14.7477045"
"era-91","8.464833","-18.82338","19.174843","-10.209544","-20.660698","20.725676","5.892275","-14.661063","14.766661"
"era-92","8.502931","-18.893057","19.246145","-10.262508","-20.748095","20.830185","5.9010262","-14.687641","14.785027"
"era-93","8.540787","-18.961805","19.316402","-10.315062","-20.835175","20.934093","5.91083","-14.714747","14.802931"
"era-94","8.577988","-19.029493","19.386253","-10.367229","-20.921967","21.037312","5.921517","-14.741926","14.820504"
"era-95","8.614119","-19.096037","19.45638","-10.419052","-21.008461","21.139803","5.9329047","-14.768797","14.83787"
"era-96","8.648957","-19.161457","19.527273","-10.470554","-21.094614","21.241554","5.944803","-14.795073","14.855146"
"era-97","8.682485","-19.22588","19.599201","-10.521735","-21.18039","21.342556","5.957006","-14.820572","14.872422"
"era-98","8.714813","-19.289469","19.672203","-10.572612","-21.265743","21.442825","5.9693255","-14.845173","14.889814"
"era-99","8.746152","-19.352417","19.746187","-10.623169","-21.350653","21.542362","5.9815865","-14.868801","14.90743"
"era-100","8.77673","-19.4149","19.821001","-10.673413","-21.435085","21.641178","5.993662","-14.891418","14.925361"
"era-101","8.8067665","-19.477068","19.896437","-10.723341","-21.519016","21.739271","6.0054617","-14.912974","14.9437065"
"era-102","8.836462","-19.53904","19.97229","-10.772948","-21.602423","21.836632","6.016937","-14.933469","14.962556"
"era-103","8.866027","-19.600903","20.048334","-10.822244","-21.685272","21.933266","6.0281157","-14.952933","14.982006"
"era-104","8.895611","-19.662724","20.124378","-10.871219","-21.767557","22.029156","6.03905","-14.971405","15.002164"
"era-105","8.925399","-19.72454","20.200157","-10.919868","-21.849277","22.124264","6.0498405","-14.988953","15.023146"
"era-106","8.955567","-19.786406","20.275455","-10.968174","-21.930431","22.218548","6.0606413","-15.005643","15.045092"
"era-107","8.98631","-19.848358","20.350029","-11.016075","-22.011038","22.3119","6.071646","-15.021572","15.068149"
"era-108","9.017804","-19.91042","20.423628","-11.063541","-22.091105","22.404202","6.083108","-15.036826","15.09252"
"era-109","9.050265","-19.972603","20.495974","-11.110512","-22.170654","22.495356","6.095314","-15.051513","15.118415"
"era-110","9.083921","-20.034966","20.56679","-11.156944","-22.249634","22.585236","6.108575","-15.065765","15.146033"
"era-111","9.11896","-20.097498","20.635752","-11.202836","-22.3279","22.673805","6.1232066","-15.079774","15.17554"
"era-112","9.155571","-20.160208","20.702545","-11.248223","-22.40528","22.7611","6.13949","-15.0937395","15.207047"
"era-113","9.193873","-20.22306","20.76686","-11.293163","-22.481571","22.847181","6.1576843","-15.107925","15.2405815"
"era-114","9.233885","-20.285982","20.828459","-11.337724","-22.55661","22.932121","6.1779733","-15.1225815","15.276099"
"era-115","9.275509","-20.348846","20.887213","-11.381911","-22.630373","23.015953","6.2004576","-15.137896","15.313464"
"era-116","9.318436","-20.411453","20.943247","-11.425724","-22.702877","23.098703","6.2251215","-15.154023","15.352472"
"era-117","9.362197","-20.473574","20.996927","-11.469114","-22.77427","23.180408","6.251796","-15.171071","15.3928175"
"era-118","9.406159","-20.534918","21.048845","-11.512027","-22.844683","23.261078","6.2802153","-15.189078","15.434163"
"era-119","9.449679","-20.595226","21.099686","-11.554456","-22.914213","23.34078","6.3100286","-15.2080555","15.476151"
"era-120","9.492246","-20.654324","21.150038","-11.596426","-22.982939","23.419603","6.340831","-15.227963","15.518466"
"era-121","9.533527","-20.712137","21.2003","-11.638021","-23.0509","23.497671","6.3722053","-15.248787","15.560791"
"era-122","9.573388","-20.768713","21.25071","-11.679328","-23.118074","23.575161","6.4037676","-15.27048","15.602894"
"era-123","9.611827","-20.824144","21.301325","-11.720455","-23.18442","23.652315","6.435176","-15.293005","15.644564"
"era-124","9.648901","-20.878569","21.352165","-11.761471","-23.249872","23.729404","6.4661446","-15.316354","15.685594"
"era-125","9.684682","-20.932096","21.403215","-11.802418","-23.314428","23.80676","6.4964437","-15.340516","15.725777"
"era-126","9.719259","-20.98487","21.454477","-11.84316","-23.378328","23.88464","6.5258756","-15.365517","15.764843"
"era-127","9.752691","-21.036972","21.505985","-11.883133","-23.442383","23.963106","6.554354","-15.39131","15.802482"
"era-128","9.785086","-21.088469","21.55773","-11.921192","-23.508228","24.04172","6.5819097","-15.417759","15.838318"
"era-129","9.81657","-21.139467","21.609638","-11.956792","-23.577232","24.119698","6.6085434","-15.444771","15.872114"
"era-130","9.847242","-21.190136","21.661497","-11.991778","-23.648539","24.196592","6.633972","-15.4725895","15.903897"
"era-131","9.877201","-21.240526","21.713232","-12.026696","-23.721031","24.27287","6.658224","-15.501171","15.933878"
"era-132","9.906526","-21.290619","21.76487","-12.060919","-23.79464","24.348894","6.6815","-15.530293","15.96217"
"era-133","9.935233","-21.34044","21.816353","-12.095255","-23.868792","24.424639","6.7037387","-15.560012","15.988864"
"era-134","9.963393","-21.389975","21.867723","-12.128858","-23.94375","24.500317","6.72515","-15.590108","16.014038"
"era-135","9.991001","-21.439266","21.918928","-12.163007","-24.018665","24.575848","6.7455873","-15.620746","16.037832"
"era-136","10.018126","-21.488258","21.970024","-12.196093","-24.094364","24.651478","6.7653537","-15.651589","16.060148"
"era-137","10.044749","-21.537043","22.02094","-12.230256","-24.16932","24.727154","6.7841663","-15.682946","16.081251"
"era-138","10.070913","-21.585543","22.071783","-12.263352","-24.244768","24.803104","6.802357","-15.714476","16.100843"
"era-139","10.096629","-21.633825","22.122475","-12.297234","-24.319075","24.879528","6.81974","-15.746384","16.119268"
"era-140","10.121876","-21.681849","22.173115","-12.330937","-24.39242","24.956797","6.8364534","-15.7785225","16.136301"
"era-141","10.146666","-21.72961","22.223717","-12.3647785","-24.463846","25.035427","6.8525405","-15.810892","16.152061"
"era-142","10.170994","-21.777107","22.274332","-12.39879","-24.532742","25.115799","6.8680844","-15.843412","16.166546"
"era-143","10.194864","-21.824354","22.324957","-12.433414","-24.599382","25.197344","6.883061","-15.876124","16.17975"
"era-144","10.218376","-21.871412","22.375488","-12.468974","-24.665367","25.278507","6.8974557","-15.909018","16.191786"
"era-145","10.241749","-21.918314","22.425714","-12.504786","-24.732376","25.358114","6.9115314","-15.941756","16.203165"
"era-146","10.265201","-21.965063","22.475447","-12.539972","-24.800829","25.436089","6.925681","-15.973904","16.214666"
"era-147","10.288876","-22.01167","22.524555","-12.574429","-24.87015","25.512714","6.9401855","-16.005136","16.226938"
"era-148","10.312803","-22.05812","22.572952","-12.608619","-24.939686","25.588123","6.955099","-16.035387","16.240335"
"era-149","10.336988","-22.10442","22.620602","-12.64306","-25.009016","25.662289","6.9703927","-16.064676","16.255014"
"era-150","10.361403","-22.150547","22.667488","-12.678077","-25.07786","25.735205","6.986009","-16.093018","16.27105"
"era-151","10.386019","-22.196478","22.713623","-12.713797","-25.14599","25.806973","7.001905","-16.120443","16.288485"
"era-152","10.410764","-22.242174","22.75908","-12.750242","-25.213154","25.877735","7.018041","-16.146942","16.307377"
"era-153","10.435535","-22.28757","22.80398","-12.787421","-25.279049","25.947708","7.03437","-16.172564","16.327732"
"era-154","10.460206","-22.33262","22.848486","-12.825472","-25.343164","26.01723","7.050797","-16.197412","16.349558"
"era-155","10.4846115","-22.377268","22.89281","-12.86482","-25.404583","26.086859","7.067182","-16.221634","16.372837"
"era-156","10.508578","-22.421501","22.937199","-12.906533","-25.46137","26.157654","7.083294","-16.24549","16.397617"
"era-157","10.531924","-22.465368","22.981842","-12.9529295","-25.509438","26.231884","7.09871","-16.269466","16.423944"
"era-158","10.554425","-22.508938","23.026905","-13.0073","-25.542015","26.313753","7.1128225","-16.294249","16.45175"
"era-159","10.575964","-22.55212","23.072794","-13.068062","-25.560072","26.404116","7.125773","-16.3198","16.480776"
"era-160","10.596981","-22.594458","23.120085","-13.120894","-25.591284","26.487677","7.1401305","-16.343449","16.511246"
"era-161","10.618328","-22.636183","23.168161","-13.156933","-25.652658","26.554413","7.1572237","-16.363731","16.54287"
"era-162","10.639704","-22.678358","23.215868","-13.195334","-25.713951","26.619347","7.173329","-16.384521","16.574392"
"era-163","10.661267","-22.720732","23.263416","-13.2324915","-25.776505","26.683216","7.189234","-16.404966","16.60625"
"era-164","10.68277","-22.763214","23.311062","-13.269586","-25.838694","26.746746","7.204732","-16.425303","16.63836"
"era-165","10.704203","-22.805761","23.35889","-13.306","-25.90127","26.809616","7.219948","-16.445406","16.670746"
"era-166","10.725541","-22.84838","23.406923","-13.342166","-25.963428","26.872255","7.2348027","-16.465372","16.703388"
"era-167","10.746794","-22.891075","23.455204","-13.377799","-26.02561","26.93441","7.2493567","-16.485136","16.736311"
"era-168","10.767976","-22.933874","23.503704","-13.413157","-26.087225","26.996412","7.2635684","-16.504745","16.769508"
"era-169","10.7891","-22.976772","23.552431","-13.448086","-26.148619","27.058014","7.2774806","-16.524158","16.80304"
"era-170","10.810186","-23.019802","23.601358","-13.482753","-26.209352","27.119438","7.2910657","-16.543402","16.83693"
"era-171","10.831242","-23.06295","23.650494","-13.5170965","-26.26961","27.18049","7.304363","-16.562431","16.87124"
"era-172","10.852288","-23.106256","23.699825","-13.551261","-26.329014","27.241325","7.317353","-16.581255","16.906038"
"era-173","10.873337","-23.149708","23.749348","-13.585157","-26.38775","27.301712","7.330079","-16.599863","16.9414"
"era-174","10.894413","-23.193333","23.79903","-13.618957","-26.445383","27.361813","7.342527","-16.618242","16.977427"
"era-175","10.915514","-23.237122","23.84889","-13.652564","-26.502132","27.421343","7.35473","-16.63636","17.01423"
"era-176","10.936676","-23.281115","23.898886","-13.686095","-26.557579","27.480404","7.366659","-16.65424","17.051928"
"era-177","10.957884","-23.325298","23.949038","-13.719428","-26.611935","27.538702","7.3783298","-16.671843","17.0906"
"era-178","10.97916","-23.369694","23.999325","-13.752527","-26.665068","27.596146","7.3897243","-16.689188","17.130316"
"era-179","11.000504","-23.414291","24.049763","-13.785148","-26.717443","27.652311","7.400853","-16.706259","17.171108"
"era-180","11.02193","-23.4591","24.100363","-13.817085","-26.769453","27.706892","7.4117246","-16.723011","17.212894"
"era-181","11.0434675","-23.50414","24.151096","-13.8481455","-26.821537","27.759636","7.422335","-16.73946","17.255495"
"era-182","11.065066","-23.549404","24.202017","-13.878475","-26.873196","27.810966","7.4326124","-16.75565","17.298569"
"era-183","11.086746","-23.594938","24.253054","-13.908292","-26.92387","27.861418","7.4424825","-16.771643","17.341759"
"era-184","11.108464","-23.640781","24.304245","-13.9378805","-26.972595","27.91175","7.45182","-16.787554","17.384718"
"era-185","11.130221","-23.68695","24.355595","-13.967171","-27.019363","27.961966","7.4605894","-16.803385","17.42722"
"era-186","11.152046","-23.733503","24.407038","-13.996129","-27.06402","28.01221","7.4687123","-16.819168","17.469078"
"era-187","11.17399","-23.780462","24.45855","-14.0244","-27.107492","28.061821","7.476197","-16.834805","17.510256"
"era-188","11.196123","-23.827904","24.510023","-14.05196","-27.149803","28.110855","7.4829807","-16.850294","17.550726"
"era-189","11.218555","-23.875887","24.561285","-14.07859","-27.19183","28.15879","7.4890575","-16.865585","17.590551"
"era-190","11.241383","-23.924498","24.612051","-14.104479","-27.233093","28.206083","7.494332","-16.880695","17.629745"
"era-191","11.264777","-23.973825","24.661993","-14.129421","-27.274529","28.252178","7.4988127","-16.895582","17.6684"
"era-192","11.288883","-24.023972","24.710596","-14.153676","-27.31528","28.297821","7.5024333","-16.910461","17.70651"
"era-193","11.314015","-24.075075","24.757092","-14.176982","-27.356432","28.342352","7.5053096","-16.925598","17.744188"
"era-194","11.340652","-24.127472","24.800282","-14.199654","-27.396654","28.38686","7.507518","-16.941595","17.781443"
"era-195","11.36959","-24.181568","24.838467","-14.221209","-27.437662","28.430199","7.5094137","-16.958996","17.818396"
"era-196","11.401075","-24.237295","24.87041","-14.24219","-27.47741","28.47397","7.511286","-16.978483","17.855055"
"era-197","11.433815","-24.292934","24.89751","-14.2621355","-27.518883","28.515938","7.5137253","-16.99965","17.891552"
"era-198","11.464907","-24.345972","24.924025","-14.282555","-27.557276","28.559517","7.516756","-17.021591","17.9277"
"era-199","11.492484","-24.394888","24.953638","-14.30225","-27.598852","28.599968","7.520797","-17.04314","17.96367"
"era-200","11.516742","-24.440466","24.986502","-14.323046","-27.634745","28.643976","7.525254","-17.06452","17.999151"
"era-201","11.539061","-24.483725","25.02138","-14.342207","-27.678465","28.68137","7.530478","-17.085299","18.034544"
"era-202","11.560254","-24.525995","25.05681","-14.363527","-27.709496","28.727766","7.535403","-17.10643","18.06931"
"era-203","11.58095","-24.56709","25.092628","-14.381303","-27.759733","28.758877","7.541258","-17.12676","18.104286"
"era-204","11.601318","-24.60835","25.127697","-14.40423","-27.77831","28.813747","7.545964","-17.148144","18.138208"
"era-205","11.621456","-24.648056","25.163324","-14.418773","-27.848154","28.828608","7.5526905","-17.167711","18.173058"
"era-206","11.641551","-24.689236","25.197226","-14.446559","-27.834019","28.908121","7.556307","-17.19003","18.205654"
"era-207","11.661131","-24.727142","25.233152","-14.454905","-27.95208","28.885271","7.5646987","-17.20805","18.240896"
"era-208","11.68131","-24.769093","25.265556","-14.490131","-27.88407","29.007435","7.566066","-17.232134","18.270977"
"era-209","11.699881","-24.805387","25.302086","-14.4957485","-28.051157","28.946266","7.575524","-17.24919","18.305923"
"era-210","11.720889","-24.848091","25.332642","-14.52935","-27.954683","29.093254","7.5761714","-17.273436","18.334124"
"era-211","11.738362","-24.883383","25.369198","-14.536094","-28.130785","29.023783","7.5856004","-17.290442","18.368298"
"era-212","11.759815","-24.92578","25.398699","-14.56733","-28.029295","29.175272","7.5865197","-17.314096","18.39602"
"era-213","11.776451","-24.960371","25.434929","-14.575205","-28.20641","29.103823","7.595823","-17.331081","18.42954"
"era-214","11.798172","-25.00228","25.46367","-14.605034","-28.103191","29.256487","7.5969605","-17.354237","18.456957"
"era-215","11.814022","-25.03623","25.499605","-14.613463","-28.280678","29.183945","7.6062155","-17.371078","18.489914"
"era-216","11.835986","-25.077673","25.527676","-14.642491","-28.176418","29.336916","7.6074395","-17.393839","18.517002"
"era-217","11.851104","-25.111017","25.56336","-14.650874","-28.353691","29.264162","7.616749","-17.410408","18.549479"
"era-218","11.87327","-25.152025","25.590822","-14.67973","-28.249052","29.416584","7.6179366","-17.43287","18.576214"
"era-219","11.88772","-25.184797","25.626303","-14.6875725","-28.425413","29.344522","7.627368","-17.449059","18.608273"
"era-220","11.910054","-25.225416","25.653221","-14.716785","-28.321096","29.495539","7.6284137","-17.471325","18.634638"
"era-221","11.923884","-25.257633","25.688532","-14.723729","-28.495903","29.424955","7.6380134","-17.487057","18.666338"
"era-222","11.946342","-25.29789","25.714954","-14.753703","-28.392628","29.573788","7.6388507","-17.509188","18.692347"
"era-223","11.959627","-25.329594","25.750124","-14.759591","-28.565262","29.505367","7.6486306","-17.524445","18.723722"
"era-224","11.982162","-25.369505","25.776096","-14.790487","-28.463676","29.651403","7.649238","-17.546482","18.749416"
"era-225","11.994952","-25.400743","25.81116","-14.795397","-28.633474","29.585705","7.659152","-17.561298","18.78048"
"era-226","12.017556","-25.440344","25.836716","-14.827181","-28.534323","29.728357","7.659559","-17.583195","18.805906"
"era-227","12.02989","-25.471153","25.87171","-14.83141","-28.700724","29.665745","7.6695347","-17.597628","18.836636"
"era-228","12.052564","-25.510473","25.896872","-14.863785","-28.60462","29.80467","7.6698112","-17.61931","18.861874"
"era-229","12.064456","-25.540909","25.931826","-14.867977","-28.767002","29.745333","7.6797004","-17.633507","18.892231"
"era-230","12.087217","-25.579967","25.956646","-14.900309","-28.674644","29.880264","7.679982","-17.654829","18.917393"
"era-231","12.098667","-25.610098","25.991577","-14.905498","-28.832426","29.824167","7.689573","-17.669","18.947296"
"era-232","12.121609","-25.648949","26.016037","-14.936726","-28.744535","29.954992","7.6900616","-17.689713","18.972536"
"era-233","12.132563","-25.678843","26.05097","-14.944572","-28.896797","29.901955","7.6990237","-17.704208","19.001846"
"era-234","12.155788","-25.717522","26.075125","-14.972964","-28.814617","30.028412","7.700069","-17.723953","19.027344"
"era-235","12.1662445","-25.747345","26.110003","-14.985691","-28.959913","29.97824","7.7079387","-17.739237","19.05587"
"era-236","12.18983","-25.785852","26.133984","-15.008914","-28.885529","30.099524","7.7099924","-17.757471","19.081865"
"era-237","12.199951","-25.815865","26.168495","-15.028619","-29.021534","30.052435","7.716274","-17.774004","19.109451"
"era-238","12.223686","-25.854057","26.192825","-15.044497","-28.957867","30.166832","7.7197638","-17.790237","19.136051"
"era-239","12.2339325","-25.884348","26.226757","-15.067618","-29.086626","30.121458","7.7249475","-17.807394","19.163017"
"era-240","12.257311","-25.92197","26.252169","-15.079801","-29.024061","30.235878","7.728992","-17.822536","19.189491"
"era-241","12.267216","-25.952234","26.286188","-15.104644","-29.153234","30.18812","7.733643","-17.83986","19.215935"
"era-242","12.291069","-25.990004","26.311445","-15.114838","-29.087114","30.305996","7.7376666","-17.854404","19.242012"
"era-243","12.300017","-26.02012","26.3461","-15.145386","-29.215845","30.25542","7.74119","-17.872602","19.267511"
"era-244","12.324834","-26.058464","26.370575","-15.150051","-29.155443","30.37004","7.745912","-17.885744","19.29367"
"era-245","12.3337965","-26.08646","26.40789","-15.151426","-29.301796","30.316572","7.7549925","-17.897667","19.321867"
"era-246","12.358103","-26.12564","26.431314","-15.18373","-29.199688","30.454569","7.7530093","-17.91742","19.343145"
"era-247","12.36155","-26.153412","26.471928","-15.229397","-29.339458","30.392733","7.7547145","-17.937366","19.366156"
"era-248","12.393684","-26.19814","26.485825","-15.2273035","-29.309078","30.481829","7.758985","-17.94928","19.391998"
"era-249","12.3965225","-26.223112","26.534954","-15.249278","-29.403933","30.450197","7.76525","-17.96233","19.41773"
"era-250","12.429081","-26.26755","26.548824","-15.253041","-29.341621","30.56514","7.767853","-17.975492","19.442509"
"era-251","12.430056","-26.2879","26.600986","-15.227538","-29.513636","30.499796","7.783426","-17.979597","19.472462"
"era-252","12.463187","-26.336796","26.60885","-15.285291","-29.395931","30.636442","7.772895","-18.005905","19.488058"
"era-253","12.46203","-26.355785","26.66356","-15.260073","-29.564117","30.575825","7.788497","-18.009842","19.517862"
"era-254","12.496723","-26.405426","26.669296","-15.317712","-29.453169","30.706299","7.7779098","-18.035763","19.533754"
"era-255","12.491978","-26.424988","26.725681","-15.327889","-29.608854","30.63873","7.786937","-18.046375","19.559584"
"era-256","12.532469","-26.475718","26.72798","-15.350643","-29.507956","30.77769","7.782891","-18.064245","19.58008"
"era-257","12.518973","-26.493683","26.79189","-15.419666","-29.643055","30.700111","7.781785","-18.085403","19.599407"
"era-258","12.567011","-26.553188","26.781351","-15.437451","-29.662651","30.730852","7.7774267","-18.101757","19.620287"
"era-259","12.565695","-26.570427","26.846535","-15.45046","-29.671663","30.77314","7.7815886","-18.108824","19.64143"
"era-260","12.596104","-26.61369","26.862505","-15.374598","-29.76526","30.786777","7.799856","-18.104181","19.67211"
"era-261","12.601852","-26.64022","26.912678","-15.434471","-29.652843","30.914934","7.7925406","-18.125233","19.685738"
"era-262","12.620966","-26.67613","26.937057","-15.390771","-29.847095","30.834307","7.8076544","-18.12647","19.713839"
"era-263","12.638815","-26.71711","26.964512","-15.476531","-29.73305","30.950247","7.7929893","-18.154873","19.724302"
"era-264","12.651519","-26.74411","27.008926","-15.407667","-29.902527","30.895832","7.813721","-18.1476","19.756544"
"era-265","12.676733","-26.79223","27.023453","-15.513789","-29.796312","30.994337","7.7937684","-18.180855","19.765247"
"era-266","12.682782","-26.81431","27.07862","-15.436333","-29.95984","30.948086","7.816231","-18.170187","19.79688"
"era-267","12.714482","-26.8672","27.08399","-15.548232","-29.852411","31.044247","7.7936506","-18.205029","19.804571"
"era-268","12.714885","-26.885025","27.14731","-15.464419","-30.017126","30.999485","7.8174987","-18.191502","19.835663"
"era-269","12.750741","-26.941305","27.146378","-15.58332","-29.909","31.092243","7.79252","-18.227892","19.842274"
"era-270","12.749126","-26.956314","27.213648","-15.483765","-30.068909","31.059078","7.8189387","-18.210283","19.873629"
"era-271","12.783462","-27.013088","27.212837","-15.620183","-29.968073","31.136286","7.7907877","-18.249699","19.878714"
"era-272","12.78447","-27.02834","27.278177","-15.50421","-30.119108","31.11871","7.819249","-18.228788","19.910553"
"era-273","12.81372","-27.083143","27.282558","-15.656683","-30.025902","31.18082","7.7889175","-18.270454","19.914297"
"era-274","12.819439","-27.100475","27.342997","-15.52783","-30.16992","31.175535","7.8186145","-18.24749","19.946545"
"era-275","12.843949","-27.153202","27.352615","-15.692259","-30.081562","31.226982","7.7867517","-18.290583","19.949133"
"era-276","12.853812","-27.172594","27.40841","-15.554721","-30.220207","31.23039","7.817058","-18.266335","19.981466"
"era-277","12.874763","-27.223509","27.422298","-15.72512","-30.133722","31.276684","7.784512","-18.309788","19.98318"
"era-278","12.886862","-27.245224","27.474152","-15.595121","-30.269104","31.278362","7.8126717","-18.28727","20.013838"
"era-279","12.906758","-27.293797","27.491522","-15.748388","-30.172909","31.340965","7.7831483","-18.326797","20.015814"
"era-280","12.911248","-27.323774","27.538853","-15.773216","-30.323605","31.24738","7.782314","-18.334387","20.02912"
"era-281","12.939102","-27.3613","27.564337","-15.742327","-30.182951","31.443947","7.786856","-18.33595","20.0481"
"era-282","12.939474","-27.398098","27.606188","-15.883015","-30.364393","31.263882","7.7653317","-18.366362","20.051046"
"era-283","12.967364","-27.430185","27.636908","-15.781565","-30.242582","31.482635","7.784359","-18.352386","20.08009"
"era-284","12.976671","-27.472733","27.667162","-15.917892","-30.408447","31.317541","7.7617903","-18.383068","20.082474"
"era-285","12.995557","-27.497736","27.710484","-15.810559","-30.28982","31.53678","7.7831235","-18.365747","20.112244"
"era-286","13.0154085","-27.547773","27.725538","-15.9492035","-30.45538","31.370356","7.7584653","-18.398096","20.114727"
"era-287","13.027141","-27.56705","27.777863","-15.841517","-30.338793","31.588112","7.7804165","-18.378454","20.144543"
"era-288","13.048309","-27.618261","27.790548","-15.982941","-30.505585","31.418673","7.7548175","-18.411156","20.146893"
"era-289","13.059314","-27.637016","27.843096","-15.877145","-30.392189","31.63301","7.776218","-18.39138","20.176512"
"era-290","13.078817","-27.686968","27.858063","-16.017942","-30.557655","31.464493","7.750611","-18.423347","20.178698"
"era-291","13.090489","-27.706518","27.909006","-15.9153595","-30.448006","31.674677","7.7710714","-18.404314","20.20793"
"era-292","13.109959","-27.756115","27.92419","-16.05354","-30.611391","31.508884","7.745512","-18.435404","20.210043"
"era-293","13.121353","-27.775822","27.974506","-15.955382","-30.505306","31.715296","7.7647862","-18.417345","20.238617"
"era-294","13.1406765","-27.824812","27.990215","-16.089071","-30.666073","31.55383","7.7396584","-18.447197","20.240772"
"era-295","13.151624","-27.844276","28.04033","-15.993117","-30.56107","31.761362","7.758114","-18.429926","20.268826"
"era-296","13.171685","-27.893517","28.054989","-16.124838","-30.723198","31.59942","7.7329254","-18.4592","20.271118"
"era-297","13.18123","-27.91187","28.106157","-16.030415","-30.617384","31.812128","7.750661","-18.442446","20.29896"
"era-298","13.202832","-27.961836","28.118723","-16.158983","-30.783875","31.64761","7.7256217","-18.471003","20.301825"
"era-299","13.210844","-27.981905","28.168423","-16.095734","-30.696878","31.830666","7.736797","-18.460642","20.32662"
"era-300","13.230857","-28.028074","28.185802","-16.19472","-30.840918","31.702494","7.7169676","-18.482925","20.330229"
"era-301","13.240009","-28.051687","28.23129","-16.159513","-30.78235","31.848177","7.7224154","-18.478382","20.352518"
"era-302","13.26227","-28.093653","28.251387","-16.188612","-30.945704","31.74075","7.714811","-18.48708","20.363602"
"era-303","13.270361","-28.121197","28.293598","-16.212048","-30.87025","31.863232","7.711226","-18.491426","20.383804"
"era-304","13.290075","-28.15652","28.321634","-16.218487","-30.877583","31.909266","7.7097406","-18.493902","20.40293"
"era-305","13.313989","-28.187975","28.35073","-16.136967","-31.014252","31.88398","7.722884","-18.479332","20.429111"
"era-306","13.325754","-28.22544","28.380201","-16.24069","-30.901875","31.983248","7.6995573","-18.50177","20.432089"
"era-307","13.335327","-28.261967","28.41128","-16.319565","-31.057112","31.857397","7.683226","-18.516996","20.436535"
"era-308","13.33433","-28.280365","28.468285","-16.306189","-31.012045","32.012653","7.6870804","-18.51221","20.455925"
"era-309","13.372924","-28.330547","28.467152","-16.347834","-31.087082","31.981081","7.6754837","-18.525558","20.470898"
"era-310","13.37862","-28.352505","28.51398","-16.331793","-31.042261","32.10755","7.6768036","-18.522589","20.489038"
"era-311","13.393689","-28.392372","28.537981","-16.391495","-31.212936","31.979227","7.663346","-18.535362","20.495565"
"era-312","13.388114","-28.410286","28.598238","-16.401836","-31.177103","32.124474","7.663751","-18.534481","20.51289"
"era-313","13.4307375","-28.458176","28.593908","-16.420048","-31.187822","32.174583","7.656341","-18.544289","20.530888"
"era-314","13.4365015","-28.487364","28.63189","-16.463013","-31.305529","32.11307","7.647165","-18.552177","20.544071"
"era-315","13.437215","-28.508766","28.68325","-16.469707","-31.270073","32.24813","7.6459374","-18.551788","20.55885"
"era-316","13.468765","-28.553236","28.68987","-16.498001","-31.40654","32.1829","7.635896","-18.56332","20.572626"
"era-317","13.462709","-28.572645","28.74736","-16.52017","-31.37045","32.32021","7.6342406","-18.564394","20.587704"
"era-318","13.498088","-28.612757","28.756533","-16.504065","-31.333923","32.43723","7.63314","-18.566923","20.606049"
"era-319","13.510921","-28.647549","28.785072","-16.558443","-31.514204","32.3013","7.62131","-18.575945","20.615698"
"era-320","13.507501","-28.668987","28.838152","-16.588245","-31.48279","32.42759","7.617371","-18.578634","20.629702"
"era-321","13.535006","-28.705126","28.857092","-16.583525","-31.453089","32.540775","7.6149273","-18.581104","20.645735"
"era-322","13.553763","-28.741688","28.880018","-16.616564","-31.631996","32.41978","7.606673","-18.587229","20.65713"
"era-323","13.551738","-28.76501","28.929625","-16.658016","-31.604265","32.53572","7.600133","-18.592148","20.670082"
"era-324","13.575674","-28.798992","28.952477","-16.66458","-31.58233","32.641407","7.595355","-18.596085","20.682686"
"era-325","13.598404","-28.835743","28.971283","-16.669796","-31.760466","32.545128","7.591662","-18.598864","20.696688"
"era-326","13.5966425","-28.860617","29.018215","-16.72812","-31.731548","32.65003","7.5819306","-18.606735","20.708721"
"era-327","13.617547","-28.892101","29.044764","-16.740665","-31.713678","32.750343","7.5754576","-18.611528","20.718403"
"era-328","13.641519","-28.926046","29.065533","-16.692335","-31.905273","32.679283","7.5787134","-18.60636","20.731525"
"era-329","13.649062","-28.961","29.093966","-16.789772","-31.852257","32.7507","7.559644","-18.624598","20.74167"
"era-330","13.660411","-28.984205","29.133425","-16.803524","-31.834885","32.850952","7.5531673","-18.627695","20.749352"
"era-331","13.680237","-29.014444","29.160334","-16.75134","-32.015575","32.80025","7.557726","-18.619574","20.764969"
"era-332","13.69184","-29.05201","29.183157","-16.848402","-31.960915","32.870136","7.537676","-18.638687","20.77364"
"era-333","13.70104","-29.076344","29.22185","-16.86871","-31.947067","32.962955","7.5304875","-18.642548","20.780052"
"era-334","13.72049","-29.10455","29.250488","-16.817175","-32.116627","32.925484","7.53515","-18.63407","20.795357"
"era-335","13.735802","-29.141481","29.27084","-16.909752","-32.062717","32.995895","7.513966","-18.653988","20.801882"
"era-336","13.740438","-29.167799","29.30913","-16.930714","-32.056423","33.081245","7.5082526","-18.65674","20.808472"
"era-337","13.765179","-29.191053","29.339424","-16.816988","-32.254616","33.050877","7.5229144","-18.637266","20.826635"
"era-338","13.77573","-29.230387","29.361212","-16.959435","-32.176968","33.102196","7.4922547","-18.663988","20.826433"
"era-339","13.781025","-29.257511","29.397663","-16.987867","-32.16854","33.184864","7.484795","-18.668427","20.831718"
"era-340","13.806757","-29.279177","29.42837","-16.855576","-32.354057","33.176224","7.502456","-18.645658","20.850704"
"era-341","13.816714","-29.319351","29.448975","-17.016027","-32.26497","33.22495","7.467391","-18.676702","20.844429"
"era-342","13.81983","-29.34707","29.485304","-17.038006","-32.291817","33.280647","7.463111","-18.67822","20.853687"
"era-343","13.839087","-29.371668","29.516039","-17.009089","-32.42002","33.269234","7.463907","-18.673357","20.865837"
"era-344","13.854071","-29.403524","29.540794","-17.070696","-32.392677","33.34047","7.446994","-18.687216","20.869944"
"era-345","13.85829","-29.433636","29.573463","-17.098316","-32.407326","33.403748","7.4413505","-18.690313","20.878153"
"era-346","13.887702","-29.452541","29.603823","-16.95388","-32.57134","33.42022","7.46033","-18.665806","20.897701"
"era-347","13.8916235","-29.494814","29.624521","-17.130985","-32.47044","33.46996","7.423996","-18.699186","20.887213"
"era-348","13.918862","-29.509449","29.65978","-16.937695","-32.64206","33.50491","7.452012","-18.664936","20.909689"
"era-349","13.916904","-29.553007","29.682035","-17.160185","-32.533524","33.537617","7.4085855","-18.70644","20.893606"
"era-350","13.946798","-29.565365","29.717798","-16.942152","-32.708923","33.581318","7.440673","-18.667736","20.917543"
"era-351","13.942171","-29.609886","29.74021","-17.188053","-32.5985","33.603424","7.393667","-18.713667","20.89851"
"era-352","13.972621","-29.622122","29.775383","-16.974255","-32.772293","33.645374","7.4251237","-18.675602","20.922209"
"era-353","13.967119","-29.666605","29.798002","-17.216145","-32.66245","33.669617","7.3795123","-18.720495","20.903955"
"era-354","13.997748","-29.67901","29.832474","-17.01766","-32.83603","33.702393","7.4085417","-18.684961","20.926987"
"era-355","13.9925165","-29.722895","29.855246","-17.244167","-32.726746","33.73465","7.366107","-18.726755","20.910715"
"era-356","14.024121","-29.734951","29.889118","-17.045938","-32.898224","33.767548","7.3952675","-18.691092","20.934626"
"era-357","14.017674","-29.778748","29.912357","-17.272188","-32.79118","33.798626","7.353654","-18.732529","20.918964"
"era-358","14.051549","-29.789997","29.945343","-17.061695","-32.958878","33.839516","7.384914","-18.694736","20.944824"
"era-359","14.042723","-29.834116","29.969286","-17.29924","-32.85789","33.86007","7.3423367","-18.737957","20.928667"
"era-360","14.079156","-29.845009","30.000677","-17.07749","-33.01988","33.910225","7.375295","-18.698622","20.95576"
"era-361","14.068035","-29.889072","30.025675","-17.325115","-32.924614","33.920773","7.3317227","-18.743563","20.93868"
"era-362","14.107111","-29.900589","30.05415","-17.09481","-33.08025","33.97899","7.3660827","-18.703445","20.966887"
"era-363","14.093695","-29.943628","30.081196","-17.349745","-32.990307","33.981117","7.321824","-18.749496","20.948984"
"era-364","14.134794","-29.957367","30.104765","-17.11628","-33.139248","34.045277","7.3574452","-18.709698","20.978386"
"era-365","14.119997","-29.99767","30.135057","-17.37202","-33.056934","34.04007","7.3132515","-18.755388","20.96028"
"era-366","14.162185","-30.011217","30.15683","-17.118826","-33.192524","34.124474","7.3545394","-18.710798","20.996412"
"era-367","14.147266","-30.049698","30.18878","-17.382025","-33.129032","34.097546","7.308787","-18.758108","20.976412"
"era-368","14.188117","-30.060032","30.21671","-17.144142","-33.249516","34.175774","7.3458815","-18.714926","21.007845"
"era-369","14.171187","-30.102278","30.245691","-17.412764","-33.178314","34.15338","7.300653","-18.763996","20.987432"
"era-370","14.214748","-30.112865","30.271046","-17.155283","-33.299953","34.24164","7.341686","-18.717634","21.021784"
"era-371","14.19838","-30.154156","30.300396","-17.418941","-33.240845","34.210217","7.2972946","-18.766304","21.00078"
"era-372","14.2404175","-30.161438","30.331345","-17.166561","-33.35017","34.300545","7.3368316","-18.71921","21.034575"
"era-373","14.221869","-30.206934","30.356838","-17.442842","-33.290375","34.26327","7.291918","-18.771389","21.012121"
"era-374","14.267267","-30.213049","30.386906","-17.17722","-33.396973","34.362026","7.3335533","-18.721958","21.048302"
"era-375","14.247194","-30.259022","30.41203","-17.448975","-33.34673","34.31799","7.2903414","-18.773975","21.02542"
"era-376","14.290744","-30.266779","30.441563","-17.235786","-33.438007","34.39971","7.322655","-18.73366","21.058695"
"era-377","14.29277","-30.29882","30.468378","-17.316628","-33.458763","34.390697","7.3088603","-18.752916","21.051552"
"era-378","14.319322","-30.317013","30.496473","-17.192636","-33.494064","34.475895","7.3259916","-18.734705","21.06281"
"era-379","14.287412","-30.36769","30.521763","-17.517004","-33.431038","34.41725","7.276918","-18.796501","21.035471"
"era-380","14.334713","-30.374725","30.548811","-17.351776","-33.52705","34.470856","7.3019023","-18.764114","21.0687"
"era-381","14.356124","-30.393951","30.577938","-17.218245","-33.56733","34.55631","7.323402","-18.744179","21.080751"
"era-382","14.317149","-30.447521","30.603258","-17.552763","-33.502357","34.49436","7.2745047","-18.80773","21.052254"
"era-383","14.36038","-30.457773","30.62892","-17.461163","-33.566036","34.53642","7.288012","-18.78807","21.08035"
"era-384","14.38081","-30.481031","30.654099","-17.430586","-33.60355","34.566975","7.2941813","-18.781424","21.095974"
"era-385","14.407881","-30.496449","30.68361","-17.278036","-33.650032","34.6549","7.3197355","-18.75574","21.116436"
"era-386","14.373397","-30.543226","30.711996","-17.448725","-33.643852","34.622746","7.299772","-18.790577","21.09997"
"era-387","14.42034","-30.554533","30.733923","-17.427013","-33.680412","34.649605","7.295658","-18.788103","21.11249"
"era-388","14.442619","-30.570837","30.76432","-17.272766","-33.721256","34.744064","7.322518","-18.763592","21.129627"
"era-389","14.378403","-30.632992","30.792782","-17.599232","-33.672432","34.670994","7.2815304","-18.824476","21.100718"
"era-390","14.37516","-30.659725","30.825212","-17.67486","-33.657192","34.69332","7.2758875","-18.833832","21.11346"
"era-391","14.372252","-30.676723","30.862894","-17.669521","-33.690926","34.71688","7.2849374","-18.826292","21.136318"
"era-392","14.369429","-30.687662","30.906292","-17.705463","-33.698936","34.739613","7.2825627","-18.826868","21.15365"
"era-393","14.382657","-30.713802","30.926065","-17.71918","-33.72186","34.762775","7.2817264","-18.823772","21.174726"
"era-394","14.387191","-30.732855","30.957947","-17.739414","-33.740738","34.785957","7.2810125","-18.821503","21.19492"
"era-395","14.389552","-30.752747","30.990805","-17.760359","-33.759525","34.80948","7.2803416","-18.819193","21.215229"
"era-396","14.375791","-30.762354","31.043625","-17.78469","-33.77591","34.833626","7.281598","-18.81634","21.23486"
"era-397","14.3951235","-30.75457","31.097296","-17.80774","-33.78955","34.860012","7.273737","-18.816298","21.252394"
"era-398","14.434455","-30.832539","31.043911","-17.830793","-33.80872","34.89296","7.2637644","-18.818947","21.271902"
"era-399","14.414856","-30.831703","31.10885","-17.84521","-33.832767","34.9176","7.2662354","-18.81554","21.288095"
"era-400","14.421021","-30.856472","31.13751","-17.859966","-33.856014","34.94278","7.263424","-18.81471","21.304245"
"era-401","14.43783","-30.854929","31.186085","-17.87246","-33.88105","34.96594","7.2573037","-18.814362","21.31942"
"era-402","14.480168","-30.92517","31.138546","-17.892082","-33.903984","34.998234","7.2460012","-18.817686","21.336878"
"era-403","14.471357","-30.9377","31.183508","-17.904686","-33.931084","35.02362","7.246849","-18.815674","21.352797"
"era-404","14.462573","-30.94128","31.239437","-17.914917","-33.957615","35.046806","7.2468305","-18.81304","21.367596"
"era-405","14.486002","-30.983774","31.239653","-17.92736","-33.98064","35.071888","7.24022","-18.812946","21.382586"
"era-406","14.499776","-30.970558","31.300507","-17.9381","-34.005272","35.093422","7.233764","-18.811525","21.396542"
"era-407","14.541198","-31.041494","31.251492","-17.954777","-34.028156","35.123207","7.2229958","-18.81442","21.412643"
"era-408","14.562619","-31.064234","31.26689","-17.968887","-34.05128","35.148064","7.2177253","-18.815142","21.427185"
"era-409","14.5806675","-31.094402","31.274155","-17.982315","-34.076584","35.174732","7.214364","-18.816093","21.442272"
"era-410","14.589442","-31.115404","31.297363","-17.994516","-34.10132","35.19976","7.2136917","-18.816156","21.456648"
"era-411","14.5996475","-31.135012","31.321363","-18.007769","-34.124268","35.22403","7.2123456","-18.816444","21.470474"
"era-412","14.6093445","-31.15775","31.342012","-18.019793","-34.147797","35.24844","7.2113104","-18.816643","21.484224"
"era-413","14.620537","-31.17679","31.365969","-18.032917","-34.169895","35.272007","7.2096405","-18.816957","21.497564"
"era-414","14.628653","-31.201038","31.385794","-18.044138","-34.193043","35.296066","7.209055","-18.81697","21.510925"
"era-415","14.643128","-31.216822","31.411352","-18.057198","-34.214478","35.31873","7.206437","-18.81731","21.523983"
"era-416","14.645804","-31.246542","31.428263","-18.06675","-34.237785","35.34298","7.2074757","-18.816864","21.53716"
"era-417","14.663787","-31.25153","31.463858","-18.07937","-34.25893","35.364105","7.202807","-18.817003","21.550049"
"era-418","14.666144","-31.289726","31.471436","-18.08859","-34.281292","35.388577","7.204188","-18.81663","21.563026"
"era-419","14.685778","-31.293123","31.507685","-18.10072","-34.30228","35.409096","7.198903","-18.816849","21.575596"
"era-420","14.6850395","-31.332497","31.51601","-18.10966","-34.32366","35.433067","7.20125","-18.815992","21.588459"
"era-421","14.705505","-31.33362","31.554201","-18.122091","-34.34401","35.45293","7.1950336","-18.81644","21.60045"
"era-422","14.707319","-31.37403","31.559666","-18.130205","-34.365128","35.476562","7.196874","-18.815514","21.613258"
"era-423","14.732981","-31.37943","31.58973","-18.143667","-34.384617","35.496105","7.1899304","-18.816675","21.624786"
"era-424","14.723805","-31.41981","31.602192","-18.148846","-34.406208","35.520138","7.1950912","-18.8143","21.637632"
"era-425","14.734324","-31.413658","31.653427","-18.167477","-34.422558","35.53817","7.1880307","-18.815414","21.647501"
"era-426","14.760813","-31.45068","31.646935","-18.173624","-34.444927","35.560654","7.1835613","-18.816074","21.660076"
"era-427","14.75628","-31.482668","31.665594","-18.178658","-34.466003","35.583603","7.187017","-18.814266","21.672363"
"era-428","14.783326","-31.479643","31.70408","-18.201721","-34.480473","35.60044","7.17624","-18.817577","21.681313"
"era-429","14.781516","-31.52284","31.707884","-18.20151","-34.504543","35.624966","7.180361","-18.814692","21.694172"
"era-430","14.808277","-31.529465","31.734884","-18.220135","-34.520947","35.642776","7.172155","-18.817406","21.703768"
"era-431","14.796941","-31.568838","31.749266","-18.218092","-34.54448","35.66754","7.178855","-18.81357","21.716513"
"era-432","14.825144","-31.561453","31.791557","-18.247852","-34.555965","35.68256","7.165772","-18.818403","21.72385"
"era-433","14.826893","-31.605165","31.791937","-18.243189","-34.582222","35.707542","7.169746","-18.814909","21.736818"
"era-434","14.838896","-31.622791","31.815529","-18.259073","-34.598705","35.726482","7.165865","-18.81648","21.746363"
"era-435","14.846104","-31.647184","31.834444","-18.26395","-34.619835","35.74796","7.1656485","-18.815739","21.757504"
"era-436","14.862136","-31.662762","31.857626","-18.280884","-34.636063","35.766327","7.1604266","-18.817839","21.76669"
"era-437","14.864688","-31.691135","31.874971","-18.282036","-34.658344","35.78886","7.1622615","-18.816124","21.778177"
"era-438","14.889773","-31.699045","31.90083","-18.30604","-34.672085","35.805103","7.1531267","-18.820164","21.78611"
"era-439","14.882793","-31.735445","31.915033","-18.297836","-34.697803","35.83038","7.159526","-18.815641","21.798801"
"era-440","14.91806","-31.733372","31.945639","-18.332413","-34.70761","35.84378","7.1451907","-18.822323","21.804926"
"era-441","14.903797","-31.776884","31.955751","-18.31723","-34.73636","35.871174","7.1550336","-18.815538","21.818455"
"era-442","14.938575","-31.775667","31.985464","-18.353706","-34.745396","35.88406","7.140483","-18.822683","21.824171"
"era-443","14.924838","-31.818182","31.996202","-18.3365","-34.774773","35.911777","7.1505013","-18.815575","21.837803"
"era-444","14.958408","-31.818174","32.025116","-18.374693","-34.783134","35.924232","7.1359253","-18.823086","21.843145"
"era-445","14.946101","-31.859245","32.03642","-18.355656","-34.813026","35.952274","7.145836","-18.81579","21.85686"
"era-446","14.976923","-31.861425","32.0644","-18.395195","-34.820805","35.964394","7.131684","-18.823511","21.861893"
"era-447","14.96767","-31.900015","32.076466","-18.374914","-34.850975","35.992542","7.1409297","-18.816332","21.875618"
"era-448","14.993746","-31.905708","32.103394","-18.414946","-34.85837","36.00464","7.127864","-18.823977","21.880453"
"era-449","14.98949","-31.940258","32.116867","-18.394855","-34.88837","36.032425","7.135659","-18.817385","21.89399"
"era-450","15.009479","-31.950777","32.142128","-18.433884","-34.8959","36.044907","7.1243205","-18.824593","21.898829"
"era-451","15.011555","-31.9797","32.15798","-18.416134","-34.925007","36.071682","7.129888","-18.819208","21.91187"
"era-452","15.026036","-31.99551","32.180744","-18.451942","-34.933502","36.08505","7.12067","-18.82559","21.917019"
"era-453","15.033862","-32.01882","32.199177","-18.439224","-34.960777","36.11013","7.123567","-18.82181","21.929167"
"era-454","15.04369","-32.038906","32.220074","-18.469118","-34.971317","36.12495","7.1168694","-18.826801","21.935007"
"era-455","15.05626","-32.05776","32.24035","-18.463543","-34.995995","36.147903","7.1169224","-18.824856","21.945972"
"era-456","15.062085","-32.081142","32.260036","-18.48476","-35.009525","36.164955","7.1131177","-18.827791","21.952913"
"era-457","15.078446","-32.096836","32.281322","-18.489393","-35.030613","36.184963","7.1099925","-18.828186","21.962276"
"era-458","15.082098","-32.12229","32.299904","-18.497707","-35.048386","36.205616","7.1094203","-18.828323","21.97091"
"era-459","15.099423","-32.13752","32.321014","-18.516047","-35.06463","36.221863","7.103186","-18.831589","21.978188"
"era-460","15.104243","-32.16239","32.33925","-18.508049","-35.087543","36.247334","7.105642","-18.828579","21.988949"
"era-461","15.118982","-32.18016","32.35914","-18.541674","-35.098648","36.259323","7.0970073","-18.83474","21.994019"
"era-462","15.127634","-32.201904","32.37821","-18.518778","-35.126003","36.28944","7.101476","-18.829193","22.006653"
"era-463","15.138094","-32.223145","32.39684","-18.564903","-35.133522","36.297573","7.091534","-18.837442","22.010029"
"era-464","15.150785","-32.241226","32.41722","-18.532925","-35.163372","36.33065","7.09674","-18.830542","22.023712"
"era-465","15.157849","-32.265194","32.43474","-18.586418","-35.16934","36.336067","7.086279","-18.839846","22.026125"
"era-466","15.172908","-32.280876","32.456154","-18.548346","-35.20029","36.371487","7.0920243","-18.832026","22.0404"
"era-467","15.178775","-32.306168","32.472706","-18.608002","-35.205338","36.37431","7.080726","-18.842329","22.042032"
"era-468","15.194341","-32.321075","32.4945","-18.560762","-35.237446","36.41381","7.0880947","-18.832855","22.057236"
"era-469","15.200397","-32.346622","32.5104","-18.630753","-35.240868","36.412426","7.0748477","-18.845064","22.05759"
"era-470","15.216066","-32.36136","32.532093","-18.570587","-35.274952","36.45747","7.0847096","-18.833157","22.07419"
"era-471","15.221347","-32.387295","32.54782","-18.65359","-35.276226","36.45088","7.0692663","-18.847666","22.072935"
"era-472","15.2383375","-32.401024","32.569603","-18.582174","-35.31227","36.50054","7.0809813","-18.833754","22.090738"
"era-473","15.241597","-32.42797","32.5852","-18.675573","-35.311867","36.489742","7.0641437","-18.849989","22.08813"
"era-474","15.260462","-32.44025","32.607258","-18.596655","-35.349316","36.542328","7.076829","-18.834856","22.106682"
"era-475","15.2618885","-32.46815","32.6227","-18.696756","-35.34792","36.528694","7.0592365","-18.852121","22.103157"
"era-476","15.282261","-32.479374","32.644833","-18.611877","-35.38625","36.58369","7.072672","-18.836012","22.122242"
"era-477","15.282241","-32.507908","32.660263","-18.717674","-35.384018","36.56765","7.05443","-18.85418","22.11791"
"era-478","15.303998","-32.518337","32.68224","-18.627495","-35.423153","36.62473","7.068517","-18.837223","22.137447"
"era-479","15.302342","-32.547424","32.697834","-18.738241","-35.420193","36.606544","7.0498233","-18.85613","22.1324"
"era-480","15.325819","-32.556953","32.719597","-18.643518","-35.460007","36.665394","7.064324","-18.83849","22.152296"
"era-481","15.322231","-32.586662","32.735527","-18.75858","-35.45654","36.64529","7.045391","-18.858013","22.146637"
"era-482","15.347876","-32.595173","32.756947","-18.659311","-35.496883","36.70597","7.0601926","-18.839733","22.16687"
"era-483","15.34175","-32.62565","32.773434","-18.778725","-35.492943","36.683872","7.041205","-18.859816","22.16059"
"era-484","15.370204","-32.632874","32.7944","-18.675238","-35.533726","36.746277","7.056076","-18.841024","22.18113"
"era-485","15.361113","-32.66416","32.811646","-18.798841","-35.529507","36.722145","7.037233","-18.86162","22.174273"
"era-486","15.392986","-32.670017","32.83185","-18.690056","-35.570724","36.786865","7.0522265","-18.842154","22.195225"
"era-487","15.380503","-32.702133","32.85012","-18.819056","-35.56627","36.760014","7.03351","-18.863483","22.187696"
"era-488","15.416296","-32.7066","32.869278","-18.70259","-35.60801","36.828323","7.0489545","-18.842932","22.209284"
"era-489","15.400489","-32.739315","32.88874","-18.839527","-35.603394","36.797394","7.0300155","-18.865536","22.200813"
"era-490","15.440111","-32.742805","32.906406","-18.711472","-35.64582","36.871258","7.04667","-18.843157","22.223446"
"era-491","15.421217","-32.775852","32.927166","-18.860424","-35.64134","36.833885","7.026837","-18.867859","22.213652"
"era-492","15.464444","-32.7785","32.94329","-18.713625","-35.6846","36.917095","7.0460987","-18.842306","22.238018"
"era-493","15.442767","-32.81168","32.965355","-18.880808","-35.681118","36.869366","7.024278","-18.87033","22.226345"
"era-494","15.4882145","-32.813732","32.980522","-18.708824","-35.724575","36.96585","7.047664","-18.840324","22.252958"
"era-495","15.466198","-32.846134","33.00337","-18.893784","-35.723248","36.90734","7.0233226","-18.871817","22.239553"
"era-496","15.503299","-32.851593","33.01993","-18.724585","-35.762226","37.00494","7.048075","-18.84179","22.265167"
"era-497","15.490869","-32.88028","33.040867","-18.908981","-35.761463","36.946426","7.0213065","-18.873821","22.25183"
"era-498","15.516358","-32.890076","33.059803","-18.756535","-35.797474","37.036987","7.0459743","-18.846039","22.275314"
"era-499","15.515794","-32.9146","33.07793","-18.936441","-35.796886","36.980495","7.016793","-18.877947","22.26253"
"era-500","15.543405","-32.92187","33.098045","-18.743128","-35.845314","37.08238","7.0494704","-18.842829","22.290453"
"era-501","15.548402","-32.941193","33.118267","-18.872992","-35.841408","37.056538","7.028904","-18.8668","22.281971"
"era-502","15.561071","-32.96085","33.133175","-18.977688","-35.850243","37.03158","7.011096","-18.886154","22.278273"
"era-503","15.583691","-32.967644","33.156204","-18.78125","-35.91255","37.125576","7.0481143","-18.850838","22.306747"
"era-504","15.59703","-32.98182","33.176613","-18.843584","-35.907345","37.136433","7.039166","-18.864088","22.304535"
"era-505","15.604202","-33.00303","33.192696","-18.996904","-35.90937","37.092","7.0158753","-18.893303","22.294996"
"era-506","15.627149","-33.011074","33.213715","-18.828234","-35.98002","37.160316","7.0490155","-18.864084","22.320679"
"era-507","15.645721","-33.02623","33.229053","-18.848358","-35.983494","37.184826","7.047482","-18.870955","22.32264"
"era-508","15.657657","-33.048866","33.239307","-18.887627","-35.980354","37.205845","7.044044","-18.881325","22.323006"
"era-509","15.660945","-33.075726","33.250004","-19.016468","-35.982567","37.17452","7.026755","-18.906912","22.315866"
"era-510","15.668407","-33.089138","33.273933","-18.903467","-36.02091","37.240387","7.0530953","-18.888103","22.334333"
"era-511","15.6770315","-33.107254","33.29188","-18.998095","-36.020744","37.229626","7.04056","-18.907503","22.330236"
"era-512","15.687424","-33.125496","33.308613","-19.02165","-36.037548","37.241802","7.0404634","-18.91393","22.33498"
"era-513","15.699216","-33.141575","33.326847","-19.004616","-36.05816","37.27224","7.047444","-18.913235","22.34364"
"era-514","15.710824","-33.16091","33.341305","-19.05289","-36.072666","37.273186","7.042605","-18.924385","22.34579"
"era-515","15.725353","-33.17512","33.359585","-18.990576","-36.100506","37.32117","7.0573683","-18.915886","22.358772"
"era-516","15.734847","-33.198418","33.37024","-19.076685","-36.108173","37.307842","7.046171","-18.934118","22.356394"
"era-517","15.749462","-33.212105","33.388657","-18.99777","-36.14275","37.358414","7.0641246","-18.922667","22.371017"
"era-518","15.759524","-33.234932","33.39909","-19.054663","-36.1478","37.362946","7.0579867","-18.935883","22.370914"
"era-519","15.769259","-33.254997","33.41297","-19.08159","-36.16361","37.374092","7.057544","-18.943378","22.374985"
"era-520","15.779998","-33.271877","33.429886","-19.068787","-36.18466","37.401695","7.064117","-18.943773","22.383022"
"era-521","15.790368","-33.290863","33.44446","-19.09933","-36.19972","37.411537","7.0628676","-18.951984","22.386581"
"era-522","15.802183","-33.307644","33.460587","-19.085598","-36.221474","37.43894","7.069307","-18.952337","22.39465"
"era-523","15.812947","-33.3274","33.473743","-19.110933","-36.236748","37.451305","7.0688314","-18.959734","22.398571"
"era-524","15.824457","-33.345284","33.48852","-19.107332","-36.257275","37.474346","7.073465","-18.961948","22.405533"
"era-525","15.835326","-33.364536","33.501995","-19.121101","-36.27446","37.491077","7.0750623","-18.967285","22.410553"
"era-526","15.846379","-33.38292","33.516243","-19.126143","-36.293694","37.51057","7.0782223","-18.971048","22.416481"
"era-527","15.857433","-33.401455","33.530205","-19.133064","-36.312733","37.52911","7.081033","-18.97516","22.422098"
"era-528","15.868554","-33.419964","33.544056","-19.138636","-36.33268","37.54744","7.084073","-18.979052","22.427765"
"era-529","15.879759","-33.438477","33.557724","-19.143694","-36.354683","37.56395","7.087209","-18.982843","22.433384"
"era-530","15.89077","-33.457302","33.57104","-19.154703","-36.3859","37.568512","7.0894513","-18.987541","22.438507"
"era-531","15.909833","-33.4702","33.586014","-19.09006","-36.44396","37.586006","7.103351","-18.979313","22.449442"
"era-532","15.929353","-33.486954","33.596004","-18.798923","-36.470036","37.748447","7.155766","-18.932716","22.475912"
"era-533","15.882432","-33.547554","33.598083","-18.942907","-36.51896","37.66748","7.1456223","-18.958458","22.464201"
"era-534","15.847728","-33.557636","33.65563","-18.67972","-36.509304","37.850677","7.1998067","-18.90916","22.487078"
"era-535","15.926335","-33.52686","33.6861","-18.70998","-36.621655","37.798607","7.173828","-18.922836","22.484383"
"era-536","15.947677","-33.543255","33.695915","-18.9554","-36.55099","37.77742","7.1284747","-18.973402","22.462036"
"era-537","15.910501","-33.59706","33.700752","-18.769924","-36.595898","37.867565","7.173524","-18.942501","22.476381"
"era-538","15.8980055","-33.60075","33.74956","-18.744576","-36.550312","37.97074","7.1823936","-18.938944","22.481318"
"era-539","16.00139","-33.57193","33.76087","-18.831875","-36.751263","37.826523","7.1441","-18.964714","22.480642"
"era-540","15.8757925","-33.675022","33.76484","-18.810919","-36.61465","38.00019","7.1777554","-18.957695","22.4777"
"era-541","15.995358","-33.617867","33.80031","-18.796436","-36.64647","38.02827","7.1508026","-18.96517","22.485344"
"era-542","15.872106","-33.726208","33.799255","-19.060066","-36.712097","37.881203","7.1363397","-19.005686","22.467312"
"era-543","16.012913","-33.618324","33.877853","-18.984625","-36.79282","37.881397","7.111582","-19.001398","22.472609"
"era-544","15.912841","-33.709557","33.88237","-19.24791","-36.839077","37.76472","7.088276","-19.048641","22.44208"
"era-545","16.042515","-33.66524","33.89619","-18.857113","-36.73499","38.113445","7.1256332","-18.989706","22.482525"
"era-546","15.904703","-33.78542","33.890446","-19.005732","-36.830036","37.991444","7.1374693","-19.007822","22.473005"
"era-547","16.043114","-33.715168","33.92808","-19.067139","-36.84108","37.98848","7.0913258","-19.028765","22.468508"
"era-548","15.952134","-33.803234","33.930347","-18.79626","-36.855698","38.152916","7.1636324","-18.978342","22.491388"
"era-549","16.052008","-33.76892","33.951214","-19.035751","-36.929905","38.02227","7.0951095","-19.03007","22.469688"
"era-550","15.994339","-33.829437","33.963387","-19.099184","-36.924545","38.053905","7.094788","-19.04688","22.455807"
"era-551","16.084038","-33.79247","33.992798","-18.966892","-36.939526","38.144943","7.099242","-19.030949","22.466772"
"era-552","15.98021","-33.884922","33.997715","-18.912863","-36.903374","38.253242","7.135508","-19.018255","22.47409"
"era-553","16.125542","-33.823364","34.021233","-19.236458","-37.009655","38.04912","7.041974","-19.087744","22.449587"
"era-554","16.009897","-33.92224","34.023777","-18.864075","-36.998535","38.29092","7.140198","-19.016464","22.48393"
"era-555","16.13419","-33.870903","34.048565","-18.912115","-37.004784","38.32693","7.101675","-19.034166","22.491297"
"era-556","16.025461","-33.965282","34.053566","-19.042799","-36.99951","38.318813","7.1068664","-19.053917","22.483934"
"era-557","16.153913","-33.914204","34.074978","-19.101242","-37.154957","38.183384","7.0648756","-19.07494","22.477753"
"era-558","16.031881","-34.015423","34.079338","-18.991245","-37.013943","38.409615","7.1146154","-19.051472","22.484396"
"era-559","16.173098","-33.949913","34.10963","-19.028683","-37.14699","38.309032","7.074132","-19.068785","22.483234"
"era-560","16.069817","-34.035336","34.120102","-19.405151","-37.198296","38.12896","7.031763","-19.134743","22.445316"
"era-561","16.1672","-33.999535","34.143528","-19.094124","-37.137836","38.391792","7.064992","-19.085653","22.479319"
"era-562","16.089418","-34.078804","34.146202","-18.96646","-37.206326","38.43165","7.1088176","-19.06155","22.488935"
"era-563","16.167557","-34.055298","34.167473","-19.386156","-37.20353","38.258125","7.0154347","-19.14236","22.451595"
"era-564","16.230387","-34.045475","34.180458","-19.216066","-37.315598","38.279938","7.036658","-19.119589","22.468266"
"era-565","16.090605","-34.15681","34.18215","-19.23546","-37.20192","38.41279","7.069019","-19.116695","22.463762"
"era-566","16.252432","-34.04836","34.247257","-18.922512","-37.28919","38.53354","7.0822954","-19.07519","22.489853"
"era-567","16.105251","-34.175804","34.238667","-19.040298","-37.230034","38.582813","7.0959544","-19.094797","22.470577"
"era-568","16.269354","-34.09784","34.26888","-19.448101","-37.36601","38.311558","6.9824095","-19.181337","22.436651"
"era-569","16.158987","-34.19236","34.27316","-19.469131","-37.40964","38.321835","7.008218","-19.182886","22.433146"
"era-570","16.284353","-34.128685","34.31047","-19.284555","-37.404827","38.486404","7.0088315","-19.164156","22.44799"
"era-571","16.126244","-34.256596","34.30511","-19.29418","-37.42566","38.49926","7.0504985","-19.156494","22.447535"
"era-572","16.269999","-34.171635","34.35485","-19.336899","-37.43168","38.51072","7.0073066","-19.17328","22.445518"
"era-573","16.164198","-34.267414","34.356216","-19.013483","-37.43798","38.709038","7.093605","-19.111547","22.47374"
"era-574","16.317764","-34.203064","34.377003","-19.461657","-37.521004","38.481953","6.9716682","-19.207455","22.431347"
"era-575","16.17281","-34.3235","34.37307","-19.169966","-37.464447","38.724777","7.064836","-19.146673","22.461124"
"era-576","16.31509","-34.26286","34.396435","-19.415876","-37.56093","38.547703","6.987308","-19.200346","22.4411"
"era-577","16.233166","-34.33547","34.408398","-19.419447","-37.566242","38.599552","7.0061913","-19.20239","22.435265"
"era-578","16.331825","-34.28941","34.441475","-19.25379","-37.57877","38.71043","7.0157156","-19.180084","22.45087"
"era-579","16.225943","-34.378265","34.449913","-19.499592","-37.629055","38.59654","6.99859","-19.221283","22.427546"
"era-580","16.340729","-34.33762","34.46708","-19.519539","-37.651764","38.6042","6.97038","-19.230637","22.430906"
"era-581","16.234587","-34.43223","34.470047","-19.169655","-37.579666","38.892075","7.062905","-19.162085","22.46635"
"era-582","16.36567","-34.38239","34.48795","-19.495811","-37.663887","38.694096","6.974823","-19.22816","22.442966"
"era-583","16.268623","-34.472332","34.489567","-19.201406","-37.699142","38.850025","7.0546017","-19.171122","22.46929"
"era-584","16.38448","-34.431564","34.506218","-19.588581","-37.670067","38.717","6.957002","-19.249922","22.433506"
"era-585","16.344606","-34.48405","34.51449","-19.451405","-37.842037","38.682056","6.994419","-19.227348","22.445578"
"era-586","16.396774","-34.455784","34.555798","-19.420778","-37.68009","38.884773","6.991474","-19.229116","22.445887"
"era-587","16.354027","-34.50885","34.565746","-19.521015","-37.90519","38.68154","6.982256","-19.253298","22.425842"
"era-588","16.435062","-34.465706","34.605976","-19.215742","-37.666065","39.108734","7.0222244","-19.207458","22.458761"
"era-589","16.29463","-34.583958","34.6018","-19.359974","-37.741856","39.017956","7.0355544","-19.225441","22.4476"
"era-590","16.468334","-34.500164","34.63099","-19.383223","-37.91006","38.889164","6.986957","-19.243519","22.44384"
"era-591","16.323751","-34.616795","34.628372","-19.402256","-37.782494","39.032513","7.020073","-19.242311","22.435825"
"era-592","16.494179","-34.541885","34.649685","-19.343004","-37.933933","38.961555","6.987575","-19.246056","22.439047"
"era-593","16.365211","-34.647877","34.64797","-19.393005","-37.812935","39.083145","7.0116606","-19.252167","22.428022"
"era-594","16.514372","-34.588585","34.664074","-19.384516","-37.976086","38.975376","6.976453","-19.262947","22.427036"
"era-595","16.406353","-34.680405","34.664185","-19.443733","-37.856045","39.091087","6.9944744","-19.272121","22.415268"
"era-596","16.52423","-34.624973","34.695206","-19.32184","-37.99445","39.064552","6.9888988","-19.261103","22.424118"
"era-597","16.418299","-34.71518","34.696445","-19.420208","-37.884445","39.15158","6.998686","-19.27756","22.408934"
"era-598","16.53912","-34.66207","34.722927","-19.429058","-38.05124","39.03143","6.9691195","-19.289425","22.40659"
"era-599","16.43186","-34.753487","34.72367","-19.481936","-37.929413","39.152004","6.9876423","-19.297194","22.395493"
"era-600","16.566608","-34.697308","34.744835","-19.413483","-38.079823","39.08646","6.9676847","-19.296375","22.399752"
"era-601","16.479101","-34.775806","34.746372","-19.507574","-37.967064","39.177525","6.9749875","-19.313456","22.38483"
"era-602","16.570692","-34.727264","34.78539","-19.415348","-38.112152","39.12912","6.9734592","-19.306322","22.39128"
"era-603","16.46622","-34.81704","34.786224","-19.496801","-37.99715","39.22888","6.985914","-19.319735","22.377394"
"era-604","16.594234","-34.76323","34.808784","-19.501423","-38.163494","39.11082","6.9552217","-19.331125","22.37549"
"era-605","16.499239","-34.847103","34.809353","-19.570257","-38.04449","39.220524","6.9691644","-19.342478","22.363432"
"era-606","16.606522","-34.794502","34.843235","-19.464558","-38.186787","39.181404","6.9652","-19.333187","22.3714"
"era-607","16.50892","-34.880085","34.843914","-19.556406","-38.07361","39.273975","6.9747605","-19.3489","22.356674"
"era-608","16.623034","-34.82768","34.873363","-19.532034","-38.23369","39.176407","6.954037","-19.354229","22.357492"
"era-609","16.523937","-34.914494","34.873466","-19.604866","-38.115604","39.28319","6.968065","-19.365889","22.345146"
"era-610","16.641924","-34.860626","34.90209","-19.544619","-38.267883","39.211197","6.9528685","-19.364826","22.349413"
"era-611","16.548328","-34.94395","34.90231","-19.629883","-38.15252","39.30904","6.9636745","-19.37918","22.335974"
"era-612","16.656096","-34.89179","34.935173","-19.572937","-38.305515","39.234615","6.9516335","-19.378109","22.340199"
"era-613","16.558142","-34.978138","34.934937","-19.650888","-38.18852","39.337795","6.964832","-19.390615","22.327692"
"era-614","16.674246","-34.92445","34.96441","-19.606785","-38.344357","39.254055","6.947917","-19.391989","22.331017"
"era-615","16.579407","-35.008907","34.96412","-19.676006","-38.225273","39.363735","6.9624414","-19.402954","22.319748"
"era-616","16.690134","-34.956104","34.99579","-19.635578","-38.381958","39.277256","6.9470143","-19.404575","22.323051"
"era-617","16.594368","-35.041306","34.995296","-19.692268","-38.260086","39.396053","6.9641786","-19.413042","22.313251"
"era-618","16.707325","-34.988106","35.02599","-19.666794","-38.420055","39.29876","6.9455113","-19.417295","22.315409"
"era-619","16.613102","-35.07244","35.025436","-19.70478","-38.29403","39.43117","6.9659495","-19.422377","22.307695"
"era-620","16.724133","-35.019733","35.056686","-19.69677","-38.457825","39.321262","6.9449883","-19.4296","22.308405"
"era-621","16.630543","-35.10378","35.05608","-19.712006","-38.326824","39.470097","6.969541","-19.43053","22.303083"
"era-622","16.741154","-35.05133","35.087215","-19.727062","-38.495613","39.343624","6.9446926","-19.441833","22.301775"
"era-623","16.648413","-35.134953","35.086555","-19.714401","-38.35859","39.51249","6.974202","-19.437746","22.299313"
"era-624","16.758255","-35.082985","35.11757","-19.757553","-38.533398","39.365875","6.94464","-19.454048","22.295492"
"era-625","16.666393","-35.166203","35.116886","-19.712788","-38.389565","39.55772","6.9798064","-19.444212","22.29626"
"era-626","16.77541","-35.114853","35.14763","-19.78921","-38.571377","39.387436","6.944597","-19.466429","22.289478"
"era-627","16.684282","-35.19781","35.146847","-19.708944","-38.420235","39.604473","6.9860086","-19.450247","22.29381"
"era-628","16.792711","-35.147083","35.177185","-19.82075","-38.609318","39.409206","6.944691","-19.47874","22.28394"
"era-629","16.702208","-35.229954","35.176243","-19.709429","-38.452118","39.64801","6.9915595","-19.457016","22.29148"
"era-630","16.810265","-35.179718","35.206207","-19.850578","-38.646812","39.43243","6.9451995","-19.490665","22.27914"
"era-631","16.72054","-35.26242","35.20499","-19.719276","-38.4862","39.68487","6.9955235","-19.465359","22.288908"
"era-632","16.82815","-35.212467","35.234863","-19.87652","-38.68347","39.45855","6.9465594","-19.501783","22.275297"
"era-633","16.740189","-35.294342","35.23346","-19.736193","-38.521683","39.716927","6.9981856","-19.474943","22.286255"
"era-634","16.846254","-35.24483","35.26372","-19.899328","-38.71955","39.486942","6.948855","-19.512316","22.272259"
"era-635","16.760345","-35.325657","35.262154","-19.755022","-38.557354","39.74791","7.0008383","-19.484875","22.283863"
"era-636","16.864502","-35.276714","35.292877","-19.92092","-38.75542","39.51626","6.951833","-19.522627","22.269749"
"era-637","16.780256","-35.356724","35.291107","-19.773645","-38.592865","39.77924","7.004099","-19.494751","22.2819"
"era-638","16.882881","-35.30834","35.322098","-19.942036","-38.791206","39.545986","6.9553294","-19.532862","22.267693"
"era-639","16.800108","-35.387657","35.32008","-19.791763","-38.628185","39.81114","7.007925","-19.50452","22.28039"
"era-640","16.901497","-35.339893","35.351097","-19.962904","-38.82693","39.57602","6.9592285","-19.543056","22.266056"
"era-641","16.820478","-35.41834","35.348877","-19.809471","-38.663322","39.843536","7.0121374","-19.514254","22.279312"
"era-642","16.920689","-35.37153","35.379456","-19.9837","-38.86269","39.606205","6.963422","-19.553305","22.264816"
"era-643","16.842459","-35.44845","35.377075","-19.827986","-38.698574","39.87563","7.0163","-19.524273","22.278599"
"era-644","16.941368","-35.403717","35.406006","-20.00455","-38.898518","39.63649","6.9677267","-19.563726","22.264008"
"era-645","16.869188","-35.476967","35.403683","-19.85001","-38.734486","39.905514","7.0193295","-19.535309","22.278048"
"era-646","16.966795","-35.439083","35.425415","-20.025898","-38.934414","39.66662","6.971292","-19.574766","22.26364"
"era-647","16.914206","-35.499615","35.424393","-19.888945","-38.773766","39.92385","7.01594","-19.550844","22.276669"
"era-648","16.915346","-35.53564","35.42371","-19.986734","-38.95824","39.739315","7.004353","-19.57064","22.268553"
"era-649","17.006514","-35.50508","35.440918","-19.968592","-38.817104","39.91555","6.9909687","-19.5774","22.268547"
"era-650","17.014816","-35.517914","35.4519","-20.048212","-39.002205","39.73991","6.9848247","-19.593601","22.26378"
"era-651","17.01215","-35.541107","35.459324","-19.964697","-38.850613","39.96076","7.0083413","-19.582558","22.271645"
"era-652","17.031544","-35.545288","35.47339","-20.073719","-39.03866","39.767075","6.993377","-19.604677","22.263998"
"era-653","17.029665","-35.567684","35.481056","-19.997385","-38.888184","39.983875","7.0156937","-19.5946","22.272112"
"era-654","17.049017","-35.570686","35.496243","-20.094425","-39.074455","39.79805","7.0031548","-19.614292","22.265987"
"era-655","17.046455","-35.593372","35.503796","-20.03456","-38.927055","40.003887","7.022955","-19.606874","22.273142"
"era-656","17.065598","-35.59563","35.519737","-20.116102","-39.110554","39.828705","7.0135846","-19.62344","22.269028"
"era-657","17.060976","-35.619774","35.5268","-20.089586","-38.970066","40.01143","7.028302","-19.621443","22.274014"
"era-658","17.081736","-35.621117","35.54279","-20.139803","-39.147175","39.858494","7.024689","-19.631922","22.273943"
"era-659","17.073032","-35.648094","35.549046","-20.181162","-39.021267","39.993538","7.0290313","-19.640892","22.274612"
"era-660","17.097507","-35.649956","35.562756","-20.155107","-39.17662","39.90064","7.038841","-19.637228","22.283657"
"era-661","17.104774","-35.663364","35.573997","-20.062386","-39.02619","40.125645","7.061363","-19.624985","22.292812"
"era-662","17.11413","-35.66796","35.592457","-20.180334","-39.219406","39.922543","7.0478926","-19.647688","22.284885"
"era-663","17.100197","-35.69917","35.59705","-20.278921","-39.10425","40.01916","7.044416","-19.665438","22.28301"
"era-664","17.134441","-35.696533","35.61068","-19.986406","-39.16427","40.15426","7.0991893","-19.61513","22.317352"
"era-665","17.168034","-35.677864","35.640594","-20.119823","-39.26114","40.05534","7.0822425","-19.638094","22.325197"
"era-666","17.09693","-35.75978","35.625885","-20.09885","-39.11993","40.2326","7.1117134","-19.635359","22.323904"
"era-667","17.109562","-35.77984","35.63131","-20.207935","-39.31457","40.03266","7.096263","-19.65721","22.315804"
"era-668","17.083334","-35.82459","35.634357","-20.027807","-39.139004","40.325512","7.1379147","-19.62702","22.331478"
"era-669","17.183231","-35.78356","35.65765","-20.257406","-39.356243","40.0428","7.0803337","-19.676088","22.31275"
"era-670","17.201744","-35.77983","35.680496","-19.864965","-39.115314","40.518463","7.1549025","-19.61014","22.356419"
"era-671","17.206568","-35.79934","35.686012","-20.067366","-39.314102","40.273907","7.129326","-19.64791","22.34216"
"era-672","17.21695","-35.78774","35.721638","-19.827957","-39.20482","40.545174","7.1784186","-19.60932","22.374207"
"era-673","17.112284","-35.89573","35.69962","-20.376226","-39.302402","40.219185","7.1152554","-19.702745","22.327518"
"era-674","17.219692","-35.844017","35.730766","-20.208338","-39.418045","40.237892","7.128823","-19.67885","22.350252"
"era-675","17.20952","-35.853146","35.75563","-20.418133","-39.336","40.243378","7.1036963","-19.717049","22.334082"
"era-676","17.239151","-35.851925","35.769238","-20.130194","-39.417698","40.35659","7.1588144","-19.667439","22.368084"
"era-677","17.254774","-35.84641","35.794968","-19.977325","-39.295216","40.599823","7.1881967","-19.647417","22.381691"
"era-678","17.242085","-35.884064","35.790913","-20.341877","-39.53139","40.232136","7.137635","-19.713612","22.35151"
"era-679","17.253517","-35.891598","35.805187","-20.268084","-39.380955","40.448082","7.155536","-19.704802","22.35941"
"era-680","17.2578","-35.898087","35.823883","-20.388763","-39.579594","40.238396","7.143585","-19.72695","22.35266"
"era-681","17.287523","-35.898643","35.83633","-20.095108","-39.53272","40.510933","7.1996083","-19.678185","22.396605"
"era-682","17.264318","-35.933846","35.840275","-20.480173","-39.48742","40.389664","7.143905","-19.7504","22.358627"
"era-683","17.290838","-35.933586","35.854183","-20.223028","-39.57389","40.48187","7.194077","-19.706299","22.389072"
"era-684","17.273102","-35.954685","35.87011","-20.511997","-39.53468","40.41128","7.1565804","-19.758589","22.3665"
"era-685","17.290663","-35.963024","35.880215","-20.43042","-39.62277","40.4127","7.1793027","-19.743353","22.384996"
"era-686","17.326042","-35.95151","35.901234","-20.194744","-39.533646","40.672314","7.2214794","-19.7065","22.419027"
"era-687","17.316713","-35.986534","35.8977","-20.342318","-39.683933","40.493572","7.206833","-19.735857","22.405563"
"era-688","17.3073","-36.000496","35.916363","-20.561323","-39.60236","40.493797","7.1798744","-19.775787","22.388823"
"era-689","17.335987","-36.00156","35.927647","-20.254444","-39.680702","40.62013","7.2382107","-19.723148","22.424273"
"era-690","17.355326","-35.99581","35.951115","-20.42272","-39.65985","40.61276","7.2091136","-19.760944","22.411587"
"era-691","17.316174","-36.05885","35.937714","-20.300175","-39.743168","40.63573","7.252198","-19.739244","22.425158"
"era-692","17.36545","-36.020645","35.97928","-20.180717","-39.58314","40.894672","7.264939","-19.727062","22.435108"
"era-693","17.350664","-36.064865","35.969635","-20.539928","-39.85299","40.497078","7.2159567","-19.79214","22.406443"
"era-694","17.389233","-36.05311","35.98904","-19.99219","-39.740753","40.955803","7.313259","-19.699144","22.466097"
"era-695","17.229591","-36.196327","35.964767","-20.052477","-39.711296","41.021988","7.342543","-19.705902","22.459711"
"era-696","17.399982","-36.128513","35.975857","-20.407074","-39.74683","40.855297","7.2374954","-19.782738","22.42697"
"era-697","17.370571","-36.1254","36.0258","-20.588661","-39.959923","40.600258","7.2237506","-19.81346","22.414837"
"era-698","17.423054","-36.101303","36.050457","-20.482607","-39.97297","40.731293","7.2344394","-19.804214","22.428015"
"era-699","17.287033","-36.232845","36.02214","-20.420425","-39.822227","40.93882","7.284467","-19.789494","22.43002"
"era-700","17.402159","-36.171455","36.059727","-20.62228","-40.03571","40.672993","7.228631","-19.83248","22.416052"
"era-701","17.451511","-36.147095","36.08629","-20.46836","-40.033157","40.843372","7.2472835","-19.816189","22.428709"
"era-702","17.33142","-36.26935","36.05724","-20.701818","-39.951847","40.834145","7.243699","-19.853561","22.407488"
"era-703","17.459393","-36.21257","36.08102","-20.463326","-40.04486","40.910454","7.2638197","-19.81885","22.436306"
"era-704","17.427866","-36.22449","36.115078","-20.691664","-39.9747","40.900436","7.2404194","-19.86047","22.417276"
"era-705","17.447777","-36.218063","36.138412","-20.671661","-40.147343","40.788555","7.2507157","-19.856564","22.427837"
"era-706","17.476559","-36.22263","36.14623","-20.176239","-39.960335","41.271244","7.3419757","-19.772469","22.490585"
"era-707","17.327637","-36.36436","36.11501","-20.676498","-40.036304","40.989292","7.2948117","-19.85502","22.445183"
"era-708","17.492126","-36.29501","36.131004","-20.710798","-40.21447","40.843475","7.255532","-19.868385","22.450268"
"era-709","17.513714","-36.2712","36.17338","-20.211935","-40.114513","41.269035","7.348437","-19.784248","22.50381"
"era-710","17.50752","-36.304974","36.169083","-20.589806","-40.078835","41.14706","7.290218","-19.85709","22.464928"
"era-711","17.492083","-36.303413","36.208027","-20.75309","-40.281464","40.910824","7.277223","-19.884874","22.455963"
"era-712","17.512014","-36.31062","36.217342","-20.556541","-40.23772","41.121967","7.316199","-19.853601","22.479103"
"era-713","17.533487","-36.30041","36.243687","-20.22636","-40.150116","41.422024","7.3830447","-19.794739","22.523157"
"era-714","17.357624","-36.463688","36.208492","-20.358658","-40.168583","41.397568","7.4064384","-19.809692","22.523367"
"era-715","17.547363","-36.389","36.215508","-20.827692","-40.325428","41.051","7.2825513","-19.901905","22.48971"
"era-716","17.535","-36.384167","36.25722","-20.669931","-40.199734","41.292187","7.322799","-19.876211","22.507341"
"era-717","17.533594","-36.37147","36.299816","-20.836555","-40.40681","41.049393","7.305397","-19.904423","22.499626"
"era-718","17.537905","-36.398716","36.29752","-20.870888","-40.295322","41.176434","7.3073564","-19.91348","22.502531"
"era-719","17.561378","-36.395935","36.314617","-20.753656","-40.429867","41.15082","7.332937","-19.893763","22.520124"
"era-720","17.568474","-36.413628","36.319355","-20.787264","-40.305477","41.28482","7.3325157","-19.904472","22.515123"
"era-721","17.575094","-36.42387","36.331787","-20.868557","-40.492","41.106274","7.3287396","-19.918049","22.51588"
"era-722","17.617971","-36.421566","36.338787","-20.719116","-40.52848","41.227894","7.3572526","-19.894606","22.54842"
"era-723","17.531778","-36.52122","36.314377","-20.64925","-40.339993","41.47648","7.39733","-19.882858","22.552109"
"era-724","17.61734","-36.484493","36.33401","-20.90339","-40.561985","41.175236","7.3385887","-19.9334","22.533829"
"era-725","17.652712","-36.46761","36.36","-20.77254","-40.604763","41.282875","7.3656564","-19.912748","22.563576"
"era-726","17.561218","-36.574154","36.33058","-20.91702","-40.464096","41.377605","7.371123","-19.936756","22.551697"
"era-727","17.652609","-36.534576","36.35019","-20.929522","-40.63549","41.249435","7.3558106","-19.943224","22.558596"
"era-728","17.662264","-36.509773","36.40125","-20.82454","-40.65619","41.36681","7.383053","-19.928339","22.57699"
"era-729","17.662247","-36.54546","36.39154","-20.756826","-40.49154","41.589996","7.40207","-19.922977","22.57864"
"era-730","17.617823","-36.549892","36.442093","-20.977983","-40.701385","41.316902","7.3856072","-19.959702","22.563866"
"era-731","17.672396","-36.518185","36.4726","-20.86402","-40.716503","41.441757","7.4023643","-19.942965","22.588972"
"era-732","17.440325","-36.71493","36.43469","-20.751612","-40.552704","41.687504","7.4790654","-19.911552","22.594698"
"era-733","17.664326","-36.582333","36.486282","-21.013142","-40.77209","41.384888","7.363197","-19.96446","22.576296"
"era-734","17.666666","-36.61277","36.481487","-21.038576","-40.658398","41.527275","7.3699126","-19.969522","22.587967"
"era-735","17.683027","-36.602425","36.51065","-20.933615","-40.790234","41.49743","7.3953094","-19.951725","22.603827"
"era-736","17.691238","-36.621323","36.513172","-21.00033","-40.6718","41.608868","7.3888173","-19.96823","22.596012"
"era-737","17.700432","-36.63315","36.522243","-21.052126","-40.848785","41.454617","7.389801","-19.976685","22.599972"
"era-738","17.744518","-36.631393","36.52738","-20.688763","-40.812965","41.741737","7.459122","-19.911915","22.663113"
"era-739","17.736935","-36.676014","36.51247","-20.882029","-40.706123","41.775738","7.4311724","-19.954777","22.63705"
"era-740","17.680681","-36.684776","36.56575","-21.08325","-40.90631","41.52184","7.4211655","-19.986992","22.624191"
"era-741","17.719334","-36.65817","36.59978","-20.868513","-40.708744","41.8637","7.455546","-19.954302","22.64865"
"era-742","17.727049","-36.683353","36.595688","-21.11242","-40.916725","41.579666","7.421126","-19.9983","22.632866"
"era-743","17.747734","-36.70317","36.591698","-20.882496","-40.76655","41.874897","7.4628067","-19.965229","22.651352"
"era-744","17.744919","-36.709824","36.613056","-21.126787","-40.9771","41.589054","7.4308205","-20.00865","22.634504"
"era-745","17.752138","-36.739414","36.606247","-21.152206","-40.858387","41.72753","7.435323","-20.015009","22.642443"
"era-746","17.764992","-36.73418","36.631653","-21.092701","-41.011314","41.654522","7.4538436","-20.004827","22.655136"
"era-747","17.784058","-36.75041","36.63088","-20.975126","-40.851154","41.900192","7.4757524","-19.990898","22.663181"
"era-748","17.78254","-36.763126","36.64486","-21.161903","-41.045303","41.65926","7.4543266","-20.023954","22.652143"
"era-749","17.79334","-36.787888","36.640057","-21.216011","-40.933548","41.775784","7.4506235","-20.037254","22.652601"
"era-750","17.811533","-36.78709","36.657658","-20.978962","-41.038147","41.840366","7.4985747","-19.997355","22.67985"
"era-751","17.83095","-36.7802","36.681175","-21.10328","-40.942226","41.92659","7.4732976","-20.031784","22.658941"
"era-752","17.6448","-36.95607","36.635902","-21.115784","-41.094215","41.814808","7.52473","-20.021004","22.664106"
"era-753","17.848375","-36.875454","36.640926","-21.248407","-41.028442","41.851597","7.4557114","-20.05617","22.659445"
"era-754","17.595781","-36.971294","36.722942","-20.649483","-41.03252","42.200027","7.6224027","-19.930761","22.719776"
"era-755","17.786303","-36.808903","36.828075","-21.056381","-41.004063","42.061092","7.4996486","-20.014277","22.68112"
"era-756","17.564617","-36.99267","36.796524","-21.102093","-41.15708","41.93068","7.548565","-20.006506","22.680609"
"era-757","17.800037","-36.8177","36.888977","-20.66033","-41.096558","42.273983","7.5547376","-19.933462","22.730118"
"era-758","17.830238","-36.848793","36.872646","-20.874115","-41.19781","42.14362","7.519321","-19.97546","22.726078"
"era-759","17.589136","-37.04263","36.847103","-20.748459","-41.030247","42.400723","7.5931654","-19.943995","22.728786"
"era-760","17.803501","-36.866478","36.953857","-20.824574","-41.133556","42.324806","7.511689","-19.965712","22.730927"
"era-761","17.549328","-37.071556","36.92553","-20.914518","-41.17663","42.28245","7.5563707","-19.964432","22.724949"
"era-762","17.75475","-36.941326","36.97824","-21.326502","-41.29844","41.99791","7.410396","-20.041388","22.694372"
"era-763","17.698544","-36.991566","36.99416","-21.145184","-41.351593","42.10546","7.4657006","-20.001595","22.734268"
"era-764","17.574816","-37.091175","37.00721","-20.953941","-41.17167","42.420265","7.5203943","-19.961231","22.750225"
"era-765","17.786308","-36.932907","37.09639","-21.274252","-41.391388","42.088028","7.3992286","-20.021723","22.725983"
"era-766","17.558752","-37.12537","37.065117","-21.141949","-41.25109","42.33101","7.4770446","-19.985056","22.738968"
"era-767","17.820707","-36.984707","37.105713","-21.23698","-41.402416","42.176643","7.3785863","-20.009832","22.734703"
"era-768","17.620932","-37.147358","37.092827","-20.809786","-41.412346","42.44215","7.5052977","-19.918135","22.788599"
"era-769","17.865343","-37.042004","37.101845","-21.242437","-41.428562","42.262672","7.369769","-20.004553","22.761818"
"era-770","17.668402","-37.20208","37.088997","-21.288406","-41.456898","42.277817","7.4065957","-20.002876","22.756235"
"era-771","17.928036","-37.09106","37.09507","-20.828485","-41.36701","42.643482","7.424055","-19.935747","22.814285"
"era-772","17.946344","-37.13678","37.06916","-21.192179","-41.39836","42.473454","7.3616877","-20.007053","22.777401"
"era-773","17.923454","-37.19126","37.05669","-21.164183","-41.51707","42.41296","7.3835254","-20.003504","22.782516"
"era-774","17.96619","-37.155785","37.097515","-21.014206","-41.50853","42.55153","7.4043946","-19.983503","22.792671"
"era-775","17.855545","-37.263756","37.081833","-20.854177","-41.56495","42.635456","7.4680314","-19.949123","22.821552"
"era-776","17.795023","-37.3407","37.075245","-21.460632","-41.53763","42.394413","7.378863","-20.050234","22.774462"
"era-777","18.031672","-37.253464","37.0673","-21.289686","-41.64585","42.419678","7.3541055","-20.03185","22.796862"
"era-778","18.064657","-37.25156","37.0777","-21.104929","-41.669704","42.55375","7.394247","-19.999422","22.8349"
"era-779","18.054321","-37.30823","37.053226","-21.246416","-41.55098","42.625015","7.3772326","-20.033737","22.812292"
"era-780","17.79456","-37.405636","37.137856","-20.89697","-41.583263","42.812298","7.5010743","-19.95243","22.846643"
"era-781","18.01216","-37.2496","37.218987","-20.997408","-41.59748","42.812275","7.4264693","-19.98298","22.849329"
"era-782","17.765276","-37.45881","37.178295","-21.406311","-41.724075","42.53464","7.4181657","-20.037182","22.817753"
"era-783","18.014442","-37.35818","37.184673","-21.054262","-41.66527","42.811527","7.3905587","-19.983204","22.86219"
"era-784","18.059988","-37.309536","37.238697","-20.91558","-41.785007","42.82771","7.415135","-19.960485","22.892426"
"era-785","18.055592","-37.364292","37.21894","-20.924677","-41.823353","42.854527","7.4310055","-19.962414","22.913132"
"era-786","18.081995","-37.37244","37.222385","-21.37744","-41.718994","42.768124","7.3518715","-20.048489","22.870787"
"era-787","18.107025","-37.393898","37.212757","-21.304094","-41.80218","42.76388","7.3703074","-20.03845","22.881832"
"era-788","18.130316","-37.40753","37.212055","-21.096577","-41.75312","42.962494","7.4099145","-20.007935","22.90276"
"era-789","18.131046","-37.45332","37.19106","-21.624754","-41.918785","42.5802","7.3319006","-20.10051","22.86448"
"era-790","18.122606","-37.46003","37.2175","-21.646023","-41.872387","42.658707","7.343296","-20.105227","22.871231"
"era-791","18.131649","-37.447983","37.253784","-21.469152","-41.956387","42.71151","7.3857245","-20.07498","22.894426"
"era-792","18.165094","-37.44274","37.267235","-20.99905","-41.907764","43.049873","7.4707284","-19.997019","22.948793"
"era-793","18.1954","-37.481712","37.241886","-21.457191","-42.03668","42.782795","7.3866887","-20.092941","22.896791"
"era-794","18.216717","-37.51543","37.222572","-21.123287","-41.820892","43.199245","7.4491796","-20.042704","22.934675"
"era-795","18.246399","-37.55039","37.199368","-21.012054","-42.05279","43.10606","7.478889","-20.024593","22.966604"
"era-796","18.170963","-37.601105","37.219578","-21.620712","-42.03335","42.861088","7.397288","-20.13535","22.905653"
"era-797","17.941763","-37.632595","37.361164","-21.392714","-42.10047","42.96776","7.4843397","-20.071482","22.931267"
"era-798","18.17385","-37.54456","37.35717","-21.75299","-42.05351","42.868717","7.362668","-20.150902","22.89854"
"era-799","18.212576","-37.56207","37.344933","-21.380552","-42.114826","43.04258","7.4306235","-20.08941","22.938602"
"era-800","18.235243","-37.56305","37.357918","-21.073002","-42.118763","43.247696","7.4896293","-20.040129","22.977667"
"era-801","18.24318","-37.62609","37.318058","-21.712585","-42.13266","42.957237","7.3799148","-20.16385","22.910624"
"era-802","17.999662","-37.721188","37.395893","-21.410656","-42.192436","43.10759","7.494632","-20.091845","22.944569"
"era-803","18.258299","-37.610065","37.40114","-21.107605","-42.177055","43.32428","7.4874287","-20.0525","22.989786"
"era-804","18.267656","-37.672714","37.360786","-21.763329","-42.206696","43.01008","7.3767414","-20.176773","22.926113"
"era-805","18.03177","-37.772354","37.42822","-21.31125","-42.2267","43.271187","7.5168924","-20.079727","22.974173"
"era-806","18.279083","-37.671116","37.42937","-21.344343","-42.172737","43.347527","7.4458027","-20.106846","22.971865"
"era-807","18.279512","-37.702557","37.422398","-21.809189","-42.365196","42.967815","7.3782578","-20.188265","22.93773"
"era-808","18.298983","-37.70976","37.431034","-21.562267","-42.206955","43.279213","7.4244556","-20.15273","22.956514"
"era-809","18.176973","-37.771233","37.467373","-21.821825","-42.344517","43.053032","7.423122","-20.188755","22.942059"
"era-810","18.30747","-37.69801","37.499573","-21.668644","-42.448864","43.109066","7.4223466","-20.173422","22.957352"
"era-811","18.238605","-37.801983","37.46299","-21.352404","-42.221607","43.519073","7.5002537","-20.122486","22.978954"
"era-812","18.009651","-37.852493","37.58348","-21.244715","-42.30291","43.54239","7.5698504","-20.080746","22.995325"
"era-813","17.908154","-37.87263","37.67207","-21.819881","-42.3701","43.236046","7.4728346","-20.166576","22.944538"
"era-814","18.2217","-37.732433","37.673855","-21.893509","-42.471878","43.140114","7.3689704","-20.191786","22.951523"
"era-815","18.036608","-37.881237","37.66435","-21.36227","-42.432392","43.51223","7.5065656","-20.086655","23.004286"
"era-816","18.291119","-37.77973","37.66227","-21.59001","-42.381287","43.48587","7.4040623","-20.141197","22.990088"
"era-817","18.152285","-37.919918","37.627666","-21.810001","-42.519264","43.280266","7.4087844","-20.170479","22.97616"
"era-818","18.34692","-37.832966","37.643944","-21.42451","-42.484886","43.556263","7.4333754","-20.115551","23.022335"
"era-819","18.375471","-37.860744","37.62867","-21.251791","-42.528816","43.65503","7.467568","-20.092278","23.047243"
"era-820","18.406296","-37.90705","37.594135","-21.475313","-42.476307","43.638603","7.423194","-20.146984","23.022657"
"era-821","18.302246","-37.962402","37.626575","-21.784319","-42.62071","43.383274","7.410747","-20.19265","23.005808"
"era-822","18.116165","-38.007496","37.724995","-21.32386","-42.563805","43.72933","7.5342345","-20.096724","23.049154"
"era-823","18.388512","-37.89575","37.72326","-21.280815","-42.67147","43.72188","7.4777393","-20.102297","23.07493"
"era-824","18.412964","-37.948166","37.68505","-21.73434","-42.64961","43.56102","7.402192","-20.187698","23.037632"
"era-825","18.439354","-37.956818","37.68772","-21.39524","-42.574963","43.85282","7.4646673","-20.134882","23.071579"
"era-826","18.45532","-38.014584","37.649006","-21.73738","-42.615852","43.685486","7.409634","-20.203524","23.0353"
"era-827","18.15862","-38.11094","37.758263","-21.813892","-42.682377","43.619205","7.469742","-20.184383","23.044653"
"era-828","18.07983","-38.11027","37.85375","-21.661879","-42.730278","43.689846","7.4959316","-20.141502","23.060585"
"era-829","18.044598","-38.10084","37.924126","-21.77331","-42.802982","43.619865","7.442255","-20.14635","23.045547"
"era-830","18.122105","-38.103916","37.925972","-21.376057","-42.774452","43.899887","7.451761","-20.06972","23.089975"
"era-831","18.375824","-38.01566","37.909973","-21.966427","-42.789127","43.632175","7.278896","-20.192343","23.03225"
"era-832","18.145624","-38.215065","37.869698","-22.016346","-42.882404","43.55715","7.3333864","-20.18065","23.03822"
"era-833","18.168118","-38.19448","37.931114","-21.636774","-42.863792","43.826157","7.3616543","-20.104343","23.074287"
"era-834","18.39775","-38.0573","37.98324","-21.611359","-42.733418","44.000725","7.301656","-20.116789","23.07887"
"era-835","18.295277","-38.17982","37.949894","-21.742674","-42.834606","43.876602","7.320734","-20.128183","23.084696"
"era-836","18.447098","-38.122917","37.9611","-21.678501","-42.891197","43.8929","7.3061266","-20.124262","23.102821"
"era-837","18.41705","-38.188988","37.94085","-22.021942","-42.995926","43.674374","7.260655","-20.190092","23.063164"
